WTYPE conv1_weight[16 * 3 * 3 * 3] ={0.47962287068367004395,
0.46319243311882019043,
-0.64095252752304077148,
-0.87793081998825073242,
0.97462463378906250000,
0.41950497031211853027,
-0.10338726639747619629,
-0.85460746288299560547,
0.39774230122566223145,
0.27514737844467163086,
0.34405434131622314453,
-0.33056715130805969238,
-0.86092734336853027344,
0.61361223459243774414,
0.29790356755256652832,
0.23077830672264099121,
-1.03665685653686523438,
0.11062733829021453857,
0.05986075475811958313,
0.06186138466000556946,
-0.62259620428085327148,
-0.50125765800476074219,
0.70878231525421142578,
0.04941147565841674805,
0.47699427604675292969,
-0.44438400864601135254,
0.33494347333908081055,
-0.00217334250919520855,
-0.00534447282552719116,
0.17402790486812591553,
-0.52084320783615112305,
-0.59929543733596801758,
0.01345891319215297699,
-0.45415332913398742676,
-0.78592550754547119141,
0.12866358458995819092,
0.03991464152932167053,
0.22001418471336364746,
0.03460221737623214722,
0.03756203502416610718,
0.14472666382789611816,
0.22051629424095153809,
-0.00322171999141573906,
-0.17213381826877593994,
0.15822479128837585449,
0.01436039805412292480,
0.02314041182398796082,
-0.63991850614547729492,
0.52084976434707641602,
0.48843196034431457520,
0.13567982614040374756,
0.55833381414413452148,
0.34802418947219848633,
0.18529267609119415283,
-0.28097510337829589844,
-0.64125704765319824219,
-0.52951818704605102539,
0.24437443912029266357,
0.48117434978485107422,
0.26138660311698913574,
0.11470847576856613159,
-0.07318598031997680664,
0.17322793602943420410,
0.18661370873451232910,
-0.10982696712017059326,
0.17497651278972625732,
0.37492498755455017090,
0.63416302204132080078,
0.61543846130371093750,
-0.44187575578689575195,
-0.78176683187484741211,
-0.41404065489768981934,
0.04880123957991600037,
-0.30202114582061767578,
-0.01098218653351068497,
0.41516852378845214844,
0.60098540782928466797,
0.55694574117660522461,
-0.40517839789390563965,
-0.61689692735671997070,
-0.37574329972267150879,
-0.18857014179229736328,
-0.28887960314750671387,
-0.35849440097808837891,
-0.17058978974819183350,
-0.31281581521034240723,
-0.42105713486671447754,
-0.01559437066316604614,
-0.34532773494720458984,
-0.17335450649261474609,
0.23275399208068847656,
0.63074398040771484375,
0.62657082080841064453,
0.51610231399536132812,
0.83627182245254516602,
0.72463792562484741211,
0.20472249388694763184,
0.20888246595859527588,
0.38203784823417663574,
-0.15126669406890869141,
-0.28969278931617736816,
-0.28880342841148376465,
-0.31367549300193786621,
-0.53645372390747070312,
-0.51740258932113647461,
-0.04275776445865631104,
-0.32168811559677124023,
0.00330776069313287735,
-0.33496046066284179688,
0.02233442477881908417,
0.73915278911590576172,
0.26236230134963989258,
-0.71345639228820800781,
0.24071355164051055908,
-0.33694809675216674805,
0.33505365252494812012,
-0.29340952634811401367,
-0.00858003739267587662,
-0.30687373876571655273,
0.26903700828552246094,
0.84734630584716796875,
-0.76243406534194946289,
-0.28447136282920837402,
0.23905496299266815186,
0.62581175565719604492,
-0.56317645311355590820,
-0.19485424458980560303,
-0.47960147261619567871,
0.17802736163139343262,
0.78476870059967041016,
-0.71666145324707031250,
-0.34721580147743225098,
0.26512831449508666992,
0.80585640668869018555,
-0.40372034907341003418,
-0.46784898638725280762,
-1.08460628986358642578,
-0.63219809532165527344,
0.51166528463363647461,
0.46146547794342041016,
0.16217260062694549561,
0.26598292589187622070,
0.36658987402915954590,
0.39536535739898681641,
0.01576966047286987305,
-0.28954133391380310059,
0.18277446925640106201,
0.14536012709140777588,
0.21615016460418701172,
0.12659431993961334229,
-0.11077614873647689819,
-0.13992278277873992920,
-0.00630821334198117256,
0.06359444558620452881,
-0.09102146327495574951,
0.10287378728389739990,
0.04394873604178428650,
0.07722498476505279541,
-0.00416363589465618134,
-0.09878525137901306152,
-0.20746050775051116943,
-0.02007162757217884064,
0.36313712596893310547,
-0.44577890634536743164,
-0.04314875975251197815,
0.72967404127120971680,
-0.94230318069458007812,
0.26877760887145996094,
0.47815117239952087402,
-0.69584822654724121094,
0.27252125740051269531,
0.12781919538974761963,
-0.66316241025924682617,
0.25157421827316284180,
0.56362986564636230469,
-0.94236671924591064453,
0.75292026996612548828,
0.19661994278430938721,
-0.79472345113754272461,
0.51310777664184570312,
0.21578530967235565186,
-0.26991191506385803223,
0.08477874100208282471,
0.48552966117858886719,
-0.71893721818923950195,
0.36106112599372863770,
0.20840550959110260010,
-0.60988098382949829102,
0.25719982385635375977,
0.06240887567400932312,
0.56912314891815185547,
0.28126823902130126953,
-0.62692773342132568359,
-0.27288165688514709473,
-0.58157956600189208984,
-0.20473764836788177490,
0.36232793331146240234,
-0.07309345155954360962,
-0.07156658172607421875,
0.46022087335586547852,
0.04463297128677368164,
-0.47255671024322509766,
-0.12067828327417373657,
-0.51358395814895629883,
0.09100242704153060913,
0.67672133445739746094,
0.14167176187038421631,
0.07260686904191970825,
0.26596638560295104980,
0.10383953899145126343,
-0.26683893799781799316,
-0.27491983771324157715,
-0.38452506065368652344,
0.15636682510375976562,
0.34241840243339538574,
0.13289624452590942383,
0.04933135211467742920,
-0.37592676281929016113,
-0.47769793868064880371,
0.71900713443756103516,
-0.60962712764739990234,
-0.36820170283317565918,
1.22420263290405273438,
0.29513871669769287109,
-0.39545664191246032715,
-0.30238804221153259277,
0.19103340804576873779,
0.43375045061111450195,
-0.23257657885551452637,
-0.53214341402053833008,
0.47199293971061706543,
0.04698704555630683899,
-0.31868290901184082031,
-0.23115445673465728760,
-0.26430839300155639648,
0.57971072196960449219,
0.51429367065429687500,
-0.40765646100044250488,
-0.18192972242832183838,
0.79088610410690307617,
-0.37696388363838195801,
-0.37387451529502868652,
0.04271896183490753174,
0.62403291463851928711,
0.94510358572006225586,
0.75416654348373413086,
0.09296761453151702881,
0.32470321655273437500,
0.16427455842494964600,
-0.58193480968475341797,
-0.50500255823135375977,
-0.54687637090682983398,
-0.47444456815719604492,
-0.61249494552612304688,
-0.47302529215812683105,
-0.27052980661392211914,
-0.27780845761299133301,
-0.18755918741226196289,
0.12875171005725860596,
0.17494408786296844482,
0.21350456774234771729,
-0.27405750751495361328,
-0.64338499307632446289,
-0.49278017878532409668,
0.18363720178604125977,
0.00179517059586942196,
0.04175050929188728333,
0.51315373182296752930,
0.44613391160964965820,
0.40667763352394104004,
-0.13051833212375640869,
-0.08141766488552093506,
-0.09689945727586746216,
0.02751780115067958832,
0.10718320310115814209,
-0.06114757433533668518,
0.20608228445053100586,
0.29410254955291748047,
0.17072671651840209961,
0.05932345613837242126,
-0.02054763585329055786,
-0.14524516463279724121,
0.12972387671470642090,
0.08267892152070999146,
-0.20123949646949768066,
0.14108331501483917236,
0.13944053649902343750,
-0.07794173061847686768,
0.32290524244308471680,
0.16360771656036376953,
-0.12366288155317306519,
0.31579604744911193848,
0.26490983366966247559,
-0.10811789333820343018,
0.10178370028734207153,
0.15345995128154754639,
-0.09369714558124542236,
0.09038401395082473755,
0.75965929031372070312,
0.26877874135971069336,
0.75281274318695068359,
-0.17638657987117767334,
-0.61335593461990356445,
0.00049856957048177719,
-0.75168722867965698242,
-0.23972594738006591797,
0.14467640221118927002,
0.52313220500946044922,
0.04017180949449539185,
0.38077300786972045898,
-0.40196034312248229980,
-0.55051463842391967773,
-0.15800319612026214600,
-0.50768554210662841797,
0.25104442238807678223,
-0.29881620407104492188,
0.06700404733419418335,
-0.14052861928939819336,
0.15014170110225677490,
-0.18207135796546936035,
-0.15229143202304840088,
0.01254480611532926559,
0.05815073475241661072,
0.62689739465713500977,
0.13286499679088592529,
-0.00964776147156953812,
-0.23995676636695861816,
0.13216173648834228516,
-0.41030412912368774414,
-0.36357787251472473145,
-0.21224957704544067383,
-0.23688705265522003174,
-0.05858185514807701111,
-0.08120185136795043945,
-0.13684095442295074463,
-0.28852301836013793945,
0.01031270250678062439,
-0.28326076269149780273,
-0.09022326767444610596,
-0.22227911651134490967,
0.05091327428817749023,
0.35522791743278503418,
0.11352072656154632568,
0.13850206136703491211,
0.01454467792063951492,
0.04122232645750045776,
-0.19282846152782440186,
0.01679623872041702271,
-0.30136778950691223145,
-0.02746805921196937561,
0.22911082208156585693,
0.23206134140491485596,
-0.80361044406890869141,
-0.03911483287811279297,
-0.60601145029067993164,
-0.58349752426147460938,
1.15688002109527587891,
-0.05669430643320083618,
1.16841173171997070312,
-0.13613742589950561523,
0.84652137756347656250,
-0.46594902873039245605,
-0.16913788020610809326,
-0.42205211520195007324,
-0.71246367692947387695,
0.70157301425933837891,
-0.44657623767852783203,
0.73434436321258544922,
-0.48894801735877990723,
0.90103435516357421875,
-0.08488451689481735229,
-0.36532196402549743652,
-0.00771157210692763329,
-0.49247545003890991211,
0.39119657874107360840,
-0.23785331845283508301,
0.53302872180938720703,
-0.66392135620117187500,
0.21797031164169311523,
-0.08213154226541519165,
-0.11333869397640228271,
0.13133785128593444824,
-0.02907023765146732330,
-0.11812917143106460571,
0.03020938299596309662,
-0.09260828793048858643,
-0.04740657657384872437,
-0.24215438961982727051,
-0.20505884289741516113,
0.44375124573707580566,
-0.33104294538497924805,
-0.12246502935886383057,
0.45351511240005493164,
-0.21287992596626281738,
-0.07565180957317352295,
0.42919963598251342773,
-0.35648047924041748047,
-0.13036046922206878662,
0.45595741271972656250,
-0.45231464505195617676,
-0.05609602108597755432,
0.52396136522293090820,
-0.36569878458976745605,
-0.07338189333677291870,
0.37651416659355163574,
0.49427548050880432129,
-0.36188337206840515137,
0.10076183825731277466,
-0.18360351026058197021,
0.48576629161834716797,
-0.15285903215408325195,
0.29147496819496154785,
-0.17332528531551361084,
-0.52202391624450683594,
0.07794217765331268311,
-0.43136659264564514160,
0.39461964368820190430,
-0.55428773164749145508,
0.68849939107894897461,
0.07183669507503509521,
0.22350950539112091064,
-0.00176446663681417704,
-0.67202019691467285156,
-0.69643628597259521484,
-0.84455579519271850586,
0.31589403748512268066,
-0.84653496742248535156,
0.91072076559066772461,
0.60199368000030517578,
0.44656735658645629883,
0.60523694753646850586,
-0.20651315152645111084,
};