WTYPE conv2_weight[32*16*3*3] = 
{0.08203644,
0.207519,
0.07114172,
-0.055464365,
0.22523531,
0.13810976,
0.23287347,
-0.0457633,
0.15203787,
-0.013872971,
-0.122974284,
0.025400668,
0.10304186,
-0.023215188,
-0.17837965,
0.03700606,
0.026187804,
-0.10548668,
-0.012008742,
-0.16153234,
-0.062317166,
-0.22615263,
-0.36283356,
0.18506518,
-0.092225894,
-0.21587746,
-0.008662675,
-0.17231402,
0.24506913,
0.12844634,
-0.21828407,
0.17434973,
0.2428013,
-0.11144372,
-0.11745931,
-0.03367786,
0.1216437,
-0.043522395,
0.11781384,
-0.01679794,
0.3703582,
-0.042413045,
0.041138675,
0.122362964,
0.19920747,
0.1785023,
-0.102280155,
0.040792897,
-0.0030285676,
-0.34904107,
-0.13634256,
-0.07454354,
-0.3278561,
-0.20122372,
-0.024589263,
0.0054381317,
-0.041592844,
0.043509673,
0.095337644,
0.0117797395,
0.058519352,
0.22994693,
0.14608549,
0.0010346321,
-0.18831615,
-0.04324525,
-0.1620631,
-0.23932262,
-0.2328062,
-0.10414717,
-0.09804778,
0.07860576,
0.12293788,
0.10340414,
0.09203816,
0.025076125,
0.09555203,
0.12011186,
0.19443038,
0.15508007,
0.0028414794,
0.0659961,
-0.06785112,
-0.088132136,
-0.00748967,
-0.037294216,
-0.079120256,
-0.07487363,
-0.13179627,
-0.09003253,
0.06936801,
-0.12575288,
0.019236177,
0.09385846,
0.04740912,
-0.013360783,
0.0046533314,
0.04147659,
-0.017636105,
0.06762323,
-0.23789501,
-0.207981,
-0.03528564,
-0.400711,
-0.2169325,
-0.11395905,
-0.27117622,
-0.06306434,
0.08085281,
-0.097151116,
-0.034534477,
0.20030384,
-0.14697693,
-0.1711956,
0.0221648,
0.09752438,
0.035507318,
0.105241016,
-0.027250666,
-0.127988,
0.06646902,
-0.19767651,
-0.011267078,
0.095899105,
-0.12977932,
-0.03565992,
8.669775e-05,
0.10148488,
-0.09689679,
-0.17437269,
0.071223944,
0.0011976159,
0.14070237,
-0.020390641,
0.007546186,
0.15802047,
-0.14093691,
0.005859123,
0.07218629,
-0.22991313,
-0.23977116,
0.122369684,
-0.12385884,
-0.19219945,
-0.10913739,
-0.097404845,
-0.15682322,
0.07364646,
-0.33016455,
-0.1324174,
0.15359971,
-0.04713469,
0.071188346,
-0.31148568,
-0.1827463,
-0.060612973,
-0.19656552,
-0.02666931,
0.21715997,
-0.019270562,
0.14020787,
0.26008603,
0.10779969,
0.10318131,
0.008866882,
-0.015678154,
0.13788141,
0.051252518,
0.009013707,
0.0019026413,
0.02399805,
-0.00921545,
0.24413896,
0.00781784,
0.39022323,
0.31380937,
-0.18208715,
-0.26138356,
-0.3665295,
-0.30856258,
-0.045259822,
-0.24458028,
-0.18176425,
-0.01900762,
-0.31157872,
-0.11123286,
0.12127854,
0.06823585,
0.1884163,
0.024291197,
0.036661353,
-0.037301812,
0.0049281553,
0.060700204,
0.03214475,
-0.085598476,
0.02598345,
0.082204126,
0.18250342,
-0.06861471,
-0.10378033,
-0.20814146,
-0.34886277,
-0.12298998,
0.05429611,
-0.09907043,
0.014917348,
0.11294457,
0.07032579,
0.029725656,
0.07078314,
-0.022844095,
-0.0114093255,
-0.022909464,
-0.09794557,
0.0072112703,
-0.17470485,
-0.22341062,
-0.14876297,
-0.15562427,
-0.3075709,
-0.17258586,
-0.10837432,
-0.17660575,
-0.07575428,
-0.15287551,
-0.16561161,
-0.18779707,
-0.033598755,
0.0007385086,
-0.0243626,
-0.10928663,
-0.0361306,
-0.014493832,
-0.099152334,
-0.11006284,
-0.08153362,
-0.10580156,
-0.15097953,
-0.045999624,
-0.08060661,
-0.057089902,
0.03700902,
0.004697187,
-0.057138093,
0.016087389,
0.040150754,
0.113470845,
-0.02707958,
0.06378149,
0.14079614,
-0.13222697,
0.07235314,
-0.06655696,
-0.17381245,
-0.15305257,
-0.085199706,
-0.11821105,
0.13235547,
0.14097333,
0.09377316,
0.10537959,
0.036710043,
-0.14553651,
-0.12804484,
0.024993451,
0.024308449,
0.15005465,
0.08824284,
0.06788364,
0.04884638,
-0.1405109,
0.14304821,
-0.07095434,
-0.044020925,
0.09360168,
-0.028086504,
-0.07465854,
-0.07103397,
0.0432358,
-0.04683663,
0.11154114,
-0.038249046,
0.06654678,
0.35411647,
0.19613917,
0.11508243,
0.09609207,
0.0590363,
0.011950296,
0.007987476,
-0.011429301,
-0.1376231,
0.009787301,
-0.03205314,
-0.2661134,
-0.14007868,
0.03184647,
0.091982245,
-0.052261915,
-0.15703657,
-0.106601134,
0.026925437,
-0.007294978,
0.10441656,
0.11240185,
0.019269375,
0.07279267,
-0.05538307,
-0.13570106,
-0.06275354,
0.15811533,
0.1408026,
0.11203514,
0.12666084,
-0.10108823,
0.020022022,
-0.023405964,
-0.17939468,
0.015606874,
-0.104577914,
0.089762546,
0.25739247,
0.111085445,
0.17361936,
0.026805662,
0.06914224,
0.26078385,
0.042240176,
-0.11509065,
-0.20769262,
-0.21156214,
-0.015057488,
-0.19609748,
-0.17074254,
-0.21658002,
0.043190975,
-0.07885722,
0.067574434,
0.21621904,
0.294257,
0.2668739,
0.23213556,
0.3654835,
0.12191525,
-0.091513924,
-0.16051301,
-0.1284524,
-0.35213047,
-0.66894203,
-0.33310208,
-0.057658855,
-0.14333794,
0.03582167,
0.02201121,
0.072893865,
0.055706926,
0.06759855,
-0.053860117,
0.100431696,
0.1668491,
0.12945332,
0.075188145,
0.12659138,
0.048103135,
-0.16486767,
-0.13823923,
-0.23585248,
-0.14283559,
0.12252173,
0.2982224,
0.15718462,
-0.16957915,
-0.10639521,
-0.1079449,
-0.07489803,
-0.17171946,
-0.10526837,
-0.016748581,
-0.26227543,
-0.2706597,
0.0048176725,
-0.1126566,
-0.14877565,
0.07531955,
0.03745056,
0.15753624,
-0.032407258,
0.06868404,
0.025380235,
0.22289555,
-0.16268189,
0.03976895,
0.08583142,
-0.040077254,
-0.035115533,
0.012164591,
0.21766654,
0.07854884,
0.17348377,
0.16496351,
-0.0052945195,
0.0026424252,
-0.0932593,
-0.062332362,
0.15470466,
0.055617306,
0.08735104,
-0.16785787,
0.080324635,
0.29810384,
-0.09924649,
-0.22981326,
-0.2042655,
-0.023344224,
0.08424453,
0.11013082,
-0.12211336,
-0.022160962,
0.16530372,
-0.19689298,
-0.34337032,
-0.122919045,
-0.08895981,
0.055753287,
-0.13787119,
-0.056879442,
-0.040326267,
0.0909648,
-0.02563329,
-0.15081702,
-0.02127716,
0.06753792,
-0.14008987,
-0.15985478,
-0.13455239,
-0.21518297,
0.010464488,
-0.034857873,
0.0039405334,
0.28923106,
-0.047022797,
-0.04874985,
0.005692735,
-0.14204998,
-0.015153091,
0.19461912,
-0.1845801,
-0.0069714133,
0.3894838,
0.3282955,
-0.019992284,
-0.42354923,
0.41861454,
-0.20784952,
-0.37682256,
0.053585365,
-0.059425566,
-0.072845906,
0.095309265,
0.14462897,
-0.017835373,
0.026257433,
-0.053519838,
-0.09607564,
0.06278463,
-0.045115847,
0.012861847,
0.041526232,
-0.205266,
-0.3847564,
0.02805451,
-0.122266114,
-0.42342502,
0.039394878,
0.06342936,
0.11438555,
0.16559483,
-0.07634513,
-0.3238088,
0.33282143,
-0.115378834,
-0.31554592,
0.091003686,
0.036636196,
-0.112184204,
-0.0149392085,
-0.05747001,
0.24518774,
-0.18689774,
-0.008155026,
0.066889055,
-0.010116565,
-0.06680636,
-0.06198453,
0.1667211,
-0.17966901,
-0.07186944,
0.2340887,
0.0098102745,
-0.22793576,
0.07212573,
-0.018669685,
0.044268828,
0.10491032,
-0.15390427,
-0.19822001,
0.042379703,
-0.0048780376,
-0.10337031,
-0.029522996,
0.105031535,
0.20460838,
0.038019393,
0.08674048,
-0.06513952,
0.17238635,
0.18959072,
-0.2564428,
0.1345385,
0.052948687,
-0.20834763,
-0.092898004,
0.0014815455,
-0.01863316,
-0.01217328,
-0.019859789,
-0.092771165,
-0.008658246,
0.045614466,
0.028598562,
-0.0553473,
0.007842033,
0.1691575,
0.037901547,
0.12632538,
-0.11435139,
0.05603814,
-0.09553267,
-0.15064438,
-0.114784054,
-0.11477932,
0.17404173,
0.17852424,
0.13831541,
-0.0072096693,
0.2007884,
0.0699507,
-0.24269989,
0.036662396,
0.16581579,
0.10955174,
0.0021314176,
-0.01939075,
-0.1085751,
-0.036766138,
-0.23200554,
-0.2332267,
-0.13680458,
-0.18728973,
0.06179796,
-0.17658785,
0.11806419,
0.40405902,
0.020848822,
-0.07369973,
0.067845106,
-0.08159104,
-0.0060848445,
0.04062283,
-0.10053186,
0.023470424,
0.08749621,
0.0384188,
-0.10691903,
0.008555637,
0.20967194,
0.27740306,
0.029494418,
0.25983563,
0.27354565,
0.13184711,
-0.12541652,
-0.052974705,
0.19845977,
-0.14068165,
-0.099309064,
0.25125548,
0.109219275,
0.078569256,
-0.05048519,
0.048121996,
0.13672303,
-0.17575923,
0.004590997,
-0.066414855,
-0.07426606,
0.24116549,
0.040396914,
-0.081826374,
-0.117379926,
0.15865214,
0.06725742,
0.08792535,
-0.13929215,
-0.17796251,
0.14648697,
-0.034187406,
-0.364097,
0.25922957,
0.3306501,
-0.057743903,
0.22898899,
-0.08537034,
0.09077438,
0.016086066,
0.5202422,
-0.07867015,
0.004215175,
0.015346641,
0.07409395,
-0.17911066,
-0.14422446,
-0.13978009,
0.27427897,
0.11174675,
-0.09253904,
0.091875374,
0.15507078,
0.04410065,
-0.014743082,
0.052329563,
0.091049574,
-0.30677092,
-0.18316972,
-0.18609507,
-0.09661289,
-0.33044073,
-0.019728813,
-0.18932875,
-0.21971828,
-0.07152315,
-0.08315201,
0.0284081,
-0.0060888715,
-0.042506292,
0.0145844165,
0.020649433,
0.10525899,
-0.05212612,
0.03631142,
0.090153314,
0.22885415,
-0.016876826,
-0.12300225,
-0.06531731,
0.057435535,
-0.17144819,
-0.14980584,
-0.15836833,
-0.006186482,
-0.015807085,
-0.15155086,
0.02537611,
-0.08143455,
-0.19912297,
0.053474646,
-0.048699837,
0.025668763,
-0.035778716,
-0.043718223,
0.06496522,
0.030523244,
0.11652353,
-0.032774903,
-0.18014975,
-0.23180193,
0.15362196,
-0.31318098,
-0.4220092,
-0.058879435,
-0.04878586,
-0.027525863,
-0.12100081,
-0.010993721,
0.057919573,
0.08669523,
-0.10060165,
-0.13444519,
-0.048297957,
-0.097624436,
-0.037179414,
0.008011442,
-0.013684433,
-0.063704856,
0.11746976,
-0.25672805,
-0.25391415,
0.18044701,
0.060506534,
0.026096452,
0.12344732,
0.11033538,
0.05174987,
-0.07502126,
-0.23822324,
0.009639894,
0.037765615,
-0.16637187,
-0.22025202,
0.04982163,
-0.047117244,
-0.12362943,
0.1660195,
-0.27607015,
-0.087609686,
0.17855501,
0.12398418,
0.067369446,
-0.038412277,
-0.21825956,
-0.1181175,
0.1482815,
-0.2147596,
-0.24199213,
0.36090028,
0.07144148,
0.21240063,
-0.062285826,
0.07055526,
-0.01877546,
0.037542842,
-0.08618207,
-0.2244241,
0.009066374,
-0.13480079,
-0.24302968,
-0.13635509,
-0.26165456,
0.084260024,
0.09812184,
-0.24803774,
-0.08082201,
-0.035407234,
-0.075030364,
-0.13928233,
-0.08717939,
0.45919707,
0.12559989,
-0.08853571,
0.29241684,
-0.2453206,
-0.40849927,
0.11379037,
-0.24663764,
-0.19946054,
0.038448513,
-0.14998512,
-0.06336047,
0.0016273635,
-0.028580438,
0.08742141,
0.068331115,
0.013550364,
0.047584645,
-0.060795013,
0.06955221,
0.18304206,
-0.21270329,
-0.06574304,
-0.05320411,
-0.27546078,
-0.045407366,
0.29570103,
0.03991077,
-0.090618305,
-0.2082538,
0.1235632,
0.22688204,
0.01334974,
0.07565875,
-0.107664995,
-0.026147448,
-0.12590557,
-0.13227786,
0.1393802,
-0.0025095234,
-0.08481136,
0.039340127,
-0.14837572,
-0.12676235,
-0.11546904,
-0.26385465,
-0.1876004,
-0.042282905,
-0.1499895,
0.077600904,
-0.043850247,
0.16816464,
0.1961033,
0.0019141891,
-0.2164877,
-0.0038179778,
0.040690742,
-0.15160228,
-0.059968024,
0.11936201,
0.06752849,
-0.15041539,
-0.15644515,
-0.03889422,
-0.12068873,
0.15448745,
-0.011602296,
-0.02810547,
-0.116139814,
0.027809057,
-0.017286362,
-0.29518867,
-0.03911355,
0.31102547,
-0.03887766,
-0.18484023,
0.3842016,
0.32533944,
-0.14804208,
-0.3618086,
0.11573837,
-0.12988941,
0.071536005,
0.02947382,
-0.021912253,
0.22841702,
0.080535114,
-0.047271054,
-0.10386779,
0.17998035,
0.1724998,
0.18963543,
-0.12158676,
-0.03341306,
0.09232921,
0.21263574,
-0.13038884,
-0.06320569,
0.3653108,
-0.037970386,
-0.02457324,
-0.06860911,
-0.009600148,
-0.03871949,
-0.03274999,
0.1614157,
0.040041115,
-0.2024,
0.065082766,
0.24720111,
-0.16195816,
-0.1497912,
0.32220563,
0.10715767,
-0.18046738,
-0.13492933,
0.27167034,
0.004078506,
0.24787389,
0.20359722,
0.07138084,
-0.045137726,
0.16767071,
0.04366334,
0.09384441,
0.17640196,
0.01622131,
0.25317264,
0.1170976,
0.021592304,
0.31850317,
0.18400598,
-0.26006564,
0.062499765,
0.08555329,
-0.03893697,
0.09053391,
0.0006303481,
-0.013826048,
0.05009156,
0.10918501,
-0.11907907,
-0.025336795,
0.07654895,
-0.06958332,
-0.07308564,
-0.11402403,
-0.0853962,
-0.07408503,
-0.17029193,
0.07908245,
0.022363165,
-0.17625147,
0.06926403,
-0.00083454355,
0.10197329,
0.023433952,
-0.18876891,
-0.0368306,
0.14066869,
0.039755836,
-0.26633033,
0.0012405833,
0.04252514,
0.06269065,
-0.18447328,
-0.012667028,
0.11314307,
0.08544287,
-0.057231907,
-0.13768291,
-0.13310488,
-0.014309988,
0.035581283,
-0.26474524,
-0.4312325,
-0.12971817,
0.1461626,
-0.15249476,
-0.23483913,
-0.06580454,
-0.019275252,
0.072015785,
-0.119047,
-0.12603457,
0.16706128,
0.11231558,
-0.04350336,
-0.039593846,
0.028598607,
0.05523233,
0.096176185,
0.12239131,
0.045848742,
-0.050272472,
0.20313826,
0.2773844,
-0.0011757561,
-0.11392771,
0.0541422,
0.16029447,
0.19623439,
0.21180281,
0.18192507,
-0.21434695,
0.02360787,
0.01727993,
-0.06597405,
-0.009118572,
0.19843665,
-0.12867317,
-0.14431183,
0.0042818408,
-0.04322361,
-0.10942193,
-0.15245709,
-0.088003136,
-0.078108214,
0.16578285,
-0.12440346,
-0.2814149,
0.00897635,
0.09248038,
-0.23368724,
-0.071929805,
-0.03852867,
-0.0040288633,
-0.012303775,
0.014809362,
-0.093280524,
-0.08122338,
0.28891984,
-0.012882259,
0.013625666,
-0.0784383,
-0.02749826,
0.14171287,
-0.19535804,
-0.34780928,
0.03415309,
-0.07808042,
-0.24190056,
-0.08059386,
-0.017980803,
0.20966208,
0.29221597,
-0.20483404,
-0.1717664,
0.11559295,
0.015826099,
-0.11237944,
0.08738841,
-0.06580484,
-0.075906485,
0.22288513,
-0.23660259,
-0.35805902,
0.0032131304,
-0.019128058,
-0.37980917,
-0.22935328,
0.16478151,
-0.094432965,
-0.03447768,
0.058472604,
-0.14897396,
0.07515974,
-0.25371763,
0.02069404,
0.091711506,
0.12466265,
-0.10620766,
-0.17688607,
0.027800266,
-0.27024034,
-0.1550557,
-0.038141016,
-0.18485789,
0.15724167,
-0.1675679,
-0.43219405,
-0.03232898,
-0.2468633,
-0.44966477,
0.0070250584,
-0.2972615,
-0.28968593,
0.0011869086,
-0.2050947,
-0.44345117,
-0.12294434,
-0.1464379,
-0.39807874,
0.068926305,
-0.01728959,
-0.11504881,
0.37256503,
0.23074993,
-0.1371897,
-0.28107914,
0.24266215,
-0.08077034,
0.21385401,
0.09501099,
-0.03741851,
0.1615269,
-0.096244514,
-0.22163619,
-0.07783203,
0.042975333,
-0.31313437,
0.10070518,
-0.048099715,
-0.28919306,
0.21774022,
-0.036083918,
0.17168126,
0.1817798,
-0.11668223,
0.012438556,
-0.13855548,
0.15829156,
0.16400482,
-0.124834955,
-0.16325904,
-0.2758667,
-0.19296128,
-0.009119857,
0.054633655,
0.302185,
0.02056744,
-0.0857131,
0.10028121,
-0.10611083,
-0.060184177,
-0.025390498,
-0.13927248,
-0.16544254,
0.022601219,
-0.22764356,
0.10991472,
0.09832416,
-0.043665536,
-0.076291695,
-0.0098395515,
-0.07464176,
-0.037106983,
0.17108673,
0.10322294,
0.14103411,
0.0818205,
0.028174989,
0.04997258,
-0.04426076,
-0.13449349,
-0.06281433,
-0.120327026,
-0.1732648,
-0.16568948,
-0.11715909,
0.04230364,
-0.060614273,
-0.063601926,
-0.073060594,
0.11305183,
0.27220452,
-0.14680602,
-0.020793155,
-0.010938677,
-0.14102586,
-0.19772299,
0.07288829,
-0.1426927,
0.16478243,
0.05720917,
-0.16048202,
0.19674487,
0.12424259,
0.28873634,
-0.19201395,
-0.19498461,
0.21063548,
-0.0700785,
0.006070096,
0.23799874,
0.05099279,
-0.02439673,
0.22295628,
0.03273592,
0.14819382,
-0.0074003953,
-0.10863644,
-0.023740895,
0.0071830833,
0.15997571,
-0.07061426,
-0.09580498,
-0.14846653,
-0.16655448,
0.038234662,
-0.07251834,
0.13113344,
0.22505355,
0.105610356,
-0.088144094,
0.17812672,
-0.2052819,
-0.087918706,
-0.15662324,
-0.4376353,
-0.19187963,
-0.22002888,
-0.28479376,
0.008013543,
0.11721669,
0.14177027,
0.007878342,
0.24283195,
0.10931583,
0.034597915,
0.1093248,
-0.07033792,
-0.2569438,
0.2403147,
-0.2696279,
-0.14017865,
-0.28755188,
-0.4322275,
-0.272017,
0.15871468,
-0.26140228,
0.046750642,
0.16399889,
0.026157195,
-0.031275477,
0.025507197,
-0.06228157,
-0.06544549,
-0.07750817,
-0.059855003,
-0.020119805,
-0.020301865,
0.07328673,
-0.030949533,
-0.09876047,
-0.16248289,
-0.06105624,
-0.05975467,
0.007414095,
-0.049368862,
0.435744,
-0.06843189,
0.057438903,
-0.0945508,
-0.4265883,
-0.20779406,
0.17891602,
-0.15901574,
0.015316953,
-0.10086544,
0.35481384,
-0.0053717946,
0.16678311,
0.442985,
0.19263346,
-0.09437937,
0.15674455,
0.07506012,
0.12960643,
-0.019484082,
-0.027573856,
0.014719621,
0.08961278,
0.08623885,
-0.029431311,
0.006549386,
0.110535786,
0.117154576,
0.041544102,
0.023716606,
0.010596297,
-0.18105528,
-0.06743689,
0.31092882,
-0.069136,
0.079371236,
0.053204082,
0.003235897,
0.0433577,
-0.06827683,
-0.110769205,
-0.027313251,
0.031933844,
0.10926826,
0.21923953,
0.04406621,
-0.11612212,
0.032710202,
-0.044001848,
-0.21400397,
0.0016714995,
0.15691128,
-0.06633556,
-0.02624562,
0.15317748,
-0.02513242,
-0.080185585,
-0.06904224,
-0.28034317,
-0.12595524,
0.089559846,
-0.07736943,
0.1022125,
0.09965277,
-0.12188615,
0.03993627,
0.029804263,
-0.17109784,
0.08847988,
0.029897664,
-0.04480611,
0.10470953,
0.043656506,
-0.06842962,
0.0035165378,
0.01925471,
-0.29911524,
-0.1837511,
0.056254435,
0.09332061,
0.08011325,
-0.009661313,
0.00428596,
0.08158994,
0.23127288,
0.08089614,
-0.039936297,
0.064620204,
0.1507679,
-0.108488254,
0.14813145,
-0.06427473,
-0.092808686,
0.0658344,
-0.30431792,
-0.11392166,
-0.07402028,
-0.1720854,
0.004225506,
-0.008561211,
0.06636798,
0.020747691,
-0.2033749,
-0.20408191,
0.09683139,
-0.11362984,
-0.07304003,
0.18490553,
0.24557346,
0.17088206,
0.16380168,
-0.2098807,
-0.3201186,
-0.2434744,
-0.26293054,
-0.25214872,
-0.20544156,
-0.031109761,
0.20323473,
0.002292703,
-0.025001151,
0.0939061,
0.009426479,
-0.102738455,
0.009449844,
-0.05918011,
-0.010075867,
0.07485364,
0.021926984,
-0.03139496,
0.016816767,
-0.08426657,
-0.015992176,
0.01839993,
-0.025375595,
-0.101750344,
-0.10031216,
-0.13328606,
0.0067281597,
-0.22114307,
0.057053108,
-0.036215257,
-0.1372559,
-0.09112404,
-0.038202886,
0.011373692,
0.035115246,
0.066381596,
0.24847977,
0.12351887,
-0.0065868706,
0.032516718,
0.039067026,
0.028369881,
-0.09740572,
-0.08969806,
-0.09466847,
-0.2518242,
-0.14971803,
0.16337003,
-0.054142784,
0.010667972,
0.044630866,
0.096814685,
-0.038692873,
-0.05702232,
-0.1741113,
-0.15913561,
-0.11824639,
-0.08034097,
-0.028633429,
0.037261218,
0.0186205,
0.14319208,
-0.09369528,
-0.014979598,
0.27778298,
-0.2967295,
-0.16392377,
-0.043945484,
-0.2194844,
-0.16568403,
-0.14610226,
-0.15376276,
-0.112591095,
-0.03142811,
0.019811306,
0.03945795,
0.053653285,
0.10305135,
0.095677,
0.15280616,
0.033117432,
-0.08075151,
0.058478177,
-0.050247345,
-0.091284566,
0.014891106,
-0.20553234,
-0.10041504,
-0.05814336,
0.030559206,
0.010729317,
-0.12801182,
0.03690348,
0.11358132,
0.12396746,
0.23489112,
0.19847175,
-0.08745897,
0.08930577,
-0.20081179,
-0.36544827,
-0.051467888,
-0.029553343,
-0.11459108,
-0.013724199,
0.12613173,
0.16805452,
0.47922263,
0.19377516,
-0.019941984,
0.056767114,
-0.14838131,
-0.13199937,
-0.0072025303,
-0.045895215,
-0.103355646,
-0.043002408,
-0.08949922,
0.0836068,
0.11337564,
-0.06779952,
0.18450634,
0.059383072,
-0.105949625,
-0.055669796,
-0.021544036,
-0.23256956,
-0.2180112,
-0.13726771,
-0.13506265,
0.024509143,
0.12718424,
-0.027361628,
-0.062507264,
-0.11597989,
-0.16170162,
0.08182104,
0.059432965,
-0.1040025,
0.067454614,
0.20673798,
0.19896163,
0.14282228,
-0.0155513,
-0.03488859,
-0.16000277,
0.113188334,
0.006955358,
-0.21478088,
-0.031460915,
0.29411075,
0.081258364,
-0.2137854,
0.095201105,
-0.02433358,
-0.10179041,
-0.098327704,
-0.1642328,
0.23575285,
0.30712488,
0.14530605,
0.16517577,
0.17872462,
-0.06230194,
-0.06886952,
-0.21142064,
-0.3231302,
0.21657926,
-0.30984434,
-0.2508572,
0.07103715,
-0.035769645,
0.19167744,
-0.0036209063,
-0.11731652,
0.23269543,
-0.14856526,
-0.013561186,
0.022471778,
-0.24426478,
-0.03035668,
-0.13248111,
-0.13031708,
-0.08843622,
-0.21945652,
-0.09241561,
-0.34472004,
-0.16790758,
-0.10262216,
-0.14926703,
-0.19882444,
0.2101004,
0.18764006,
0.20733722,
0.09646794,
0.06159544,
-0.037424576,
0.011098291,
0.12971035,
-0.060316797,
0.0153938765,
-0.0976229,
0.0057108332,
0.26788807,
0.08000708,
0.03425599,
0.10640577,
-0.0725681,
0.081586376,
-0.048475113,
-0.15159099,
-0.07962842,
0.0482826,
0.19426653,
0.15543197,
0.41090026,
0.437282,
0.146085,
0.15166669,
-0.32179332,
-0.21403457,
0.17242089,
0.11302529,
0.11160084,
-0.065302886,
-0.052125074,
0.0053419336,
-0.08265032,
-0.059226643,
-0.17996092,
-0.109494224,
0.03512294,
0.108899765,
-0.2588557,
0.40632418,
-0.06046427,
0.018518021,
-0.0044493717,
-0.15805483,
-0.026508018,
0.0025748806,
0.100499585,
-0.04036542,
0.24168618,
-0.1405971,
-0.086176164,
0.12548082,
-0.22246017,
0.04286762,
-0.080356956,
-0.002555305,
-0.09015508,
-0.039224222,
0.039155688,
-0.05884175,
0.010850852,
-0.06332769,
-0.033887807,
-0.22465722,
-0.06275497,
-0.08040689,
-0.14434284,
0.19267544,
0.10866372,
0.025447624,
-0.053424202,
-0.036426753,
0.08595645,
-0.05577546,
0.044512566,
0.24335814,
0.057239514,
0.1038062,
0.14660412,
0.04799991,
-0.2777058,
0.20893197,
0.21689883,
-0.28915057,
-0.03850044,
0.07323967,
-0.09612602,
-0.06044862,
0.07328894,
0.16790506,
0.16366564,
0.13249251,
0.014991278,
-0.20162031,
0.010015845,
0.039136097,
-0.113419294,
-0.06118454,
0.018535428,
0.25870386,
-0.120310105,
-0.26442054,
-0.3280094,
-0.30254456,
-0.15724896,
-0.284608,
-0.1346122,
0.12404655,
0.084178336,
0.10739053,
-0.28632292,
-0.25940838,
-0.12814626,
-0.2435137,
-0.17188664,
-0.09925242,
-0.23379964,
0.14085686,
-0.051827952,
-0.35092768,
0.3411947,
0.23507035,
-0.12295048,
-0.037137043,
-0.009413414,
0.0626143,
0.04949192,
-0.16950263,
-0.11451109,
0.10927666,
-0.17209093,
-0.30564916,
-0.2971304,
-0.09229905,
-0.1779079,
-0.170261,
-0.12742697,
0.0994772,
-0.044486877,
-0.03574171,
0.24585895,
0.22114237,
0.22880791,
-0.029999116,
0.12462781,
-0.022158597,
-0.10428641,
-0.027027123,
0.10371591,
-0.016566427,
-0.0040299348,
0.28190973,
0.06747317,
0.2243023,
0.063774385,
-0.3314864,
0.11340494,
0.069564514,
-0.07587042,
-0.17616825,
-0.028333817,
0.059868317,
0.1731433,
0.10903568,
-0.10344007,
-0.14579712,
-0.045858245,
-0.16749445,
-0.30464193,
-0.14818883,
0.06124831,
0.051490426,
0.16185582,
0.054326836,
-0.17936663,
0.06485093,
-0.03896624,
-0.4234219,
-0.114218384,
0.16481741,
0.23713025,
-0.036360934,
0.17322339,
-0.22179174,
-0.21838017,
0.04527543,
-0.2006909,
0.029060384,
0.26676497,
0.13195628,
-0.046756927,
0.39188862,
0.027389135,
0.07874313,
-0.0019724874,
-0.22156818,
0.25290433,
0.18411006,
0.12545559,
-0.063139215,
0.3044283,
0.06410529,
-0.11754829,
0.14173529,
-0.093108036,
-0.0045825574,
-0.3211004,
-0.04255564,
0.030045405,
-0.12679793,
-0.0574074,
0.019426275,
0.31589687,
0.038080867,
0.03490821,
0.13983409,
-0.16467384,
-0.25128385,
0.08335957,
-0.16772254,
-0.2848118,
-0.20363821,
0.02474856,
-0.19333345,
-0.104009494,
0.018739237,
0.22386834,
-0.078996435,
-0.2003425,
0.108323686,
0.041536663,
0.14480405,
0.07641261,
0.026198363,
0.2943252,
-0.13672484,
-0.013541031,
0.31246877,
-0.089011215,
-0.19940916,
-0.034230128,
-0.14251424,
0.051837776,
-0.08277527,
-0.15320967,
0.090503395,
0.06579143,
-0.06890429,
0.13137236,
0.19287114,
-0.1911041,
0.020919569,
0.3669863,
-0.2577626,
0.34992135,
0.77160305,
-0.24877918,
-0.23417147,
0.046626277,
-0.37215272,
-0.1836106,
0.1706546,
0.10100165,
-0.06964025,
-0.11762272,
0.15973213,
-0.000496577,
0.0030583453,
-0.07693894,
0.018647028,
-0.060165156,
-0.06498656,
0.050625738,
-0.1419649,
-0.11042494,
0.20300747,
0.13084714,
-0.19401363,
0.08352034,
0.08003793,
0.0328991,
0.100493945,
0.0525892,
0.009850939,
-0.051197123,
0.025407454,
0.06435098,
0.04726048,
0.040411815,
0.020442994,
0.072052844,
-0.06529457,
0.04263118,
-0.13623308,
-0.04344744,
-0.04683331,
-0.21965384,
-0.24679321,
-0.062261272,
-0.14191712,
-0.22534436,
-0.08807929,
0.14251143,
0.0124730375,
-0.022243872,
-0.044938147,
-0.025854688,
-0.06763765,
-0.20220514,
-0.17892046,
-0.19699407,
-0.2857324,
-0.2379977,
-0.2643858,
-0.22754274,
-0.058117714,
-0.057350993,
-0.13644333,
-0.05810116,
0.08222034,
-0.05470969,
0.07354144,
0.11732244,
0.084458545,
-0.10726746,
-0.09189217,
-0.15383688,
-0.23967113,
-0.112544134,
-0.08342736,
0.085880935,
0.058550548,
0.09498496,
-0.0023948655,
-0.043043807,
-0.024306387,
-0.025145913,
-0.079965465,
0.021219298,
0.07933638,
0.07165147,
0.08992588,
-0.075000584,
0.06612002,
-0.056246758,
-0.08260659,
0.03147884,
-0.007382558,
0.26041013,
0.14400451,
-0.120658405,
0.087180935,
-0.15364058,
-0.22685274,
-0.22703551,
-0.04965161,
-0.18206275,
-0.13029248,
0.014529523,
0.12667815,
-0.02408971,
0.04181865,
-0.122075245,
-0.20034552,
-0.026643476,
-0.12742847,
0.03404739,
-0.04671336,
-0.056865748,
-0.028952971,
0.043707523,
0.011506384,
-0.17963421,
0.0030698944,
-0.07909964,
-0.08410067,
0.011918549,
0.2167653,
-0.25244248,
-0.34476876,
0.62419504,
-0.016052132,
-0.4392602,
0.567194,
0.0006168973,
-0.2955959,
-0.23130822,
-0.09835477,
0.3404792,
0.08079556,
-0.027243562,
0.034679092,
0.063093156,
-0.05277409,
0.008307584,
-0.07037955,
0.06296494,
0.031822633,
-0.19362435,
-0.10399836,
0.0299573,
-0.042078864,
-0.100414865,
0.07660894,
0.328091,
0.13423273,
0.07363779,
0.18362282,
0.11004692,
0.18580762,
-0.085024305,
-0.2805933,
-0.020446034,
-0.019793525,
0.019024171,
-0.014463562,
-0.10735128,
-0.0055430033,
0.21988708,
-0.23737071,
-0.022681266,
0.18986401,
0.03224729,
-0.032354046,
-0.099484906,
-0.12076487,
-0.06382802,
-0.20047407,
0.009263824,
-0.020922117,
-0.07292369,
0.0755697,
-0.053826638,
-0.082325615,
-0.051542755,
0.02274506,
0.099918246,
0.18744169,
-0.05113083,
-0.028058527,
-0.114541985,
-0.087867916,
0.05231243,
-0.10970134,
-0.23952548,
-0.16548851,
0.038976826,
-0.1556736,
-0.13943394,
0.030922292,
-0.020774161,
-0.016070299,
-0.21899302,
-0.16138156,
-0.01576185,
-0.22766776,
-0.10455069,
0.123503566,
0.186604,
-0.050668135,
-0.11003542,
0.22331677,
0.04307475,
-0.12452748,
-0.016468884,
-0.15654585,
-0.1912632,
-0.005003667,
-0.049699,
-0.045544192,
0.020822875,
0.034272123,
0.09791773,
0.036927436,
0.100363865,
0.13049977,
-0.2229056,
0.07763489,
0.032036986,
-0.17553928,
0.11443447,
0.04417643,
-0.13153121,
0.08402033,
0.0931921,
0.0494153,
-0.0822098,
0.02403905,
-0.13486663,
-0.07008571,
0.130639,
0.06845656,
0.26240286,
0.06538449,
-0.0852635,
-0.035992637,
-0.022979433,
-0.091538176,
-0.1506814,
-0.15819094,
0.079096526,
-0.091412246,
0.076877885,
0.13290118,
-0.02927063,
-0.22447814,
0.04477017,
-0.10881949,
-0.18621369,
0.06315611,
-0.061270017,
0.03324578,
-0.07566404,
-0.18691584,
-0.06389343,
0.16969594,
-0.24944352,
-0.25551298,
0.1668583,
0.15149654,
-0.033831567,
-0.146511,
-0.1120776,
-0.124304146,
0.04718529,
0.012269077,
-0.0017818988,
0.17768386,
0.2618767,
0.108535886,
-0.04067752,
-0.043453153,
-0.0129160965,
-0.11795413,
-0.1807074,
-0.09981528,
-0.024258588,
0.081447214,
-0.11175064,
-0.017865118,
0.037800338,
-0.021518897,
-0.007827428,
0.03769036,
-0.013214201,
-0.1430645,
-0.1265548,
-0.13248976,
0.0385074,
-0.15141152,
-0.06428888,
0.084051825,
-0.19235718,
-0.100190744,
-0.049509183,
0.0194322,
0.18536185,
-0.03802575,
-0.02966788,
-0.079878956,
0.04474532,
-0.1081294,
-0.10582281,
0.21372126,
0.30607513,
0.10166922,
0.009706032,
0.017609296,
0.15659153,
-0.03716745,
-0.1176864,
-0.04649734,
0.08252996,
0.14335674,
0.01025798,
-0.07160995,
-0.055187095,
-0.029658273,
-0.049608726,
-0.07977632,
-0.07821621,
-0.0074815205,
0.013121592,
-0.09066696,
0.15021843,
-0.092396095,
-0.07310853,
0.20287475,
-0.10700677,
-0.27067906,
0.20502391,
0.17214866,
0.038680334,
-0.075251944,
-0.1261014,
-0.092296734,
0.017877134,
-0.044736184,
-0.021743907,
0.2324113,
0.08761889,
0.019004248,
-0.124623805,
-0.2665696,
-0.25133157,
0.08412144,
-0.11129254,
-0.13717121,
0.34484175,
0.23271611,
0.16501115,
-0.035626944,
-0.119547,
0.05066993,
-0.19397081,
-0.28645778,
-0.14577337,
0.094778076,
0.17744745,
0.16464387,
-0.0034867998,
-0.0359083,
0.045098197,
-0.22065409,
-0.16806568,
-0.05308775,
0.0005061179,
0.056079317,
0.07025547,
-0.008487816,
-0.11209512,
-0.048324987,
0.002522821,
-0.2945156,
-0.13861722,
0.12374195,
0.07680863,
0.07513991,
-0.14282346,
-0.20354266,
0.009016428,
-0.05407505,
-0.25739178,
-0.052384876,
0.0806563,
-0.030923404,
-0.031354014,
0.015867362,
-0.22082032,
-0.08807232,
-0.035198383,
-0.20229173,
0.045126963,
0.10522267,
0.020300552,
0.3003428,
-0.045875542,
-0.12987733,
0.026061874,
0.10633352,
0.5682879,
0.09042473,
0.11176059,
0.006301776,
0.14296398,
-0.1429767,
-0.21217205,
-0.22624148,
0.1659112,
0.32617524,
-0.07053673,
-0.107580744,
0.20455149,
0.17186132,
0.024891458,
-0.12953205,
0.019310923,
0.11540189,
0.087469645,
-0.05354931,
0.04375081,
-0.036023263,
-0.13374068,
0.13055004,
0.0427636,
-0.095524624,
0.0047632707,
0.15623163,
0.30136147,
-0.23329611,
-0.25589108,
-0.09305653,
0.04556251,
0.17790546,
-0.03164772,
0.09424641,
0.1452832,
0.052499168,
0.0067360066,
-0.062207643,
0.16504191,
0.09145319,
0.046685793,
0.07314745,
0.13003208,
0.040703308,
0.014560326,
0.19712283,
0.05882244,
-0.2240178,
-0.29076037,
-0.07140049,
0.027952509,
-0.32674715,
-0.5087119,
-0.16496934,
-0.01899727,
0.079165325,
-0.032855682,
0.090593815,
0.011787448,
0.057911213,
0.17536296,
-0.033539932,
-0.119759336,
-0.04874273,
0.061095543,
0.023245543,
-0.15646605,
-0.05021099,
-0.08189004,
0.17002998,
0.02118592,
0.031224392,
0.12838675,
0.20912525,
-0.06177445,
0.16873749,
-0.08183971,
-0.24107608,
0.25959942,
0.23782866,
0.053133104,
-0.017841667,
-0.06809484,
-0.06521507,
0.057238434,
0.051052775,
0.030127639,
0.014645597,
0.06725551,
-0.011521431,
-0.003846053,
-0.061053343,
-0.062713504,
-0.028586805,
-0.10547953,
-0.012779066,
0.122341454,
-0.35489276,
-0.22474635,
-0.0066393213,
-0.29825863,
-0.05492293,
-0.11535706,
-0.019570045,
-0.05884679,
-0.062107172,
-0.11261078,
-0.18716264,
0.43591705,
0.06516482,
-0.0792663,
-0.08214418,
-0.10710933,
0.03193662,
-0.24951741,
-0.395601,
-0.24592564,
0.019474277,
-0.13252579,
-0.08959557,
-0.13073123,
-0.0894438,
0.16901557,
-0.05684677,
-0.14348893,
-0.027090538,
0.14302666,
0.18847267,
0.04709325,
0.11999528,
-0.10048935,
-0.11361853,
-0.15671892,
-0.33187503,
-0.21756372,
0.009712678,
-0.015231485,
-0.17744061,
0.20971984,
-0.053106595,
-0.20163639,
0.06273797,
-0.23453462,
-0.20201397,
0.049153756,
-0.2717032,
-0.17961957,
0.2516652,
0.082676984,
0.017615123,
0.09765495,
-0.1319334,
0.020878363,
-0.1673263,
-0.12055216,
0.10370296,
-0.09276436,
-0.21313803,
-0.14632565,
0.014369971,
-0.13371234,
-0.31362998,
-0.07552342,
-0.13067393,
0.010123654,
0.17710787,
0.037468567,
-0.12610427,
-0.024255298,
-0.10134175,
-0.03579877,
-0.14888816,
0.086531416,
0.2668838,
0.018316884,
0.071932524,
-0.08771111,
0.06763956,
-0.2295521,
-0.22201325,
0.09831053,
-0.2360219,
-0.0699267,
-0.036964547,
-0.017464936,
-0.13854551,
0.06544269,
-0.19843602,
-0.29670864,
-0.14689365,
-0.10151403,
-0.17566353,
0.053183407,
0.12524828,
0.070736006,
-0.060289506,
-0.0016066042,
0.1142746,
-0.04753012,
-0.014865002,
-0.12483217,
-0.06565432,
-0.038857948,
-0.1031064,
-0.21280022,
-0.2634546,
0.005792617,
0.013682177,
-0.23371746,
-0.08918954,
-0.027322475,
0.014919944,
-0.10915928,
0.056243245,
-0.26289278,
-0.24721867,
-0.041721787,
-0.19433004,
-0.09884176,
-0.029879678,
-0.12563622,
0.0227483,
-0.16507141,
-0.055485632,
-0.08617781,
0.092588626,
0.05526162,
-0.09419115,
-0.028649932,
0.089537844,
-0.04693195,
-0.017905483,
-0.009535094,
-0.06022373,
0.026181966,
-0.013874152,
-0.020850359,
0.017918138,
-0.17269047,
-0.024614051,
-0.14958733,
0.37143603,
0.20902655,
0.10768676,
0.14298922,
-0.1563124,
0.17908712,
-0.070948,
0.02903647,
-0.11099759,
-0.029767705,
0.13231276,
0.077989236,
0.016401544,
-0.14335284,
-0.04621115,
0.027614888,
0.2047752,
0.11993848,
0.29294154,
0.34315115,
0.17806832,
0.46086806,
0.071056046,
0.09766623,
-0.060303543,
-0.048419297,
-0.08871492,
-0.06941966,
0.105049565,
-0.040725477,
0.13731195,
-0.009466919,
0.08312021,
0.022480112,
0.13083869,
0.16041993,
0.18846309,
0.1953417,
0.029789457,
0.34280658,
0.12511154,
-0.26672253,
-0.3230368,
-0.103354864,
-0.29069936,
-0.4746279,
-0.20916376,
0.07241826,
-0.13493082,
-0.13100219,
-0.09954999,
-0.23379277,
0.09829766,
-0.17169167,
-0.20861901,
0.09893289,
-0.0610012,
-0.011815387,
0.11892448,
-0.05681859,
-0.2602925,
0.23637864,
0.042004097,
-0.25505632,
0.039672796,
0.08761745,
-0.012748918,
0.07545544,
-0.04258415,
-0.10367643,
-0.011146075,
-0.3147524,
-0.09037408,
0.10941935,
-0.18890943,
0.11367273,
0.28988343,
-0.0061515453,
0.08637602,
0.14179108,
-0.013814567,
-0.055806626,
0.073700435,
0.19081084,
0.09783697,
0.05077781,
0.39693826,
-0.22032326,
-0.16205746,
-0.06675669,
-0.35549492,
-0.07063299,
-0.30900797,
-0.06990133,
0.3645406,
-0.024160963,
0.032069128,
0.011097978,
-0.040523943,
0.10796086,
0.0038751985,
-0.06637163,
-0.081496835,
-0.12556341,
-0.061704367,
-0.02205241,
-0.06323378,
-0.21356738,
-0.1785581,
-0.03496307,
0.010637287,
-0.056696236,
-0.050815046,
-0.21827926,
0.0010878437,
0.07994174,
-0.19408137,
-0.09768719,
-0.03751544,
-0.041256763,
0.11368344,
0.10530534,
-0.088316225,
-0.049246773,
0.13065483,
-0.20312196,
-0.09785466,
0.25426847,
-0.075745545,
-0.046629928,
0.21733059,
-0.033666465,
0.046816356,
-0.024682114,
0.04278866,
0.12428227,
-0.098686464,
0.04014189,
0.086848855,
-0.15379992,
-0.05818947,
0.24682842,
0.13845599,
-0.071911454,
0.33221188,
0.03106428,
0.014028892,
0.13651101,
-0.16104273,
-0.28806075,
-0.22403048,
0.07804911,
-0.2834064,
0.063221596,
0.14624125,
-0.239754,
0.11196553,
0.12546194,
0.24597079,
-0.13822235,
-0.18442795,
-0.25461498,
-0.31606373,
-0.18222709,
-0.08654612,
-0.023757547,
0.070321806,
0.1859323,
0.14481673,
0.00843319,
0.12679833,
0.0916072,
-0.09149204,
0.22502857,
-0.043106142,
-0.0058591077,
0.020322623,
0.2601351,
-0.19910909,
0.07518257,
0.05921134,
-0.11638764,
0.022746209,
0.04007792,
0.01851339,
-0.034284823,
0.048019063,
0.1350331,
-0.14349337,
0.13206558,
0.0844686,
0.11170287,
0.08075693,
-0.13532259,
-0.29126942,
-0.2627085,
-0.20672423,
-0.15119101,
-0.23353387,
-0.2648003,
-0.17400506,
-0.20996438,
-0.3037412,
-0.15518339,
-0.19467968,
0.15115286,
-0.08845553,
-0.107228786,
-0.1446816,
0.010184215,
0.011992472,
-0.10801423,
0.17349432,
-0.1095572,
-0.24845172,
0.17108095,
-0.01431376,
-0.21349455,
-0.015205927,
-0.11753398,
-0.07787443,
-0.0063178604,
0.26004308,
0.12618499,
0.07068581,
0.111046,
0.08281191,
0.013164737,
0.05499254,
0.004482243,
0.19557391,
0.07983409,
-0.05708178,
0.009692151,
-0.011496061,
0.13639413,
-0.006258347,
-0.039880842,
-0.08184621,
-0.02059761,
0.093778744,
-0.053470943,
-0.13948554,
-0.1723698,
-7.233036e-05,
0.070498675,
0.017494565,
0.09530252,
-0.18122253,
-0.039832823,
0.016400892,
-0.2875323,
-0.26654136,
0.08380689,
-0.08189953,
-0.1437776,
-0.12331124,
-0.05190957,
0.26591516,
0.16915241,
-0.23367849,
-0.26457462,
-0.010614199,
-0.23364522,
-0.26195335,
-0.25991586,
0.1999799,
-0.032227997,
0.12584166,
-0.0040781237,
-0.16058327,
-0.12864819,
0.10095913,
-0.12920706,
-0.20176373,
-0.083050065,
-0.13613766,
0.020481586,
0.023398126,
-0.12897433,
-0.17183718,
0.18913108,
0.050201755,
-0.05662087,
0.11994236,
-0.08193646,
0.22817145,
-0.1771541,
-0.24415164,
-0.03353832,
0.0030451545,
0.06501829,
-0.039773304,
0.06115843,
0.035894867,
0.23056458,
-0.25622874,
-0.040854286,
0.2052622,
-0.24338959,
-0.054877955,
-0.0999844,
0.16433169,
-0.069513336,
0.02208516,
0.022562524,
-0.0002508614,
-0.15424915,
-0.039027333,
0.08829201,
0.14738698,
0.020664573,
-0.0037425389,
0.147769,
-0.21200201,
-0.22044986,
-0.05243142,
-0.20305985,
-0.08043657,
-0.06248449,
-0.004144746,
-0.15505052,
-0.12888774,
0.17797585,
-0.12000977,
-0.06380836,
0.08631199,
0.122011304,
0.19494063,
-0.16438706,
-0.09819834,
-0.041340813,
-0.065171294,
-0.2750304,
-0.069628134,
0.04476531,
0.16798997,
0.022778036,
0.019949485,
-0.053724922,
-0.0909851,
0.20586157,
0.07545455,
0.20787454,
-0.031370785,
-0.08901374,
-0.15175006,
-0.014342766,
0.071159884,
0.047842227,
0.033817448,
-0.01847413,
0.03684331,
-0.0693185,
-0.0054202434,
-0.04080627,
-0.024036642,
-0.032832365,
-0.11800232,
-0.12233789,
-0.068773925,
-0.12594093,
-0.037256762,
0.0013750519,
-0.06422328,
-0.27369893,
0.0418443,
0.33787683,
-0.3015714,
-0.1768646,
0.3417431,
-0.15164843,
-0.04930673,
0.091411434,
0.021989623,
0.10046458,
0.010705471,
0.25900134,
0.20399718,
0.11800103,
-0.23254845,
-0.23002565,
-0.30700245,
-0.19790287,
-0.34364873,
-0.10572301,
-0.10703951,
-0.27103665,
0.06778827,
0.17787687,
0.11786543,
0.045341793,
0.0147180855,
0.2140527,
-0.01752204,
-0.09168683,
-0.08601697,
-0.058806125,
-0.014848261,
0.052518576,
-0.1320589,
-0.1078907,
-0.067514054,
0.024132794,
-0.015845167,
-0.09113976,
0.11410493,
0.042561848,
-0.028426876,
0.009256606,
0.34428874,
0.20059037,
0.21506648,
0.15137458,
-0.043134734,
0.03715416,
-0.06786027,
-0.1757806,
-0.12641257,
-0.020011488,
0.07579275,
0.13916346,
0.0008018247,
-0.009719058,
0.101050936,
-0.086952135,
-0.087150365,
-0.10832301,
0.04830092,
-0.037211325,
-0.032183193,
-0.21241727,
-0.218288,
-0.056165103,
-0.044066202,
0.028725183,
0.3093659,
0.11762167,
0.082288116,
0.048809472,
0.020756535,
0.015941381,
0.021243205,
-0.079571426,
-0.08204214,
0.016722783,
0.070460625,
-0.043643344,
-0.27624935,
0.09817228,
-0.29604498,
-0.17387128,
-0.1209547,
-0.19980882,
-0.17590438,
-0.0073860814,
-0.1599426,
-0.18026619,
0.13059016,
-0.13629572,
-0.1096142,
0.22570896,
0.02442111,
0.008096401,
0.07544973,
0.0071028178,
-0.10618387,
0.094959944,
-0.07695842,
-0.08499336,
-0.017492091,
-0.03814174,
-0.1825251,
-0.23936681,
0.19339031,
0.3474701,
-0.12168088,
0.21122544,
0.16834353,
-0.01006084,
-0.0104426555,
-0.20941058,
-0.068972185,
0.07128412,
-0.17681892,
-0.009661229,
-0.05253319,
-0.10319618,
0.21167947,
-0.020397542,
0.02375269,
-0.09634636,
0.07433912,
-0.1737938,
0.10640079,
-0.05444938,
-0.08233737,
0.046415903,
0.026838964,
-0.0050011436,
-0.07918001,
-0.18086791,
0.007865898,
-0.18532711,
-0.23665792,
-0.15052228,
-0.06943306,
-0.07080287,
0.03986664,
0.11270455,
0.026627325,
0.1806952,
0.25375372,
-0.022583053,
-0.23096243,
0.13982645,
-0.15408497,
-0.124119185,
-0.12202728,
-0.11213484,
0.39899838,
-0.12136754,
0.059885345,
0.1537257,
0.13437562,
0.30284595,
-0.13312441,
-0.068372175,
-0.17002921,
-0.055325862,
-0.1248682,
-0.12605853,
-0.17417088,
-0.39881894,
-0.26110017,
-0.22240874,
0.020548644,
-0.07932441,
-0.13297066,
-0.02999513,
0.03786365,
-0.14562365,
-0.013217993,
-0.052484196,
-0.11796597,
-0.11105991,
-0.06819506,
0.0683717,
0.08424841,
-0.07338449,
-0.37562823,
0.13032347,
-0.14410257,
-0.18924001,
0.042034153,
0.058502305,
-0.11851089,
-0.08786356,
-0.08804644,
-0.15208673,
0.0946047,
0.011069023,
-0.04593159,
-0.072409205,
-0.1662449,
-0.041367084,
0.08902071,
-0.1279932,
-0.122141086,
0.06760205,
-0.17497842,
-0.049438663,
0.10454474,
0.016066434,
-0.3052752,
0.25818503,
-0.011624904,
-0.25653487,
-0.013215907,
-0.09705856,
0.017078323,
0.17026393,
-0.00786079,
-0.1054393,
0.24996491,
0.104820885,
-0.15799426,
0.22115196,
-0.029682385,
-0.2686907,
0.028237188,
-0.047594707,
-0.07812217,
-0.1842302,
0.07876602,
0.18767829,
-0.027021388,
0.122075364,
0.08387711,
0.012084895,
0.17228748,
0.08250468,
-0.07878382,
0.15045129,
0.17084543,
-0.10012074,
0.07035576,
0.21263783,
0.30245444,
-0.05863931,
-0.1364968,
0.035543572,
0.07243133,
0.05225894,
-0.120052665,
0.10621129,
0.19361539,
-0.055822507,
0.055176776,
0.05267065,
-0.05156641,
-0.20569727,
-0.2287959,
0.056201268,
0.049017243,
-0.13626395,
-0.07327474,
-0.07268711,
0.008299213,
-0.030161655,
-0.06507151,
-0.06015361,
0.24216247,
0.14193563,
0.053529948,
-0.071908906,
-0.043909673,
0.096731365,
0.06723511,
-0.15525487,
-0.071113795,
0.05022347,
0.025032047,
-0.14208503,
-0.122494966,
-0.0974524,
-0.13520992,
0.095323496,
0.102690116,
0.014274405,
0.044730008,
0.00088811974,
0.007603095,
0.110182464,
-0.2338112,
-0.24972434,
0.32970405,
0.0742928,
-0.25027755,
-0.011271254,
0.3350078,
-0.041235726,
-0.13395613,
-0.17059115,
-0.1869215,
0.22603275,
0.10526448,
0.17936023,
0.23275715,
0.2636783,
-0.005569985,
-0.17695336,
-0.37812224,
-0.23438463,
-0.15940484,
-0.1831753,
-0.18221766,
0.177001,
0.27565914,
0.15933968,
-0.011223466,
-0.03740607,
0.06143059,
0.14990923,
0.008053719,
0.032192595,
0.019678459,
0.030872224,
-0.06922408,
0.12342998,
0.016139176,
-0.09218333,
0.17199327,
0.016212864,
-0.11909252,
0.01622215,
0.04302042,
-0.038996775,
-0.06321077,
-0.114932366,
-0.0130294105,
0.16972058,
0.048473805,
0.023582783,
0.1506545,
-0.0034919053,
-0.10877817,
-0.026295045,
-0.01904504,
-0.01060527,
-0.16496484,
-0.04663218,
0.01844236,
-0.345273,
-0.24594371,
-0.15829962,
0.15937312,
-0.099183075,
0.047420725,
-0.07147166,
-0.19894078,
-0.025016496,
-0.04698047,
-0.24748209,
-0.08063514,
-0.04424683,
-0.067449816,
-0.025148865,
0.20014116,
0.18214141,
0.26891264,
-0.06927616,
-0.06050803,
-0.07565772,
-0.105189726,
-0.269033,
0.0235099,
-0.06500931,
-0.106477365,
0.29792893,
0.07703989,
-0.021083148,
0.11822374,
-0.03325718,
-0.048318703,
0.03068355,
-0.09259706,
-0.082546026,
0.12036687,
-0.027798345,
-0.0012634274,
0.091412276,
-0.21375802,
-0.24522075,
-0.23006903,
-0.24861397,
-0.22578625,
0.14408447,
-0.103781745,
-0.038827278,
-0.03297395,
-0.110823296,
-0.18601277,
-0.16527756,
-0.3180215,
-0.30483985,
-0.086753435,
-0.07912657,
-0.06595391,
0.02278262,
0.008803995,
0.051378336,
-0.19996554,
0.036234908,
0.060983874,
-0.10659936,
0.06505741,
0.0072867954,
-0.14520934,
-0.16710407,
-0.16681656,
-0.08285252,
-0.29842407,
-0.2533763,
-0.11285902,
0.28065598,
0.22904652,
0.09080315,
0.04799071,
0.19453228,
-0.1162926,
0.005974356,
0.18930112,
-0.12916833,
-0.024466941,
0.17058958,
-0.13649373,
-0.05994627,
-0.10234016,
-0.029145332,
-0.031748127,
0.043719716,
-0.17567062,
0.054963607,
0.14807543,
-0.10865927,
-0.15897678,
-0.047598973,
0.022802563,
-0.19361438,
-0.17051789,
-0.08693028,
0.053855,
0.022605758,
0.041230604,
0.26328436,
0.35151505,
0.26467755,
0.037872616,
0.1753795,
0.017043391,
0.007828117,
-0.06172566,
-0.03641887,
0.0946787,
0.2746437,
0.21412614,
0.10376363,
0.3318676,
0.116649896,
0.0655352,
0.12286628,
-0.013337955,
-0.026332943,
0.012800182,
-0.047547985,
-0.01509659,
0.06340484,
-0.09263467,
0.065487914,
0.09717397,
0.018843023,
-0.12329284,
-0.17446333,
-0.14929508,
-0.11146291,
-0.15993407,
-0.11725781,
0.039698638,
0.029842284,
0.048093263,
-0.12924175,
0.015277983,
-0.08715999,
-0.039636344,
0.104276314,
0.0015138815,
0.068765506,
0.18823911,
0.080866866,
-0.0105776545,
0.06991316,
0.02346026,
-0.13967243,
-0.11359631,
-0.1877817,
0.029018471,
0.073488824,
0.08650139,
-0.059737217,
0.26936418,
-0.0066797887,
-0.028678725,
0.19842774,
-0.008685864,
-0.18760112,
0.15666488,
0.078506306,
-0.21739106,
-0.08000454,
-0.17132911,
-0.29201123,
-0.069575384,
-0.16457853,
-0.25461414,
-0.2578685,
-0.112774216,
-0.069231234,
0.2889899,
0.055035915,
-0.20737198,
0.21274146,
0.08269545,
-0.26357427,
0.18765557,
0.21440724,
-0.10700732,
-0.20342356,
-0.04929937,
-0.259967,
-0.28325486,
-0.30404916,
-0.21770316,
-0.25165135,
-0.15219727,
-0.07740286,
-0.13109069,
-0.110519454,
-0.085948475,
-0.3226435,
-0.15267378,
0.10207436,
0.117097676,
-0.1326479,
-0.2655758,
0.04140403,
-0.009140393,
0.054939806,
0.40732175,
0.18024857,
0.07727643,
0.23706412,
-0.23072405,
-0.13082549,
-0.08530926,
0.08661589,
-0.03402046,
0.029155713,
0.21551271,
0.060610935,
0.03760763,
-0.005893231,
0.082547486,
-0.098869555,
-0.15102755,
-0.004497257,
-0.20564926,
-0.25770965,
-0.04986741,
-0.010773138,
0.020053897,
-0.18070032,
-0.27056256,
-0.14517114,
-0.31327882,
-0.33955264,
-0.11834858,
-0.29681545,
0.03446469,
-0.054404337,
-0.020738026,
0.02760325,
0.13842246,
-0.04204861,
-0.017841937,
0.08052734,
-0.027118832,
-0.0054905843,
0.019510059,
-0.07048909,
-0.21991129,
-0.26006716,
-0.016968697,
-0.30695024,
-0.19664973,
-0.04575327,
0.1298434,
-0.019781971,
-0.13463615,
0.023327839,
0.019863645,
-0.027153356,
0.029009067,
0.0061205775,
0.016163986,
-0.012898831,
-0.030914601,
-0.10338483,
-0.07042665,
-0.07563143,
-0.0060648057,
-0.20044996,
0.016325902,
0.2662401,
0.047853775,
0.031682435,
-0.1409154,
-0.016953751,
-0.019490728,
0.068388544,
0.09181136,
0.05383568,
0.055027634,
0.0002047244,
0.10086294,
-0.08347711,
-0.045831926,
-0.14631389,
-0.02899719,
0.089751855,
-0.030447753,
0.19297813,
0.25006208,
-0.09974482,
0.16720663,
0.03147903,
-0.0037700802,
0.14218462,
0.14329493,
0.08460176,
-0.16171707,
0.11115298,
0.07282941,
0.0071219318,
0.07956761,
-0.08180241,
0.07446935,
-0.05966722,
-0.06417006,
-0.12512013,
-0.0003330184,
0.1524328,
-0.13146356,
-0.036232736,
-0.07477498,
0.1991307,
0.11205701,
0.09091056,
0.07461564,
0.1574338,
0.11655429,
-0.131481,
0.07515129,
-0.04201418,
0.11134953,
-0.031343948,
-0.1253019,
0.1951468,
-0.13243987,
-0.087103605,
-0.1498754,
0.073645316,
-0.0001820587,
0.4474745,
0.34638765,
-0.088763654,
0.056886,
-0.10481102,
-0.19480631,
0.07785625,
-0.09067725,
0.0350573,
-0.028534258,
0.10091176,
0.029115867,
-0.055491954,
0.07808097,
-0.055397596,
-0.06301653,
0.025043588,
0.12391311,
-0.082690395,
0.037381526,
0.12518036,
-0.0015473154,
-0.08938387,
0.05782038,
-0.19222079,
-0.28437263,
0.08395447,
-0.18265286,
-0.23627943,
0.1519425,
-0.12529425,
-0.20443036,
0.089838795,
0.099175625,
-0.0576241,
0.11050431,
0.01646053,
-0.2233101,
-0.006381761,
0.1355847,
-0.124777816,
-0.10912194,
-0.101047404,
0.2194474,
0.0021382724,
-0.023769675,
-0.02257038,
0.17078885,
0.13552138,
-0.12007524,
0.091159,
-0.18987998,
0.2081896,
0.28625256,
-0.4336091,
-0.15792982,
0.36162093,
-0.19435361,
-0.33036232,
0.038334046,
0.10542627,
0.0991917,
0.0029006698,
0.01794186,
0.010906735,
-0.1344851,
0.022186467,
-0.007344261,
-0.026002914,
-0.32321024,
-0.19691925,
0.0647813,
-0.29426983,
-0.27446193,
-0.08301478,
-0.04619092,
-0.21083903,
-0.1813956,
-0.13596639,
0.39962077,
0.074814826,
-0.18761747,
0.22659618,
0.2660743,
-0.2258662,
0.11371892,
0.14852242,
-0.042825203,
-0.008040907,
0.14190094,
-0.047067765,
0.009424223,
0.09593664,
-0.026931377,
0.032333508,
0.068177566,
0.07975058,
0.2112906,
0.015988898,
-0.08647114,
-0.018438548,
0.037373226,
-0.09961071,
-0.11908173,
-0.04470482,
-0.16808113,
-0.034126386,
0.29492337,
-0.16854255,
-0.30830616,
-0.0075678243,
-0.014572282,
-0.17562722,
0.07071374,
-0.07631406,
0.0034289572,
0.31215423,
-0.21095394,
-0.16001177,
0.13667253,
-0.1846948,
-0.2300381,
-0.055050522,
-0.04094084,
-0.2418239,
0.043011073,
-0.11440006,
-0.35878643,
-0.13712302,
0.036394,
-0.27864707,
-0.0719545,
0.21051379,
0.07660379,
-0.056927364,
0.15628545,
0.05682454,
-0.040065747,
0.18584533,
0.16670047,
0.113226004,
-0.08727256,
-0.12291701,
0.11184819,
-0.066591114,
-0.31257924,
-0.060348168,
0.03230198,
-0.020451326,
-0.12549844,
-0.14384894,
-0.21432213,
-0.13059117,
0.2504414,
-0.09675983,
-0.16419329,
0.121053725,
0.23799284,
0.008771624,
-0.14980745,
0.29993,
0.10623776,
-0.06265804,
0.23832163,
0.048437133,
-0.17249884,
0.07543225,
-0.16259764,
-0.11146069,
-0.20912309,
-0.23220702,
-0.10585795,
-0.20480129,
-0.1349001,
-0.10658541,
-0.055337302,
-0.17373419,
0.17896655,
0.15646578,
-0.07161881,
-0.008883776,
0.032139752,
-0.17830999,
0.10791899,
0.11641046,
0.071476,
-0.14199902,
-0.29177022,
-0.12554674,
-0.039943323,
-0.35997784,
-0.18828137,
0.14523901,
-0.11474385,
-0.14967848,
0.006904462,
0.05474587,
0.06425966,
-0.1768952,
-0.31823117,
-0.25233328,
-0.06011781,
-0.14669904,
-0.2149043,
-0.01197757,
-0.14766373,
0.06668808,
0.06488983,
-0.2568497,
0.095405266,
-0.019639866,
-0.088546045,
0.13036528,
-0.010067414,
0.029941883,
0.017559359,
-0.23333374,
-0.16545601,
-0.13734645,
0.010386485,
-0.003922651,
0.06565557,
-0.15864241,
-0.09715718,
0.08298224,
0.026833989,
-0.19597319,
-0.08905554,
0.19527213,
0.06300147,
-0.08011227,
0.06818219,
0.024056321,
-0.06044007,
0.09570203,
-0.009355237,
-0.012048873,
0.23057027,
0.18944357,
0.13782866,
0.0010952892,
0.1889746,
0.105436765,
-0.035316072,
0.14083967,
0.078167036,
0.027690502,
0.13909398,
0.027849345,
0.11456755,
-0.03211396,
-0.115272954,
-0.1683763,
-0.26045704,
0.011193993,
-0.067933425,
0.087495744,
0.27216905,
-0.07167619,
-0.024001833,
-0.012234989,
-0.097809725,
-0.017849797,
0.028114732,
-0.006986092,
0.017902445,
0.06656567,
-0.05047067,
-0.009426043,
-0.17382452,
-0.06664385,
-0.32619926,
-0.12714963,
-0.091292635,
-0.06520334,
0.13960426,
-0.057645425,
0.045852464,
-0.040326353,
-0.015791122,
-0.22063541,
-0.032078188,
0.009397117,
0.02535902,
0.18259583,
0.15509611,
0.19262601,
-0.14189556,
-0.06867984,
-0.19621164,
-0.04352083,
-0.17252937,
-0.1079142,
0.075053796,
0.024217146,
-0.06547469,
-0.08838777,
-0.1904664,
-0.3546018,
-0.20883673,
0.00095470436,
-0.21930747,
-0.010544888,
0.10371863,
0.17924474,
0.2035977,
0.17744257,
0.071589604,
0.07468564,
0.007353518,
-0.12005475,
-0.22546719,
0.06827774,
0.082284406,
-0.10173991,
0.058086455,
-0.087423496,
0.027789114,
0.033826277,
-0.08561379,
0.03141022,
-0.15761974,
-0.0018975303,
0.09036284,
0.012242777,
0.11789434,
0.027052123,
0.026151996,
0.043936513,
-0.03167641,
0.1649076,
0.013909084,
0.16769575,
-0.21803449,
-0.42894453,
-0.31200635,
-0.06572308,
-0.24734099,
-0.08453661,
-0.051337168,
0.015903069,
0.014378038,
0.16415522,
0.0017048544,
-0.21628745,
0.032266546,
-0.004649656,
-0.009747846,
0.13668182,
0.11516354,
-0.15088177,
-0.2988139,
-0.5324086,
-0.25014225,
-0.33985546,
-0.35021183,
0.07985891,
-0.06210486,
0.006908096,
-0.09654767,
-0.124434,
-0.23754463,
-0.1772972,
-0.13613603,
-0.046612643,
0.007217395,
0.06547802,
-0.0203679,
-0.17376022,
-0.11440886,
-0.27382618,
-0.15428519,
-0.05259017,
-0.23637828,
-0.013536054,
0.19592732,
0.049923126,
-0.14142278,
0.3242999,
0.022558823,
0.018328153,
0.13195951,
0.011558671,
0.048846222,
0.27118754,
0.10868118,
0.10195373,
0.11083732,
-0.0124723185,
-0.08242857,
0.106639355,
-0.044126984,
-0.12945165,
0.005009376,
0.25076896,
-0.023161385,
0.27823618,
0.010574518,
0.28593826,
0.15398282,
0.04528167,
0.14794327,
0.020695908,
-0.0053365855,
-0.09822498,
-0.05257511,
-0.17935881,
0.009608976,
-0.030782763,
0.1084158,
0.23138647,
-0.013616683,
0.17375125,
0.11267404,
0.05490078,
-0.0035987825,
0.008520005,
-0.08737135,
0.089692056,
0.2084667,
0.14334479,
0.14762776,
-0.11087646,
-0.19209874,
-0.34891918,
-0.11934252,
-0.2967297,
-0.15927628,
0.17329605,
0.15489675,
0.30655333,
-0.004029078,
0.43330172,
0.11129809,
-0.021846943,
0.011599986,
-0.13327931,
-0.025332468,
0.07052419,
0.006166283,
0.06028557,
0.05684832,
-0.035908863,
0.029204926,
0.1226864,
0.04656647,
-0.18718222,
0.091315776,
0.043146443,
-0.03848278,
0.11520166,
-0.0040886607,
-0.0015122491,
0.12630703,
0.03874231,
-0.16087264,
0.03698378,
0.15302692,
-0.0053870077,
-0.16731444,
0.048789345,
0.22895135,
-0.11568757,
0.07774223,
0.11008834,
-0.118266575,
0.21082263,
-0.111472204,
-0.12850183,
0.24799237,
0.017159132,
-0.222539,
0.055222277,
-0.06617871,
-0.09213513,
0.09640162,
-0.02275198,
0.10990452,
-0.23443164,
-0.23059678,
0.13941716,
-0.09255021,
-0.26642203,
0.012729877,
0.19078748,
-0.025864964,
-0.04428973,
0.012132001,
0.14732812,
0.1159038,
0.12260968,
0.1954586,
-0.02312308,
-0.116157815,
-0.019807791,
0.09644618,
-0.49619633,
-0.34253845,
0.0036298616,
-0.24633111,
-0.46812874,
-0.10054643,
0.13988389,
0.0813221,
-0.021993777,
0.09953411,
0.021824433,
-0.0020036441,
0.21238883,
0.044856403,
-0.04620814,
0.05327395,
0.07383396,
0.03666744,
-0.13128163,
-0.069421455,
0.048057962,
-0.09370383,
-0.21867447,
0.010241237,
0.07899797,
0.17230977,
-0.03147288,
0.015539628,
0.026007347,
0.07719662,
0.0849452,
-0.0020249847,
0.011163861,
0.09844062,
0.072064005,
-0.09496119,
-0.06687526,
-0.13086645,
-0.024666328,
0.048910327,
-0.09138757,
0.07915054,
0.07258463,
-0.02283724,
-0.19465922,
-0.17635499,
-0.028367434,
-0.14874421,
-0.019097593,
-0.06459447,
0.2935352,
0.14222951,
-0.014294664,
0.016704282,
-0.089792125,
-0.16251226,
0.049095996,
-0.09724522,
-0.1993261,
0.15054098,
0.122875534,
-0.09309451,
0.060289033,
-0.37844488,
-0.30403677,
0.116148435,
-0.24343672,
-0.36377257,
0.14539252,
0.2520386,
0.0538174,
0.08640692,
-0.14429821,
-0.11878203,
-0.117167175,
-0.20433553,
-0.2667706,
-0.07354089,
0.13112426,
-0.10617391,
-0.18691975,
-0.23079179,
-0.21225528,
-0.099339515,
-0.17286207,
-0.13006526,
-0.24430175,
0.1791085,
0.3039313,
-0.12861623,
-0.027688753,
-0.061088216,
-0.051361408,
-0.15808438,
-0.1287118,
-0.0041555534,
0.10249118,
-0.046630397,
-0.033903833,
-0.177601,
-0.23713623,
0.064984575,
-0.0114223575,
0.031415228,
-0.14422509,
0.11684916,
-0.19341145,
-0.006718294,
0.029444486,
-0.0680805,
0.020055218,
0.08467614,
0.08389636,
-0.2166732,
-0.2446248,
-0.24792756,
-0.014046476,
0.04716465,
-0.022385346,
0.014493677,
0.19584034,
0.17093477,
-0.12700874,
0.107034765,
0.3444748,
-0.07589907,
0.04423832,
-0.054584105,
0.009739225,
-0.15516616,
-0.182184,
0.041252285,
-0.08325666,
0.18534759,
-0.08460148,
0.16786696,
-0.016526347,
0.050808877,
0.11895149,
0.053774852,
0.09704889,
0.24552386,
0.23518412,
0.12141892,
0.23596844,
0.09550563,
-0.060852993,
-0.262532,
-0.22160245,
0.04034038,
0.0025357925,
0.0074742455,
-0.072324984,
-0.20344289,
-0.07683775,
0.051475376,
0.07163764,
0.03183777,
-0.1706342,
0.0023319426,
-0.068734035,
0.091798805,
0.07137953,
0.010979184,
0.006818273,
-0.14250723,
-0.052498236,
-0.08467008,
-0.016238794,
-0.004009124,
-0.14407337,
-0.27686203,
-0.2145482,
0.19187182,
0.12893966,
0.1517631,
0.06948119,
-0.090060756,
0.04985533,
0.051134,
-0.03801294,
0.037800577,
0.033260398,
0.011202017,
0.1533798,
-0.06795153,
0.4171907,
0.0029332256,
-0.12427368,
-0.10994807,
-0.1940565,
-0.08158524,
-0.20822924,
-0.0791959,
-0.0037023781,
-0.1928469,
-0.106812075,
-0.25348637,
-0.1757133,
-0.20478304,
-0.13196906,
-0.036288198,
-0.06337017,
0.104006335,
-0.112068094,
-0.052535407,
-0.02131151,
0.036178615,
0.04914382,
-0.087962985,
-0.07398823,
-0.0012182029,
0.19681583,
0.09750688,
0.12962998,
0.20230985,
0.059681475,
0.117635,
0.008444443,
-0.2668776,
-0.1584427,
0.23581055,
0.10859122,
-0.14409775,
-0.08360602,
-0.15964028,
0.05065639,
0.020141622,
-0.040313356,
0.045618877,
-0.040985823,
-0.08629365,
-0.047030028,
-0.11819477,
-0.19397338,
-0.14478162,
-0.035006166,
-0.11147489,
0.15806447,
-0.10404006,
-0.111166894,
-0.15496643,
-0.18086948,
-0.17058349,
-0.23510243,
-0.14961866,
-0.15176266,
-0.15408106,
-0.03986583,
0.26660573,
0.04841224,
0.105100706,
0.27089226,
0.0012427709,
0.11323129,
0.08335117,
-0.05959176,
0.040940184,
0.1307619,
-0.316586,
0.022294557,
0.15897112,
-0.09488911,
-0.060025766,
0.07106683,
-0.0798498,
-0.0013320568,
-0.08500825,
0.18561597,
-0.25232717,
-0.347094,
0.119191535,
-0.12350025,
-0.22456938,
0.013646211,
-0.14438088,
0.08142476,
0.026505684,
0.29231864,
0.24212909,
0.10578702,
0.10066705,
-0.040649466,
-0.057341583,
0.107892245,
-0.11149797,
0.12907968,
-0.18274099,
-0.41509238,
0.12592284,
-0.23568042,
-0.3093674,
0.052401688,
0.04075711,
0.18290097,
0.07927341,
0.15618485,
0.15605637,
0.022524962,
0.12362794,
0.17096849,
0.034822285,
0.024009421,
-0.028704206,
0.10070504,
-0.12536864,
-0.18637244,
0.05786987,
-0.103427954,
-0.19514027,
0.019760162,
0.005493875,
0.03453946,
-0.0037100257,
-0.050208148,
-0.09394365,
-0.17160639,
-0.0068151397,
0.012414873,
-0.05801765,
-0.115091264,
-0.010466114,
-0.11292801,
-0.082110934,
0.014671416,
0.008371773,
-0.037248805,
0.028739762,
-0.004781837,
-0.043213617,
0.19893506,
0.15329053,
0.13284129,
0.13086003,
0.0730609,
-0.13489719,
-0.12006401,
-0.031022832,
0.008384663,
0.08270616,
0.1834727,
0.05086672,
0.103282325,
0.115547016,
-0.17880505,
-0.14974803,
-0.03859478,
0.17767173,
0.10973908,
0.00083470426,
0.044106297,
-0.11948044,
-0.14106518,
-0.19258171,
-0.17633834,
0.041303623,
0.049137697,
-0.13213457,
-0.007761415,
-0.22962011,
-0.35535482,
0.016533848,
-0.28071004,
-0.3434328,
-3.823432e-05,
0.035064496,
0.025910493,
-0.038115945,
-0.12712915,
-0.067497574,
-0.08224056,
-0.15301763,
-0.051547796,
0.028588586,
0.091505244,
0.07827953,
0.17890625,
-0.10297334,
-0.21141171,
0.08016358,
0.025498766,
-0.1421563,
-0.059992347,
-0.25229946,
-0.08268925,
0.06815964,
-0.042082254,
0.097416185,
0.19959955,
0.065818995,
0.021568904,
0.014816894,
0.097085945,
0.22039692,
0.13317336,
0.05105179,
0.14306523,
0.15756771,
0.024724182,
0.14617033,
-0.08818304,
-0.10180329,
-0.10902285,
-0.17266925,
-0.1729696,
-0.1371391,
-0.18657051,
0.044298287,
0.117590055,
0.074566625,
-0.13554998,
-0.14704815,
0.06558832,
-0.10701569,
-0.37104368,
-0.25868866,
-0.04498742,
0.02888653,
0.0054864897,
-0.14034021,
-0.081161074,
-0.08003288,
0.052165553,
0.08377716,
0.006366291,
0.14012624,
0.1921808,
0.02771895,
0.13860258,
0.17105031,
0.07409126,
-0.124965966,
-0.2860131,
-0.21316579,
0.2258737,
0.07707412,
0.25178212,
-0.055016845,
0.045132574,
-0.024121383,
0.345466,
0.3634312,
0.15191881,
-0.037738547,
0.11923136,
-0.040723257,
-0.13864581,
-0.14875281,
0.006884657,
-0.078001074,
-0.12849207,
-0.13485004,
-0.02452224,
5.0714545e-05,
0.0008616392,
0.16195466,
0.14067233,
0.15428929,
-0.04264485,
-0.119549215,
-0.053253695,
-0.121754125,
-0.11109348,
-0.12622893,
0.069690995,
0.04438396,
0.1578884,
-0.11036297,
-0.19926532,
-0.096402854,
-0.027110923,
0.011708767,
0.002393469,
0.10241298,
-0.056632493,
-0.08739848,
0.18537822,
-0.0091108335,
0.018232333,
-0.047301304,
-0.12289742,
0.015089142,
-0.19357571,
-0.22404791,
-0.15902795,
-0.051841084,
-0.0662158,
-0.05758034,
0.24206498,
0.102441534,
0.06603745,
-0.014142708,
-0.03537303,
-0.025611134,
-0.3065214,
-0.32591373,
0.08756943,
-0.048988428,
0.054756757,
-0.014414011,
-0.04914179,
-0.13580988,
-0.020234112,
-0.1865782,
-0.32816672,
-0.07675921,
0.02636841,
-0.0069221547,
0.022122798,
0.0973735,
0.0132589005,
0.025373057,
-0.04849891,
-0.32915494,
-0.05430684,
-0.11650681,
-0.06274554,
0.041762788,
-0.10905444,
-0.17436521,
0.023796022,
-0.29091427,
-0.3165778,
-0.18709727,
-0.34491915,
-0.1634604,
0.012928336,
-0.17688237,
0.055496056,
0.11109702,
-0.0802464,
0.087886475,
0.086155385,
0.016370812,
0.06087236,
0.13399062,
-0.059449334,
-0.016955586,
0.07863607,
-0.14559166,
-0.0661118,
0.19101404,
-0.009851707,
-0.027825449,
0.0108749755,
-0.037046686,
0.11781238,
-0.11919407,
-0.08703455,
0.15085183,
-0.09957605,
-0.046985354,
0.16557299,
-0.022453293,
-0.18260263,
0.02030108,
0.10692405,
-0.34038427,
-0.244543,
-0.050321717,
-0.05650184,
0.02477979,
-0.012569273,
-0.04441362,
0.12477048,
0.16139792,
-0.0043064426,
0.044822227,
0.07991158,
0.106600605,
0.038894955,
0.08895927,
-0.21495919,
-0.24381855,
-0.12234446,
-0.3644647,
-0.2241927,
-0.03121892,
-0.2654336,
0.13706267,
0.065928355,
-0.03084054,
0.066303514,
0.071847364,
-0.038629755,
-0.05975299,
0.06350338,
-0.09743642,
0.07039984,
0.035510313,
-0.10167394,
-0.16490476,
-0.08411418,
-0.117837206,
-0.23981468,
-0.0014885108,
-0.058608726,
-0.085420065,
0.104912475,
-0.1650119,
-0.06421023,
0.153327,
0.0313646,
-0.012767331,
0.13413052,
0.025436439,
0.044697694,
0.3258263,
-0.22483411,
-0.16715999,
0.08037552,
-0.16684295,
-0.043487046,
0.14419535,
0.062031407,
0.14428292,
-0.018144663,
0.10321826,
-0.060475808,
0.033823043,
-0.16937476,
0.012069871,
0.41875625,
-0.05574851,
0.2553748,
0.025336843,
-0.056487765,
0.032916278,
0.022087488,
-0.11065335,
0.066907294,
0.17675081,
-0.13916954,
0.0155945085,
-0.003947323,
-0.11384839,
-0.15435053,
0.070251115,
-0.29830524,
-0.042106036,
0.427509,
-0.21304719,
0.15421282,
0.12294215,
-0.18101428,
-0.21134955,
0.022401147,
-0.20463017,
-0.0865701,
0.074511275,
-0.20949203,
0.115762316,
0.14006306,
-0.20972423,
-0.19249101,
0.13487379,
-0.1877444,
0.31094283,
0.35675028,
0.1446589,
0.22511987,
-0.15329075};