WTYPE conv6_weight[32 * 32 * 3 * 3] = 
{0.00346501753665506840,
0.18625573813915252686,
-0.03599500656127929688,
-0.08438675105571746826,
-0.08809781074523925781,
-0.00079235108569264412,
-0.07697585970163345337,
-0.05075424537062644958,
-0.03373307734727859497,
-0.17276877164840698242,
-0.06122657656669616699,
-0.04060151427984237671,
-0.00615299586206674576,
0.04405876994132995605,
0.08514805138111114502,
0.02567194774746894836,
0.02560328878462314606,
-0.01030497252941131592,
0.04153843596577644348,
0.01654197461903095245,
-0.03323097899556159973,
0.02065955847501754761,
-0.00053883972577750683,
0.04103315249085426331,
-0.12874445319175720215,
-0.05096718296408653259,
-0.01325358543545007706,
-0.03361904993653297424,
-0.02055962756276130676,
-0.00593323260545730591,
-0.02734397724270820618,
-0.02332799881696701050,
0.14101944863796234131,
-0.10908162593841552734,
-0.03065449930727481842,
0.23607806861400604248,
-0.00618800893425941467,
0.09601545333862304688,
-0.09756596386432647705,
0.03953264281153678894,
0.29886952042579650879,
0.05860393866896629333,
-0.15985558927059173584,
-0.07356543838977813721,
0.06749458611011505127,
0.05268499627709388733,
0.13753812015056610107,
-0.12498912960290908813,
0.06838290393352508545,
0.01085620000958442688,
-0.07413661479949951172,
-0.04456910863518714905,
-0.13198730349540710449,
-0.07423128932714462280,
-0.08885499089956283569,
-0.03069335222244262695,
0.01960951648652553558,
-0.01484725438058376312,
0.05408495292067527771,
-0.10584650933742523193,
-0.04530351981520652771,
-0.05253057181835174561,
-0.07822044193744659424,
0.18697166442871093750,
0.12939180433750152588,
0.01456154976040124893,
-0.10207529366016387939,
-0.00659687304869294167,
-0.04630620777606964111,
0.01257536746561527252,
-0.10064925253391265869,
-0.05825405195355415344,
0.04893026500940322876,
0.03014324419200420380,
-0.10661131888628005981,
-0.04569713771343231201,
-0.02931525558233261108,
-0.08883459866046905518,
0.04464805871248245239,
0.22669275104999542236,
0.08907018601894378662,
-0.12031261622905731201,
0.06187922880053520203,
-0.01268531754612922668,
-0.04484320059418678284,
0.05057030916213989258,
0.03378552198410034180,
-0.10127262026071548462,
0.08712552487850189209,
0.23806416988372802734,
0.03373302519321441650,
-0.01761722937226295471,
-0.00697426032274961472,
0.04965214058756828308,
-0.03822650760412216187,
-0.08498287200927734375,
0.06353954225778579712,
-0.00165567849762737751,
-0.06940792500972747803,
-0.00560441240668296814,
-0.04059246927499771118,
-0.16146551072597503662,
0.03831206262111663818,
-0.10682298988103866577,
0.04751349613070487976,
-0.01232723239809274673,
0.07492436468601226807,
0.00309275020845234394,
0.02572345733642578125,
-0.09367975592613220215,
-0.02697391062974929810,
-0.07376684993505477905,
-0.01473164465278387070,
-0.06792864948511123657,
0.02312181703746318817,
0.00889564398676156998,
-0.02071763202548027039,
-0.02162187360227108002,
-0.03727686777710914612,
-0.10756326466798782349,
-0.08646087348461151123,
-0.02900716289877891541,
-0.08970008790493011475,
-0.00174748140852898359,
-0.05319513380527496338,
0.01890444383025169373,
0.08659764379262924194,
-0.07695497572422027588,
-0.09468444436788558960,
0.12085166573524475098,
0.02981738746166229248,
-0.06813786178827285767,
0.02184609882533550262,
-0.04936858639121055603,
0.02830092050135135651,
-0.07753750681877136230,
-0.06889231503009796143,
-0.03931997716426849365,
0.05271070078015327454,
-0.04300369694828987122,
-0.14752791821956634521,
-0.12150992453098297119,
0.11666559427976608276,
-0.08698005974292755127,
0.01550680864602327347,
-0.09923443943262100220,
-0.10452536493539810181,
0.09200727194547653198,
0.09399797767400741577,
-0.11812156438827514648,
0.06770790368318557739,
0.00693655433133244514,
-0.02835835330188274384,
-0.05455084145069122314,
0.03157216683030128479,
0.05039055272936820984,
-0.00542367994785308838,
-0.04621001332998275757,
-0.02659809961915016174,
-0.17769479751586914062,
0.02368204109370708466,
0.05767136067152023315,
0.08284010738134384155,
0.10775330662727355957,
0.05444285273551940918,
0.06526721268892288208,
-0.01002750452607870102,
-0.03723150119185447693,
-0.10759741067886352539,
-0.01317699626088142395,
0.04273456335067749023,
-0.06028071045875549316,
-0.11918060481548309326,
-0.05810514092445373535,
0.06507342308759689331,
0.01048063859343528748,
0.01398706249892711639,
0.09244732558727264404,
0.02051495574414730072,
-0.01076197903603315353,
0.00060204439796507359,
-0.08826661109924316406,
-0.07038182020187377930,
-0.09523792564868927002,
-0.09536491334438323975,
-0.00749181723222136497,
0.07870434224605560303,
0.04399157688021659851,
-0.00679364567622542381,
-0.00687826937064528465,
0.04222716391086578369,
0.04155933484435081482,
0.01881889440119266510,
0.04774609580636024475,
-0.03253760188817977905,
-0.16024374961853027344,
0.01477043610066175461,
0.07950499653816223145,
0.09739236533641815186,
-0.04558980837464332581,
0.14906696975231170654,
-0.08383227139711380005,
-0.12111573666334152222,
0.04098742827773094177,
0.01406859699636697769,
-0.09764207154512405396,
0.02734304964542388916,
0.06785606592893600464,
0.00038045257679186761,
-0.13059365749359130859,
-0.07185515016317367554,
-0.08689260482788085938,
-0.17746374011039733887,
0.02996456995606422424,
-0.13242323696613311768,
-0.04390619322657585144,
-0.07052831351757049561,
0.02551049552857875824,
-0.06565073132514953613,
0.05999734997749328613,
0.03201701119542121887,
0.01679733395576477051,
-0.07156940549612045288,
-0.00680945767089724541,
-0.01763457804918289185,
0.01335756108164787292,
-0.04115655645728111267,
-0.08036006987094879150,
0.05314444750547409058,
-0.03641466423869132996,
-0.10170918703079223633,
-0.05557860061526298523,
-0.09021849930286407471,
-0.06329871714115142822,
0.03953923285007476807,
0.05101934447884559631,
-0.13408260047435760498,
0.19484937191009521484,
0.16315263509750366211,
-0.06173688173294067383,
0.09119199216365814209,
-0.10207661986351013184,
0.09547372162342071533,
-0.04297248646616935730,
-0.00544108729809522629,
-0.05328075215220451355,
-0.09251458197832107544,
-0.04336865991353988647,
0.04188285768032073975,
-0.06289768964052200317,
0.01690050959587097168,
-0.02035829052329063416,
0.01129950862377882004,
0.07963144779205322266,
-0.04408288002014160156,
-0.10586552321910858154,
-0.08219655603170394897,
-0.10443257540464401245,
-0.02641670592129230499,
-0.05334317684173583984,
-0.08812481909990310669,
0.10365581512451171875,
0.10413756221532821655,
0.21103578805923461914,
0.09901837259531021118,
0.07902037352323532104,
0.08608049154281616211,
-0.09886132925748825073,
-0.07108069956302642822,
0.02188546955585479736,
0.03426498547196388245,
-0.09464285522699356079,
-0.12626087665557861328,
-0.05030400678515434265,
-0.05627416819334030151,
0.07952311635017395020,
0.00152467691805213690,
0.03958215937018394470,
0.17604380846023559570,
0.06490635126829147339,
-0.09852952510118484497,
-0.03799760341644287109,
0.07305253297090530396,
0.09646401554346084595,
0.07800706475973129272,
0.27780735492706298828,
-0.11217017471790313721,
0.20441092550754547119,
-0.04687869921326637268,
-0.02571079134941101074,
-0.05123003572225570679,
-0.09212361276149749756,
0.10662377625703811646,
-0.05487754195928573608,
-0.16210711002349853516,
0.12988606095314025879,
0.21129989624023437500,
0.00527533516287803650,
0.01356909517198801041,
-0.10239388048648834229,
-0.01556498557329177856,
0.06207277625799179077,
0.05193384364247322083,
-0.04179858416318893433,
-0.00434702727943658829,
0.07733725756406784058,
0.06671491265296936035,
0.00472321268171072006,
-0.06336967647075653076,
-0.01977942138910293579,
-0.01700105145573616028,
-0.06648033112287521362,
-0.09296918660402297974,
0.02194373682141304016,
0.17766655981540679932,
-0.10560342669486999512,
-0.04871383309364318848,
-0.06843090802431106567,
-0.13260887563228607178,
-0.02217252179980278015,
0.00636855699121952057,
-0.05049661919474601746,
0.10375166684389114380,
0.15427206456661224365,
-0.03197977691888809204,
0.14461790025234222412,
-0.09635907411575317383,
-0.04336765408515930176,
0.00978482607752084732,
-0.01295056287199258804,
0.01690587960183620453,
-0.04657419398427009583,
-0.03220855072140693665,
0.12591193616390228271,
0.02131734415888786316,
-0.02481617964804172516,
-0.01496424898505210876,
0.06967464089393615723,
-0.16345097124576568604,
-0.00861969590187072754,
0.00245299865491688251,
-0.02649951539933681488,
-0.03832182288169860840,
-0.01460955012589693069,
-0.06689728051424026489,
0.01869779638946056366,
0.01566767692565917969,
-0.01673339866101741791,
-0.16192011535167694092,
-0.02131121046841144562,
0.09975526481866836548,
-0.01027062907814979553,
-0.03875122591853141785,
-0.04207666963338851929,
0.00557356514036655426,
0.00681946147233247757,
-0.04119354113936424255,
0.06365163624286651611,
-0.00921838637441396713,
-0.09593991935253143311,
0.05175916850566864014,
0.04687722399830818176,
0.07793159037828445435,
-0.05462746322154998779,
0.00286958040669560432,
0.05543843656778335571,
0.03053339757025241852,
0.08112647384405136108,
-0.02355873212218284607,
-0.04775957390666007996,
-0.08944079279899597168,
-0.14827942848205566406,
-0.11180882155895233154,
-0.11398119479417800903,
-0.09649194031953811646,
-0.09932659566402435303,
0.14635536074638366699,
0.17240762710571289062,
-0.04308273643255233765,
0.01936029456555843353,
-0.00997266732156276703,
-0.11366041004657745361,
-0.15501855313777923584,
-0.12898395955562591553,
-0.07552696019411087036,
-0.04419447481632232666,
0.02794678136706352234,
-0.01814408600330352783,
-0.05075183510780334473,
0.01534903515130281448,
-0.01236093416810035706,
-0.00756836310029029846,
-0.02104563266038894653,
0.12639269232749938965,
-0.00381233147345483303,
0.00886842235922813416,
-0.04755644872784614563,
-0.06799707561731338501,
0.01358925364911556244,
-0.10744640976190567017,
-0.11662402749061584473,
0.05753555893898010254,
0.00311801442876458168,
-0.18557025492191314697,
0.03417971730232238770,
-0.04365195706486701965,
0.10239344835281372070,
-0.18577243387699127197,
-0.05970457196235656738,
-0.14198772609233856201,
0.25871616601943969727,
-0.02325064130127429962,
-0.11067125201225280762,
0.25825452804565429688,
-0.06118597462773323059,
-0.08005646616220474243,
0.16111533343791961670,
-0.13110591471195220947,
0.00755232572555541992,
0.20331747829914093018,
0.09875779598951339722,
-0.12261867523193359375,
-0.11520408093929290771,
0.08885415643453598022,
0.08718004822731018066,
-0.02875073067843914032,
-0.01848356239497661591,
0.14783661067485809326,
-0.05786145851016044617,
-0.08185438066720962524,
-0.02508745156228542328,
-0.23277443647384643555,
-0.03136531636118888855,
-0.05455033481121063232,
0.11405736953020095825,
-0.03222114592790603638,
-0.00714702159166336060,
0.07105461508035659790,
0.09877389669418334961,
0.07655522227287292480,
-0.07192599028348922729,
0.05288759246468544006,
-0.02890183590352535248,
-0.07226198911666870117,
-0.08400388807058334351,
-0.04249184951186180115,
-0.01654751598834991455,
-0.05847673118114471436,
0.01116049382835626602,
0.21548776328563690186,
0.00653438223525881767,
-0.01889867335557937622,
-0.11283419281244277954,
-0.13832315802574157715,
-0.00919236149638891220,
-0.10277526825666427612,
-0.09443792700767517090,
-0.01635707356035709381,
0.00221289577893912792,
-0.05129349604249000549,
-0.08640398830175399780,
-0.03235711902379989624,
-0.01504201442003250122,
0.04255121946334838867,
-0.00557045498862862587,
0.04917758703231811523,
0.02626836299896240234,
-0.14630079269409179688,
-0.02214392088353633881,
-0.07288356870412826538,
-0.00648553762584924698,
-0.12138783186674118042,
0.08888749033212661743,
0.02400067448616027832,
-0.05929911136627197266,
-0.06110758706927299500,
-0.08388431370258331299,
0.00293487752787768841,
-0.00044398239697329700,
-0.14716917276382446289,
-0.02311412431299686432,
0.05985372141003608704,
0.07766044139862060547,
-0.14432318508625030518,
-0.00811778195202350616,
-0.01820811443030834198,
0.00972281396389007568,
0.13541147112846374512,
-0.02159304544329643250,
-0.10917979478836059570,
-0.01858476921916007996,
-0.06772483140230178833,
-0.07682935148477554321,
-0.17882165312767028809,
-0.09337347745895385742,
0.01673248782753944397,
0.09765465557575225830,
0.09731760621070861816,
-0.12811966240406036377,
0.09223636984825134277,
0.12538506090641021729,
-0.10390436649322509766,
-0.00931367557495832443,
-0.11319576203823089600,
-0.00560201611369848251,
-0.00151116994675248861,
-0.14990364015102386475,
-0.05361926183104515076,
0.06680769473314285278,
0.00456167757511138916,
-0.07104315608739852905,
-0.02150855213403701782,
0.04910346865653991699,
-0.04955468699336051941,
-0.05196664109826087952,
-0.00727820117026567459,
-0.06597951054573059082,
-0.05334189161658287048,
0.08194079250097274780,
0.04576395079493522644,
-0.00926373526453971863,
-0.08000260591506958008,
-0.02480228431522846222,
0.05510080605745315552,
-0.07583615928888320923,
-0.03452299535274505615,
0.10560490936040878296,
0.14546418190002441406,
-0.05936510860919952393,
-0.16849420964717864990,
-0.02632253244519233704,
0.01552826073020696640,
0.01716431602835655212,
0.03404223918914794922,
0.04705798998475074768,
-0.05294592306017875671,
-0.07746320962905883789,
-0.03794614598155021667,
-0.06734348088502883911,
-0.09367036074399948120,
-0.12326825410127639771,
-0.06608197838068008423,
-0.06788703799247741699,
-0.05848354846239089966,
-0.04800497740507125854,
0.15184333920478820801,
-0.04219652712345123291,
0.04248287528753280640,
0.05462144687771797180,
0.06952685862779617310,
-0.05711415782570838928,
-0.11185025423765182495,
0.01325274445116519928,
0.02514868788421154022,
-0.10068447142839431763,
-0.08777859061956405640,
-0.07007663697004318237,
-0.02433259971439838409,
-0.11225484311580657959,
0.02727287076413631439,
-0.11117256432771682739,
0.01625154912471771240,
-0.01575972139835357666,
-0.03476773574948310852,
-0.01711714267730712891,
-0.01471929065883159637,
-0.12408182024955749512,
-0.06683070957660675049,
-0.02206957153975963593,
-0.11078991740942001343,
-0.02236888743937015533,
-0.07818591594696044922,
-0.03795498237013816833,
-0.01013174094259738922,
-0.06933824717998504639,
0.01611121743917465210,
-0.06107583269476890564,
0.07514240592718124390,
0.01871461793780326843,
-0.19251337647438049316,
0.01855135522782802582,
0.14999437332153320312,
0.00443755881860852242,
-0.10706495493650436401,
0.04796034470200538635,
0.04216776788234710693,
0.01316485926508903503,
0.01965457387268543243,
-0.02129217050969600677,
-0.06722847372293472290,
-0.07989913225173950195,
-0.20803511142730712891,
-0.09746719896793365479,
-0.10268051177263259888,
0.02203699573874473572,
-0.05246094986796379089,
-0.07112091779708862305,
-0.08956051617860794067,
-0.03953758254647254944,
-0.04576969146728515625,
0.09213196486234664917,
0.06768020987510681152,
-0.00730984564870595932,
0.11195137351751327515,
-0.11217714101076126099,
-0.02080696821212768555,
0.09461706876754760742,
0.02547481842339038849,
-0.03188211098313331604,
0.02064546942710876465,
0.15027476847171783447,
0.02978734485805034637,
0.01515009626746177673,
0.06635736674070358276,
-0.04351800307631492615,
0.02790363691747188568,
0.11944203078746795654,
-0.10145089775323867798,
-0.08257723599672317505,
0.04669516161084175110,
0.08572438359260559082,
-0.00004929066199110821,
-0.09768302738666534424,
0.07344969362020492554,
-0.11449547857046127319,
0.17291148006916046143,
0.22509989142417907715,
0.01750489696860313416,
0.08104564249515533447,
-0.00478052394464612007,
0.00853214506059885025,
0.03874274343252182007,
0.01488607842475175858,
-0.06371638178825378418,
0.04783785343170166016,
0.09464073181152343750,
-0.01803124882280826569,
0.01873340830206871033,
0.05583559349179267883,
0.01673877798020839691,
-0.06959032267332077026,
-0.11810530722141265869,
0.03239060193300247192,
-0.09718826413154602051,
-0.18114583194255828857,
0.02508039027452468872,
0.05798856914043426514,
-0.06110903620719909668,
-0.07822734862565994263,
-0.10089822858572006226,
-0.06241970509290695190,
-0.00786920264363288879,
-0.03089489787817001343,
-0.03564118966460227966,
-0.05941501259803771973,
-0.07419557869434356689,
-0.08347889035940170288,
-0.04656443744897842407,
0.08011402934789657593,
0.00608586613088846207,
0.05170460790395736694,
0.10001136362552642822,
0.09319152683019638062,
-0.04483065009117126465,
0.03350171074271202087,
0.00813200604170560837,
-0.17565257847309112549,
-0.10088390856981277466,
-0.10641068220138549805,
-0.21616505086421966553,
-0.04467391222715377808,
-0.09688741713762283325,
-0.04223552346229553223,
0.02967848815023899078,
0.04370172694325447083,
0.08224540203809738159,
0.01555588468909263611,
-0.12733715772628784180,
0.07876113802194595337,
0.00694880494847893715,
-0.03812935575842857361,
0.05019531026482582092,
0.07659699767827987671,
-0.03632972761988639832,
-0.21713863313198089600,
0.05526567250490188599,
-0.04588552936911582947,
-0.13376459479331970215,
-0.18304909765720367432,
-0.04387344419956207275,
-0.02116871066391468048,
-0.04211856052279472351,
-0.06095257028937339783,
-0.05594929680228233337,
0.12514632940292358398,
0.33363446593284606934,
-0.21268336474895477295,
-0.01260218210518360138,
0.01947399973869323730,
-0.14008761942386627197,
-0.00078711926471441984,
-0.09738471359014511108,
-0.07967337965965270996,
-0.05169796943664550781,
-0.08733803778886795044,
0.02258523181080818176,
-0.08205189555883407593,
-0.01570882275700569153,
-0.02034134604036808014,
-0.00491277454420924187,
0.19235171377658843994,
0.01749129034578800201,
-0.07928125560283660889,
-0.13057808578014373779,
0.02191741205751895905,
0.04909028857946395874,
0.03682840615510940552,
-0.09900573641061782837,
-0.02909562550485134125,
-0.00118551077321171761,
0.17863744497299194336,
0.08852362632751464844,
-0.04911892861127853394,
0.09401543438434600830,
0.03545362502336502075,
-0.06388635188341140747,
0.00888912286609411240,
-0.02982789091765880585,
-0.04168209061026573181,
-0.02267637476325035095,
0.04437568038702011108,
0.08751991391181945801,
0.05028850585222244263,
0.08957646042108535767,
0.02529970370233058929,
-0.14585039019584655762,
-0.05748829990625381470,
0.00414116634055972099,
-0.11155129969120025635,
-0.05877611413598060608,
0.03869488462805747986,
-0.03964883834123611450,
0.04118323698639869690,
-0.07784752547740936279,
0.01057339832186698914,
0.07674681395292282104,
-0.06372940540313720703,
0.00344749446958303452,
-0.00834579579532146454,
-0.10489987581968307495,
0.06091673299670219421,
0.07591270655393600464,
-0.05773951113224029541,
0.09969088435173034668,
-0.11010096222162246704,
-0.00044166404404677451,
-0.06143540516495704651,
-0.17018994688987731934,
-0.17087003588676452637,
-0.04962641745805740356,
-0.04894666746258735657,
0.00456872535869479179,
0.07554976642131805420,
-0.04332004487514495850,
-0.01533650234341621399,
-0.02710812725126743317,
-0.01624782755970954895,
0.09973439574241638184,
-0.12768936157226562500,
-0.03896490111947059631,
0.14417105913162231445,
-0.14401587843894958496,
-0.01057545654475688934,
0.03215734660625457764,
-0.08581592142581939697,
-0.05915124714374542236,
-0.00232314737513661385,
-0.07728533446788787842,
0.07719908654689788818,
0.17190168797969818115,
-0.09397088736295700073,
-0.08630478382110595703,
0.02934194169938564301,
-0.05148627609014511108,
0.22727568447589874268,
0.04032254964113235474,
-0.04475916177034378052,
-0.04648463055491447449,
-0.15367035567760467529,
-0.02431387081742286682,
-0.05574225261807441711,
0.06215523555874824524,
-0.03544148430228233337,
0.05115396156907081604,
-0.04538222029805183411,
0.01171272527426481247,
0.07877863198518753052,
-0.10480034351348876953,
-0.06238935515284538269,
-0.05676015466451644897,
-0.06462365388870239258,
-0.09911914169788360596,
-0.11368660628795623779,
-0.08522430807352066040,
-0.02410976216197013855,
-0.04689607024192810059,
-0.08320528268814086914,
0.04757625237107276917,
-0.00870432518422603607,
-0.01807027682662010193,
-0.07979985326528549194,
-0.11139494180679321289,
0.00178557098843157291,
-0.04746440425515174866,
0.09961347281932830811,
0.05939740315079689026,
0.02220368944108486176,
0.05284567549824714661,
-0.04239870235323905945,
0.13445051014423370361,
0.05101864039897918701,
0.01176818925887346268,
-0.02637355774641036987,
-0.00510248774662613869,
-0.00367079628631472588,
0.06180410459637641907,
-0.00710225058719515800,
0.03565078228712081909,
-0.11106042563915252686,
0.08941892534494400024,
0.07997391372919082642,
0.10279905796051025391,
0.14171722531318664551,
-0.01298407558351755142,
-0.14590159058570861816,
-0.08409069478511810303,
-0.06773813068866729736,
0.02369372174143791199,
-0.04116258770227432251,
-0.08393721282482147217,
-0.13210096955299377441,
0.00757635198533535004,
0.02627814374864101410,
0.03192911669611930847,
-0.06425567716360092163,
0.08781538158655166626,
0.00723751541227102280,
0.06945003569126129150,
-0.11811537295579910278,
-0.07114982604980468750,
-0.09759315848350524902,
-0.12509684264659881592,
-0.11507730931043624878,
-0.04627957567572593689,
-0.07454345375299453735,
-0.09664925187826156616,
-0.03451335802674293518,
0.01960887946188449860,
0.00698736449703574181,
0.00988458842039108276,
0.02557737380266189575,
-0.05423342809081077576,
-0.02856167778372764587,
0.02080693840980529785,
-0.12596973776817321777,
-0.00482366466894745827,
0.03855098038911819458,
-0.07009053230285644531,
-0.04988997429609298706,
-0.05667966604232788086,
0.03901122137904167175,
-0.04573132842779159546,
0.00516150565817952156,
0.12012831866741180420,
-0.02900852449238300323,
-0.09778589010238647461,
0.18923708796501159668,
0.06980124115943908691,
-0.05792530998587608337,
-0.03848700597882270813,
-0.07530097663402557373,
0.10412072390317916870,
0.06932709366083145142,
-0.05317852273583412170,
-0.08741965144872665405,
-0.06798564642667770386,
-0.06949764490127563477,
0.02730542235076427460,
0.06283773481845855713,
0.00590403331443667412,
0.01407742127776145935,
0.00330628035590052605,
0.13215108215808868408,
0.01596229150891304016,
-0.01626694574952125549,
0.02635030820965766907,
-0.04957669228315353394,
-0.05412513762712478638,
0.06011015549302101135,
0.03196637332439422607,
0.03558100014925003052,
0.00716534070670604706,
-0.07439915090799331665,
-0.04067640751600265503,
-0.12968863546848297119,
-0.08992166817188262939,
-0.04881576076149940491,
-0.08013489097356796265,
-0.01309254392981529236,
-0.10079669207334518433,
-0.12035430967807769775,
-0.01102173235267400742,
-0.07838127762079238892,
-0.01430856529623270035,
0.10813356190919876099,
-0.00511139119043946266,
0.03722776472568511963,
0.01690346747636795044,
-0.05880727991461753845,
0.02777635492384433746,
-0.08061336725950241089,
-0.15180467069149017334,
0.06677316129207611084,
-0.05819952487945556641,
-0.23191830515861511230,
0.02461822889745235443,
0.20107989013195037842,
0.02135087549686431885,
-0.03166869655251502991,
-0.03546066954731941223,
-0.06214152276515960693,
-0.04112345725297927856,
-0.04292904958128929138,
-0.04029193148016929626,
-0.08851711452007293701,
0.04870563000440597534,
0.01506805513054132462,
0.06596044450998306274,
0.04516174644231796265,
0.02971273474395275116,
0.05582095682621002197,
0.06292421370744705200,
-0.01322931051254272461,
-0.12868101894855499268,
-0.01979506760835647583,
-0.02332683466374874115,
0.13077254593372344971,
-0.05986588820815086365,
0.14571359753608703613,
0.09058530628681182861,
-0.09837911278009414673,
0.05666479095816612244,
-0.06912714242935180664,
-0.09922403097152709961,
-0.01711071096360683441,
0.02445998042821884155,
0.02618687227368354797,
0.08119079470634460449,
0.04650608077645301819,
0.06462822109460830688,
-0.06734151393175125122,
-0.02034832164645195007,
-0.10078205168247222900,
0.20872807502746582031,
-0.03564507141709327698,
-0.03495945781469345093,
-0.12393581122159957886,
-0.01368181966245174408,
0.05148449912667274475,
-0.05347765237092971802,
0.01603870838880538940,
-0.06717561930418014526,
0.08833821117877960205,
0.09865999966859817505,
-0.06393144279718399048,
0.12412195652723312378,
0.04546459391713142395,
-0.03736465796828269958,
-0.09164841473102569580,
0.00454913964495062828,
-0.10218926519155502319,
0.03773781284689903259,
0.04639278724789619446,
-0.07328697293996810913,
0.03778234869241714478,
0.05476436764001846313,
0.10068117827177047729,
0.06958393007516860962,
-0.00309748435392975807,
0.13446705043315887451,
0.11600482463836669922,
0.07003650814294815063,
-0.13083246350288391113,
0.01353704743087291718,
-0.11904450505971908569,
-0.12831920385360717773,
-0.02259535156190395355,
-0.08396689593791961670,
-0.08748963475227355957,
-0.09434553235769271851,
0.00183703785296529531,
-0.03052311204373836517,
-0.08445035666227340698,
0.02369565144181251526,
-0.06879295408725738525,
-0.07422889024019241333,
-0.16301907598972320557,
0.04179011285305023193,
0.07865411043167114258,
0.01087106298655271530,
-0.08082903176546096802,
-0.10049426555633544922,
0.06788461655378341675,
-0.04801423847675323486,
-0.09638169407844543457,
-0.02340481616556644440,
-0.05928010866045951843,
-0.13220609724521636963,
-0.06192686408758163452,
0.01605647243559360504,
-0.05056657642126083374,
-0.08239345997571945190,
-0.11857406795024871826,
-0.01448904443532228470,
-0.00435685785487294197,
0.17975230515003204346,
-0.11953896284103393555,
-0.01491851639002561569,
-0.09885041415691375732,
-0.01905350573360919952,
-0.13323096930980682373,
-0.04695296660065650940,
-0.03486074134707450867,
0.13605301082134246826,
0.09844516962766647339,
0.04284879937767982483,
-0.08831209689378738403,
0.00075433432357385755,
0.02036686614155769348,
-0.05683721974492073059,
-0.05084750801324844360,
-0.11719450354576110840,
-0.05587098747491836548,
-0.00081581948325037956,
0.13045677542686462402,
-0.07381856441497802734,
0.07906708866357803345,
0.01785250194370746613,
-0.11832042783498764038,
0.02837615646421909332,
0.00422868644818663597,
-0.14722721278667449951,
-0.05336571112275123596,
0.19768334925174713135,
0.06114336103200912476,
-0.07642781734466552734,
0.16156725585460662842,
-0.09556224197149276733,
-0.04151251912117004395,
-0.09573937207460403442,
-0.11643359810113906860,
-0.04704773053526878357,
-0.04958738386631011963,
-0.00388498324900865555,
-0.01706431061029434204,
-0.11090811342000961304,
-0.02700861915946006775,
-0.06336508691310882568,
-0.02921951934695243835,
0.10363473743200302124,
-0.00827761180698871613,
0.07479285448789596558,
0.00138232624158263206,
0.05912371724843978882,
0.00786230340600013733,
0.04347463324666023254,
0.12267064303159713745,
-0.03682434186339378357,
-0.04002831876277923584,
0.01668712310492992401,
0.13059589266777038574,
0.04491258412599563599,
-0.05086638405919075012,
0.01512116566300392151,
-0.01832871511578559875,
0.00315889739431440830,
0.04340440407395362854,
-0.02259812876582145691,
-0.03042494505643844604,
-0.07124432921409606934,
-0.02934866771101951599,
-0.10380996018648147583,
0.11066324263811111450,
-0.00416164239868521690,
0.03490753099322319031,
0.00518156588077545166,
0.06597934663295745850,
0.10671637207269668579,
0.09177850186824798584,
0.11853022873401641846,
-0.01264571025967597961,
0.06911816447973251343,
-0.00640141498297452927,
-0.03496580943465232849,
-0.06836127489805221558,
-0.07898770272731781006,
-0.01950171403586864471,
0.01210780069231987000,
-0.02924224175512790680,
-0.02267831377685070038,
-0.04033410549163818359,
-0.05506398528814315796,
0.15194587409496307373,
0.02753832191228866577,
0.06754303723573684692,
0.01837431639432907104,
-0.03192632272839546204,
-0.01352317631244659424,
-0.08652582019567489624,
-0.00363479880616068840,
0.02563915587961673737,
-0.02265707403421401978,
0.06454229354858398438,
-0.05345062166452407837,
0.16730538010597229004,
0.04147842898964881897,
0.03061939775943756104,
-0.06011274084448814392,
-0.02352338284254074097,
-0.04882550239562988281,
-0.01700754463672637939,
0.00031121633946895599,
-0.07458773255348205566,
-0.08318429440259933472,
0.12814782559871673584,
-0.10230351984500885010,
-0.11876267939805984497,
-0.01863583177328109741,
-0.02853711508214473724,
-0.10884817689657211304,
-0.12137991189956665039,
-0.01144548133015632629,
-0.15607376396656036377,
0.02701440639793872833,
0.01727765426039695740,
0.05896555259823799133,
0.00739987147971987724,
-0.00797924958169460297,
0.01334725320339202881,
-0.04225888103246688843,
-0.09856197983026504517,
-0.08286479860544204712,
0.03357620537281036377,
0.01146297156810760498,
0.02563071250915527344,
-0.01197102759033441544,
-0.00091921875718981028,
0.00498934742063283920,
-0.07803098112344741821,
-0.02751814015209674835,
0.11622947454452514648,
-0.06915858387947082520,
-0.05252379179000854492,
-0.06751547008752822876,
-0.02697603218257427216,
-0.05122062936425209045,
0.00936397444456815720,
-0.06387551873922348022,
-0.02415270172059535980,
-0.02816652879118919373,
-0.00933773443102836609,
-0.01274259109050035477,
0.02853968553245067596,
-0.02759407833218574524,
-0.00709451595321297646,
0.05359748378396034241,
0.01734615303575992584,
-0.01638589240610599518,
-0.04520574584603309631,
-0.03061455115675926208,
-0.02528574131429195404,
-0.02949346415698528290,
-0.04973979294300079346,
-0.02746740728616714478,
-0.04829381033778190613,
0.05911572650074958801,
0.06720279157161712646,
-0.06276391446590423584,
-0.02396295405924320221,
0.06052005290985107422,
-0.00863541476428508759,
0.04498669877648353577,
0.09522673487663269043,
-0.02530607767403125763,
-0.07362440228462219238,
-0.00823336094617843628,
0.08084449172019958496,
0.06237900629639625549,
0.11802668124437332153,
0.09562738984823226929,
0.09357826411724090576,
0.11062504351139068604,
0.06808663904666900635,
-0.21876370906829833984,
-0.09738227725028991699,
-0.16998013854026794434,
-0.03230109438300132751,
-0.05904231593012809753,
-0.04172143712639808655,
0.01287248823791742325,
0.02361319586634635925,
-0.09326762706041336060,
0.16389168798923492432,
0.07185059785842895508,
-0.03936847671866416931,
-0.00416872231289744377,
-0.05330173671245574951,
-0.05729212984442710876,
-0.03181033581495285034,
-0.14964005351066589355,
-0.13283506035804748535,
-0.01801239885389804840,
0.11974443495273590088,
0.16335220634937286377,
0.00069236737908795476,
0.05216441303491592407,
0.06479193270206451416,
0.01344741508364677429,
-0.02243837527930736542,
-0.05071497336030006409,
-0.05740852653980255127,
-0.07425090670585632324,
-0.03402278199791908264,
0.03010038472712039948,
0.04120158404111862183,
0.00325177097693085670,
-0.00477606756612658501,
0.02112767472863197327,
-0.02712931483983993530,
-0.12206339836120605469,
-0.11818686872720718384,
0.00666971039026975632,
0.08649789541959762573,
0.04767361655831336975,
0.06313654035329818726,
-0.05628018826246261597,
0.06077089533209800720,
-0.05275454744696617126,
-0.04309053719043731689,
0.02447074651718139648,
-0.02698280476033687592,
-0.17205271124839782715,
-0.06969866901636123657,
-0.03181621059775352478,
0.04930781945586204529,
0.01069442462176084518,
-0.06652871519327163696,
0.09329451620578765869,
0.00696277571842074394,
-0.06816879659891128540,
-0.04459036886692047119,
-0.14471535384654998779,
-0.18304488062858581543,
-0.07443214207887649536,
0.03028766438364982605,
0.02880121208727359772,
0.02037266083061695099,
0.20722457766532897949,
0.22718153893947601318,
-0.01780688762664794922,
-0.08781974017620086670,
-0.06740030646324157715,
-0.02029902860522270203,
-0.00014922850823495537,
-0.05325730517506599426,
0.04435564577579498291,
-0.02850693278014659882,
-0.04691017791628837585,
-0.03945126011967658997,
-0.08230642229318618774,
-0.11891213059425354004,
-0.09011145681142807007,
0.08879348635673522949,
0.17972227931022644043,
-0.04564772546291351318,
0.16848021745681762695,
0.07620120793581008911,
0.06737307459115982056,
-0.00341016356833279133,
0.00155246024951338768,
0.02990297041833400726,
-0.05567232146859169006,
-0.12489698082208633423,
0.03911975771188735962,
0.09620582312345504761,
0.03834988921880722046,
-0.01688022166490554810,
-0.16805101931095123291,
-0.18719860911369323730,
0.00265555852092802525,
0.30862617492675781250,
0.36692541837692260742,
-0.02153654210269451141,
0.11100053042173385620,
-0.06942120939493179321,
0.00802181940525770187,
0.03292052447795867920,
0.01063232868909835815,
-0.02011590451002120972,
-0.02489429339766502380,
-0.02631044201552867889,
-0.07988642901182174683,
-0.09451113641262054443,
-0.04144091159105300903,
0.10248540341854095459,
0.00207964261062443256,
0.04253315925598144531,
-0.16771733760833740234,
-0.17718738317489624023,
-0.07587484270334243774,
0.09510520845651626587,
0.21836371719837188721,
0.01412574574351310730,
-0.02425949461758136749,
-0.05724274739623069763,
-0.11770129203796386719,
0.01125130243599414825,
-0.01988695748150348663,
-0.06881987303495407104,
-0.00444919010624289513,
0.09212128072977066040,
-0.00417091930285096169,
-0.03275703638792037964,
-0.05784178525209426880,
-0.04015906155109405518,
0.01767503097653388977,
-0.10989297181367874146,
-0.03642397001385688782,
0.00573198683559894562,
-0.14855109155178070068,
-0.12934897840023040771,
0.00619861762970685959,
0.02085097134113311768,
0.01424984075129032135,
0.04256461560726165771,
-0.06368622183799743652,
-0.04866773635149002075,
-0.02264415659010410309,
0.07332260161638259888,
-0.03795928880572319031,
0.01910185441374778748,
-0.08788912743330001831,
-0.01940070837736129761,
-0.15274249017238616943,
-0.02886631153523921967,
0.03550722822546958923,
0.01798187009990215302,
0.02118619158864021301,
-0.12765945494174957275,
-0.06109249591827392578,
-0.19920313358306884766,
-0.22398643195629119873,
0.07516375929117202759,
-0.08158397674560546875,
-0.11974375694990158081,
-0.03753302246332168579,
0.06552055478096008301,
0.03810375928878784180,
-0.10664127767086029053,
-0.08477720618247985840,
-0.05112032219767570496,
0.03369170054793357849,
0.03981371223926544189,
-0.10357609391212463379,
0.16970361769199371338,
0.05828909948468208313,
0.19011989235877990723,
0.04905752837657928467,
-0.08332750946283340454,
-0.12138637900352478027,
-0.04504396021366119385,
-0.12239585071802139282,
-0.18232972919940948486,
-0.04631361737847328186,
0.00598998321220278740,
-0.10129969567060470581,
-0.02247788570821285248,
-0.04347700998187065125,
-0.07628609985113143921,
0.10049155354499816895,
0.02290311083197593689,
-0.02401942200958728790,
-0.02468125708401203156,
0.04049269482493400574,
0.06561370193958282471,
0.00315877911634743214,
0.02589808031916618347,
-0.03219865262508392334,
0.03177524358034133911,
0.03542717546224594116,
-0.02621709369122982025,
-0.08551637828350067139,
0.00381075358018279076,
-0.00853576697409152985,
-0.04044060781598091125,
-0.06964352726936340332,
-0.09978172928094863892,
0.02165579423308372498,
-0.03397226706147193909,
-0.02047993429005146027,
-0.07045117020606994629,
0.09441838413476943970,
-0.02934018336236476898,
-0.02775341831147670746,
0.02085871621966362000,
0.05562197044491767883,
0.08611316978931427002,
-0.01956088095903396606,
-0.03410959243774414062,
0.04448989406228065491,
-0.04353146255016326904,
-0.10026594996452331543,
-0.01271242182701826096,
0.02596586570143699646,
-0.03214323893189430237,
-0.14223888516426086426,
-0.06568760424852371216,
0.06213327124714851379,
-0.15629301965236663818,
-0.04891332983970642090,
-0.05838348716497421265,
-0.12836584448814392090,
-0.16177240014076232910,
-0.21510496735572814941,
0.00641684141010046005,
-0.11784714460372924805,
-0.12693600356578826904,
-0.02473335526883602142,
0.18468166887760162354,
0.40465730428695678711,
-0.03924394771456718445,
-0.02041725814342498779,
-0.06479993462562561035,
-0.00714794918894767761,
-0.09286031126976013184,
-0.06016882508993148804,
0.03317190334200859070,
-0.01522107794880867004,
0.05811324715614318848,
0.03185132890939712524,
0.02298065647482872009,
0.08064536005258560181,
0.08590563386678695679,
0.09711104631423950195,
0.04012894257903099060,
0.02270245365798473358,
0.08190486580133438110,
-0.00742642534896731377,
-0.11780378967523574829,
-0.08590804040431976318,
-0.09472341090440750122,
-0.10283504426479339600,
-0.10414260625839233398,
-0.08029597997665405273,
-0.05543711036443710327,
-0.10365990549325942993,
0.02470057457685470581,
-0.04058929905295372009,
0.12860092520713806152,
0.14641192555427551270,
-0.07993976771831512451,
0.06520664691925048828,
-0.02360788546502590179,
0.13126738369464874268,
0.03050537593662738800,
0.04310365021228790283,
-0.07651725411415100098,
0.00899325311183929443,
-0.04623218998312950134,
0.10096275806427001953,
0.12620267271995544434,
-0.05223989486694335938,
-0.07205090671777725220,
-0.00646899966523051262,
-0.03769065812230110168,
-0.00410000653937458992,
0.05488310009241104126,
0.02184508368372917175,
-0.06357245892286300659,
-0.11372396349906921387,
-0.05269594117999076843,
-0.01751903071999549866,
0.02973362617194652557,
-0.03549357876181602478,
0.15842325985431671143,
0.04142636433243751526,
0.00612869067117571831,
-0.04868932440876960754,
-0.10282522439956665039,
-0.05139524489641189575,
-0.10486132651567459106,
-0.10137935727834701538,
-0.12214586883783340454,
0.10933966189622879028,
0.12365687638521194458,
-0.12859688699245452881,
-0.08341750502586364746,
-0.07799392193555831909,
-0.09747332334518432617,
-0.04571591317653656006,
-0.07288355380296707153,
0.01303124241530895233,
-0.11435816437005996704,
-0.04848551005125045776,
-0.03706646338105201721,
-0.01243479643017053604,
-0.01747177913784980774,
-0.07502394914627075195,
0.32641178369522094727,
-0.03568536043167114258,
-0.00846203137189149857,
-0.05090803653001785278,
0.02874885499477386475,
0.09629928320646286011,
-0.07997345924377441406,
0.03767096623778343201,
-0.09750269353389739990,
0.09594894945621490479,
-0.06901205331087112427,
-0.05952491983771324158,
-0.03855630755424499512,
-0.00339720095507800579,
-0.02562591992318630219,
-0.10029794275760650635,
-0.05993331968784332275,
-0.07618375122547149658,
0.01872538402676582336,
-0.00344385579228401184,
-0.03583037853240966797,
-0.09305200725793838501,
-0.09899859130382537842,
-0.04292041435837745667,
0.15585465729236602783,
0.12152996659278869629,
0.05810737982392311096,
0.08918897062540054321,
0.00180470966733992100,
0.12339944392442703247,
0.03201108798384666443,
0.04937737807631492615,
0.00558731798082590103,
0.04935231804847717285,
0.17732872068881988525,
0.00145380874164402485,
0.07854343205690383911,
0.02715163305401802063,
-0.00301146996207535267,
-0.07761222869157791138,
-0.11282511800527572632,
-0.01036339253187179565,
-0.10474121570587158203,
-0.06361025571823120117,
-0.05535364523530006409,
-0.02447536773979663849,
-0.05729247629642486572,
-0.10288324952125549316,
-0.00301260035485029221,
0.02221440896391868591,
-0.03315295651555061340,
-0.09602914005517959595,
-0.09755505621433258057,
0.01836870424449443817,
-0.07531618326902389526,
0.05244289338588714600,
-0.00192126876208931208,
-0.08885683864355087280,
-0.06587816029787063599,
-0.05116638913750648499,
-0.13223366439342498779,
-0.15238988399505615234,
-0.00321117276325821877,
-0.05200581997632980347,
0.03961821645498275757,
0.08760640770196914673,
-0.07441432774066925049,
-0.06060621887445449829,
0.06780851632356643677,
-0.08732987940311431885,
-0.02891443297266960144,
0.12784989178180694580,
-0.00697310781106352806,
0.15570342540740966797,
0.03262634575366973877,
0.04598110541701316833,
0.01703674532473087311,
-0.02932743541896343231,
-0.15334017574787139893,
-0.09305491298437118530,
-0.05442356690764427185,
0.03427173942327499390,
-0.05679256469011306763,
0.08234854787588119507,
0.07037955522537231445,
0.01263813953846693039,
-0.07026945799589157104,
-0.12247747182846069336,
-0.01664763875305652618,
-0.12861487269401550293,
0.02134644240140914917,
-0.04049592092633247375,
-0.02781179174780845642,
0.03915461897850036621,
0.04606412723660469055,
0.02607906609773635864,
0.13328014314174652100,
-0.07818892598152160645,
-0.03245327249169349670,
-0.04630799964070320129,
0.04288940504193305969,
-0.05088101699948310852,
-0.04698259755969047546,
-0.01883150637149810791,
0.20806486904621124268,
-0.04213880002498626709,
-0.00567550212144851685,
0.05115317553281784058,
0.09315522015094757080,
-0.03059284389019012451,
-0.00330223003402352333,
-0.08162208646535873413,
-0.04047947376966476440,
-0.03110904060304164886,
-0.06639359146356582642,
-0.09937243163585662842,
-0.07401136308908462524,
-0.11536380648612976074,
0.02886235527694225311,
-0.05644909664988517761,
-0.01864107139408588409,
-0.11992382258176803589,
-0.04823498055338859558,
-0.01966439560055732727,
0.07970291376113891602,
-0.03456251323223114014,
0.09819055348634719849,
-0.01627922616899013519,
-0.11907673627138137817,
-0.16998787224292755127,
-0.10588507354259490967,
-0.07913327217102050781,
-0.11484155803918838501,
-0.12704120576381683350,
-0.08388630300760269165,
-0.08447891473770141602,
-0.17091763019561767578,
0.02916252240538597107,
-0.02909387461841106415,
-0.06422818452119827271,
-0.04607172310352325439,
0.00650303345173597336,
0.02550818771123886108,
0.02667436003684997559,
0.05836180597543716431,
-0.03445478156208992004,
0.03158671036362648010,
0.05238726735115051270,
0.05581884086132049561,
-0.07211765646934509277,
-0.12777577340602874756,
0.00750213302671909332,
-0.03663188591599464417,
-0.13817021250724792480,
-0.04897916689515113831,
-0.11245834082365036011,
0.03833296149969100952,
-0.03230148553848266602,
0.05817741900682449341,
-0.10309229046106338501,
0.06187438964843750000,
0.00630134576931595802,
-0.01475892961025238037,
0.04768472164869308472,
-0.05454569309949874878,
-0.18019858002662658691,
-0.11339554190635681152,
-0.05873689055442810059,
-0.04653696343302726746,
0.01031580660492181778,
-0.10352366417646408081,
0.02197344973683357239,
0.01140890829265117645,
0.01287177018821239471,
-0.00663313036784529686,
-0.04630580171942710876,
-0.04684709012508392334,
-0.00094829994486644864,
-0.01520456653088331223,
-0.01636873558163642883,
-0.11461573094129562378,
-0.01300145592540502548,
-0.04619561135768890381,
0.03766684234142303467,
0.07975849509239196777,
-0.10105127096176147461,
-0.03219052404165267944,
0.03151953965425491333,
-0.06985540688037872314,
-0.07572557777166366577,
-0.07389001548290252686,
-0.01798755489289760590,
-0.02188520319759845734,
-0.02893863059580326080,
-0.10420946031808853149,
-0.09357703477144241333,
-0.03201552107930183411,
0.00898369029164314270,
0.07760590314865112305,
-0.00060127285541966558,
0.04010574519634246826,
-0.00830414425581693649,
-0.02277598343789577484,
-0.04550893604755401611,
0.02858813665807247162,
0.06403472274541854858,
-0.06274758279323577881,
0.03939102217555046082,
-0.00531211495399475098,
0.04211849346756935120,
-0.11116871982812881470,
0.03542381152510643005,
0.12264825403690338135,
-0.08601424843072891235,
-0.09245589375495910645,
0.09543552249670028687,
0.04142313823103904724,
-0.10719113796949386597,
0.03612805157899856567,
0.12702670693397521973,
0.06543752551078796387,
-0.07330173999071121216,
0.03399747237563133240,
-0.01931390166282653809,
-0.02660295553505420685,
0.00340614886954426765,
-0.00210325373336672783,
-0.08827751874923706055,
-0.05440526828169822693,
-0.00046570994891226292,
0.05544441938400268555,
-0.05904146283864974976,
0.01692079566419124603,
0.02017103321850299835,
-0.08022771030664443970,
-0.05645095184445381165,
0.03129789605736732483,
-0.07997042685747146606,
-0.06211151555180549622,
0.13034382462501525879,
-0.16609437763690948486,
-0.11225625127553939819,
0.04529722779989242554,
-0.10534454137086868286,
-0.08615333586931228638,
0.00569579889997839928,
0.02266070060431957245,
0.00485625397413969040,
-0.00620339019224047661,
0.03765875473618507385,
-0.06803949177265167236,
-0.03439460322260856628,
0.04089272394776344299,
-0.00222892267629504204,
0.00501070637255907059,
-0.08585377037525177002,
-0.03132713213562965393,
-0.11211454868316650391,
0.07453592866659164429,
-0.00147084298077970743,
-0.10109613835811614990,
0.11785577237606048584,
-0.06205545365810394287,
0.01825805194675922394,
0.04374608770012855530,
0.02489517442882061005,
0.01577583514153957367,
-0.01292010676115751266,
0.07687477767467498779,
-0.00522073404863476753,
0.04707549139857292175,
0.09513090550899505615,
-0.13992600142955780029,
-0.02330262027680873871,
-0.01361413672566413879,
-0.02640218846499919891,
-0.11449945718050003052,
-0.10067813843488693237,
0.03030837513506412506,
-0.01351471990346908569,
0.04380226135253906250,
-0.01916094496846199036,
-0.00674950052052736282,
0.07651384174823760986,
0.12077219784259796143,
-0.01249075867235660553,
-0.07364183664321899414,
-0.00264300196431577206,
-0.14588266611099243164,
0.02611874975264072418,
0.01974405907094478607,
-0.09148875623941421509,
0.11630934476852416992,
-0.06134027242660522461,
0.03638568893074989319,
-0.00266028824262320995,
-0.00690385419875383377,
-0.08463278412818908691,
-0.14816360175609588623,
-0.00792509503662586212,
-0.03067324124276638031,
-0.02426202036440372467,
-0.21577683091163635254,
-0.06493453681468963623,
-0.01500919461250305176,
-0.08693572878837585449,
-0.08772199600934982300,
-0.10005939751863479614,
-0.02811305597424507141,
-0.14608184993267059326,
-0.04026655480265617371,
-0.03557620942592620850,
0.10145924985408782959,
0.04535599425435066223,
0.09771423786878585815,
0.03638364374637603760,
-0.07102283835411071777,
0.03122585266828536987,
-0.00370436534285545349,
0.00029621575959026814,
0.04354676976799964905,
-0.09860502183437347412,
0.02618541568517684937,
0.11268235743045806885,
0.09814374893903732300,
0.02391729503870010376,
0.08452005684375762939,
-0.08105209469795227051,
-0.00474546803161501884,
0.11172232031822204590,
0.07675949484109878540,
-0.07586940377950668335,
0.09057566523551940918,
0.12204113602638244629,
0.10414746403694152832,
-0.02920575067400932312,
0.00492880633100867271,
-0.03109813854098320007,
0.00412603002041578293,
-0.12003520131111145020,
-0.10912631452083587646,
-0.04826467856764793396,
-0.04195681959390640259,
0.04987140744924545288,
-0.00572213251143693924,
-0.09722764045000076294,
0.14478185772895812988,
0.07453671097755432129,
-0.02888108231127262115,
-0.00514277815818786621,
0.05226472765207290649,
-0.04628263041377067566,
-0.10202147811651229858,
-0.08271404355764389038,
0.03364623710513114929,
-0.05332209542393684387,
0.03587335720658302307,
-0.14665447175502777100,
0.08386580646038055420,
-0.08044931292533874512,
-0.04354547709226608276,
0.04534629732370376587,
-0.04449163004755973816,
0.13163374364376068115,
0.04826336726546287537,
-0.09116756916046142578,
-0.03627188503742218018,
-0.11021449416875839233,
-0.11086409538984298706,
-0.00096195342484861612,
0.04778689146041870117,
-0.08561091125011444092,
-0.08613951504230499268,
-0.06917610764503479004,
-0.18502825498580932617,
-0.12099690735340118408,
-0.07119045406579971313,
-0.11439756304025650024,
-0.00044737660209648311,
-0.07028461992740631104,
-0.15745496749877929688,
-0.17624109983444213867,
-0.06402788311243057251,
0.11483142524957656860,
-0.09384233504533767700,
0.04427589103579521179,
0.21281132102012634277,
0.11847813427448272705,
0.17154294252395629883,
-0.13101136684417724609,
0.00816978700459003448,
-0.07744204252958297729,
0.08735999464988708496,
-0.04514838382601737976,
0.02726593613624572754,
-0.00022407434880733490,
0.05565504729747772217,
-0.01411935128271579742,
0.03142189607024192810,
-0.12173441797494888306,
-0.05513317137956619263,
-0.10370800644159317017,
-0.10639236867427825928,
-0.08945554494857788086,
0.03275323659181594849,
-0.04791001230478286743,
-0.14254549145698547363,
-0.09828326106071472168,
-0.07812368869781494141,
-0.01993977464735507965,
0.07104221731424331665,
0.01044484041631221771,
0.14172397553920745850,
0.07268606871366500854,
-0.02902237139642238617,
0.06195857003331184387,
-0.00460275122895836830,
-0.08260127902030944824,
0.05744262784719467163,
0.04965855181217193604,
0.01679186336696147919,
0.05739698931574821472,
-0.00131038553081452847,
-0.08910951763391494751,
-0.05044446140527725220,
-0.05627292022109031677,
-0.08817492425441741943,
-0.03826655447483062744,
-0.08867455273866653442,
-0.02682296559214591980,
0.06113665923476219177,
-0.04223434999585151672,
0.02090897224843502045,
0.10488406568765640259,
0.00906826835125684738,
0.08161430805921554565,
-0.00411477778106927872,
-0.03064526617527008057,
-0.11014127731323242188,
-0.07890680432319641113,
-0.02743102610111236572,
-0.15131002664566040039,
0.01896547898650169373,
-0.12120933830738067627,
-0.04997774213552474976,
-0.16480286419391632080,
0.00074261345434933901,
0.06406592577695846558,
-0.18065463006496429443,
-0.02984232269227504730,
0.17757524549961090088,
-0.08985253423452377319,
-0.04102896898984909058,
0.08822024613618850708,
-0.09219398349523544312,
0.05184559151530265808,
0.02264680713415145874,
-0.00423518149182200432,
0.04070273414254188538,
0.09693944454193115234,
-0.01329602766782045364,
-0.03459009155631065369,
-0.03640546277165412903,
0.11237370967864990234,
0.04687342047691345215,
0.00630268035456538200,
0.02361436747014522552,
-0.00101034354884177446,
0.05973054468631744385,
-0.02251968160271644592,
0.07558551430702209473,
-0.10232224315404891968,
-0.06019879877567291260,
-0.18497368693351745605,
-0.10328806936740875244,
-0.10422141849994659424,
-0.01590097509324550629,
0.00102389114908874035,
-0.07370164245367050171,
-0.02446971461176872253,
0.00815889798104763031,
0.12030850350856781006,
0.12170151621103286743,
0.09588889032602310181,
-0.09801734983921051025,
0.02636641822755336761,
-0.02696890570223331451,
0.05061369761824607849,
-0.04016610234975814819,
0.02448991499841213226,
0.00476505374535918236,
0.03824413940310478210,
-0.04156353324651718140,
0.01046784408390522003,
-0.01175458077341318130,
-0.09592952579259872437,
-0.11151511967182159424,
-0.01881906017661094666,
-0.00835980568081140518,
-0.03024374879896640778,
-0.09015948325395584106,
-0.14166675508022308350,
0.01803964562714099884,
-0.06387844681739807129,
-0.11996756494045257568,
-0.12621763348579406738,
-0.09736616164445877075,
-0.00609571533277630806,
-0.04443611204624176025,
-0.00279699848033487797,
0.04138153418898582458,
0.08125276118516921997,
-0.00167999370023608208,
0.18560735881328582764,
-0.03363164886832237244,
-0.06257808208465576172,
-0.13716599345207214355,
-0.06172596663236618042,
0.03842794150114059448,
0.08208463340997695923,
0.10778302699327468872,
0.14719314873218536377,
0.06835812330245971680,
0.00347557337954640388,
-0.13858416676521301270,
-0.06530578434467315674,
-0.03731003403663635254,
-0.06906451284885406494,
0.04820009320974349976,
-0.04925853013992309570,
-0.14103010296821594238,
-0.05000048503279685974,
-0.08675438910722732544,
-0.06200887262821197510,
0.11450389027595520020,
0.12012553215026855469,
0.04496530070900917053,
0.01614347659051418304,
-0.00200339080765843391,
0.01297891885042190552,
-0.02388348244130611420,
-0.01484534982591867447,
-0.03324917331337928772,
0.02641966380178928375,
0.07615216076374053955,
-0.02362015657126903534,
-0.03367427363991737366,
-0.05748143419623374939,
-0.04178580269217491150,
-0.07875196635723114014,
0.03053708188235759735,
0.05704751238226890564,
-0.01024738233536481857,
-0.04954902827739715576,
-0.12831957638263702393,
0.03271472081542015076,
0.10031561553478240967,
-0.03038847073912620544,
0.12271653860807418823,
0.10097951442003250122,
-0.07009103894233703613,
0.12788051366806030273,
0.14830380678176879883,
-0.00768659822642803192,
-0.13183720409870147705,
-0.14843696355819702148,
-0.02724285796284675598,
-0.03583092615008354187,
-0.11391595005989074707,
-0.10183707624673843384,
0.06023362651467323303,
-0.02981243282556533813,
0.17697770893573760986,
0.07385202497243881226,
-0.03547123819589614868,
-0.02029692940413951874,
0.00648480653762817383,
-0.02313361503183841705,
-0.08044055849313735962,
-0.11271296441555023193,
0.12596938014030456543,
0.07567457109689712524,
-0.11907886713743209839,
-0.01924905925989151001,
-0.01992716267704963684,
-0.06007551401853561401,
0.01430899091064929962,
-0.08923743665218353271,
-0.04992192238569259644,
0.09544087201356887817,
0.19245424866676330566,
0.00733512546867132187,
-0.04945647343993186951,
-0.03236484900116920471,
-0.09418445080518722534,
-0.01954477839171886444,
-0.07756846398115158081,
-0.12035930156707763672,
-0.08667304366827011108,
-0.11179513484239578247,
0.08784313499927520752,
-0.08006150275468826294,
0.00496031111106276512,
0.05951442569494247437,
0.00803265627473592758,
-0.01731762290000915527,
0.03836317732930183411,
-0.10295905172824859619,
-0.11700870841741561890,
-0.01265432871878147125,
0.03931576758623123169,
-0.00582417193800210953,
0.03062964603304862976,
0.03402042761445045471,
0.00887745991349220276,
0.08358379453420639038,
0.11097835749387741089,
0.06382806599140167236,
0.03940023109316825867,
-0.00585086736828088760,
-0.09878206998109817505,
-0.01444363314658403397,
-0.02950789034366607666,
-0.09947509318590164185,
-0.07190452516078948975,
-0.14829303324222564697,
0.08357199281454086304,
-0.01033196132630109787,
-0.14620546996593475342,
0.01633494347333908081,
-0.00000933376850298373,
0.01543708238750696182,
0.13464091718196868896,
-0.01854245737195014954,
0.14887085556983947754,
0.03055913187563419342,
-0.14473207294940948486,
-0.08025941252708435059,
0.06332457810640335083,
-0.11270394176244735718,
-0.02580139972269535065,
0.01161299366503953934,
-0.08644152432680130005,
-0.14478896558284759521,
-0.09861441701650619507,
-0.06873665750026702881,
-0.01396016310900449753,
-0.02745545282959938049,
0.14168995618820190430,
0.12364833801984786987,
0.11875598132610321045,
0.07154557853937149048,
0.00289090420119464397,
-0.09420108795166015625,
-0.03825781494379043579,
-0.04499412328004837036,
-0.02942514605820178986,
-0.08186243474483489990,
0.13566647469997406006,
0.04051112756133079529,
-0.05194615572690963745,
-0.07819324731826782227,
-0.15714384615421295166,
-0.04193585738539695740,
-0.08776263147592544556,
-0.11196281015872955322,
-0.06544791907072067261,
0.00393003365024924278,
-0.11911123245954513550,
-0.08296355605125427246,
-0.00777979474514722824,
-0.03336368128657341003,
-0.01824569329619407654,
0.05708932504057884216,
-0.02167959138751029968,
-0.02215316146612167358,
-0.09718222916126251221,
0.00796023942530155182,
0.03040774352848529816,
-0.05671115964651107788,
-0.02864892780780792236,
0.00414293259382247925,
-0.10309461504220962524,
-0.08883505314588546753,
-0.01312521472573280334,
-0.07632107287645339966,
0.05304589122533798218,
-0.21902304887771606445,
0.09053756296634674072,
0.06779162585735321045,
-0.15451458096504211426,
-0.01183631177991628647,
0.09019493311643600464,
-0.09227395057678222656,
-0.10172130167484283447,
-0.07976500689983367920,
0.00592342903837561607,
0.07135100662708282471,
0.09267418086528778076,
0.09097585082054138184,
0.04447486996650695801,
-0.09003583341836929321,
-0.12907801568508148193,
0.06813740730285644531,
-0.00350414984859526157,
-0.15668688714504241943,
0.01086758263409137726,
0.05571140348911285400,
-0.02231769822537899017,
-0.07150442153215408325,
0.02805657871067523956,
-0.14882422983646392822,
-0.05393722653388977051,
-0.05991772934794425964,
-0.03816975280642509460,
-0.08609145879745483398,
-0.13157434761524200439,
0.01878563500940799713,
0.04882452636957168579,
-0.05353309586644172668,
0.10338232666254043579,
0.05604244768619537354,
-0.06000917032361030579,
0.04509602859616279602,
-0.06322290748357772827,
0.19564676284790039062,
-0.04592140391469001770,
-0.04619503393769264221,
-0.02168356813490390778,
-0.07500041276216506958,
-0.10774384438991546631,
-0.10407603532075881958,
-0.14874000847339630127,
0.00980573706328868866,
-0.04547656327486038208,
-0.01495804265141487122,
0.02763081155717372894,
-0.01405933033674955368,
-0.01783104427158832550,
0.00347603717818856239,
-0.04511200264096260071,
-0.04912812635302543640,
0.04505189508199691772,
-0.01705156452953815460,
-0.02114615403115749359,
0.02364716306328773499,
0.10319434851408004761,
0.03009713999927043915,
0.08192966878414154053,
0.10604633390903472900,
0.14199630916118621826,
0.00793119519948959351,
-0.08216568827629089355,
-0.14584936201572418213,
0.01866812445223331451,
-0.05142398178577423096,
0.00539452955126762390,
-0.01003589574247598648,
-0.04337491467595100403,
-0.09704574942588806152,
0.07609102874994277954,
0.00196960195899009705,
-0.11054537445306777954,
-0.00127920450177043676,
0.07429587095975875854,
-0.06420621275901794434,
-0.01340028084814548492,
-0.09869965910911560059,
-0.07449831068515777588,
-0.08501187711954116821,
-0.13311710953712463379,
-0.00506832916289567947,
-0.08656802773475646973,
-0.11692076176404953003,
-0.00298041268251836300,
0.05140623077750205994,
0.02799618989229202271,
-0.00934349652379751205,
-0.06904245913028717041,
-0.05911620706319808960,
-0.08726029098033905029,
0.01025118771940469742,
0.04125335067510604858,
0.08924498409032821655,
0.08032824099063873291,
0.00741957500576972961,
-0.11701342463493347168,
-0.06623433530330657959,
-0.07278695702552795410,
-0.05842607840895652771,
-0.10503336042165756226,
-0.08170448243618011475,
-0.03020533546805381775,
0.03621254861354827881,
-0.11119528859853744507,
-0.04927804693579673767,
0.00502531044185161591,
0.03502468764781951904,
0.13947348296642303467,
-0.06084813550114631653,
-0.07623198628425598145,
0.06976703554391860962,
0.06848254054784774780,
-0.02455543167889118195,
0.15187606215476989746,
0.03590609133243560791,
0.00893225707113742828,
0.07029308378696441650,
0.06242075935006141663,
-0.08270190656185150146,
-0.00499384012073278427,
-0.00841267313808202744,
-0.07323146611452102661,
-0.01341881416738033295,
-0.02940567210316658020,
0.00750251580029726028,
-0.00122880202252417803,
-0.02570234239101409912,
-0.02721569500863552094,
-0.04314796999096870422,
-0.12312459200620651245,
-0.07095728069543838501,
0.00433952221646904945,
0.02940235100686550140,
0.02820364013314247131,
0.05503715202212333679,
-0.12817622721195220947,
-0.01655440777540206909,
-0.09178517758846282959,
-0.02546647749841213226,
-0.08795081824064254761,
-0.08517267554998397827,
0.03333386033773422241,
0.04050830751657485962,
-0.02790742740035057068,
-0.04060948640108108521,
-0.00325984042137861252,
0.20094536244869232178,
-0.07155954837799072266,
0.01658707857131958008,
0.03823713958263397217,
-0.03328634425997734070,
-0.11350023001432418823,
0.05541354417800903320,
-0.04432959109544754028,
-0.08532452583312988281,
0.08650471270084381104,
-0.04219707846641540527,
-0.10259963572025299072,
0.05927005410194396973,
-0.07608431577682495117,
0.04051445797085762024,
-0.04906672611832618713,
-0.15896044671535491943,
0.02653057500720024109,
-0.09294901043176651001,
-0.08107660710811614990,
0.02245892025530338287,
0.06437344849109649658,
-0.00214266940020024776,
-0.00355525128543376923,
-0.00843608193099498749,
-0.13405728340148925781,
-0.08744844049215316772,
-0.01311158854514360428,
-0.09874117374420166016,
-0.09843701124191284180,
0.01074674725532531738,
0.02532188780605792999,
-0.11350514739751815796,
0.02632788941264152527,
0.05086780712008476257,
-0.11566428840160369873,
0.08517269790172576904,
0.04448939487338066101,
-0.06859003752470016479,
-0.00996405631303787231,
0.00090025918325409293,
-0.07937210053205490112,
-0.13212420046329498291,
0.05674735084176063538,
0.00597279239445924759,
0.24787187576293945312,
-0.13888195157051086426,
0.04192287847399711609,
-0.12013243883848190308,
-0.05687288939952850342,
0.02562150172889232635,
0.00813745986670255661,
-0.06424491107463836670,
0.04780369624495506287,
-0.00490478705614805222,
0.01705414429306983948,
-0.03273492306470870972,
-0.19571936130523681641,
-0.12720404565334320068,
0.10381925106048583984,
-0.07841836661100387573,
0.20426835119724273682,
-0.01932361535727977753,
-0.05686603859066963196,
-0.01058468222618103027,
-0.06233315169811248779,
-0.04927790537476539612,
-0.07823795080184936523,
-0.11887638270854949951,
0.04963586106896400452,
0.03957203775644302368,
-0.05370038002729415894,
0.03885348513722419739,
-0.00551146641373634338,
-0.00987565331161022186,
-0.08573853969573974609,
-0.03694347292184829712,
0.06013208627700805664,
-0.09415642917156219482,
-0.08276434242725372314,
-0.04635603725910186768,
-0.14124649763107299805,
-0.03712217509746551514,
-0.06218902394175529480,
0.05362026765942573547,
-0.02467793226242065430,
0.07013594359159469604,
-0.11061827838420867920,
-0.04165806248784065247,
-0.03192387521266937256,
-0.00074041303014382720,
0.20082037150859832764,
0.06249495968222618103,
-0.07304319739341735840,
-0.03690309077501296997,
0.19967585802078247070,
-0.05931600183248519897,
-0.06308855861425399780,
-0.13558982312679290771,
-0.06499674916267395020,
-0.02106805704534053802,
-0.00799972191452980042,
-0.00569890066981315613,
0.11159094423055648804,
0.12638705968856811523,
-0.10021232068538665771,
-0.04099383950233459473,
-0.02286708354949951172,
-0.10304983705282211304,
0.00925606209784746170,
0.23374889791011810303,
-0.00767200067639350891,
0.12225183099508285522,
-0.05775015056133270264,
-0.07471857219934463501,
0.11473980545997619629,
-0.02921544760465621948,
-0.01409703958779573441,
0.10406439751386642456,
-0.01526900567114353180,
0.01067956443876028061,
-0.07618424296379089355,
-0.07103843241930007935,
0.08593592047691345215,
0.04024057835340499878,
0.05467263609170913696,
0.00002540427158237435,
0.07113651931285858154,
0.00006250653677852824,
0.06736887246370315552,
-0.23907518386840820312,
-0.07934233546257019043,
-0.07698174566030502319,
-0.03996571898460388184,
-0.03664854168891906738,
0.02299454249441623688,
-0.10914754122495651245,
0.11931953579187393188,
0.04352558404207229614,
0.16709259152412414551,
0.03252805024385452271,
-0.03426850214600563049,
-0.05410921946167945862,
-0.03712259605526924133,
0.07469978183507919312,
0.08543670922517776489,
0.00471807224676012993,
-0.10674025118350982666,
0.06688945740461349487,
0.13633240759372711182,
-0.04285406321287155151,
0.13383713364601135254,
-0.04103668034076690674,
-0.11791943758726119995,
0.04828207939863204956,
-0.01875148154795169830,
-0.00374151440337300301,
-0.06446350365877151489,
-0.09453576058149337769,
-0.08085975050926208496,
-0.03062077797949314117,
-0.00141940114554017782,
-0.10175427049398422241,
0.10439643263816833496,
-0.00715104211121797562,
-0.03662582859396934509,
-0.04779629409313201904,
0.04845242202281951904,
0.09751036763191223145,
-0.03523969277739524841,
-0.01402014028280973434,
-0.04836774617433547974,
-0.07049045711755752563,
0.01409299951046705246,
-0.06557133793830871582,
-0.08814697712659835815,
-0.10006263852119445801,
0.05921855941414833069,
0.05098669975996017456,
-0.04611720889806747437,
0.17396400868892669678,
0.08509007841348648071,
0.15558287501335144043,
-0.00040423849713988602,
-0.00336171756498515606,
-0.06044930964708328247,
-0.00942181702703237534,
-0.01319386903196573257,
0.01734300330281257629,
0.18257534503936767578,
0.07054736465215682983,
-0.01937080547213554382,
0.01392089109867811203,
0.05850952491164207458,
-0.03733521327376365662,
0.08152586966753005981,
-0.07147262245416641235,
-0.06428650766611099243,
0.15002353489398956299,
-0.03735772520303726196,
0.04896721988916397095,
-0.16197431087493896484,
-0.11643406748771667480,
-0.13826805353164672852,
-0.06520096212625503540,
-0.08412085473537445068,
-0.06852360069751739502,
0.01665740646421909332,
-0.03099122643470764160,
-0.04206703603267669678,
0.11832785606384277344,
-0.03052935004234313965,
-0.11261987686157226562,
0.06129931658506393433,
0.03185772523283958435,
0.01689422689378261566,
0.13816598057746887207,
-0.00762150343507528305,
0.05431314557790756226,
-0.08255761861801147461,
-0.02522877044975757599,
-0.02016628906130790710,
-0.11119435727596282959,
-0.04262920096516609192,
-0.06108766049146652222,
-0.02859014272689819336,
0.03001992218196392059,
0.09604213386774063110,
0.06633005291223526001,
0.07841221243143081665,
0.09863910079002380371,
0.02474381029605865479,
0.03430614247918128967,
0.13562086224555969238,
-0.07568583637475967407,
0.04943505302071571350,
-0.01069552265107631683,
-0.03161399066448211670,
-0.03838855028152465820,
0.17569081485271453857,
-0.11776012927293777466,
-0.04470820724964141846,
0.00125462841242551804,
0.02022232301533222198,
-0.02241321280598640442,
-0.13661894202232360840,
-0.04956909269094467163,
-0.01203615777194499969,
0.03060639835894107819,
-0.10761149227619171143,
0.02414777129888534546,
-0.03672845289111137390,
-0.04307505860924720764,
0.01173421926796436310,
-0.06430368870496749878,
-0.01963811740279197693,
-0.07980326563119888306,
0.14698675274848937988,
-0.02355207502841949463,
-0.02858601510524749756,
-0.02062765136361122131,
0.11682590097188949585,
0.12950640916824340820,
-0.12498956918716430664,
0.12390820682048797607,
-0.08253532648086547852,
0.11255183070898056030,
0.08287215232849121094,
0.06613330543041229248,
0.03618169948458671570,
-0.11781045794486999512,
0.03619218245148658752,
0.06063698977231979370,
-0.04468150809407234192,
0.08637548983097076416,
0.02369969151914119720,
0.01908386684954166412,
0.14299325644969940186,
0.03839943185448646545,
-0.09842593967914581299,
0.02774191834032535553,
-0.05547120049595832825,
-0.04335271567106246948,
-0.02935049124062061310,
-0.04461683332920074463,
-0.04176399111747741699,
-0.10726991295814514160,
0.08021757006645202637,
-0.07827974855899810791,
-0.14755555987358093262,
-0.01184670533984899521,
-0.04322791844606399536,
-0.07809855788946151733,
-0.03481939435005187988,
0.03289627656340599060,
0.02762606181204319000,
-0.01076089683920145035,
-0.01772457920014858246,
0.01665343716740608215,
0.11132216453552246094,
-0.03516298532485961914,
-0.01406904868781566620,
-0.00502822501584887505,
-0.13792905211448669434,
0.08452311903238296509,
0.01630553975701332092,
-0.13041490316390991211,
0.03221030533313751221,
0.07145400345325469971,
-0.09745978564023971558,
-0.16423627734184265137,
-0.14563609659671783447,
-0.04166860878467559814,
0.34565925598144531250,
0.00797253288328647614,
0.21930544078350067139,
0.16587343811988830566,
-0.17536582052707672119,
-0.01265977695584297180,
-0.07072372734546661377,
0.10182644426822662354,
0.11554351449012756348,
-0.00057500996626913548,
-0.02057831175625324249,
-0.00564519409090280533,
-0.01564743369817733765,
-0.09282790869474411011,
-0.03031550534069538116,
-0.05400650203227996826,
-0.10199461877346038818,
0.04219273105263710022,
0.01402279920876026154,
0.01666546985507011414,
0.19778496026992797852,
0.01115010213106870651,
0.09741174429655075073,
-0.08090328425168991089,
0.06251806765794754028,
-0.07656218111515045166,
-0.04135232046246528625,
-0.02088507823646068573,
-0.00073936086846515536,
0.01512696035206317902,
-0.03847132995724678040,
-0.07198913395404815674,
-0.04651527106761932373,
-0.05981830880045890808,
-0.07213839888572692871,
-0.10071700811386108398,
-0.16553370654582977295,
-0.03149028867483139038,
0.09490085393190383911,
-0.07300672680139541626,
-0.08330772072076797485,
-0.02192727103829383850,
-0.07649926841259002686,
-0.10819983482360839844,
-0.02359088324010372162,
0.07419568300247192383,
-0.02765150554478168488,
-0.09606654942035675049,
0.05764981359243392944,
-0.00061748735606670380,
-0.08275534212589263916,
-0.10649828612804412842,
0.00198055338114500046,
-0.07853560149669647217,
0.11676171422004699707,
0.05177734419703483582,
0.00377005571499466896,
-0.01946499012410640717,
0.05793536454439163208,
-0.00879153050482273102,
0.06161315366625785828,
-0.05084456503391265869,
-0.13592346012592315674,
0.05225710570812225342,
0.03967776149511337280,
0.05013404041528701782,
0.04213336482644081116,
-0.12369102239608764648,
0.00447326293215155602,
-0.03382635116577148438,
0.07578682154417037964,
-0.08526114374399185181,
-0.03655095770955085754,
0.00985436327755451202,
-0.13135324418544769287,
-0.07966171205043792725,
0.06396832317113876343,
-0.04703855887055397034,
-0.06451495736837387085,
0.03761420771479606628,
-0.13602267205715179443,
-0.06434985995292663574,
-0.04021031782031059265,
-0.12792719900608062744,
-0.10631863772869110107,
-0.05683715268969535828,
-0.04567706212401390076,
-0.06004058569669723511,
-0.01622700132429599762,
-0.01267504412680864334,
-0.04351285472512245178,
-0.07966238260269165039,
-0.01689937524497509003,
0.03766437247395515442,
-0.00780967064201831818,
0.02454000338912010193,
-0.08090011030435562134,
-0.11515619605779647827,
-0.01059133093804121017,
-0.09871123731136322021,
0.04940446838736534119,
-0.02769690565764904022,
0.03559855744242668152,
-0.07780776172876358032,
-0.04532657191157341003,
-0.04126758873462677002,
0.06693843752145767212,
-0.05807281658053398132,
-0.08410413563251495361,
0.04904972761869430542,
-0.05858825147151947021,
-0.06463527679443359375,
0.04929915815591812134,
-0.04186541587114334106,
-0.04423734918236732483,
0.02290455065667629242,
0.01598852872848510742,
-0.02677015960216522217,
0.01904730312526226044,
0.05592260137200355530,
0.06400145590305328369,
-0.05502818897366523743,
0.10046882927417755127,
-0.00626832153648138046,
-0.06834187358617782593,
0.21546289324760437012,
0.08632982522249221802,
-0.03302944824099540710,
-0.14662966132164001465,
-0.06595062464475631714,
0.09466134011745452881,
-0.08004456013441085815,
-0.05032084509730339050,
-0.03121834248304367065,
0.00710226595401763916,
0.12321983277797698975,
-0.05479001253843307495,
-0.04854992404580116272,
0.04277231171727180481,
-0.09815128892660140991,
-0.05916938185691833496,
-0.08248348534107208252,
-0.10650634765625000000,
0.05541206151247024536,
0.03444270044565200806,
-0.00561968283727765083,
-0.06066758558154106140,
-0.08653794229030609131,
-0.06517011672258377075,
-0.03602314367890357971,
-0.11786634474992752075,
-0.02399045601487159729,
-0.03697226569056510925,
-0.10374596714973449707,
-0.11072916537523269653,
-0.04625635594129562378,
0.05999634042382240295,
0.00498419487848877907,
-0.02998646162450313568,
-0.05354441329836845398,
0.01825821772217750549,
-0.08675067126750946045,
-0.09526047110557556152,
-0.01854441501200199127,
-0.08369711041450500488,
-0.04826033115386962891,
-0.03124349750578403473,
-0.01963436789810657501,
0.10165484994649887085,
0.01909200660884380341,
-0.04346314072608947754,
-0.04870872199535369873,
0.02985006757080554962,
-0.00096868874970823526,
-0.02075294405221939087,
-0.08257979154586791992,
-0.00841938983649015427,
-0.10502594709396362305,
0.02267291583120822906,
-0.07355525344610214233,
-0.00460582319647073746,
0.02880239859223365784,
-0.07317356765270233154,
0.01970030739903450012,
0.09303154796361923218,
-0.08862394839525222778,
-0.02107252180576324463,
0.00783481728285551071,
-0.07296074181795120239,
0.15483559668064117432,
0.00756543641909956932,
-0.07922589033842086792,
0.16892629861831665039,
-0.04498038068413734436,
-0.10652334988117218018,
0.02742911502718925476,
0.06351859867572784424,
0.02355167083442211151,
0.03681338950991630554,
-0.04430772364139556885,
-0.08389507234096527100,
-0.00052035710541531444,
-0.11355812847614288330,
-0.04300062358379364014,
-0.01887378282845020294,
-0.06037384271621704102,
0.05331225320696830750,
-0.01245371252298355103,
-0.05228018388152122498,
-0.04156552627682685852,
0.01039479020982980728,
-0.09071537852287292480,
0.02922282554209232330,
-0.12715302407741546631,
-0.06599565595388412476,
0.14283810555934906006,
-0.09614588320255279541,
-0.08859315514564514160,
-0.01498227752745151520,
-0.02148050069808959961,
0.00327908922918140888,
0.00984455179423093796,
0.12189316749572753906,
0.01229633390903472900,
-0.03736981004476547241,
0.02093300782144069672,
-0.01056845579296350479,
-0.06100537255406379700,
0.09419966489076614380,
0.11850795149803161621,
0.02122613973915576935,
-0.08193554729223251343,
-0.06907764822244644165,
0.25915375351905822754,
-0.08127252757549285889,
0.04758690297603607178,
-0.03014688938856124878,
0.06605292111635208130,
0.26738384366035461426,
0.01578961312770843506,
0.04775324091315269470,
-0.02422110177576541901,
0.03245892003178596497,
0.07116498053073883057,
-0.04991619661450386047,
-0.08671069890260696411,
-0.04384023323655128479,
-0.03224888816475868225,
-0.11032805591821670532,
0.17265690863132476807,
0.12799318134784698486,
-0.07087871432304382324,
0.05029290169477462769,
0.04145798459649085999,
0.05387194827198982239,
-0.01777450367808341980,
0.05695696920156478882,
-0.06138608604669570923,
0.00247575785033404827,
-0.07536146789789199829,
0.05742814019322395325,
0.00974223390221595764,
-0.04105450958013534546,
0.14728878438472747803,
-0.00098719471134245396,
-0.04795156419277191162,
-0.10536060482263565063,
0.07342629134654998779,
-0.00326540484093129635,
-0.02311909385025501251,
0.20150415599346160889,
-0.08142951875925064087,
-0.02132435888051986694,
0.08784633874893188477,
-0.09924758970737457275,
-0.08861599117517471313,
-0.04842281714081764221,
0.16169989109039306641,
-0.03835623338818550110,
-0.07626148313283920288,
0.14018788933753967285,
-0.11326073855161666870,
-0.18294873833656311035,
0.09370324015617370605,
0.33619081974029541016,
0.00912208762019872665,
-0.10056205093860626221,
0.04197667911648750305,
-0.07853752374649047852,
-0.06122582033276557922,
-0.10928193479776382446,
0.01887577213346958160,
-0.01514348108321428299,
-0.03419739007949829102,
-0.05751578509807586670,
-0.06233512610197067261,
0.01431920379400253296,
0.01542147900909185410,
-0.06733498722314834595,
0.03012884408235549927,
0.02986656874418258667,
-0.00885114353150129318,
0.05954581871628761292,
0.01364699844270944595,
0.01780504360795021057,
-0.07821031659841537476,
-0.02908665128052234650,
0.02711942233145236969,
-0.07752664387226104736,
-0.01558238267898559570,
-0.03044673427939414978,
-0.00096697203116491437,
0.04645523056387901306,
-0.09761862456798553467,
0.00324443937279284000,
-0.04005522280931472778,
0.01362608186900615692,
-0.00867049675434827805,
-0.06454972177743911743,
0.02464125677943229675,
-0.07359357178211212158,
-0.05125336349010467529,
-0.04754758253693580627,
-0.01729995384812355042,
-0.07717894017696380615,
-0.06873908638954162598,
-0.11919990181922912598,
-0.05142524465918540955,
-0.02782003954052925110,
0.05118693783879280090,
0.06680972874164581299,
0.08645240217447280884,
0.01292911916971206665,
-0.04243565723299980164,
-0.02856889180839061737,
0.01036523282527923584,
-0.03744537383317947388,
-0.01475807372480630875,
0.17786057293415069580,
0.03350914269685745239,
-0.03449957817792892456,
-0.05993138626217842102,
-0.05917514115571975708,
-0.01055632345378398895,
-0.09225625544786453247,
-0.01504523120820522308,
0.00155648111831396818,
-0.03834795206785202026,
-0.06864100694656372070,
-0.01562810130417346954,
0.00125340244267135859,
-0.03435195982456207275,
-0.05959543213248252869,
-0.01700614951550960541,
-0.13313286006450653076,
-0.07298758625984191895,
0.02849772572517395020,
0.06929582357406616211,
0.01829595677554607391,
-0.00105014210566878319,
0.05312975496053695679,
-0.09291149675846099854,
-0.00822987966239452362,
0.02896491996943950653,
0.04918061941862106323,
0.23488955199718475342,
-0.11150560528039932251,
-0.04418318718671798706,
0.13444365561008453369,
0.00841723755002021790,
0.00659407628700137138,
0.01548511721193790436,
-0.01422667317092418671,
-0.00021680981444660574,
0.00664135022088885307,
-0.08425995707511901855,
0.07424571365118026733,
-0.06657454371452331543,
0.10045421123504638672,
-0.00683759665116667747,
-0.12055271863937377930,
0.15089438855648040771,
0.05504862591624259949,
-0.07080561667680740356,
-0.06006633490324020386,
-0.04953083768486976624,
-0.06903412938117980957,
-0.01006831414997577667,
0.00956922769546508789,
-0.10994097590446472168,
0.06764923036098480225,
0.03147382661700248718,
0.02969232574105262756,
-0.13182076811790466309,
-0.02039989456534385681,
-0.01396705396473407745,
-0.12405967712402343750,
0.12490028887987136841,
0.01583229005336761475,
-0.10577445477247238159,
0.18709914386272430420,
0.04851137846708297729,
-0.07747293263673782349,
-0.04879426956176757812,
-0.05993761122226715088,
-0.07237153500318527222,
-0.10145170986652374268,
-0.06613759696483612061,
-0.06443180888891220093,
-0.16900008916854858398,
-0.00935624446719884872,
-0.01733820699155330658,
0.02514217235147953033,
0.01630703918635845184,
0.12417173385620117188,
0.12923805415630340576,
0.05367664247751235962,
-0.01399633195251226425,
-0.09360988438129425049,
-0.06657813489437103271,
-0.10793294757604598999,
-0.11811351776123046875,
-0.00839436706155538559,
-0.04654870927333831787,
-0.07069971412420272827,
-0.08251239359378814697,
-0.09832150489091873169,
-0.02964442223310470581,
-0.03168459236621856689,
-0.03423614427447319031,
-0.15401028096675872803,
0.03456612303853034973,
-0.08301120996475219727,
0.03891796246170997620,
-0.04452567920088768005,
-0.09301925450563430786,
0.00542742246761918068,
0.01166290882974863052,
0.04613076895475387573,
-0.12815181910991668701,
-0.05072000250220298767,
0.00148307380732148886,
-0.00037459100713022053,
-0.12226837873458862305,
-0.01619573496282100677,
-0.03256628662347793579,
-0.04839150235056877136,
-0.11379171907901763916,
-0.09410140663385391235,
-0.06292542815208435059,
-0.11070628464221954346,
-0.05645477399230003357,
-0.09706189483404159546,
-0.12046446651220321655,
0.07988094538450241089,
-0.03865363821387290955,
-0.00978581793606281281,
0.08332195132970809937,
0.03524297848343849182,
0.02375184372067451477,
-0.02370453812181949615,
0.02659345977008342743,
-0.08247879147529602051,
-0.00880800839513540268,
0.10268471390008926392,
0.06502502411603927612,
-0.05914983898401260376,
-0.02570703439414501190,
-0.02099910005927085876,
-0.00573360407724976540,
-0.02381358109414577484,
0.03653433173894882202,
0.07029866427183151245,
-0.21217407286167144775,
-0.07095481455326080322,
-0.11912750452756881714,
-0.07801815867424011230,
0.04156758263707160950,
0.00017381424549967051,
-0.06077219173312187195,
-0.11601948738098144531,
-0.00776469660922884941,
0.07973616570234298706,
0.01690717227756977081,
0.05166392773389816284,
-0.10863921791315078735,
0.04367827251553535461,
0.06199321150779724121,
-0.04684041067957878113,
0.01738082803785800934,
0.09998895972967147827,
-0.03930770978331565857,
-0.05438418686389923096,
-0.05305963382124900818,
-0.01236156001687049866,
0.02520016953349113464,
-0.09658114612102508545,
-0.04511088132858276367,
-0.06164256110787391663,
-0.08626397699117660522,
0.10812472552061080933,
0.04917753860354423523,
-0.04367915540933609009,
0.00221099378541111946,
-0.01709773764014244080,
0.04722792655229568481,
0.07346682250499725342,
0.11982094496488571167,
-0.04838268831372261047,
-0.07946438342332839966,
-0.12354288995265960693,
-0.14310215413570404053,
-0.09737483412027359009,
-0.04947285354137420654,
-0.13268005847930908203,
0.02871637418866157532,
-0.08501268923282623291,
-0.17718899250030517578,
0.01091787591576576233,
0.02417016960680484772,
-0.00744363525882363319,
-0.07982478290796279907,
0.00523153599351644516,
0.25239798426628112793,
-0.03161792084574699402,
-0.00097433058544993401,
-0.01679661311209201813,
-0.03932957351207733154,
-0.02056282758712768555,
0.27171149849891662598,
-0.07601982355117797852,
0.07587083429098129272,
0.12928426265716552734,
-0.04743517562747001648,
-0.01145026274025440216,
-0.15077981352806091309,
-0.13501095771789550781,
0.08437190204858779907,
-0.10249647498130798340,
0.02289184741675853729,
0.02683188021183013916,
-0.02342482842504978180,
-0.05587222427129745483,
-0.03803014382719993591,
-0.04759968444705009460,
-0.05355691164731979370,
-0.03936205804347991943,
0.00584803335368633270,
-0.01902211271226406097,
-0.03298532217741012573,
-0.09996081888675689697,
-0.07086879760026931763,
0.01315063890069723129,
-0.03409878164529800415,
-0.09490942209959030151,
0.06721330434083938599,
0.11029114574193954468,
0.07641097158193588257,
0.03875682875514030457,
-0.08751747757196426392,
0.11900726705789566040,
-0.03229245543479919434,
-0.03302803263068199158,
-0.00105726800393313169,
0.08123743534088134766,
0.13458710908889770508,
0.01047591120004653931,
0.01801220327615737915,
-0.06412377953529357910,
0.05744644999504089355,
-0.11085917055606842041,
0.02763645164668560028,
-0.08595702052116394043,
-0.06822302192449569702,
0.12410396337509155273,
-0.02003007940948009491,
0.00328980828635394573,
-0.08475714176893234253,
0.00735363410785794258,
-0.00907392986118793488,
-0.02649135515093803406,
-0.00419933674857020378,
-0.06447995454072952271,
-0.07490686327219009399,
-0.01601655036211013794,
0.10323588550090789795,
0.02902998216450214386,
0.04917604476213455200,
0.13258363306522369385,
-0.05457844212651252747,
0.03307847678661346436,
0.02768208086490631104,
0.05168937519192695618,
-0.03116132877767086029,
0.02549139782786369324,
-0.03353897482156753540,
0.14153549075126647949,
0.07968874275684356689,
-0.02179581671953201294,
-0.09889389574527740479,
0.09119605273008346558,
0.01561198756098747253,
-0.04001355916261672974,
-0.11297849565744400024,
-0.03634657338261604309,
-0.05340959504246711731,
-0.06973002851009368896,
-0.14673723280429840088,
-0.05030587688088417053,
-0.01782550476491451263,
-0.03894855454564094543,
0.01106059458106756210,
-0.05627022311091423035,
-0.08597704768180847168,
-0.02042968943715095520,
0.00142981845419853926,
-0.02432360313832759857,
-0.00341947935521602631,
-0.04201604053378105164,
-0.06029220670461654663,
0.08771564811468124390,
0.07375241070985794067,
0.07199781388044357300,
-0.01759104616940021515,
0.04352583736181259155,
-0.07430014014244079590,
0.00368805672042071819,
-0.07009837031364440918,
0.00334637635387480259,
0.04421510174870491028,
0.06401561945676803589,
-0.11433781683444976807,
0.04073074087500572205,
0.00922752823680639267,
-0.08555709570646286011,
-0.04312080144882202148,
0.00975321140140295029,
0.00882019661366939545,
-0.01836474984884262085,
-0.09110601246356964111,
0.09783022105693817139,
-0.11373362690210342407,
-0.02180531993508338928,
-0.03688285499811172485,
0.06918501853942871094,
-0.08296395838260650635,
0.10841169953346252441,
-0.01977693475782871246,
-0.13428901135921478271,
-0.02654535137116909027,
-0.00688312714919447899,
-0.08788537979125976562,
0.03669054806232452393,
0.06372720748186111450,
-0.03963441401720046997,
-0.02913248725235462189,
-0.12933708727359771729,
0.07696567475795745850,
-0.00043809559429064393,
-0.10523562133312225342,
0.00240848702378571033,
-0.00630909437313675880,
0.02188219688832759857,
-0.00926236528903245926,
-0.03586486354470252991,
-0.05068337917327880859,
0.07137875258922576904,
0.07474847137928009033,
0.00346792303025722504,
0.13462790846824645996,
0.00944891758263111115,
-0.01543457806110382080,
-0.07436543703079223633,
-0.01616421900689601898,
-0.03334049507975578308,
-0.05721610412001609802,
-0.06101374700665473938,
-0.11353387683629989624,
-0.01630732975900173187,
0.00057298073079437017,
-0.03408985212445259094,
-0.08494614064693450928,
-0.10611045360565185547,
-0.00824924372136592865,
-0.01463204063475131989,
-0.11067397892475128174,
0.04363827034831047058,
-0.03515623509883880615,
-0.03739243745803833008,
-0.10741741955280303955,
0.02202523685991764069,
-0.07223792374134063721,
-0.00652992678806185722,
0.00746335927397012711,
-0.04256296902894973755,
-0.04888090863823890686,
0.04707725346088409424,
-0.04614915326237678528,
-0.06304152309894561768,
-0.03226064518094062805,
0.15538506209850311279,
-0.00110491202212870121,
-0.05710339918732643127,
-0.02078411914408206940,
-0.07575061917304992676,
-0.03368333354592323303,
-0.08340700715780258179,
-0.09171914309263229370,
0.00168989272788167000,
0.08585888147354125977,
0.08499789983034133911,
0.16242660582065582275,
-0.04117117077112197876,
-0.01068404782563447952,
-0.04890401288866996765,
-0.07946257293224334717,
-0.13976354897022247314,
-0.07848823070526123047,
-0.02911213412880897522,
-0.02490156143903732300,
-0.02758152224123477936,
-0.15341633558273315430,
-0.05245272442698478699,
0.04619619995355606079,
-0.05271694436669349670,
0.10970242321491241455,
-0.03379915654659271240,
-0.07965365052223205566,
0.10473519563674926758,
0.00333136483095586300,
-0.06305870413780212402,
0.04882174730300903320,
0.09385061264038085938,
-0.06751449406147003174,
-0.01743143051862716675,
-0.02212662063539028168,
-0.06304381787776947021,
0.03598107025027275085,
0.04024855047464370728,
-0.05898586660623550415,
-0.03217649459838867188,
0.07543788850307464600,
-0.04796553403139114380,
-0.06322602182626724243,
-0.01406348869204521179,
0.17685899138450622559,
-0.02443393692374229431,
0.18696710467338562012,
-0.00239704130217432976,
0.06050494313240051270,
0.04336954280734062195,
-0.09518327564001083374,
-0.01689035072922706604,
-0.04151549935340881348,
-0.10386799275875091553,
0.07977879792451858521,
0.05087353661656379700,
-0.16055777668952941895,
0.13332748413085937500,
0.02832867950201034546,
-0.05822138488292694092,
-0.04788678139448165894,
0.10696999728679656982,
0.01246394682675600052,
-0.02979538775980472565,
0.10927442461252212524,
0.05065535008907318115,
0.00580418249592185020,
-0.00765003450214862823,
-0.10214752703905105591,
0.06489752233028411865,
0.09890796244144439697,
0.01440742053091526031,
-0.13466066122055053711,
-0.12508183717727661133,
-0.02375008724629878998,
-0.04789802804589271545,
-0.13250777125358581543,
-0.09357926994562149048,
-0.05039228498935699463,
0.00806740764528512955,
-0.01086205895990133286,
-0.02755053900182247162,
0.02208674140274524689,
-0.09207956492900848389,
0.01035525836050510406,
0.02883325703442096710,
-0.06188398972153663635,
0.07588673382997512817,
0.05300442501902580261,
-0.04921815171837806702,
-0.00795747619122266769,
0.12406077980995178223,
0.04241602867841720581,
0.00359383737668395042,
-0.04284330084919929504,
0.00899529922753572464,
0.08565245568752288818,
0.02752911299467086792,
0.08801408112049102783,
-0.04129180312156677246,
-0.06989350914955139160,
0.01181737985461950302,
-0.17511476576328277588,
-0.03800129890441894531,
-0.07737867534160614014,
-0.12609152495861053467,
-0.06462432444095611572,
0.00340377748943865299,
0.03854373097419738770,
-0.08813365548849105835,
-0.12123194336891174316,
-0.08738005161285400391,
0.03019479848444461823,
-0.05087208002805709839,
0.02518113516271114349,
-0.01264691073447465897,
-0.05840870738029479980,
0.00984356272965669632,
-0.10256774723529815674,
-0.09437816590070724487,
-0.02443191222846508026,
0.16462223231792449951,
0.00678685586899518967,
-0.00391621375456452370,
-0.03825151920318603516,
0.16996064782142639160,
0.03075541742146015167,
0.06509618461132049561,
0.01953902281820774078,
-0.09881071746349334717,
0.06683035939931869507,
0.02936239913105964661,
0.08134989440441131592,
-0.08314252644777297974,
-0.04683219641447067261,
-0.03999929875135421753,
-0.13882985711097717285,
-0.12044654786586761475,
-0.19092398881912231445,
-0.09597568958997726440,
-0.00216803024522960186,
-0.09842269122600555420,
-0.06356151401996612549,
-0.07927309721708297729,
-0.05713779479265213013,
-0.04915277287364006042,
0.02790448255836963654,
0.08128140866756439209,
0.11320094764232635498,
0.20337340235710144043,
0.05496390908956527710,
0.02052440308034420013,
-0.03740792348980903625,
0.09088040143251419067,
0.04855613783001899719,
-0.12233474105596542358,
0.11405725032091140747,
-0.09566704928874969482,
-0.02440962567925453186,
0.03162857145071029663,
-0.05196582898497581482,
-0.02888085134327411652,
-0.01517118513584136963,
0.02248904109001159668,
-0.01203618943691253662,
-0.01927338354289531708,
0.04261189699172973633,
-0.00930941291153430939,
-0.06046608835458755493,
-0.03829380124807357788,
-0.02146870642900466919,
-0.13984520733356475830,
0.04093832895159721375,
0.02777757309377193451,
-0.12100324779748916626,
-0.01787401735782623291,
-0.10062351822853088379,
0.10288623720407485962,
0.00542677240446209908,
-0.01592745631933212280,
0.03938023000955581665,
0.09795984625816345215,
0.06569887697696685791,
-0.02622334845364093781,
0.02527206763625144958,
-0.01249114796519279480,
0.10567887127399444580,
-0.06126197054982185364,
-0.12165360152721405029,
0.07525426894426345825,
-0.06019805744290351868,
-0.10631032288074493408,
-0.10812142491340637207,
-0.15780614316463470459,
-0.02681390009820461273,
0.06356595456600189209,
-0.06131333112716674805,
-0.07466331124305725098,
0.08021941035985946655,
-0.11381280422210693359,
-0.00477674417197704315,
-0.02735633589327335358,
-0.05144623294472694397,
-0.09240490943193435669,
-0.00946385692805051804,
-0.02848173119127750397,
-0.00645463122054934502,
0.00926531385630369186,
-0.06234110891819000244,
0.00830236636102199554,
-0.09162747859954833984,
-0.05841414257884025574,
-0.01944209821522235870,
-0.00812724139541387558,
0.06143281236290931702,
0.02072174102067947388,
-0.02686659246683120728,
-0.04068858921527862549,
-0.03073032014071941376,
-0.11648061871528625488,
-0.11395616829395294189,
-0.06828995048999786377,
-0.02692056447267532349,
-0.07213848084211349487,
0.14136911928653717041,
-0.05742375180125236511,
-0.03949041664600372314,
-0.01468904502689838409,
-0.06972035765647888184,
0.05916663259267807007,
-0.15028370916843414307,
0.11285775154829025269,
0.02399588562548160553,
-0.03706909716129302979,
0.08685960620641708374,
-0.11427082121372222900,
-0.08362677693367004395,
-0.02769951336085796356,
0.04644100368022918701,
-0.03067266382277011871,
-0.05129742622375488281,
-0.06059505790472030640,
0.06838691234588623047,
-0.12132029980421066284,
-0.05042523518204689026,
0.02292468212544918060,
0.26129102706909179688,
0.05804611369967460632,
-0.13705994188785552979,
-0.11545617133378982544,
-0.08522436767816543579,
0.05410589650273323059,
-0.03199495375156402588,
-0.05097338929772377014,
0.05716344714164733887,
0.13777810335159301758,
-0.06339659541845321655,
-0.11307920515537261963,
-0.00186639127787202597,
-0.02196769230067729950,
0.05555758997797966003,
-0.00740274973213672638,
-0.04530173540115356445,
0.20717553794384002686,
-0.00494700297713279724,
0.08425279706716537476,
0.01650967076420783997,
0.03570998460054397583,
-0.08661578595638275146,
-0.10215537995100021362,
-0.05195149034261703491,
-0.06426784396171569824,
0.15275813639163970947,
-0.10701192915439605713,
-0.09746235609054565430,
0.16027992963790893555,
-0.07359834760427474976,
0.00319099356420338154,
-0.02481994032859802246,
-0.07378590852022171021,
-0.05685025826096534729,
-0.02754850871860980988,
0.12498627603054046631,
-0.04003280773758888245,
-0.08408872783184051514,
-0.08780623972415924072,
0.03792486339807510376,
-0.05072364956140518188,
-0.03762910887598991394,
-0.06723905354738235474,
-0.10194395482540130615,
-0.06175276637077331543,
0.00203457102179527283,
0.02082463353872299194,
-0.09616927802562713623,
-0.03557124361395835876,
-0.03908578306436538696,
0.00717106275260448456,
0.12862078845500946045,
0.04235254600644111633,
-0.03487632796168327332,
-0.03343201428651809692,
0.08709286898374557495,
-0.03930777683854103088,
-0.15100418031215667725,
0.00808596331626176834,
0.02115687169134616852,
-0.01959996484220027924,
-0.02844549342989921570,
0.09834757447242736816,
0.17696194350719451904,
0.03839917853474617004,
-0.14339126646518707275,
-0.06224321573972702026,
0.04276235774159431458,
-0.01166401524096727371,
-0.05378177016973495483,
0.15552875399589538574,
-0.04876747354865074158,
-0.05396950244903564453,
0.04414166510105133057,
-0.00089536473387852311,
0.03934280946850776672,
0.11333276331424713135,
-0.02860477380454540253,
0.00127448851708322763,
-0.02611271664500236511,
-0.02021448500454425812,
0.04791230335831642151,
-0.05908185616135597229,
0.05428756028413772583,
0.06765017658472061157,
0.04514459520578384399,
0.09772261977195739746,
0.05373119190335273743,
-0.02127169817686080933,
-0.09500078856945037842,
-0.01745289564132690430,
-0.05421835929155349731,
0.06790052354335784912,
-0.03173102438449859619,
0.10466532409191131592,
-0.00179272494278848171,
0.27764329314231872559,
0.02789037115871906281,
-0.17150913178920745850,
-0.00193172879517078400,
-0.14956039190292358398,
-0.00659954268485307693,
0.03705837950110435486,
0.00784534960985183716,
-0.07268957793712615967,
-0.06287813931703567505,
0.01261566951870918274,
0.04282499477267265320,
-0.01949205622076988220,
-0.06761939823627471924,
0.03594147413969039917,
0.16810759902000427246,
-0.08632723987102508545,
-0.04897674918174743652,
0.25135770440101623535,
-0.05869951099157333374,
-0.00691872555762529373,
0.03553996980190277100,
-0.13918566703796386719,
0.02005855739116668701,
-0.04350736737251281738,
-0.06041502952575683594,
0.12222421169281005859,
-0.02241320908069610596,
0.24820165336132049561,
0.08606401830911636353,
-0.10913130640983581543,
-0.04318897053599357605,
0.01398871745914220810,
-0.12183339893817901611,
-0.11599506437778472900,
-0.08441912382841110229,
-0.04158149287104606628,
-0.06007581576704978943,
-0.07348491251468658447,
0.08683594316244125366,
0.06776876747608184814,
0.01647232845425605774,
-0.01022723224014043808,
-0.09978456050157546997,
0.21125072240829467773,
0.01472204457968473434,
-0.04636105522513389587,
0.00535069918259978294,
0.03520609810948371887,
-0.11642240732908248901,
-0.06015484780073165894,
-0.10376801341772079468,
0.00630439491942524910,
0.06564740091562271118,
0.01293156296014785767,
0.09156915545463562012,
0.15837381780147552490,
0.10142901539802551270,
-0.12329491972923278809,
-0.04661332443356513977,
-0.06829048693180084229,
0.06950494647026062012,
-0.02323073148727416992,
-0.02325730398297309875,
-0.08584332466125488281,
-0.05566525459289550781,
-0.09678867459297180176,
-0.07374693453311920166,
0.00963524170219898224,
-0.01418889407068490982,
-0.04120104387402534485,
-0.03587864711880683899,
0.10166691988706588745,
-0.06959366798400878906,
-0.01323074661195278168,
0.02648344263434410095,
-0.01094890944659709930,
0.03083192370831966400,
-0.10390613228082656860,
-0.12156941741704940796,
0.03665831312537193298,
-0.14997091889381408691,
-0.07079386711120605469,
-0.06510020047426223755,
0.19222645461559295654,
0.06985431164503097534,
-0.01653274148702621460,
-0.17134337127208709717,
0.07892095297574996948,
-0.12071536481380462646,
0.08179707080125808716,
0.18399448692798614502,
0.05989398807287216187,
0.01528371777385473251,
0.03899030387401580811,
-0.04853041097521781921,
0.05520318448543548584,
-0.01525210123509168625,
-0.02611527778208255768,
0.01321852486580610275,
0.05781234055757522583,
-0.00085706362733617425,
0.04331176728010177612,
0.08116313815116882324,
-0.02331291139125823975,
-0.11449044197797775269,
0.04555808752775192261,
0.01263366825878620148,
-0.00022132947924546897,
-0.03360407054424285889,
-0.04465228691697120667,
-0.00163163209799677134,
-0.07272542268037796021,
-0.03451474383473396301,
-0.14927238225936889648,
-0.09738221019506454468,
0.02777667902410030365,
-0.02269862778484821320,
-0.03426090255379676819,
0.07280001789331436157,
-0.00727808382362127304,
0.01021931972354650497,
0.05624219402670860291,
-0.00349613511934876442,
-0.06639757752418518066,
0.00085153232794255018,
-0.09852602332830429077,
0.10682314634323120117,
0.27685961127281188965,
0.02640103921294212341,
0.02078319527208805084,
0.01560412440448999405,
0.08862794190645217896,
-0.00526711065322160721,
-0.03316686674952507019,
0.07934545725584030151,
0.13592442870140075684,
-0.00407828902825713158,
-0.06464772671461105347,
-0.05118930712342262268,
0.07507549226284027100,
0.12591165304183959961,
-0.02056985348463058472,
0.00170894898474216461,
0.00946257356554269791,
0.00158358050975948572,
0.00739729264751076698,
-0.10086707025766372681,
-0.01849927566945552826,
0.10024847835302352905,
0.06525775045156478882,
-0.05258065089583396912,
-0.02406733669340610504,
-0.06531777977943420410,
-0.05797427520155906677,
-0.13008673489093780518,
-0.02945495583117008209,
0.04220031946897506714,
-0.14512211084365844727,
-0.06462583690881729126,
-0.03631155192852020264,
-0.12782108783721923828,
-0.17428632080554962158,
-0.14318034052848815918,
-0.11870906502008438110,
-0.12070685625076293945,
-0.20804177224636077881,
-0.00970631744712591171,
-0.00468280352652072906,
0.01946464180946350098,
-0.08363373577594757080,
-0.09321138262748718262,
-0.05125322565436363220,
0.11393371969461441040,
-0.10773469507694244385,
-0.04576858878135681152,
-0.06120768561959266663,
-0.12504898011684417725,
-0.01315530017018318176,
-0.04973431304097175598,
-0.00369691918604075909,
0.07710084319114685059,
-0.13406911492347717285,
-0.06110700592398643494,
-0.15540288388729095459,
-0.05419904366135597229,
-0.00419426616281270981,
0.17264799773693084717,
0.27330249547958374023,
-0.04823174700140953064,
-0.03016372583806514740,
0.00263905408792197704,
0.04646147042512893677,
-0.05172922462224960327,
0.07662174850702285767,
0.06423985213041305542,
0.04425736144185066223,
0.10459959506988525391,
-0.15460009872913360596,
-0.00275422562845051289,
0.02010781317949295044,
0.01865133270621299744,
0.00041197045356966555,
-0.08538369834423065186,
0.00540906749665737152,
0.07378552854061126709,
-0.02436563745141029358,
-0.03499806299805641174,
0.02026697807013988495,
-0.10304441303014755249,
-0.09166122227907180786,
-0.14439962804317474365,
0.03171179071068763733,
-0.04990963637828826904,
0.01101748552173376083,
0.09258502721786499023,
-0.01258777268230915070,
0.00088609009981155396,
-0.00943318475037813187,
-0.13444845378398895264,
-0.00583327421918511391,
-0.02094127610325813293,
-0.07880511134862899780,
-0.03093437105417251587,
-0.07055175304412841797,
-0.15554745495319366455,
-0.00927908532321453094,
-0.00716753909364342690,
-0.00557326152920722961,
0.10755833983421325684,
-0.05054108425974845886,
0.09437569975852966309,
-0.03143504261970520020,
-0.10334833711385726929,
0.06837501376867294312,
-0.01156335510313510895,
-0.03699101880192756653,
0.01511900778859853745,
0.13057649135589599609,
0.04130233079195022583,
-0.08871467411518096924,
-0.08111299574375152588,
-0.01474310271441936493,
0.03863536566495895386,
0.06186692789196968079,
-0.05537255853414535522,
0.05868932977318763733,
0.04952624067664146423,
-0.07843483984470367432,
-0.18478643894195556641,
0.06142738461494445801,
0.05018809065222740173,
0.12085331231355667114,
-0.01903985440731048584,
-0.00457177218049764633,
0.06259673833847045898,
-0.08127284049987792969,
0.11643299460411071777,
0.05894814804196357727,
0.01097067724913358688,
0.00987574458122253418,
-0.12210027128458023071,
0.14978891611099243164,
0.01827028207480907440,
0.03353781625628471375,
0.20460465550422668457,
-0.08674933761358261108,
-0.12731714546680450439,
-0.08837763220071792603,
-0.03350057080388069153,
0.01068095490336418152,
-0.04020033404231071472,
0.00945753511041402817,
0.04629076272249221802,
-0.04958901926875114441,
0.17874315381050109863,
-0.02693329565227031708,
0.05420557409524917603,
0.10881648957729339600,
0.05005069822072982788,
0.09725473076105117798,
-0.10748616605997085571,
0.09402184188365936279,
-0.05839105322957038879,
-0.04576025903224945068,
-0.08200066536664962769,
-0.01160000916570425034,
-0.07999502867460250854,
-0.06881546974182128906,
-0.03704125061631202698,
-0.07941891998052597046,
-0.03031783737242221832,
-0.09062274545431137085,
-0.11726664751768112183,
-0.14699330925941467285,
-0.12519022822380065918,
-0.04176742583513259888,
-0.07961082458496093750,
-0.00468023121356964111,
0.02445598877966403961,
0.17377863824367523193,
0.13019156455993652344,
0.00313580082729458809,
0.06498969346284866333,
-0.05364542454481124878,
0.00673635862767696381,
0.08178940415382385254,
-0.10628429055213928223,
-0.01866099983453750610,
-0.03888376057147979736,
-0.08193030208349227905,
-0.08422336727380752563,
-0.02034445852041244507,
-0.04225539788603782654,
-0.08106840401887893677,
-0.06939939409494400024,
-0.12049304693937301636,
-0.09075976163148880005,
-0.10398115217685699463,
-0.10532215237617492676,
0.13949218392372131348,
-0.08698086440563201904,
-0.02140456810593605042,
0.09189850091934204102,
0.08367060124874114990,
0.08086396753787994385,
-0.09677125513553619385,
-0.04680752754211425781,
-0.03239700570702552795,
-0.00608731154352426529,
-0.04747441783547401428,
-0.03296959027647972107,
-0.08509276062250137329,
-0.08368671685457229614,
-0.07908844947814941406,
-0.11967243999242782593,
0.02422652952373027802,
-0.06091113016009330750,
-0.03116557002067565918,
-0.02244157716631889343,
0.01965228468179702759,
0.09797323495149612427,
0.10152427852153778076,
0.03157362714409828186,
-0.00017699139425531030,
-0.00694185681641101837,
0.00165918981656432152,
-0.07371557503938674927,
0.01121178641915321350,
-0.13798722624778747559,
