WTYPE conv3_weight[32 * 32 * 3 * 3] = 
{-0.12809491157531738281,
0.00998927932232618332,
-0.01908668689429759979,
0.08158320188522338867,
-0.10052445530891418457,
0.13285464048385620117,
-0.14116886258125305176,
0.06389585137367248535,
0.03302237018942832947,
0.09100442379713058472,
0.04184114187955856323,
0.10819441825151443481,
-0.03428655117750167847,
-0.03820956125855445862,
0.02878742106258869171,
0.01757148839533329010,
0.01006719470024108887,
-0.07896170020103454590,
-0.10212708264589309692,
0.01758421026170253754,
-0.02272149920463562012,
-0.01549106650054454803,
-0.02722580917179584503,
0.03300499916076660156,
-0.07453268766403198242,
-0.03296640142798423767,
-0.13649153709411621094,
0.02202072739601135254,
0.11478178948163986206,
0.20435871183872222900,
-0.16472755372524261475,
-0.02578160353004932404,
-0.04976113140583038330,
-0.02558395639061927795,
-0.05852082744240760803,
-0.06180923059582710266,
0.11737444251775741577,
-0.20684152841567993164,
-0.18185052275657653809,
0.05696211010217666626,
0.02450243383646011353,
-0.01482667960226535797,
0.11151593178510665894,
0.19751280546188354492,
0.02147963456809520721,
0.05180003866553306580,
-0.00708627700805664062,
0.07802285254001617432,
-0.02526166290044784546,
-0.15749445557594299316,
-0.00911149755120277405,
-0.13512182235717773438,
-0.13394679129123687744,
-0.10577794909477233887,
-0.16365361213684082031,
-0.00968692451715469360,
0.00525907566770911217,
-0.06775953620672225952,
-0.12215781956911087036,
0.06059716641902923584,
0.09223464876413345337,
-0.05844134837388992310,
-0.08251085877418518066,
0.16590543091297149658,
-0.01282374653965234756,
0.09436310082674026489,
-0.01017287373542785645,
-0.00969541072845458984,
-0.03421654924750328064,
-0.04372972995042800903,
0.03798686340451240540,
-0.08717775344848632812,
-0.01596684195101261139,
-0.08708742260932922363,
0.04795052111148834229,
-0.04366809502243995667,
-0.01343343313783407211,
-0.03386483341455459595,
0.02329961396753787994,
-0.03954267874360084534,
-0.04306950047612190247,
0.08315995335578918457,
-0.08736668527126312256,
-0.04995997995138168335,
0.05473510175943374634,
-0.01673385873436927795,
-0.11592298746109008789,
-0.02536804601550102234,
0.04501394927501678467,
-0.01190743502229452133,
-0.02390617690980434418,
0.10033668577671051025,
0.01010244619101285934,
0.01567512564361095428,
-0.17687924206256866455,
-0.08442446589469909668,
-0.03045294620096683502,
-0.13428576290607452393,
-0.04444647580385208130,
0.00111640174873173237,
-0.07009539753198623657,
0.12305048108100891113,
-0.06937427818775177002,
-0.08990377932786941528,
-0.06079715490341186523,
-0.09085512906312942505,
-0.24401408433914184570,
-0.14079436659812927246,
-0.11198420822620391846,
-0.00142475264146924019,
0.23860812187194824219,
-0.06055087223649024963,
-0.24630917608737945557,
0.01212063245475292206,
0.10500976443290710449,
-0.10268244147300720215,
-0.24533157050609588623,
0.10939808189868927002,
-0.06660175323486328125,
-0.06796713173389434814,
-0.05781311541795730591,
-0.04028116166591644287,
-0.02613776922225952148,
0.01928527839481830597,
0.01157015189528465271,
-0.02679619938135147095,
0.01462978404015302658,
0.00035231825313530862,
0.06297884881496429443,
-0.02438385225832462311,
-0.00930621381849050522,
-0.01440241653472185135,
0.13709758222103118896,
0.14663882553577423096,
0.11525274813175201416,
-0.15339608490467071533,
-0.00943983253091573715,
0.11302944272756576538,
0.01701517589390277863,
-0.15800757706165313721,
0.01064182631671428680,
0.14919187128543853760,
-0.06166537478566169739,
-0.02292039245367050171,
0.05114446207880973816,
-0.02696673758327960968,
0.08646718412637710571,
0.03995997831225395203,
-0.17365470528602600098,
-0.06711564958095550537,
-0.07214453816413879395,
-0.11089702695608139038,
-0.07975435256958007812,
-0.15154591202735900879,
-0.06554573029279708862,
0.00479200901463627815,
-0.11532035470008850098,
-0.14232216775417327881,
-0.18392994999885559082,
-0.19918066263198852539,
-0.21158127486705780029,
-0.07399822026491165161,
0.10264670848846435547,
0.08866125345230102539,
0.09019553661346435547,
0.14998248219490051270,
0.05443553626537322998,
-0.01569666527211666107,
-0.06332748383283615112,
-0.07287405431270599365,
0.08404001593589782715,
-0.04914943501353263855,
-0.13510304689407348633,
0.10403619706630706787,
-0.21180132031440734863,
-0.23533636331558227539,
-0.20693780481815338135,
0.11680427193641662598,
-0.09733980149030685425,
-0.10395278781652450562,
-0.06909999996423721313,
-0.04580979794263839722,
0.09371749311685562134,
0.01940339803695678711,
-0.10029391199350357056,
-0.20342256128787994385,
0.19128085672855377197,
-0.01688491553068161011,
-0.05942267179489135742,
0.07936724275350570679,
0.17309372127056121826,
0.08067166805267333984,
-0.07877858728170394897,
-0.06007714197039604187,
0.12018731236457824707,
0.00257860147394239902,
-0.03410896286368370056,
-0.03818711638450622559,
-0.15257477760314941406,
-0.08810696750879287720,
0.01351294107735157013,
-0.23211535811424255371,
-0.15146483480930328369,
-0.05432440340518951416,
-0.08370680361986160278,
0.03603761643171310425,
-0.00087940425146371126,
-0.07047485560178756714,
-0.14131961762905120850,
0.11672198772430419922,
0.09351120889186859131,
-0.01455152221024036407,
-0.03941057622432708740,
0.06555583328008651733,
0.01860192604362964630,
-0.09764060378074645996,
0.12920339405536651611,
0.04968443885445594788,
-0.03117851167917251587,
-0.11226776987314224243,
0.01007393281906843185,
-0.03436116874217987061,
-0.28717356920242309570,
-0.27718868851661682129,
0.00285183754749596119,
-0.08542457222938537598,
-0.14384083449840545654,
0.28491801023483276367,
-0.09421699494123458862,
-0.20992054045200347900,
0.01809138432145118713,
0.17990408837795257568,
-0.06522612273693084717,
-0.01970458589494228363,
-0.06683868914842605591,
-0.03824283555150032043,
0.10718181729316711426,
-0.06159375980496406555,
-0.09113728255033493042,
-0.12021522969007492065,
-0.05337731167674064636,
-0.05233822017908096313,
-0.10164841264486312866,
-0.12298134714365005493,
-0.07808768749237060547,
-0.00791737344115972519,
-0.09822896867990493774,
-0.16549172997474670410,
0.01416787877678871155,
-0.05527949333190917969,
-0.17411307990550994873,
-0.11940255016088485718,
0.12795141339302062988,
0.10963526368141174316,
0.11220084875822067261,
0.05391201376914978027,
0.06974110752344131470,
-0.04060580581426620483,
0.06188493967056274414,
0.02497325837612152100,
-0.02748019807040691376,
-0.18343171477317810059,
-0.02928072027862071991,
-0.01983564347028732300,
-0.06592404097318649292,
0.02421436272561550140,
-0.05446260422468185425,
-0.07841305434703826904,
-0.12936569750308990479,
-0.10675120353698730469,
-0.03375234454870223999,
-0.06232905015349388123,
-0.04028928279876708984,
-0.02844949625432491302,
-0.15476751327514648438,
-0.16584466397762298584,
0.05690214410424232483,
-0.00525753758847713470,
-0.08449706435203552246,
-0.00833018030971288681,
-0.12021967768669128418,
0.00589688122272491455,
-0.07277339696884155273,
-0.15385745465755462646,
-0.04947777464985847473,
-0.14568568766117095947,
-0.02102217637002468109,
-0.03127837553620338440,
0.06090417131781578064,
0.11033324152231216431,
0.04897366464138031006,
-0.07322473078966140747,
-0.14155295491218566895,
-0.07695754617452621460,
0.00015351704496424645,
-0.10066673159599304199,
0.18631377816200256348,
-0.02632171101868152618,
-0.05255829170346260071,
0.03765507787466049194,
-0.12731584906578063965,
-0.17490275204181671143,
-0.03814038261771202087,
0.00236884457990527153,
-0.08508910983800888062,
0.08593926578760147095,
-0.00732262525707483292,
-0.09175418317317962646,
-0.12169608473777770996,
0.09703483432531356812,
0.16993853449821472168,
0.10302944481372833252,
-0.07205971330404281616,
0.09787935763597488403,
0.15105900168418884277,
-0.09244839102029800415,
-0.13186292350292205811,
-0.07587946206331253052,
-0.04985965043306350708,
-0.09820769727230072021,
-0.04498470947146415710,
0.01199596002697944641,
-0.01108176354318857193,
0.04439906775951385498,
-0.04644004628062248230,
-0.07948067784309387207,
-0.11625459045171737671,
0.04807772859930992126,
-0.13145339488983154297,
-0.11451628059148788452,
0.10399356484413146973,
0.07221698015928268433,
-0.13303036987781524658,
0.01736902818083763123,
-0.17939473688602447510,
-0.10951654613018035889,
0.22693239152431488037,
0.15315331518650054932,
-0.08466263860464096069,
-0.15867419540882110596,
-0.03927654027938842773,
-0.09671922773122787476,
-0.10099814832210540771,
-0.08789044618606567383,
0.16887938976287841797,
-0.00673568993806838989,
-0.14943179488182067871,
-0.03870427981019020081,
0.40746527910232543945,
0.09943448752164840698,
-0.07333073765039443970,
-0.08517365157604217529,
-0.02399098500609397888,
-0.11321079730987548828,
-0.00289849261753261089,
-0.17371921241283416748,
0.02153426222503185272,
0.01781230606138706207,
-0.09708748757839202881,
0.05407769605517387390,
0.01839315332472324371,
-0.09648115932941436768,
-0.04537177458405494690,
-0.12084097415208816528,
-0.15577472746372222900,
0.01858622953295707703,
-0.02765460498631000519,
-0.04085549339652061462,
0.01600469462573528290,
-0.05400813370943069458,
-0.02930627018213272095,
-0.07122340053319931030,
0.02530689910054206848,
-0.09461164474487304688,
0.01927537657320499420,
0.08047235012054443359,
-0.00098469655495136976,
0.12729942798614501953,
0.02097437903285026550,
0.09081801027059555054,
0.03996266424655914307,
-0.09050666540861129761,
0.07356636971235275269,
-0.10321705043315887451,
-0.08625869452953338623,
-0.09725640714168548584,
-0.12583114206790924072,
0.06399186700582504272,
-0.08916386961936950684,
0.01254716515541076660,
-0.03877386823296546936,
0.07041680812835693359,
-0.09187778085470199585,
-0.09966725856065750122,
-0.00521127181127667427,
-0.03628969192504882812,
-0.07243244349956512451,
0.04899447411298751831,
0.04414384067058563232,
0.06462868303060531616,
-0.07867945730686187744,
-0.04632847383618354797,
0.12038218975067138672,
-0.07128042727708816528,
0.02971517667174339294,
-0.05345431715250015259,
-0.14369355142116546631,
-0.03102032281458377838,
-0.01227538660168647766,
-0.20158241689205169678,
-0.14471699297428131104,
0.18445852398872375488,
-0.01795339211821556091,
-0.03505245223641395569,
0.03661599382758140564,
-0.02076094038784503937,
-0.05140273645520210266,
-0.01666133292019367218,
-0.00075768894748762250,
-0.04379887133836746216,
-0.05252045020461082458,
-0.08204199373722076416,
-0.08182241767644882202,
-0.07999414950609207153,
-0.18722245097160339355,
-0.00100922479759901762,
-0.11006849259138107300,
-0.11897230893373489380,
-0.06534904241561889648,
0.08473081886768341064,
-0.09947497397661209106,
0.01554779987782239914,
-0.12508299946784973145,
-0.21065275371074676514,
-0.06439076364040374756,
-0.04866694658994674683,
-0.17160412669181823730,
0.11315360665321350098,
-0.08580355346202850342,
-0.15319025516510009766,
-0.00062748766504228115,
-0.09064723551273345947,
-0.14281129837036132812,
0.03837724402546882629,
0.09453784674406051636,
-0.12233489751815795898,
-0.07362256944179534912,
-0.08162445574998855591,
-0.07824122160673141479,
0.05808502435684204102,
-0.09952708333730697632,
-0.05111835896968841553,
-0.07759924232959747314,
-0.00913045089691877365,
-0.12436150759458541870,
-0.08461977541446685791,
0.18672634661197662354,
0.05218351259827613831,
0.18115456402301788330,
0.32322055101394653320,
-0.01518930960446596146,
0.04720770195126533508,
0.03943047299981117249,
-0.18347555398941040039,
-0.10243729501962661743,
0.05590402707457542419,
-0.09476615488529205322,
0.02999365702271461487,
-0.16335573792457580566,
-0.16343605518341064453,
0.00122423551511019468,
-0.21419286727905273438,
0.20661191642284393311,
0.25803673267364501953,
-0.03903841599822044373,
-0.09762853384017944336,
0.11785088479518890381,
-0.08113694936037063599,
-0.01158490590751171112,
-0.08117777109146118164,
-0.20531442761421203613,
-0.22776922583580017090,
-0.30347919464111328125,
-0.12854850292205810547,
-0.09902171790599822998,
-0.11970872431993484497,
-0.15501727163791656494,
-0.33689758181571960449,
-0.10722978413105010986,
-0.03509876504540443420,
-0.07912284880876541138,
-0.02493728138506412506,
0.01524364668875932693,
0.01323470752686262131,
0.08663871139287948608,
0.04442480206489562988,
-0.07885096967220306396,
-0.13576996326446533203,
-0.00822896882891654968,
-0.09025122225284576416,
-0.15289095044136047363,
-0.01614778488874435425,
-0.14685164391994476318,
-0.16713167726993560791,
0.00413724407553672791,
-0.06287962943315505981,
-0.10574274510145187378,
-0.06197752803564071655,
-0.10800909250974655151,
-0.18345960974693298340,
0.23386447131633758545,
-0.15265487134456634521,
0.03051384165883064270,
0.02432299032807350159,
-0.07854298502206802368,
-0.06284403800964355469,
-0.09913633018732070923,
-0.08510898798704147339,
-0.09338361024856567383,
-0.07548024505376815796,
-0.02546875923871994019,
0.02501760236918926239,
0.19612313807010650635,
-0.17997412383556365967,
-0.08531431853771209717,
0.02671751379966735840,
-0.08903438597917556763,
-0.06219672784209251404,
0.04557735472917556763,
0.12160603702068328857,
-0.00879157427698373795,
-0.17824743688106536865,
-0.10802890360355377197,
0.18535739183425903320,
-0.09850011765956878662,
-0.17109239101409912109,
0.30577057600021362305,
0.21860921382904052734,
0.18504336476325988770,
0.09641414135694503784,
-0.06246720999479293823,
-0.06353849172592163086,
0.05173030495643615723,
-0.01598724722862243652,
0.14723689854145050049,
-0.10593531280755996704,
-0.12414072453975677490,
0.35571533441543579102,
-0.05863706022500991821,
0.10101084411144256592,
-0.05892406031489372253,
-0.07110191881656646729,
0.22045995295047760010,
-0.08138488978147506714,
0.04489113017916679382,
-0.03032302670180797577,
-0.01906254328787326813,
0.01329113263636827469,
0.03816474229097366333,
0.01048348937183618546,
0.12090796977281570435,
-0.12293600291013717651,
-0.22298088669776916504,
-0.12466176599264144897,
0.16844983398914337158,
-0.08667752891778945923,
-0.12606745958328247070,
-0.05968657508492469788,
0.02470684982836246490,
-0.15648710727691650391,
0.11875492334365844727,
-0.06244072318077087402,
-0.15112505853176116943,
0.18745626509189605713,
0.06779648363590240479,
-0.02469250001013278961,
-0.19225201010704040527,
-0.20574131608009338379,
-0.01581763476133346558,
-0.14233213663101196289,
-0.07578994333744049072,
0.08833597600460052490,
-0.09019295126199722290,
-0.01557778939604759216,
-0.01926668360829353333,
0.06401880830526351929,
0.01470741443336009979,
0.09190646559000015259,
-0.10380155593156814575,
-0.13415354490280151367,
-0.13653461635112762451,
0.07557430118322372437,
-0.00782316457480192184,
-0.06276931613683700562,
0.09065615385770797729,
-0.03301677852869033813,
-0.13009403645992279053,
0.12889929115772247314,
-0.03940543532371520996,
-0.12592308223247528076,
-0.00730721559375524521,
0.06497658789157867432,
-0.08550024777650833130,
-0.01423241663724184036,
0.03074898011982440948,
0.15021564066410064697,
-0.03307957202196121216,
-0.05976643040776252747,
0.00199413509108126163,
0.04501513764262199402,
-0.03353319689631462097,
-0.04630307108163833618,
-0.04049238562583923340,
0.17863699793815612793,
-0.00313802529126405716,
-0.11027251183986663818,
-0.10678718984127044678,
0.10803391784429550171,
-0.05784663558006286621,
0.10730531811714172363,
0.09171851724386215210,
0.00059679028345271945,
-0.14029774069786071777,
-0.03146905079483985901,
-0.05397902801632881165,
-0.14277002215385437012,
-0.04219838604331016541,
0.08988970518112182617,
0.11075342446565628052,
0.09291858226060867310,
0.06484336405992507935,
-0.15363216400146484375,
0.00170422671362757683,
0.15591859817504882812,
0.12746602296829223633,
-0.11652396619319915771,
-0.05610583722591400146,
0.11635496467351913452,
0.04000623896718025208,
0.05700872093439102173,
-0.05969362333416938782,
0.13775356113910675049,
-0.16846272349357604980,
-0.24716062843799591064,
-0.11941271275281906128,
-0.14469465613365173340,
-0.16460582613945007324,
-0.02335134148597717285,
-0.13480511307716369629,
-0.07829941809177398682,
-0.08706494420766830444,
-0.03183041512966156006,
-0.12247016280889511108,
-0.11994916945695877075,
-0.13027104735374450684,
-0.12727677822113037109,
-0.05772925913333892822,
0.14951789379119873047,
-0.04418899863958358765,
-0.13451929390430450439,
0.03582691773772239685,
0.07864235341548919678,
-0.16988980770111083984,
0.19231058657169342041,
0.11423694342374801636,
-0.12854079902172088623,
0.07262226939201354980,
0.01316030696034431458,
-0.01812011189758777618,
-0.09925388544797897339,
-0.05696740746498107910,
-0.04574279859662055969,
-0.05063130706548690796,
-0.07082435488700866699,
-0.09917940199375152588,
-0.06805292516946792603,
0.08799240738153457642,
-0.10287870466709136963,
-0.06078740209341049194,
0.06238492205739021301,
0.07028908282518386841,
-0.05078233033418655396,
-0.09288646280765533447,
-0.05875669792294502258,
-0.08853682130575180054,
-0.17775261402130126953,
0.00351907080039381981,
0.02255784720182418823,
0.14748613536357879639,
-0.16931256651878356934,
-0.06192938983440399170,
0.21468949317932128906,
0.04139515012502670288,
0.19258753955364227295,
-0.04199285432696342468,
-0.03577830269932746887,
-0.09755545109510421753,
0.04326496273279190063,
0.05299934744834899902,
-0.05617246404290199280,
-0.21025791764259338379,
-0.23771524429321289062,
-0.04775361716747283936,
0.02288058586418628693,
0.04539553448557853699,
-0.05119236186146736145,
-0.06637758761644363403,
0.02320757322013378143,
0.06718768179416656494,
-0.04903606697916984558,
-0.09553523361682891846,
-0.01971869356930255890,
0.13600166141986846924,
0.13571619987487792969,
-0.09032357484102249146,
0.10089460015296936035,
0.08766262233257293701,
0.02778905257582664490,
-0.07096569240093231201,
0.00291689834557473660,
0.05141090229153633118,
-0.05568102374672889709,
-0.10037536919116973877,
-0.02700936794281005859,
-0.01550012547522783279,
-0.02451233565807342529,
-0.00162069196812808514,
0.03862493112683296204,
0.02045608684420585632,
-0.08263124525547027588,
-0.23379090428352355957,
-0.18513365089893341064,
-0.08869113773107528687,
-0.18550306558609008789,
-0.12853762507438659668,
0.12179814279079437256,
-0.09288360923528671265,
-0.06464839726686477661,
0.04496751725673675537,
0.01358948368579149246,
-0.02852744050323963165,
0.06998021900653839111,
0.24634823203086853027,
0.04951645806431770325,
0.11688614636659622192,
0.01587111316621303558,
0.12674976885318756104,
0.07927144318819046021,
-0.03856354951858520508,
-0.06843208521604537964,
0.08229903876781463623,
0.28397795557975769043,
-0.14830814301967620850,
-0.01763896457850933075,
0.14785279333591461182,
0.08414697647094726562,
0.02950486727058887482,
0.05618821084499359131,
0.08124090731143951416,
-0.01777978613972663879,
0.03668267652392387390,
-0.03376816958189010620,
-0.03345040977001190186,
-0.07988981157541275024,
-0.09534527361392974854,
-0.42119523882865905762,
0.00677904486656188965,
0.23563311994075775146,
-0.17369598150253295898,
-0.22169414162635803223,
0.05268735438585281372,
0.03129105269908905029,
-0.00089046178618445992,
-0.04718962311744689941,
-0.14730092883110046387,
-0.07889203727245330811,
-0.09126918762922286987,
-0.13569420576095581055,
-0.08294560760259628296,
-0.13397753238677978516,
-0.16967298090457916260,
-0.08064050227403640747,
-0.18009935319423675537,
0.07721716165542602539,
-0.08666462451219558716,
-0.17960026860237121582,
0.10342910885810852051,
-0.08370583504438400269,
-0.14902926981449127197,
0.02020923420786857605,
0.00941133685410022736,
0.21526563167572021484,
-0.18050669133663177490,
-0.16733770072460174561,
-0.13013549149036407471,
0.00298339873552322388,
0.00325520616024732590,
-0.04715187102556228638,
0.02194304391741752625,
0.05505046620965003967,
0.01668827235698699951,
-0.11495742946863174438,
-0.19117933511734008789,
-0.06989437341690063477,
0.14876155555248260498,
-0.09596801549196243286,
-0.10980442911386489868,
0.05390223115682601929,
-0.02788577973842620850,
-0.12563978135585784912,
-0.08627371490001678467,
-0.10818190127611160278,
-0.08031626045703887939,
0.22138015925884246826,
-0.19611845910549163818,
-0.22186207771301269531,
0.31584042310714721680,
-0.01000119466334581375,
0.00331681105308234692,
0.04741270840167999268,
-0.06043035164475440979,
0.09985710680484771729,
0.13082268834114074707,
-0.09807889163494110107,
-0.19467991590499877930,
0.03982559964060783386,
-0.03434340283274650574,
-0.10627765208482742310,
0.06143055856227874756,
-0.00901847146451473236,
-0.02784298919141292572,
0.04826399311423301697,
0.01062631234526634216,
-0.02169925346970558167,
-0.07069103419780731201,
0.05479181557893753052,
0.04216736927628517151,
0.28530144691467285156,
-0.05781419947743415833,
-0.17313161492347717285,
0.18353611230850219727,
0.01015216484665870667,
-0.11583032459020614624,
0.09322232007980346680,
0.16897457838058471680,
-0.06882412731647491455,
-0.18109528720378875732,
0.07474796473979949951,
0.06537853181362152100,
0.10212591290473937988,
-0.06997799128293991089,
-0.19521482288837432861,
0.17298544943332672119,
0.07349679619073867798,
-0.18074724078178405762,
-0.00885762646794319153,
-0.26141771674156188965,
-0.10979945957660675049,
0.08788748830556869507,
-0.00292635313235223293,
-0.10143923014402389526,
0.12802864611148834229,
0.20233270525932312012,
0.12519226968288421631,
-0.09362527728080749512,
-0.04983732104301452637,
-0.05406935140490531921,
-0.09425240755081176758,
-0.01893463544547557831,
0.06604264676570892334,
-0.07415929436683654785,
-0.02831552922725677490,
-0.05350128933787345886,
0.03786575049161911011,
0.08986110985279083252,
0.01521413400769233704,
0.03421107307076454163,
-0.03005277924239635468,
-0.10239806771278381348,
0.08411172777414321899,
0.12740245461463928223,
-0.01435747090727090836,
0.18879473209381103516,
0.06409224122762680054,
-0.16959774494171142578,
-0.00727476086467504501,
0.00572241982445120811,
-0.12345052510499954224,
-0.02041313797235488892,
-0.03419767692685127258,
-0.01957516372203826904,
0.04556895419955253601,
0.32650050520896911621,
0.13685221970081329346,
0.16327561438083648682,
0.07978400588035583496,
0.04389538615942001343,
-0.02833315730094909668,
0.03318242356181144714,
-0.03819098323583602905,
-0.07209412753582000732,
-0.04552302882075309753,
0.03400956466794013977,
-0.16052821278572082520,
-0.11983729153871536255,
-0.19044148921966552734,
-0.04322636127471923828,
0.00866916682571172714,
-0.06542490422725677490,
-0.07008570432662963867,
-0.05193797871470451355,
0.05725655332207679749,
-0.05874679237604141235,
-0.06479202955961227417,
0.00785865262150764465,
-0.17901678383350372314,
-0.10758360475301742554,
-0.00875782407820224762,
0.00719251018017530441,
0.04395155608654022217,
-0.06622210890054702759,
-0.07234492152929306030,
0.06004957854747772217,
0.00086044275667518377,
-0.04450755566358566284,
0.03291074186563491821,
0.01743574254214763641,
-0.07751331478357315063,
-0.12556329369544982910,
0.01291065756231546402,
-0.06047311797738075256,
-0.07660572230815887451,
0.05022481456398963928,
0.12543058395385742188,
-0.01792721822857856750,
-0.06624043732881546021,
-0.16763143241405487061,
-0.12987463176250457764,
0.07888407260179519653,
-0.04050013050436973572,
0.05893485620617866516,
0.05695596709847450256,
-0.01840016804635524750,
-0.01480892021209001541,
-0.17981456220149993896,
0.38671624660491943359,
0.34909537434577941895,
0.11121685802936553955,
-0.01593227311968803406,
0.00313420873135328293,
-0.16564741730690002441,
-0.07766679674386978149,
-0.19149290025234222412,
-0.21237300336360931396,
0.25186961889266967773,
0.17834611237049102783,
-0.04923496395349502563,
-0.00460271956399083138,
-0.14693155884742736816,
-0.11800736933946609497,
-0.13883493840694427490,
-0.12921001017093658447,
-0.05760158598423004150,
0.17009994387626647949,
0.08372019231319427490,
0.00370067614130675793,
0.11407695710659027100,
0.06378121674060821533,
-0.03813993185758590698,
-0.00446755345910787582,
-0.09510248154401779175,
-0.06206572055816650391,
-0.08275461196899414062,
-0.11876423656940460205,
-0.14026248455047607422,
-0.04357471689581871033,
-0.20520076155662536621,
-0.16693997383117675781,
0.07283675670623779297,
-0.13228736817836761475,
-0.01096133049577474594,
-0.09123510122299194336,
-0.05782594904303550720,
-0.09039562940597534180,
-0.05980335921049118042,
-0.04249022901058197021,
-0.12337965518236160278,
0.01987269520759582520,
-0.00291790999472141266,
-0.08666833490133285522,
-0.08158573508262634277,
-0.07504734396934509277,
-0.01199853792786598206,
0.00381032750010490417,
-0.08790581673383712769,
-0.11062273383140563965,
0.14694568514823913574,
0.00200653332285583019,
-0.04085291177034378052,
0.08898653835058212280,
0.05597493052482604980,
-0.03140654414892196655,
0.06878947466611862183,
-0.13038820028305053711,
-0.14277082681655883789,
-0.03244311362504959106,
-0.10098636895418167114,
-0.02463007159531116486,
-0.02342753857374191284,
-0.00929546263068914413,
0.04368377104401588440,
-0.09705375880002975464,
-0.07334134727716445923,
0.00367010524496436119,
-0.04855918511748313904,
0.00199640542268753052,
-0.11379990726709365845,
-0.16738012433052062988,
0.05923093110322952271,
0.11335238814353942871,
0.03216360881924629211,
0.21361057460308074951,
0.20280848443508148193,
-0.11289079487323760986,
0.04451496154069900513,
0.12341269105672836304,
0.09025846421718597412,
0.04122908413410186768,
-0.09150923788547515869,
0.05727712810039520264,
-0.02879115939140319824,
-0.13724017143249511719,
0.09699986875057220459,
0.13141800463199615479,
-0.01281710341572761536,
-0.11639945209026336670,
-0.00752077996730804443,
-0.12163436412811279297,
-0.08663436025381088257,
-0.08060228079557418823,
-0.11472606658935546875,
0.02344767749309539795,
-0.12133202701807022095,
0.07698374986648559570,
0.22350621223449707031,
0.24767653644084930420,
0.08221114426851272583,
-0.08196280151605606079,
0.05623441934585571289,
0.08117487281560897827,
-0.09640294313430786133,
-0.05720266327261924744,
-0.06056560575962066650,
0.17214146256446838379,
-0.08652027696371078491,
-0.11930467188358306885,
-0.00046503834892064333,
-0.12311848998069763184,
-0.16061249375343322754,
0.04990768432617187500,
-0.06174372881650924683,
-0.17283082008361816406,
-0.02478475309908390045,
-0.10627266764640808105,
-0.17341980338096618652,
-0.02181409485638141632,
-0.23436476290225982666,
-0.06326229125261306763,
-0.05359202250838279724,
-0.12339772284030914307,
0.05915401130914688110,
0.02273174375295639038,
-0.19847404956817626953,
0.02139176428318023682,
-0.13172565400600433350,
-0.20320883393287658691,
-0.07459250092506408691,
-0.03446598723530769348,
-0.12457263469696044922,
0.15194968879222869873,
-0.02139668539166450500,
-0.18213696777820587158,
-0.01372740603983402252,
0.00715317018330097198,
0.07860205322504043579,
0.23719061911106109619,
-0.00488619832322001457,
0.10719848424196243286,
-0.06758332252502441406,
-0.17643630504608154297,
-0.20457579195499420166,
-0.10562688112258911133,
-0.07650941610336303711,
-0.17661488056182861328,
0.09619733691215515137,
0.00038804122596047819,
-0.05083852261304855347,
0.21197681128978729248,
0.07406193763017654419,
0.01098225638270378113,
-0.02117075026035308838,
-0.17268364131450653076,
-0.21816040575504302979,
-0.10058689117431640625,
-0.15486505627632141113,
-0.15701310336589813232,
-0.06550630927085876465,
-0.01379192434251308441,
-0.03771822154521942139,
0.06350992619991302490,
-0.07507008314132690430,
-0.13081215322017669678,
0.25352549552917480469,
-0.12139163911342620850,
-0.00272700795903801918,
0.08682703971862792969,
-0.08627393096685409546,
0.03925961628556251526,
0.00409781886264681816,
-0.05936440080404281616,
0.01542450953274965286,
0.11183887720108032227,
0.00055676180636510253,
0.04856491088867187500,
-0.00095469405641779304,
0.06021405383944511414,
-0.15172740817070007324,
-0.19342227280139923096,
-0.09212476015090942383,
-0.11721650511026382446,
-0.09834901243448257446,
-0.09225270897150039673,
-0.07533700019121170044,
-0.10520760715007781982,
0.13313743472099304199,
0.07347944378852844238,
-0.06806333363056182861,
-0.07596471905708312988,
-0.10463682562112808228,
-0.12654943764209747314,
0.02685010805726051331,
-0.05888742208480834961,
0.00335890636779367924,
0.06378339976072311401,
0.10183730721473693848,
0.05478321760892868042,
0.03024625219404697418,
0.05728059634566307068,
0.10601605474948883057,
-0.10704588145017623901,
-0.04687632620334625244,
0.02655477821826934814,
-0.04702755063772201538,
0.02482382394373416901,
0.03277732804417610168,
0.22103598713874816895,
0.12769223749637603760,
-0.00202582427300512791,
-0.03971870616078376770,
-0.06760896742343902588,
-0.13611917197704315186,
-0.05166422575712203979,
0.01062987837940454483,
-0.05155043676495552063,
-0.13865421712398529053,
0.09513278305530548096,
0.21674023568630218506,
0.11401475965976715088,
0.11132374405860900879,
0.05209386348724365234,
0.04865450039505958557,
0.05897965282201766968,
-0.01179057080298662186,
-0.04226186126470565796,
0.03463497385382652283,
0.01565222069621086121,
-0.16212159395217895508,
-0.05099078640341758728,
-0.03666554391384124756,
0.00716961408033967018,
0.02984565310180187225,
0.04687285423278808594,
-0.06050047650933265686,
-0.10644239932298660278,
0.02582243271172046661,
-0.00743351131677627563,
-0.01854960992932319641,
-0.02341699041426181793,
-0.00718525098636746407,
-0.00949149020016193390,
0.07917234301567077637,
-0.00246989890001714230,
-0.03852286562323570251,
0.02246015332639217377,
0.18138402700424194336,
-0.05559580773115158081,
-0.07326707243919372559,
-0.11334134638309478760,
-0.06774134933948516846,
0.07525905221700668335,
-0.12767356634140014648,
-0.12924821674823760986,
-0.01329674199223518372,
-0.11271096020936965942,
0.03745645284652709961,
0.16180789470672607422,
-0.13930420577526092529,
-0.07981745898723602295,
0.04250527545809745789,
-0.20819658041000366211,
-0.12108329683542251587,
-0.08685763180255889893,
0.00956987868994474411,
-0.15523111820220947266,
-0.20095358788967132568,
0.15845222771167755127,
0.11968729645013809204,
0.05514648929238319397,
0.06162684410810470581,
-0.00931393727660179138,
-0.03319391980767250061,
-0.12762185931205749512,
-0.09927085787057876587,
-0.20682899653911590576,
0.07360024005174636841,
-0.08622174710035324097,
0.14973783493041992188,
-0.08791236579418182373,
-0.03502160683274269104,
-0.08751857280731201172,
-0.04636234045028686523,
-0.01829650811851024628,
-0.07431358844041824341,
-0.07834452390670776367,
0.01869305968284606934,
-0.09586662054061889648,
0.04969341680407524109,
-0.03293590992689132690,
0.08339142799377441406,
0.01710944063961505890,
0.03853535279631614685,
0.08870355039834976196,
0.07385563105344772339,
0.06734279543161392212,
0.00146428449079394341,
-0.02835587784647941589,
-0.00192686496302485466,
-0.07557602971792221069,
-0.07499546557664871216,
-0.09562185406684875488,
-0.19356034696102142334,
0.09273418039083480835,
-0.07251894474029541016,
-0.10304140299558639526,
-0.01916347071528434753,
-0.12937843799591064453,
-0.18932794034481048584,
-0.13576336205005645752,
-0.11465676873922348022,
-0.08480357378721237183,
-0.06936125457286834717,
-0.06643989682197570801,
-0.16228836774826049805,
-0.20248241722583770752,
0.28653088212013244629,
0.33862331509590148926,
0.07453780621290206909,
0.05742567777633666992,
-0.02418120764195919037,
-0.15098610520362854004,
-0.10577668249607086182,
-0.10480647534132003784,
-0.20456853508949279785,
-0.06681345403194427490,
-0.10332075506448745728,
-0.11846327036619186401,
-0.00025539743364788592,
-0.06910823285579681396,
-0.02333970926702022552,
-0.12556967139244079590,
-0.09857693314552307129,
-0.06713259220123291016,
-0.05937798321247100830,
-0.13621710240840911865,
-0.06620160490274429321,
-0.05898708477616310120,
-0.06101844832301139832,
-0.06416249275207519531,
0.00516257900744676590,
-0.07382498681545257568,
0.05299977213144302368,
0.06852205097675323486,
0.05466325953602790833,
0.06514415889978408813,
0.01115805841982364655,
0.02770801633596420288,
0.15888178348541259766,
0.13457064330577850342,
0.11391223222017288208,
-0.08554448932409286499,
0.10977767407894134521,
0.09863773733377456665,
-0.08098024129867553711,
-0.01778977364301681519,
0.10562688112258911133,
0.07572966068983078003,
0.11133192479610443115,
-0.10040231794118881226,
0.04111650586128234863,
-0.06671881675720214844,
-0.18529580533504486084,
-0.08080705255270004272,
-0.14977823197841644287,
-0.17296911776065826416,
-0.08077133446931838989,
0.09167827665805816650,
0.13532565534114837646,
0.03068287111818790436,
-0.04380108043551445007,
0.20312240719795227051,
-0.05112704262137413025,
0.01177026331424713135,
0.02968990616500377655,
-0.14442700147628784180,
-0.11830569058656692505,
-0.19652965664863586426,
-0.20037989318370819092,
-0.23395976424217224121,
-0.28848499059677124023,
-0.12073257565498352051,
-0.18365651369094848633,
-0.13646185398101806641,
0.01577274315059185028,
-0.10797332227230072021,
-0.15186485648155212402,
-0.10155139863491058350,
-0.11646408587694168091,
-0.13335378468036651611,
-0.08304263651371002197,
-0.10737616568803787231,
-0.19378523528575897217,
0.12222155928611755371,
-0.04298189654946327209,
-0.02228230983018875122,
0.05079939961433410645,
-0.08685849606990814209,
-0.05644600465893745422,
-0.03588561341166496277,
-0.08351156860589981079,
-0.09659945964813232422,
-0.12583102285861968994,
-0.05995666235685348511,
-0.09806016087532043457,
-0.06112847849726676941,
-0.02519652433693408966,
-0.09766269475221633911,
0.05525268986821174622,
0.04555017873644828796,
0.04069087281823158264,
-0.05071036145091056824,
-0.19176831841468811035,
-0.12386402487754821777,
-0.05869977921247482300,
-0.17067836225032806396,
-0.15860006213188171387,
-0.07472737878561019897,
-0.17805546522140502930,
-0.02340257167816162109,
-0.06724544614553451538,
-0.06205305829644203186,
0.05898955464363098145,
-0.10491260886192321777,
-0.14360706508159637451,
-0.06302507221698760986,
-0.10349210351705551147,
-0.13809049129486083984,
-0.06439907848834991455,
-0.00001775868804543279,
0.03402226418256759644,
-0.02971381880342960358,
-0.25786879658699035645,
-0.07495981454849243164,
-0.10685376822948455811,
-0.09198928624391555786,
-0.06984961777925491333,
-0.07299377024173736572,
0.03830460086464881897,
0.11974380165338516235,
-0.03498336672782897949,
0.01110778469592332840,
-0.05460919067263603210,
-0.05113605782389640808,
-0.02167060412466526031,
-0.01788585260510444641,
-0.00954155623912811279,
0.19501060247421264648,
0.14171536266803741455,
-0.01278707291930913925,
0.07048331201076507568,
0.16460761427879333496,
0.01686296984553337097,
0.00805675517767667770,
0.10105255991220474243,
0.03055059723556041718,
0.00562161393463611603,
0.07715065777301788330,
0.05987408757209777832,
0.02490481920540332794,
-0.07772253453731536865,
0.04351212456822395325,
-0.04533291980624198914,
-0.11320389062166213989,
-0.04941678419709205627,
-0.14111316204071044922,
-0.06428343802690505981,
0.07885528355836868286,
-0.04108023643493652344,
-0.09514022618532180786,
-0.10160368680953979492,
-0.07832606881856918335,
-0.01459163054823875427,
0.00136274332180619240,
-0.07647164165973663330,
-0.03020003996789455414,
-0.08874186128377914429,
-0.10469119995832443237,
-0.11991375684738159180,
-0.14353704452514648438,
-0.14102792739868164062,
-0.14788974821567535400,
-0.10470855981111526489,
0.02339096181094646454,
0.00637722201645374298,
-0.08192013949155807495,
-0.06285651773214340210,
-0.11044307798147201538,
0.00080106779932975769,
-0.08869317919015884399,
0.04125608876347541809,
0.07760159671306610107,
-0.16872143745422363281,
-0.23136086761951446533,
-0.17402563989162445068,
-0.03497738391160964966,
-0.15597234666347503662,
-0.19416347146034240723,
0.22465997934341430664,
0.09657461196184158325,
-0.11857285350561141968,
-0.00115539575926959515,
-0.05926403775811195374,
0.01928900927305221558,
-0.05294245108962059021,
0.08766357600688934326,
0.09847819060087203979,
-0.10531123727560043335,
0.12143196910619735718,
0.19591258466243743896,
-0.07187803834676742554,
0.09905605018138885498,
0.14738985896110534668,
-0.14117692410945892334,
0.05269939824938774109,
0.08267924934625625610,
-0.12240449339151382446,
0.08746425062417984009,
0.03959658369421958923,
0.01431225892156362534,
-0.10063496977090835571,
-0.05296450108289718628,
-0.03842111304402351379,
-0.00112781848292797804,
-0.00024603577912785113,
-0.12153926491737365723,
-0.05644173547625541687,
0.06388013809919357300,
-0.13769632577896118164,
-0.08128790557384490967,
0.09788984060287475586,
-0.28840747475624084473,
-0.09202744811773300171,
0.00323862629011273384,
-0.20178556442260742188,
-0.13068914413452148438,
-0.02639655582606792450,
-0.06267065554857254028,
-0.03256293386220932007,
-0.06534500420093536377,
-0.01867672242224216461,
0.05501929298043251038,
-0.12009329348802566528,
-0.07161044329404830933,
-0.04079023376107215881,
-0.00269739213399589062,
-0.01333274319767951965,
0.03784757107496261597,
0.06056671217083930969,
-0.03044561482965946198,
0.09780869632959365845,
0.04287406802177429199,
-0.07969617843627929688,
-0.03926148638129234314,
-0.00849072448909282684,
0.00436942791566252708,
0.02895602583885192871,
0.03803579136729240417,
-0.05534849688410758972,
-0.10667163133621215820,
-0.18584202229976654053,
0.15826298296451568604,
0.04597186669707298279,
-0.04230752587318420410,
-0.16091792285442352295,
-0.05450624972581863403,
0.00500649772584438324,
-0.06162738427519798279,
0.03436145931482315063,
-0.08133661001920700073,
0.10914587229490280151,
-0.03365459665656089783,
-0.00123876798897981644,
-0.08999841660261154175,
0.18780344724655151367,
0.02484264224767684937,
-0.16592617332935333252,
0.09424874931573867798,
-0.07500483840703964233,
-0.14036431908607482910,
0.00756103638559579849,
0.13088832795619964600,
0.06796991825103759766,
-0.08298152685165405273,
-0.02866919897496700287,
0.00834708753973245621,
-0.01372721325606107712,
-0.04728762432932853699,
0.00317720416933298111,
0.02110392786562442780,
-0.10060673952102661133,
-0.06140857189893722534,
-0.04963383451104164124,
-0.14352570474147796631,
0.00100336619652807713,
-0.11958338320255279541,
-0.10404240339994430542,
-0.06521166115999221802,
-0.10358199477195739746,
-0.06639803200960159302,
-0.03593642264604568481,
-0.00007186043512774631,
-0.12131451815366744995,
-0.07830299437046051025,
-0.03975438699126243591,
0.03924323990941047668,
0.04053153097629547119,
0.05441747605800628662,
-0.05497177690267562866,
-0.00405633077025413513,
0.02530984580516815186,
0.00392607413232326508,
0.13445326685905456543,
0.13316196203231811523,
-0.05102336779236793518,
0.03563854843378067017,
0.13296708464622497559,
0.04932512715458869934,
-0.04117371514439582825,
-0.07443663477897644043,
-0.07072948664426803589,
0.01649593748152256012,
-0.00423774262890219688,
0.00729641923680901527,
-0.06006699055433273315,
0.07100819051265716553,
-0.02604151517152786255,
0.02293266355991363525,
-0.03272087126970291138,
0.11114330589771270752,
-0.14836621284484863281,
-0.09211505204439163208,
-0.04111928865313529968,
-0.06293011456727981567,
0.01681392081081867218,
0.08272167295217514038,
-0.12102351337671279907,
-0.11155466735363006592,
-0.13779887557029724121,
-0.20472018420696258545,
-0.17002177238464355469,
-0.20523685216903686523,
-0.21779212355613708496,
-0.08506920933723449707,
-0.02227249182760715485,
-0.03276567161083221436,
-0.00742753408849239349,
-0.01478420663625001907,
-0.03863113000988960266,
-0.02424286864697933197,
-0.09602605551481246948,
-0.02596715092658996582,
0.06575594842433929443,
-0.01695353724062442780,
-0.09957652539014816284,
-0.05823360383510589600,
-0.06812671571969985962,
-0.11942053586244583130,
-0.02336784079670906067,
0.05640096217393875122,
0.08234600722789764404,
0.01525002438575029373,
0.08732142299413681030,
-0.01946877501904964447,
0.01250012032687664032,
-0.16974550485610961914,
-0.12153507024049758911,
0.00899733882397413254,
-0.07597017288208007812,
-0.13160859048366546631,
0.08203270286321640015,
0.11072307080030441284,
-0.08986710757017135620,
-0.09349974989891052246,
-0.12661610543727874756,
0.03999637812376022339,
-0.12185841798782348633,
-0.09669610857963562012,
0.06365035474300384521,
-0.10927256941795349121,
-0.00155934144277125597,
0.01949969306588172913,
-0.04381732270121574402,
-0.06363372504711151123,
-0.07282482832670211792,
0.09044362604618072510,
0.00267270184122025967,
0.05009008944034576416,
0.14900864660739898682,
0.03076017834246158600,
-0.12319693714380264282,
-0.04046902805566787720,
-0.03456744924187660217,
-0.17424416542053222656,
-0.08440551906824111938,
-0.11360950022935867310,
-0.05929522961378097534,
-0.03771124407649040222,
0.00667295278981328011,
0.09965503960847854614,
-0.01567144691944122314,
-0.07395459711551666260,
-0.15491960942745208740,
-0.16919492185115814209,
-0.09739384800195693970,
-0.08379580825567245483,
-0.05220165476202964783,
0.05559276416897773743,
-0.15729318559169769287,
-0.18888412415981292725,
-0.13637691736221313477,
-0.09959986805915832520,
-0.08987747877836227417,
-0.12937892973423004150,
-0.04872462153434753418,
-0.11471050232648849487,
-0.05147081986069679260,
0.12251611799001693726,
0.09290394932031631470,
0.17062792181968688965,
-0.10866936296224594116,
-0.17989474534988403320,
-0.20817337930202484131,
-0.00458444049581885338,
0.06513545662164688110,
-0.01379267405718564987,
-0.04253614693880081177,
0.11914508044719696045,
0.09744999557733535767,
-0.14025564491748809814,
-0.09188386052846908569,
0.04126961156725883484,
-0.09544059634208679199,
-0.02765754237771034241,
0.02048351988196372986,
0.02904349379241466522,
0.08981698751449584961,
-0.00187616702169179916,
-0.09007117897272109985,
0.20697970688343048096,
0.08823662996292114258,
-0.02368894033133983612,
0.21826261281967163086,
0.12980952858924865723,
0.11657839268445968628,
0.13480843603610992432,
0.19184631109237670898,
-0.01442072261124849319,
0.03080805577337741852,
0.02153124660253524780,
0.01575854048132896423,
-0.01065547112375497818,
0.08849826455116271973,
-0.18444846570491790771,
-0.01878956332802772522,
0.03826102986931800842,
-0.29181674122810363770,
-0.24105231463909149170,
0.07922771573066711426,
-0.22606824338436126709,
-0.19693180918693542480,
0.12320399284362792969,
0.04000429809093475342,
0.13045765459537506104,
0.09334382414817810059,
-0.21840503811836242676,
0.16920131444931030273,
0.17013397812843322754,
0.02636438049376010895,
0.02798650786280632019,
0.10483880341053009033,
-0.06484320014715194702,
-0.10750569403171539307,
-0.02298397570848464966,
-0.21921055018901824951,
-0.17000952363014221191,
0.01632932946085929871,
-0.09616562724113464355,
-0.10078173875808715820,
0.13532353937625885010,
-0.06171649694442749023,
-0.11380458623170852661,
0.03078293055295944214,
-0.20417705178260803223,
-0.21349762380123138428,
0.01944613084197044373,
0.00063469813903793693,
0.19566152989864349365,
0.06588100641965866089,
-0.00928380992263555527,
-0.11522741615772247314,
-0.15826825797557830811,
0.01062004826962947845,
-0.07952763140201568604,
-0.09479580074548721313,
-0.08337064832448959351,
-0.16042743623256683350,
0.12571331858634948730,
-0.05750086158514022827,
-0.10651221871376037598,
0.04584149271249771118,
-0.10977481305599212646,
-0.07276582717895507812,
-0.04195732623338699341,
0.01786852441728115082,
0.06359929591417312622,
-0.06362889707088470459,
-0.09306112676858901978,
0.15177702903747558594,
0.06125332042574882507,
0.06713865697383880615,
0.19590340554714202881,
-0.04068882763385772705,
0.25397327542304992676,
-0.10336601734161376953,
-0.06306608021259307861,
0.16970375180244445801,
0.03842822089791297913,
-0.11682233959436416626,
0.01409396342933177948,
-0.06863673031330108643,
-0.10137183964252471924,
-0.12109193205833435059,
-0.03722521662712097168,
0.12091241031885147095,
0.12827309966087341309,
0.00130111700855195522,
0.05707159638404846191,
-0.02944895438849925995,
-0.01261210534721612930,
-0.01110024005174636841,
0.07329415529966354370,
0.15484525263309478760,
-0.01321556698530912399,
-0.05596904084086418152,
-0.13751199841499328613,
0.02691122889518737793,
-0.08638931065797805786,
-0.02962904237210750580,
0.15062431991100311279,
-0.07189247012138366699,
-0.04625101387500762939,
0.08570560067892074585,
-0.03817227855324745178,
0.19445182383060455322,
-0.05323962494730949402,
0.16863673925399780273,
-0.02446940913796424866,
0.01295682694762945175,
0.10790994763374328613,
-0.13330677151679992676,
0.03118678554892539978,
0.05424417555332183838,
-0.03047094307839870453,
-0.00142403622157871723,
-0.07319138944149017334,
0.02347253076732158661,
0.09849181771278381348,
-0.02921235933899879456,
-0.03067179769277572632,
-0.06163736060261726379,
0.02030554041266441345,
-0.01887362264096736908,
0.01068263780325651169,
-0.15038238465785980225,
-0.07771153748035430908,
0.09196209162473678589,
-0.19147166609764099121,
0.06799647957086563110,
0.10401496291160583496,
0.10607541352510452271,
-0.09276876598596572876,
-0.11822811514139175415,
0.02205635048449039459,
-0.08126291632652282715,
-0.12126510590314865112,
-0.07202377915382385254,
-0.10048864781856536865,
-0.08384846895933151245,
0.05709756165742874146,
-0.11115021258592605591,
0.07467809319496154785,
-0.23280107975006103516,
0.01280410587787628174,
0.08602965623140335083,
-0.00037335566594265401,
0.06120761856436729431,
-0.06302992999553680420,
0.16091600060462951660,
-0.13999116420745849609,
-0.08823966979980468750,
-0.09356668591499328613,
-0.21374468505382537842,
-0.05383116751909255981,
-0.14026291668415069580,
-0.06412972509860992432,
0.15244406461715698242,
-0.07916393131017684937,
0.07143123447895050049,
-0.01402651052922010422,
-0.01371173933148384094,
0.00427805632352828979,
-0.01989457942545413971,
-0.06683202832937240601,
0.02308467403054237366,
-0.08572687953710556030,
-0.03400782495737075806,
-0.18126732110977172852,
-0.17096683382987976074,
0.04739180579781532288,
-0.08458377420902252197,
-0.16327045857906341553,
0.02780728042125701904,
-0.09593805670738220215,
0.02192121930420398712,
0.03384305909276008606,
-0.09366797655820846558,
-0.01357368845492601395,
-0.11979591846466064453,
-0.07709373533725738525,
-0.01370989345014095306,
-0.02992871962487697601,
-0.08830314129590988159,
0.16295626759529113770,
-0.16430164873600006104,
0.31477227807044982910,
-0.16994480788707733154,
0.17107170820236206055,
0.26730665564537048340,
0.00156344508286565542,
0.17519260942935943604,
-0.07957182824611663818,
0.06009282171726226807,
-0.02875324897468090057,
0.08421404659748077393,
0.03810405731201171875,
0.06907777488231658936,
0.16924709081649780273,
-0.03767305612564086914,
0.24984344840049743652,
-0.16036340594291687012,
0.01627956517040729523,
0.15119679272174835205,
0.21905831992626190186,
-0.03353985399007797241,
0.01996638253331184387,
-0.14218550920486450195,
-0.13738845288753509521,
-0.02223801799118518829,
-0.08103316277265548706,
-0.04163728654384613037,
0.09992989897727966309,
0.02080698311328887939,
-0.07544343173503875732,
-0.06428729742765426636,
-0.12891206145286560059,
-0.04703267663717269897,
-0.03504025936126708984,
-0.03844969347119331360,
0.04364928603172302246,
-0.18971349298954010010,
0.02579238452017307281,
0.09995023906230926514,
-0.07128024846315383911,
0.02106618694961071014,
0.02922080457210540771,
0.01320152077823877335,
0.12342215329408645630,
0.02386935800313949585,
-0.10366975516080856323,
-0.14045578241348266602,
-0.01231450866907835007,
-0.09045209735631942749,
-0.05869352072477340698,
0.07283612340688705444,
0.01917991228401660919,
-0.09962953627109527588,
0.15547633171081542969,
-0.17252747714519500732,
-0.22233384847640991211,
-0.09705729782581329346,
-0.17061904072761535645,
-0.00844681356102228165,
-0.09199431538581848145,
-0.01472255587577819824,
-0.01143461372703313828,
-0.07740668207406997681,
0.00220293365418910980,
-0.06525015085935592651,
0.04960327968001365662,
0.09933757781982421875,
-0.04749065265059471130,
0.10698016732931137085,
-0.01114982925355434418,
0.04889285936951637268,
0.05073145404458045959,
0.15491950511932373047,
-0.04276680946350097656,
-0.04121174290776252747,
-0.11517653614282608032,
-0.00237774918787181377,
-0.00382463121786713600,
-0.05269070714712142944,
-0.15768072009086608887,
0.14804689586162567139,
0.19869710505008697510,
-0.05970412865281105042,
-0.15927343070507049561,
0.07883302867412567139,
-0.15803657472133636475,
0.12104602903127670288,
-0.09547206014394760132,
-0.06999775022268295288,
0.23466899991035461426,
0.14812590181827545166,
-0.08245551586151123047,
-0.06786306947469711304,
0.08489840477705001831,
-0.03614026308059692383,
-0.08712024241685867310,
-0.08745213598012924194,
-0.08870638161897659302,
-0.02738122642040252686,
0.06133003905415534973,
-0.13493770360946655273,
0.03698972612619400024,
-0.09759435057640075684,
-0.08417993783950805664,
0.12011407315731048584,
-0.15124054253101348877,
0.12109348922967910767,
0.09605193883180618286,
0.06114402040839195251,
0.11320948600769042969,
-0.03293404728174209595,
-0.08528022468090057373,
0.10134804993867874146,
-0.06910803914070129395,
0.00403817929327487946,
0.01617378182709217072,
-0.06806682050228118896,
0.00819009635597467422,
-0.15281492471694946289,
-0.09957656264305114746,
0.01744303293526172638,
-0.01560052298009395599,
-0.03470097854733467102,
-0.11627718806266784668,
-0.06324695050716400146,
-0.01215445529669523239,
0.00610591191798448563,
-0.13808740675449371338,
-0.10175636410713195801,
-0.06651159375905990601,
-0.09158565849065780640,
-0.02936454303562641144,
-0.06116418167948722839,
-0.04883666709065437317,
-0.08109404146671295166,
-0.20388677716255187988,
0.16682451963424682617,
-0.00985449180006980896,
0.10369135439395904541,
0.08039290457963943481,
-0.00506870495155453682,
0.17096260190010070801,
-0.00217079091817140579,
0.05977339670062065125,
-0.17764611542224884033,
-0.03584970533847808838,
0.16481220722198486328,
-0.00271038268692791462,
-0.06707658618688583374,
0.09804338961839675903,
-0.04097872227430343628,
-0.05116078257560729980,
0.06795874238014221191,
0.17145335674285888672,
0.02317004278302192688,
-0.06086451187729835510,
0.04570453986525535583,
-0.17727009952068328857,
-0.06073125824332237244,
-0.01102939993143081665,
-0.10806831717491149902,
-0.10249096155166625977,
-0.11027640104293823242,
-0.09240303188562393188,
0.07268391549587249756,
0.00151217728853225708,
-0.05746126919984817505,
0.04465608671307563782,
-0.01309699844568967819,
-0.03547029942274093628,
0.03418278321623802185,
0.12745323777198791504,
-0.06727578490972518921,
0.12815976142883300781,
0.11144484579563140869,
-0.03707355633378028870,
0.14138329029083251953,
0.07474930584430694580,
-0.03810464963316917419,
0.15529277920722961426,
0.05844928696751594543,
-0.00988007523119449615,
-0.07132877409458160400,
0.21571131050586700439,
-0.04995327070355415344,
-0.06559379398822784424,
0.03298920020461082458,
-0.04269901663064956665,
-0.11996779590845108032,
0.05928658694028854370,
0.02652820758521556854,
-0.04583195969462394714,
0.05888286232948303223,
-0.04908185079693794250,
-0.08385131508111953735,
0.08778922259807586670,
0.00297621008940041065,
-0.10779419541358947754,
-0.02699894644320011139,
-0.13393458724021911621,
0.01359205413609743118,
-0.04184325411915779114,
-0.12532432377338409424,
-0.19261452555656433105,
0.26901724934577941895,
0.13142047822475433350,
0.08680902421474456787,
-0.12907268106937408447,
-0.16454017162322998047,
-0.03687635436654090881,
-0.05676258355379104614,
-0.09260594844818115234,
-0.03460835665464401245,
0.03651838004589080811,
-0.05448127165436744690,
-0.08111004531383514404,
-0.08378150314092636108,
-0.05592391267418861389,
-0.13840572535991668701,
0.00075546151492744684,
0.01781239360570907593,
-0.02775040082633495331,
0.04914176464080810547,
0.13554772734642028809,
0.19025537371635437012,
0.00135475397109985352,
-0.03310112655162811279,
-0.00468070246279239655,
0.14393366873264312744,
-0.02951268665492534637,
-0.15111899375915527344,
0.11072772741317749023,
-0.02612673118710517883,
0.11565473675727844238,
0.06459682434797286987,
-0.01981938816606998444,
0.07166478037834167480,
-0.12079966813325881958,
-0.04258900880813598633,
0.05791873857378959656,
0.14001786708831787109,
0.22686113417148590088,
0.03510468080639839172,
0.02420883253216743469,
0.08116826415061950684,
0.04960120096802711487,
-0.09724653512239456177,
-0.08089756220579147339,
-0.17337018251419067383,
-0.11697468161582946777,
-0.12831695377826690674,
-0.12201219797134399414,
-0.08299495279788970947,
-0.09921169281005859375,
-0.01833430491387844086,
0.00331182824447751045,
-0.20415033400058746338,
-0.00428932718932628632,
0.04489944875240325928,
-0.12143117189407348633,
0.10113160312175750732,
-0.18602785468101501465,
-0.09128993004560470581,
0.39307194948196411133,
-0.17181606590747833252,
-0.07200492918491363525,
0.35950955748558044434,
-0.10835348069667816162,
-0.05885216221213340759,
0.13138361275196075439,
-0.10290368646383285522,
-0.03559148684144020081,
0.03736010566353797913,
0.06112472340464591980,
0.03612556681036949158,
0.00495404982939362526,
-0.00108906789682805538,
-0.01650533638894557953,
0.09540417790412902832,
-0.15957885980606079102,
0.03035281598567962646,
0.29423448443412780762,
-0.07599289715290069580,
-0.03179664537310600281,
0.01979006640613079071,
-0.01941216550767421722,
-0.01918225176632404327,
-0.02297123521566390991,
-0.03507589921355247498,
-0.11478674411773681641,
0.07735202461481094360,
-0.05132507532835006714,
-0.02227036468684673309,
0.14878055453300476074,
-0.06612125784158706665,
-0.01420630514621734619,
0.03461201116442680359,
0.03593287244439125061,
0.11664752662181854248,
0.00783648341894149780,
0.10600564628839492798,
-0.03340532630681991577,
0.03015520423650741577,
0.04817077144980430603,
0.00435679079964756966,
-0.14704410731792449951,
-0.11463578045368194580,
-0.04585747793316841125,
0.00909298192709684372,
-0.10962939262390136719,
-0.08969826251268386841,
-0.09066226333379745483,
0.00179295497946441174,
-0.13413192331790924072,
-0.09668428450822830200,
-0.00219172961078584194,
-0.05114886909723281860,
0.02845674753189086914,
-0.15978549420833587646,
-0.12200979888439178467,
0.21271504461765289307,
0.15887428820133209229,
-0.15934847295284271240,
0.03848214820027351379,
0.12981742620468139648,
-0.04859004169702529907,
0.15166209638118743896,
0.04146450385451316833,
-0.00084705743938684464,
0.07296931743621826172,
-0.15356056392192840576,
-0.11891712248325347900,
-0.00327195879071950912,
-0.22771772742271423340,
-0.17226760089397430420,
0.28226214647293090820,
-0.07507827132940292358,
-0.12178867310285568237,
0.08318180590867996216,
-0.03394983336329460144,
-0.04110932722687721252,
-0.05242905393242835999,
-0.19137293100357055664,
-0.09323002398014068604,
-0.11572895199060440063,
-0.02028478682041168213,
-0.03801641240715980530,
-0.05100106820464134216,
0.17276798188686370850,
-0.17239645123481750488,
-0.03570437058806419373,
0.11141385138034820557,
0.05941583961248397827,
-0.19121553003787994385,
-0.21224273741245269775,
0.35013058781623840332,
0.18946874141693115234,
0.01668683812022209167,
0.07904117554426193237,
-0.15581843256950378418,
0.03685307502746582031,
0.00813253223896026611,
-0.12623816728591918945,
-0.02632826194167137146,
-0.05819559097290039062,
-0.10509074479341506958,
0.16760668158531188965,
0.01336085330694913864,
-0.18638531863689422607,
-0.10889783501625061035,
-0.16835506260395050049,
-0.16706863045692443848,
-0.11224557459354400635,
-0.13449905812740325928,
-0.14295697212219238281,
-0.13669221103191375732,
-0.22249329090118408203,
-0.08019799739122390747,
-0.14244906604290008545,
-0.03776819631457328796,
-0.01531776878982782364,
-0.21042737364768981934,
-0.16278539597988128662,
0.06580723077058792114,
-0.25743970274925231934,
-0.02212783508002758026,
0.13921201229095458984,
-0.07453386485576629639,
-0.14455357193946838379,
0.13917967677116394043,
-0.05189101397991180420,
-0.06309688091278076172,
0.04094058275222778320,
0.03571484982967376709,
0.09515013545751571655,
0.13396075367927551270,
0.03812632709741592407,
0.13647484779357910156,
0.06151441484689712524,
0.06905168294906616211,
-0.04344032704830169678,
0.06766653060913085938,
-0.00740705430507659912,
-0.03307715430855751038,
0.00468930043280124664,
-0.02539853751659393311,
-0.01976135745644569397,
-0.01366348750889301300,
-0.04245208948850631714,
-0.00245952326804399490,
-0.04540674015879631042,
0.01152489334344863892,
0.01120106782764196396,
-0.04378205910325050354,
0.00007307735359063372,
0.02448057197034358978,
0.12820674479007720947,
-0.07282014936208724976,
-0.11433042585849761963,
0.01309106033295392990,
-0.07161309570074081421,
-0.05026568472385406494,
-0.04968943074345588684,
0.25586611032485961914,
-0.06899219751358032227,
-0.12639085948467254639,
0.01985379308462142944,
0.04611399024724960327,
-0.06984943151473999023,
-0.14692294597625732422,
0.01177234109491109848,
-0.10355291515588760376,
-0.06380684673786163330,
-0.22087490558624267578,
-0.16538193821907043457,
-0.03134317696094512939,
-0.05985333770513534546,
-0.18978843092918395996,
0.04498501121997833252,
0.05002139136195182800,
0.08589783310890197754,
-0.03791510313749313354,
0.23069347441196441650,
0.11213938146829605103,
0.07945102453231811523,
0.12122959643602371216,
0.00062186334980651736,
0.04327012225985527039,
-0.01344416104257106781,
-0.10720512270927429199,
-0.07088066637516021729,
0.02412740327417850494,
0.02100231125950813293,
-0.07972954213619232178,
-0.04819143936038017273,
0.04224484786391258240,
-0.16599340736865997314,
-0.12460619956254959106,
0.01875871792435646057,
-0.06373664736747741699,
0.06936847418546676636,
0.06797485798597335815,
0.23761437833309173584,
0.08478771150112152100,
-0.04828377068042755127,
0.00246847188100218773,
0.06420198827981948853,
0.10034658759832382202,
0.02066744863986968994,
0.02656425721943378448,
-0.04000699892640113831,
0.10127995908260345459,
-0.03789352253079414368,
-0.00362782552838325500,
-0.08949441462755203247,
0.09978847950696945190,
-0.04047637060284614563,
0.20025049149990081787,
0.02525617927312850952,
-0.05311546102166175842,
-0.07646414637565612793,
0.14217999577522277832,
0.15870387852191925049,
0.00373475113883614540,
0.03883904218673706055,
0.08786112070083618164,
-0.06275147944688796997,
-0.10534139722585678101,
0.00754299806430935860,
-0.02923298627138137817,
-0.07682241499423980713,
0.07642604410648345947,
-0.05113799870014190674,
-0.04323618486523628235,
0.07933378964662551880,
0.01086349971592426300,
-0.05865354835987091064,
0.08801754564046859741,
0.05018770322203636169,
-0.11554437130689620972,
0.08390082418918609619,
0.06297262012958526611,
0.17686592042446136475,
0.04808848351240158081,
-0.00612609321251511574,
-0.10524557530879974365,
-0.06437730789184570312,
-0.11247197538614273071,
-0.15788659453392028809,
-0.16328853368759155273,
0.01163405738770961761,
-0.00353228300809860229,
-0.05950132757425308228,
-0.23696108162403106689,
-0.01478497777134180069,
0.38981571793556213379,
-0.02503160387277603149,
0.12908893823623657227,
-0.08496757596731185913,
-0.00773150147870182991,
-0.09557224810123443604,
-0.10049486160278320312,
-0.02919472940266132355,
0.04948829114437103271,
-0.13142170011997222900,
0.03126212209463119507,
-0.07082729786634445190,
-0.12586373090744018555,
-0.18467003107070922852,
-0.08591695129871368408,
-0.08512760698795318604,
-0.05793555453419685364,
0.02832931093871593475,
-0.04899438843131065369,
-0.07009609788656234741,
-0.08372974395751953125,
-0.16922423243522644043,
0.02088003791868686676,
-0.06963683664798736572,
-0.16758465766906738281,
0.07983513921499252319,
0.13869474828243255615,
-0.12892350554466247559,
0.28304329514503479004,
-0.03607246279716491699,
-0.22224076092243194580,
0.09059137850999832153,
-0.20955076813697814941,
-0.20634721219539642334,
0.15299803018569946289,
0.19121310114860534668,
-0.11670926958322525024,
0.23148295283317565918,
0.05440435931086540222,
-0.04569976776838302612,
0.14269715547561645508,
0.06958121061325073242,
-0.02943228743970394135,
-0.06640505045652389526,
-0.11650384217500686646,
-0.07450100779533386230,
0.00686799595132470131,
-0.10060445964336395264,
-0.15099719166755676270,
0.04295320063829421997,
-0.05311404541134834290,
-0.07435820251703262329,
-0.10176096111536026001,
-0.09093518555164337158,
-0.07343391329050064087,
-0.13300785422325134277,
-0.06914971023797988892,
-0.01289597433060407639,
-0.03662184998393058777,
-0.02872997149825096130,
0.13736604154109954834,
0.07231822609901428223,
-0.19500669836997985840,
-0.02295947261154651642,
-0.02160983346402645111,
-0.03523679450154304504,
0.00288224685937166214,
0.03961820527911186218,
-0.09187324345111846924,
-0.17164599895477294922,
0.09713458269834518433,
-0.05487234517931938171,
-0.16045860946178436279,
-0.06021320074796676636,
0.13069377839565277100,
0.22099119424819946289,
0.01662584394216537476,
0.25014424324035644531,
-0.04386075213551521301,
0.06217973306775093079,
-0.16965398192405700684,
-0.01657162979245185852,
-0.07849287986755371094,
-0.13010793924331665039,
0.02538639493286609650,
0.07535427808761596680,
-0.02942529879510402679,
-0.03308907523751258850,
-0.03238930553197860718,
-0.14398773014545440674,
0.02839894220232963562,
-0.13651107251644134521,
-0.09791463613510131836,
0.09430346637964248657,
-0.14251418411731719971,
0.10912608355283737183,
-0.00899885222315788269,
0.25426796078681945801,
0.08953344821929931641,
-0.05146866664290428162,
0.00876801181584596634,
-0.01239873468875885010,
0.05554264038801193237,
-0.02941240742802619934,
0.01893026754260063171,
0.11412034183740615845,
0.22697593271732330322,
-0.01828358136117458344,
-0.13552370667457580566,
-0.01682384684681892395,
-0.14437460899353027344,
-0.09995190799236297607,
-0.14703273773193359375,
-0.10190827399492263794,
0.06954549252986907959,
-0.10428853332996368408,
-0.12091734260320663452,
-0.14161346852779388428,
0.04944430664181709290,
-0.08479338139295578003,
-0.05169527977705001831,
-0.09329232573509216309,
-0.07138701528310775757,
-0.06917865574359893799,
0.09895069897174835205,
-0.03323033079504966736,
0.02304810471832752228,
-0.20187439024448394775,
-0.01497727353125810623,
0.05804669857025146484,
-0.13895398378372192383,
-0.01981998793780803680,
0.17197319865226745605,
-0.12510567903518676758,
-0.13136346638202667236,
0.04791601374745368958,
0.00991070922464132309,
-0.05503648519515991211,
0.04138310998678207397,
0.07768890261650085449,
0.06074395030736923218,
-0.01721677742898464203,
0.14597454667091369629,
-0.16647978127002716064,
-0.25033313035964965820,
-0.12939091026782989502,
-0.19749146699905395508,
0.10584862530231475830,
-0.17245167493820190430,
-0.10488473623991012573,
0.06894735991954803467,
0.12385223060846328735,
-0.01595745235681533813,
-0.05423643067479133606,
-0.18080827593803405762,
-0.08685556799173355103,
0.01364618167281150818,
-0.20058232545852661133,
-0.18257692456245422363,
-0.00175516516901552677,
0.17053161561489105225,
-0.06907785683870315552,
-0.09766212105751037598,
-0.10443992912769317627,
-0.10223381966352462769,
-0.11889902502298355103,
-0.11355785280466079712,
-0.12940463423728942871,
-0.04169599339365959167,
-0.03824758529663085938,
0.05013453215360641479,
-0.03529377281665802002,
-0.04791264235973358154,
-0.08385781198740005493,
0.05096899345517158508,
-0.10090412944555282593,
-0.08625536412000656128,
0.02685716003179550171,
0.05646921321749687195,
-0.05619970336556434631,
-0.22497764229774475098,
-0.01915401779115200043,
-0.05656071379780769348,
-0.09844985604286193848,
-0.02458011358976364136,
0.08138280361890792847,
-0.03941473737359046936,
-0.04811076819896697998,
-0.08458111435174942017,
-0.12574073672294616699,
-0.10586341470479965210,
-0.18111711740493774414,
-0.04936850443482398987,
-0.02903701923787593842,
-0.08242147415876388550,
-0.00657782983034849167,
0.14729329943656921387,
0.11148396879434585571,
-0.07566696405410766602,
0.05144308507442474365,
0.02433076128363609314,
0.07771622389554977417,
0.04738568514585494995,
-0.07158192247152328491,
-0.02257750555872917175,
-0.03691219910979270935,
-0.12306152284145355225,
-0.09480070322751998901,
-0.10418900847434997559,
-0.05010610073804855347,
-0.13222831487655639648,
0.01989566162228584290,
0.04197937995195388794,
0.05319790542125701904,
0.19384789466857910156,
0.11153755336999893188,
0.12932670116424560547,
0.16267491877079010010,
-0.05344928801059722900,
-0.05934787169098854065,
-0.02109119668602943420,
0.02317369915544986725,
0.00537960277870297432,
0.14290416240692138672,
0.29850736260414123535,
0.05602529272437095642,
-0.00834809429943561554,
-0.01984898373484611511,
-0.07912030816078186035,
-0.08473805338144302368,
-0.10216479748487472534,
-0.14030265808105468750,
0.00170953175984323025,
0.03885589912533760071,
0.06521886587142944336,
-0.02840397134423255920,
-0.10662592947483062744,
0.00091888575116172433,
0.03360718116164207458,
-0.07036122679710388184,
-0.03850961476564407349,
0.12991303205490112305,
0.12239588052034378052,
0.05225386098027229309,
0.00645677512511610985,
0.00929852854460477829,
0.05330831930041313171,
-0.10206898301839828491,
-0.05283008888363838196,
-0.04739956930279731750,
-0.13249528408050537109,
-0.04989676177501678467,
0.03270895406603813171,
-0.18087086081504821777,
-0.10022480040788650513,
-0.09226024150848388672,
-0.02154600806534290314,
-0.01457662787288427353,
0.08348031342029571533,
-0.11042574048042297363,
-0.02880414016544818878,
0.00357927381992340088,
0.00144108769018203020,
-0.07297505438327789307,
-0.10193451493978500366,
-0.03451636806130409241,
0.07571841776371002197,
0.18438492715358734131,
-0.03418936580419540405,
0.00741056492552161217,
0.02118796668946743011,
0.24789884686470031738,
0.10926070064306259155,
0.07113431394100189209,
-0.01554056257009506226,
0.04551663994789123535,
-0.06416703015565872192,
0.02003179118037223816,
0.03013711981475353241,
0.09483240544795989990,
-0.13869497179985046387,
-0.08841495215892791748,
-0.14801301062107086182,
0.00472925417125225067,
-0.07317347824573516846,
-0.10375179350376129150,
-0.00741992844268679619,
-0.01577882282435894012,
0.07635205239057540894,
0.06176821514964103699,
0.14700300991535186768,
0.09717554599046707153,
-0.02773640491068363190,
-0.07811655849218368530,
0.04748374596238136292,
-0.11635709553956985474,
-0.14207655191421508789,
-0.11478715389966964722,
-0.16414994001388549805,
-0.11835946142673492432,
-0.02685515955090522766,
0.02783468365669250488,
-0.04914234206080436707,
0.00422308081761002541,
0.00732579128816723824,
0.10947000980377197266,
0.05361077189445495605,
-0.01958187855780124664,
-0.10937155038118362427,
0.03968113660812377930,
0.06617724895477294922,
-0.00803615804761648178,
0.18475364148616790771,
0.04163400456309318542,
0.14626444876194000244,
0.09167438745498657227,
-0.13456553220748901367,
-0.13161934912204742432,
-0.00085687974933534861,
-0.10932537168264389038,
-0.07905776053667068481,
-0.13612188398838043213,
0.04162533581256866455,
-0.01905024424195289612,
-0.04118125140666961670,
-0.07193206995725631714,
0.07746106386184692383,
-0.05269381776452064514,
-0.13130061328411102295,
-0.03360631689429283142,
-0.00288268947042524815,
0.19760271906852722168,
0.28712019324302673340,
0.22856619954109191895,
0.13517874479293823242,
0.15952841937541961670,
0.13382780551910400391,
-0.07542362809181213379,
-0.09351831674575805664,
-0.10032517462968826294,
0.00781685486435890198,
-0.03853262215852737427,
-0.07425792515277862549,
0.00834577996283769608,
0.06118166446685791016,
-0.04728640988469123840,
-0.04609779641032218933,
0.12986403703689575195,
0.01191233564168214798,
-0.06480696052312850952,
-0.06344890594482421875,
-0.01592869311571121216,
0.01447826810181140900,
-0.10631858557462692261,
-0.07605706155300140381,
0.03415879979729652405,
-0.08298636227846145630,
-0.02375503256916999817,
0.09092578291893005371,
-0.01265728287398815155,
0.23427118360996246338,
-0.01577184908092021942,
-0.06614693254232406616,
-0.11826659739017486572,
-0.05502745509147644043,
0.00438230670988559723,
0.01008814480155706406,
-0.11113706231117248535,
-0.05974236503243446350,
-0.10552638024091720581,
0.04761763662099838257,
-0.01622471213340759277,
-0.09755801409482955933,
0.04453521594405174255,
-0.08941635489463806152,
0.02309413440525531769,
-0.05140347406268119812,
-0.17627049982547760010,
-0.11107036471366882324,
-0.10625159740447998047,
-0.17075975239276885986,
-0.00702523626387119293,
0.04609576985239982605,
0.25250735878944396973,
-0.01585202664136886597,
-0.05494441837072372437,
-0.05299225449562072754,
0.01607505604624748230,
-0.07033632695674896240,
0.00282250484451651573,
-0.00701280683279037476,
-0.06765816360712051392,
0.01226229406893253326,
-0.00118611461948603392,
-0.15251475572586059570,
-0.10858378559350967407,
0.02829215489327907562,
-0.04309443384408950806,
0.02662733010947704315,
-0.01964127458631992340,
-0.05144200101494789124,
0.02239022031426429749,
-0.01784324459731578827,
-0.15028578042984008789,
-0.17670182883739471436,
-0.08583439886569976807,
-0.06810454279184341431,
-0.03824226558208465576,
-0.05553297698497772217,
-0.11469227075576782227,
-0.08888639509677886963,
-0.10690222680568695068,
-0.08529665321111679077,
-0.02912868186831474304,
0.00511479005217552185,
0.02564059197902679443,
-0.04571351781487464905,
-0.09312181174755096436,
0.14414456486701965332,
0.12733738124370574951,
-0.05722227692604064941,
-0.12202610820531845093,
-0.14448405802249908447,
-0.12041524797677993774,
-0.14986784756183624268,
-0.14118047058582305908,
-0.11608969420194625854,
-0.06283789873123168945,
0.00337385991588234901,
0.08811715245246887207,
0.15196372568607330322,
0.11361172795295715332,
0.15857049822807312012,
-0.18770441412925720215,
-0.23172152042388916016,
-0.16575533151626586914,
0.10558905452489852905,
0.01525797229260206223,
-0.00655571976676583290,
0.03648118674755096436,
-0.05717183277010917664,
-0.02755192108452320099,
-0.03071272186934947968,
-0.01519345026463270187,
-0.01762970350682735443,
0.08323939144611358643,
-0.04076131805777549744,
0.03666922822594642639,
0.09432189166545867920,
0.02157051488757133484,
0.00999552756547927856,
-0.07735703885555267334,
-0.07515493780374526978,
-0.11714924126863479614,
-0.06205977872014045715,
-0.02547832578420639038,
-0.05342372134327888489,
-0.01763876713812351227,
0.10058718919754028320,
0.07950390130281448364,
-0.07062952965497970581,
0.02845556475222110748,
0.04263021424412727356,
-0.02589173987507820129,
-0.10475935041904449463,
-0.12608821690082550049,
-0.01326264347881078720,
0.02480301819741725922,
-0.02571792155504226685,
-0.17495293915271759033,
-0.11836695671081542969,
-0.03757314383983612061,
-0.15086865425109863281,
-0.17083038389682769775,
-0.13545209169387817383,
-0.00565511686727404594,
0.03710463270545005798,
0.11900351941585540771,
-0.11799281090497970581,
-0.04182118549942970276,
-0.01898430101573467255,
-0.03788133710622787476,
-0.06171331182122230530,
-0.04525368660688400269,
-0.18422706425189971924,
0.10223201662302017212,
0.16044159233570098877,
-0.03444603085517883301,
-0.00759116560220718384,
0.02172468043863773346,
-0.02548722177743911743,
-0.02457694523036479950,
-0.02922435291111469269,
-0.12378639727830886841,
-0.05718194320797920227,
0.08968672901391983032,
-0.11662119626998901367,
-0.17683339118957519531,
0.08345118910074234009,
0.08876721560955047607,
0.05651491135358810425,
0.08003320544958114624,
0.15004800260066986084,
0.14290933310985565186,
-0.00847510807216167450,
0.17483647167682647705,
0.04309758171439170837,
-0.02214778214693069458,
0.05178331211209297180,
0.07943854480981826782,
0.01448150631040334702,
-0.05768315494060516357,
0.07328774034976959229,
0.13828440010547637939,
0.13422065973281860352,
0.14069561660289764404,
-0.11463819444179534912,
0.09821316599845886230,
0.01387682836502790451,
-0.13338346779346466064,
-0.13183285295963287354,
0.05573993548750877380,
0.07385689020156860352,
0.08981411904096603394,
0.11928122490644454956,
-0.03417989239096641541,
-0.08057979494333267212,
0.00232227891683578491,
0.01418587472289800644,
0.14445352554321289062,
0.05591001734137535095,
-0.07209578901529312134,
0.12548753619194030762,
-0.15618412196636199951,
-0.11735588312149047852,
0.02842978760600090027,
-0.04456767439842224121,
0.03228210657835006714,
-0.10378464311361312866,
-0.12772653996944427490,
-0.09246791154146194458,
-0.08898711949586868286,
0.03638019040226936340,
-0.15166996419429779053,
0.00243410770781338215,
-0.03386882320046424866,
-0.06500189006328582764,
-0.10757974535226821899,
-0.18911361694335937500,
-0.04735534638166427612,
-0.00809171888977289200,
-0.14900407195091247559,
0.12257499992847442627,
-0.03234686329960823059,
-0.06827075034379959106,
0.04724320769309997559,
0.01301139406859874725,
-0.00794594362378120422,
-0.02775320410728454590,
-0.04932184144854545593,
-0.13354918360710144043,
0.03170875459909439087,
-0.10656245052814483643,
0.03817343339323997498,
-0.02633423544466495514,
-0.00078878382919356227,
-0.03342506662011146545,
0.06977076828479766846,
-0.02272397466003894806,
0.00353223551064729691,
0.06412419676780700684,
0.02096778340637683868,
0.08024816215038299561,
-0.05976916104555130005,
-0.02248148247599601746,
-0.08695004880428314209,
0.18247638642787933350,
-0.01009298395365476608,
0.14454066753387451172,
0.02046001516282558441,
0.13381648063659667969,
0.04525968432426452637,
0.02060946635901927948,
0.02462836727499961853,
0.08182770013809204102,
0.08263491094112396240,
0.13945910334587097168,
0.03253997862339019775,
-0.09760434925556182861,
0.09252632409334182739,
-0.08729143440723419189,
0.00180289975833147764,
0.05510181188583374023,
0.01093352306634187698,
0.06648252159357070923,
-0.06533914059400558472,
0.01598126813769340515,
-0.01203453447669744492,
0.04893702268600463867,
-0.02860753796994686127,
-0.04585555568337440491,
0.00707273604348301888,
-0.08276221901178359985,
-0.19450102746486663818,
-0.18961070477962493896,
-0.21773302555084228516,
0.09286709874868392944,
-0.13826763629913330078,
0.10366220772266387939,
0.07154633849859237671,
0.02487793937325477600,
0.06645353883504867554,
-0.09711013734340667725,
-0.03635071590542793274,
-0.10894036293029785156,
-0.09406944364309310913,
-0.08658308535814285278,
0.06893223524093627930,
0.07880933582782745361,
0.05479325354099273682,
-0.05635280162096023560,
-0.13427934050559997559,
0.05142965167760848999,
-0.11481042951345443726,
0.06480201333761215210,
-0.08887168765068054199,
0.02748378552496433258,
0.16514237225055694580,
0.00860243942588567734,
-0.13330769538879394531,
-0.09282620251178741455,
-0.10971205681562423706,
-0.20209413766860961914,
-0.04817362502217292786,
-0.17270937561988830566,
-0.06985770165920257568,
0.18603748083114624023,
-0.06723178178071975708,
0.14024263620376586914,
0.09626464545726776123,
0.09915162622928619385,
-0.08129718154668807983,
0.12568517029285430908,
-0.13854895532131195068,
0.05967459082603454590,
0.02322912402451038361,
0.00048658222658559680,
0.10797496885061264038,
0.06513728201389312744,
0.06488323956727981567,
0.00609406968578696251,
0.14265456795692443848,
0.08016077429056167603,
0.11102590709924697876,
0.00262675504200160503,
0.05019115284085273743,
-0.00636750878766179085,
-0.03487802296876907349,
-0.10987628996372222900,
0.06164605915546417236,
0.04943915829062461853,
-0.11704523116350173950,
0.07652170211076736450,
0.15211302042007446289,
-0.05156089365482330322,
-0.09511771798133850098,
-0.06152305006980895996,
-0.26675096154212951660,
-0.17021913826465606689,
-0.00627060094848275185,
0.05778508633375167847,
0.03496333584189414978,
-0.01372867822647094727,
0.04824968054890632629,
0.18281738460063934326,
0.16002973914146423340,
0.10952215641736984253,
-0.09035190194845199585,
-0.05423438921570777893,
-0.10456337034702301025,
-0.01426832005381584167,
-0.05066220462322235107,
0.17821717262268066406,
-0.02536816895008087158,
-0.26557728648185729980,
0.18833366036415100098,
-0.11582914739847183228,
-0.24326080083847045898,
-0.06210013851523399353,
-0.06832695007324218750,
-0.09080728143453598022,
-0.02827626094222068787,
-0.15726718306541442871,
-0.16624011099338531494,
0.05150169134140014648,
-0.13305543363094329834,
-0.02379260025918483734,
-0.09830349683761596680,
-0.00773220881819725037,
0.06017022579908370972,
-0.07238455861806869507,
0.13818664848804473877,
0.00550333131104707718,
-0.00910576339811086655,
0.07902760803699493408,
0.18459025025367736816,
0.07956620305776596069,
0.03033613227307796478,
-0.12108273059129714966,
-0.04114763811230659485,
0.00591281428933143616,
0.04519414901733398438,
-0.02499384619295597076,
-0.12311762571334838867,
-0.06654898077249526978,
-0.07758886367082595825,
-0.15151144564151763916,
0.03178175166249275208,
0.04767958819866180420,
-0.21197094023227691650,
-0.11972637474536895752,
-0.21625904738903045654,
-0.18390300869941711426,
0.23557405173778533936,
-0.01282337401062250137,
0.22323603928089141846,
0.15368199348449707031,
0.09183726459741592407,
-0.06834699213504791260,
0.08901544660329818726,
0.01214010082185268402,
0.24023097753524780273,
0.21631991863250732422,
0.10485913604497909546,
0.06466645002365112305,
-0.28895854949951171875,
-0.07865996658802032471,
-0.03151760250329971313,
0.13752420246601104736,
-0.07379165291786193848,
0.01137540582567453384,
0.11384631693363189697,
0.11980092525482177734,
0.04784379526972770691,
-0.03743617236614227295,
-0.01873191818594932556,
-0.03447462618350982666,
0.11400490999221801758,
0.00108018459286540747,
0.09577479958534240723,
-0.10605996847152709961,
0.00476947473362088203,
-0.06147619709372520447,
-0.04122463986277580261,
-0.14093802869319915771,
0.02067036181688308716,
0.04229178652167320251,
0.04750208556652069092,
0.05289436876773834229,
-0.10048162937164306641,
0.10280412435531616211,
-0.10606161504983901978,
-0.08579577505588531494,
0.04557447507977485657,
-0.01321703009307384491,
-0.10885830223560333252,
-0.04421058669686317444,
-0.08309473842382431030,
-0.01915799267590045929,
-0.09784455597400665283,
-0.00234742625616490841,
0.16165517270565032959,
-0.22879759967327117920,
0.10004840046167373657,
0.02879406511783599854,
-0.04456896334886550903,
-0.01653209142386913300,
-0.14364026486873626709,
-0.03004711866378784180,
-0.19369207322597503662,
0.02337239496409893036,
0.00495040742680430412,
-0.07291137427091598511,
-0.06025045365095138550,
-0.06423044949769973755,
-0.00273355748504400253,
-0.04826172441244125366,
0.05625941976904869080,
-0.02857618592679500580,
-0.01556594856083393097,
-0.07829347252845764160,
-0.04571643471717834473,
-0.01413773000240325928,
-0.19202786684036254883,
0.05028205737471580505,
-0.02279381267726421356,
-0.16035182774066925049,
-0.16737422347068786621,
-0.07261588424444198608,
-0.03374620527029037476,
-0.03524943068623542786,
-0.03857426345348358154,
-0.05968157574534416199,
-0.12558069825172424316,
-0.15827964246273040771,
0.01177096646279096603,
-0.02998066507279872894,
-0.09717148542404174805,
-0.15874922275543212891,
-0.17697533965110778809,
-0.06843540072441101074,
-0.13874515891075134277,
-0.03392626717686653137,
-0.05226214975118637085,
-0.10344466567039489746,
-0.00616433145478367805,
0.17153120040893554688,
-0.09847702085971832275,
0.06334770470857620239,
-0.05477678030729293823,
0.01816555671393871307,
0.11782871186733245850,
-0.12436593323945999146,
0.05605278909206390381,
-0.02071574330329895020,
-0.20255082845687866211,
0.24379244446754455566,
0.16207039356231689453,
-0.00946683716028928757,
-0.12544710934162139893,
0.18833243846893310547,
-0.09759457409381866455,
-0.07375692576169967651,
0.05627661198377609253,
0.09953274577856063843,
-0.10193581134080886841,
-0.06396484375000000000,
-0.03635313734412193298,
0.02426576241850852966,
-0.20047502219676971436,
-0.02470471709966659546,
-0.09450525790452957153,
0.01355252228677272797,
-0.09917653352022171021,
0.08816251903772354126,
-0.07116778194904327393,
0.08081564307212829590,
-0.00775491259992122650,
-0.05294265598058700562,
-0.03654113784432411194,
0.05489891022443771362,
0.08110640943050384521,
-0.22168621420860290527,
-0.07642909139394760132,
-0.19130723178386688232,
0.05213198438286781311,
-0.09226903319358825684,
-0.12618653476238250732,
-0.07590037584304809570,
-0.21341553330421447754,
-0.19470535218715667725,
-0.12650810182094573975,
0.04506049677729606628,
-0.09907329082489013672,
-0.10369256883859634399,
-0.08573532849550247192,
-0.15148778259754180908,
-0.19092339277267456055,
-0.07133743911981582642,
-0.15857835114002227783,
-0.08941537141799926758,
-0.01293666288256645203,
-0.02469670213758945465,
-0.10886555165052413940,
0.02200031653046607971,
-0.02620511688292026520,
-0.10619068145751953125,
0.04424398392438888550,
-0.00163177319336682558,
-0.01102295797318220139,
0.13263621926307678223,
0.01083702594041824341,
-0.06771329045295715332,
-0.09240017831325531006,
0.06239112094044685364,
-0.12773047387599945068,
0.03205676749348640442,
-0.12165444344282150269,
-0.14233919978141784668,
0.12349518388509750366,
0.04504910483956336975,
0.14227096736431121826,
0.04028048738837242126,
0.02241757139563560486,
-0.00598862301558256149,
0.06054186820983886719,
-0.18132558465003967285,
-0.22429640591144561768,
-0.03996540606021881104,
-0.10511975735425949097,
-0.13384756445884704590,
0.03745246306061744690,
-0.05728642269968986511,
0.06309801340103149414,
0.09143780916929244995,
0.05845531821250915527,
0.13155442476272583008,
-0.01287911925464868546,
0.06017056852579116821,
0.02137460373342037201,
-0.04017103835940361023,
0.13369524478912353516,
-0.01345569361001253128,
0.00872714631259441376,
0.02319632656872272491,
-0.09057132899761199951,
-0.14347031712532043457,
-0.10735891759395599365,
-0.04131375998258590698,
-0.09030580520629882812,
-0.05000188574194908142,
-0.08812693506479263306,
0.12160237133502960205,
0.09671553224325180054,
0.05535983666777610779,
-0.12525562942028045654,
-0.00802915170788764954,
0.01616958715021610260,
-0.14179205894470214844,
-0.08600337058305740356,
-0.01012470386922359467,
-0.08179258555173873901,
0.06201608106493949890,
-0.04883055016398429871,
-0.13341328501701354980,
-0.16937801241874694824,
-0.13777460157871246338,
-0.17709209024906158447,
-0.14676868915557861328,
-0.07388348132371902466,
-0.09022416919469833374,
0.11728482693433761597,
0.25480985641479492188,
0.04106568545103073120,
-0.06891891360282897949,
0.04574773833155632019,
-0.04689873382449150085,
-0.01202906761318445206,
0.24525718390941619873,
-0.03150212764739990234,
-0.06057780608534812927,
-0.20655432343482971191,
-0.12848345935344696045,
-0.20056179165840148926,
-0.04800753295421600342,
-0.08103732764720916748,
-0.16345994174480438232,
-0.06769222766160964966,
0.04797974228858947754,
0.15662859380245208740,
0.07965806126594543457,
0.00993367377668619156,
-0.12302370369434356689,
-0.09232235699892044067,
0.10899208486080169678,
-0.01593912020325660706,
-0.10327339172363281250,
0.17210085690021514893,
0.07604399323463439941,
0.17255027592182159424,
-0.12961061298847198486,
-0.06829896569252014160,
-0.10342097282409667969,
-0.07854560017585754395,
-0.06090392544865608215,
-0.08411835879087448120,
0.01210001390427350998,
-0.02232899703085422516,
-0.08059801161289215088,
0.07241407036781311035,
-0.03940948843955993652,
0.01796743832528591156,
-0.14931212365627288818,
-0.13662567734718322754,
-0.00063697493169456720,
-0.17862676084041595459,
-0.09809538722038269043,
-0.17610886693000793457,
-0.13272346556186676025,
-0.18163523077964782715,
-0.03875272348523139954,
-0.11189898103475570679,
-0.05377898365259170532,
-0.01047994103282690048,
0.15739220380783081055,
0.12468543648719787598,
0.18197305500507354736,
-0.13775585591793060303,
-0.22990959882736206055,
-0.05291556566953659058,
0.05987871810793876648,
-0.03874799981713294983,
-0.01926286891102790833,
-0.06455651670694351196,
-0.08955821394920349121,
-0.00455654179677367210,
-0.03267850354313850403,
-0.02337827347218990326,
0.32718622684478759766,
-0.17419974505901336670,
-0.17784129083156585693,
0.18601690232753753662,
-0.04357814788818359375,
0.00765540683642029762,
-0.08818729966878890991,
-0.06132258102297782898,
-0.08903798460960388184,
-0.04242579266428947449,
-0.12299919128417968750,
0.07010811567306518555,
0.18170809745788574219,
0.07151985168457031250,
0.12009766697883605957,
-0.06881151348352432251,
-0.16322000324726104736,
-0.10791750252246856689,
-0.17078711092472076416,
0.03054590709507465363,
-0.02023250609636306763,
-0.14670960605144500732,
0.05529248341917991638,
-0.00501644378527998924,
-0.04122028127312660217,
0.04601057991385459900,
0.09186021238565444946,
-0.05079060420393943787,
0.03951800987124443054,
0.05421143397688865662,
-0.03230316936969757080,
0.01672797836363315582,
0.25424817204475402832,
0.26895642280578613281,
-0.12519921362400054932,
-0.10144944489002227783,
-0.06725794076919555664,
-0.10832424461841583252,
-0.07180079817771911621,
-0.03984233736991882324,
-0.12851542234420776367,
-0.00180091103538870811,
0.04559547454118728638,
-0.16126650571823120117,
-0.19469369947910308838,
-0.08037794381380081177,
-0.08940069377422332764,
-0.13264703750610351562,
-0.11733477562665939331,
-0.02891352586448192596,
0.13225927948951721191,
0.05695981532335281372,
-0.07849466055631637573,
-0.24765892326831817627,
-0.25806871056556701660,
-0.01469035260379314423,
-0.13775682449340820312,
-0.14057277143001556396,
0.04228853061795234680,
0.11153773963451385498,
0.13298603892326354980,
-0.03337806090712547302,
0.06532295048236846924,
0.09990406036376953125,
0.00723177753388881683,
0.08597410470247268677,
-0.07158668339252471924,
-0.13080866634845733643,
0.01102891284972429276,
0.14934362471103668213,
-0.07799542695283889771,
-0.19569876790046691895,
-0.05824632942676544189,
-0.02781393937766551971,
-0.10644380748271942139,
-0.06209570541977882385,
0.09110260009765625000,
0.00348867685534060001,
-0.03898794949054718018,
-0.08592695742845535278,
-0.01694162935018539429,
-0.02070777118206024170,
-0.05269971489906311035,
-0.11864104866981506348,
-0.09597577154636383057,
0.09776775538921356201,
-0.05607936531305313110,
-0.02958068624138832092,
0.02395804971456527710,
-0.00924647599458694458,
0.17312525212764739990,
-0.03677698597311973572,
-0.07374964654445648193,
-0.07778678089380264282,
0.06687755137681961060,
-0.01155315712094306946,
0.11460981518030166626,
-0.04975854232907295227,
-0.09216883033514022827,
-0.12579165399074554443,
-0.03216734156012535095,
-0.12557296454906463623,
-0.14324791729450225830,
-0.02258688397705554962,
0.04047625511884689331,
0.03773992881178855896,
-0.14030124247074127197,
-0.02775488607585430145,
-0.03340465947985649109,
-0.07727769762277603149,
-0.13633356988430023193,
-0.06825222074985504150,
-0.07626045495271682739,
-0.13166414201259613037,
0.02384486794471740723,
-0.13713710010051727295,
-0.09575856477022171021,
0.12587255239486694336,
-0.16898174583911895752,
-0.07271496951580047607,
0.03987720236182212830,
-0.26542571187019348145,
-0.19677792489528656006,
-0.03462488949298858643,
-0.09491921216249465942,
0.01754856109619140625,
-0.01594412699341773987,
-0.03092125616967678070,
-0.04364065825939178467,
0.03060672432184219360,
0.13246178627014160156,
0.12321309745311737061,
0.14921675622463226318,
-0.01183188427239656448,
-0.18524236977100372314,
-0.19229862093925476074,
-0.01686597801744937897,
-0.12249203771352767944,
-0.13562484085559844971,
0.01515297219157218933,
-0.01197587605565786362,
-0.01851670257747173309,
0.07615642994642257690,
0.03891461342573165894,
-0.00736698275431990623,
-0.04511735960841178894,
-0.05462796986103057861,
-0.03457536920905113220,
-0.09255576133728027344,
-0.09292133152484893799,
-0.13532359898090362549,
-0.04722852259874343872,
-0.07595086097717285156,
0.13854520022869110107,
-0.12866777181625366211,
-0.14760293066501617432,
-0.04545721039175987244,
-0.03787456452846527100,
-0.09992543607950210571,
-0.08611973375082015991,
0.01922379247844219208,
0.10392389446496963501,
0.11211328953504562378,
0.00853913556784391403,
-0.02583303861320018768,
0.01931997202336788177,
-0.01815688051283359528,
-0.03324312716722488403,
-0.10345721989870071411,
-0.03455246612429618835,
-0.10131005197763442993,
0.09392238408327102661,
-0.00633736327290534973,
-0.02616613358259201050,
-0.04419746994972229004,
0.00899380166083574295,
-0.04265595600008964539,
-0.07124336063861846924,
0.05003055557608604431,
0.14373369514942169189,
0.19170187413692474365,
0.07682678848505020142,
-0.05404048040509223938,
0.15589427947998046875,
0.04727591946721076965,
0.01417429931461811066,
0.17244297266006469727,
-0.00496948836371302605,
-0.03467572852969169617,
0.01123209204524755478,
-0.04131192341446876526,
-0.10462616384029388428,
-0.08297381550073623657,
-0.00676615349948406219,
-0.05256850644946098328,
-0.08625287562608718872,
-0.08937501162290573120,
0.17890156805515289307,
0.16802841424942016602,
0.02380485273897647858,
-0.00041315110865980387,
0.06308114528656005859,
0.10169854760169982910,
-0.10100434720516204834,
-0.07856944948434829712,
-0.06165704876184463501,
-0.12893110513687133789,
-0.12349031120538711548,
0.02598319016396999359,
-0.12412818521261215210,
0.05512784793972969055,
0.03549962490797042847,
-0.07466402649879455566,
0.10657412558794021606,
0.02564917504787445068,
0.24257433414459228516,
0.01076298952102661133,
0.04828917607665061951,
0.04779745265841484070,
0.20722612738609313965,
-0.07533130794763565063,
-0.02302312292158603668,
0.00832842011004686356,
-0.00440904451534152031,
0.24096865952014923096,
0.20342719554901123047,
-0.06635506451129913330,
0.15707215666770935059,
0.25340640544891357422,
-0.13937498629093170166,
-0.03611475974321365356,
0.04290690273046493530,
0.17122562229633331299,
0.14402383565902709961,
-0.12494957447052001953,
0.13377708196640014648,
0.10316979140043258667,
0.01995235309004783630,
-0.08668239414691925049,
0.02048623561859130859,
0.06157481297850608826,
-0.08601199835538864136,
-0.11493828147649765015,
0.14257666468620300293,
0.11435794085264205933,
-0.03429136052727699280,
0.01279566437005996704,
0.03692508116364479065,
0.00586788589134812355,
0.11571720242500305176,
-0.09639931470155715942,
-0.08457605540752410889,
-0.03253782168030738831,
-0.08885581046342849731,
-0.09086196124553680420,
0.04715647920966148376,
-0.08347211778163909912,
0.02771103940904140472,
0.01417616475373506546,
-0.07103487104177474976,
-0.15914256870746612549,
-0.12395497411489486694,
-0.04373149201273918152,
-0.08161582797765731812,
-0.18299831449985504150,
-0.02616130188107490540,
-0.06134166195988655090,
-0.20405228435993194580,
0.21303726732730865479,
-0.18184821307659149170,
-0.18044704198837280273,
-0.05068207532167434692,
-0.06716656684875488281,
-0.12570063769817352295,
0.19110921025276184082,
-0.02183825522661209106,
-0.07512088865041732788,
0.18485574424266815186,
0.12634359300136566162,
0.00247579487040638924,
-0.09379483759403228760,
0.04806922376155853271,
-0.00534493476152420044,
-0.02888687886297702789,
-0.06831720471382141113,
0.08799032121896743774,
0.12858913838863372803,
-0.15831676125526428223,
-0.16400061547756195068,
0.20704890787601470947,
0.06273831427097320557,
-0.06019945070147514343,
0.11057753115892410278,
0.07336948066949844360,
-0.07985127717256546021,
0.14524120092391967773,
-0.03939446061849594116,
0.03414253890514373779,
0.18932186067104339600,
-0.07515370845794677734,
-0.06020651385188102722,
0.04126667231321334839,
0.03462360426783561707,
-0.12188289314508438110,
0.15252217650413513184,
-0.20193429291248321533,
-0.15375180542469024658,
-0.11214806139469146729,
-0.22039796411991119385,
-0.17717902362346649170,
-0.11387819051742553711,
-0.10422807186841964722,
0.02747551538050174713,
-0.11740212142467498779,
-0.02246012166142463684,
0.05148409307003021240,
-0.08318320661783218384,
-0.06422493606805801392,
-0.06274875998497009277,
-0.00844819098711013794,
-0.00263778399676084518,
0.10668664425611495972,
-0.07356566190719604492,
-0.18733306229114532471,
-0.10912778973579406738,
0.03608404844999313354,
-0.15983796119689941406,
-0.12730590999126434326,
0.04055830091238021851,
-0.09862328320741653442,
-0.14783869683742523193,
-0.07691453397274017334,
-0.12142696976661682129,
0.11567424237728118896,
-0.09899725764989852905,
-0.15672317147254943848,
-0.05545802786946296692,
-0.13614247739315032959,
-0.15157011151313781738,
-0.10768961161375045776,
-0.12166570872068405151,
-0.02025889605283737183,
-0.18012863397598266602,
-0.10219155997037887573,
-0.10748928040266036987,
-0.02605675719678401947,
-0.08289536088705062866,
-0.07654948532581329346,
0.09700161218643188477,
0.02147022821009159088,
0.03507798910140991211,
-0.08460643887519836426,
0.18343448638916015625,
0.08144897967576980591,
-0.20386579632759094238,
-0.08670464158058166504,
0.10397983342409133911,
0.22464030981063842773,
-0.09185601025819778442,
-0.00236018979921936989,
0.04215769097208976746,
-0.08964854478836059570,
-0.11814486980438232422,
0.09545867145061492920,
-0.07400237768888473511,
-0.07451402395963668823,
0.00504573481157422066,
0.01515126228332519531,
-0.08483821153640747070,
-0.03883944451808929443,
0.31554523110389709473,
0.11826974153518676758,
-0.20553994178771972656,
0.02663266472518444061,
0.05681996420025825500,
-0.03059652633965015411,
0.04975153505802154541,
0.03253539279103279114,
0.04214221984148025513,
-0.02715739049017429352,
0.02656729333102703094,
-0.05484338104724884033,
-0.07013232260942459106,
-0.12370550632476806641,
-0.05967185273766517639,
0.04782869666814804077,
0.12016500532627105713,
0.05455157905817031860,
0.02931496500968933105,
-0.09950498491525650024,
0.07599516212940216064,
0.08448497951030731201,
-0.11077724397182464600,
0.12204860150814056396,
0.03387079387903213501,
-0.11049917340278625488,
-0.14541293680667877197,
-0.06213371828198432922,
-0.13529294729232788086,
-0.06763542443513870239,
0.24816432595252990723,
-0.00025605925475247204,
0.09539470821619033813,
0.21421465277671813965,
0.08638258278369903564,
-0.05969292297959327698,
-0.04478272423148155212,
0.05229543522000312805,
0.30682399868965148926,
-0.21461164951324462891,
0.01306785549968481064,
0.18586140871047973633,
0.07283557951450347900,
-0.00868016295135021210,
-0.07953860610723495483,
-0.00961818080395460129,
-0.05541458353400230408,
-0.07954738289117813110,
0.04940337687730789185,
0.00667036743834614754,
-0.05817263945937156677,
-0.18811692297458648682,
-0.07058103382587432861,
-0.01876046136021614075,
-0.06724722683429718018,
-0.12755623459815979004,
-0.19677731394767761230,
0.05978921800851821899,
-0.03354081511497497559,
-0.24728888273239135742,
-0.09672985225915908813,
0.00901256501674652100,
-0.02035374194383621216,
-0.01979955658316612244,
-0.12563784420490264893,
-0.04117389768362045288,
0.08264002203941345215,
0.07498753815889358521,
0.06615516543388366699,
0.10936239361763000488,
0.03518252819776535034,
0.08507469296455383301,
0.13938340544700622559,
-0.01266528386622667313,
-0.10596821457147598267,
-0.28740975260734558105,
0.05041083693504333496,
0.24291634559631347656,
-0.02094374038279056549,
0.01767904683947563171,
-0.09136451035737991333,
-0.02146406285464763641,
-0.11889888346195220947,
-0.14785015583038330078,
0.01884398609399795532,
-0.05466101318597793579,
-0.10563902556896209717,
-0.05348882451653480530,
0.13076986372470855713,
0.07704120129346847534,
-0.06997607648372650146,
-0.19696590304374694824,
0.01404294930398464203,
0.11236441135406494141,
-0.07258377969264984131,
-0.23087097704410552979,
-0.15546157956123352051,
-0.04064493626356124878,
0.00465568713843822479,
0.02491003647446632385,
-0.11093578487634658813,
-0.05477454513311386108,
0.11221415549516677856,
0.15257517993450164795,
-0.06835933029651641846,
-0.11581138521432876587,
-0.09137818217277526855,
-0.04880139604210853577,
-0.01360200345516204834,
-0.05712556466460227966,
0.02524860203266143799,
0.08198307454586029053,
-0.06939317286014556885,
-0.05676275864243507385,
0.18736423552036285400,
-0.06840812414884567261,
-0.01933054812252521515,
-0.01989335566759109497,
0.22228559851646423340,
0.17155270278453826904,
0.11615391820669174194,
0.08385163545608520508,
0.09093561023473739624,
0.16050603985786437988,
0.01568766869604587555,
0.11115341633558273315,
-0.09537508338689804077,
-0.09479103982448577881,
-0.05270968750119209290,
0.11473333835601806641,
-0.07405864447355270386,
-0.21787962317466735840,
-0.11041120439767837524,
-0.08368282020092010498,
-0.11040998250246047974,
-0.16504102945327758789,
-0.13619279861450195312,
-0.16139140725135803223,
-0.03039854764938354492,
-0.22446641325950622559,
-0.15476667881011962891,
0.05501846224069595337,
0.02387564629316329956,
-0.03238277137279510498,
-0.04428448155522346497,
0.05510332807898521423,
0.06859107315540313721,
0.07417839020490646362,
0.00171975395642220974,
0.07965413480997085571,
-0.06222042441368103027,
-0.04197467863559722900,
-0.09699798375368118286,
-0.14434775710105895996,
-0.13424216210842132568,
-0.06850318610668182373,
0.03519564867019653320,
-0.02827733382582664490,
-0.05267515778541564941,
-0.09263952076435089111,
-0.18126550316810607910,
-0.11466348916292190552,
-0.10549606382846832275,
-0.10791630297899246216,
-0.12626552581787109375,
-0.03517254814505577087,
-0.13033226132392883301,
-0.07703492790460586548,
-0.19719985127449035645,
0.06598342955112457275,
0.01951950974762439728,
0.03242952376604080200,
-0.16346763074398040771,
-0.10942155867815017700,
0.14238652586936950684,
0.19411201775074005127,
-0.01545978896319866180,
-0.25936785340309143066,
-0.09443382918834686279,
-0.14961421489715576172,
-0.09726626425981521606,
-0.05514786764979362488,
-0.15755261480808258057,
0.00206424528732895851,
-0.03206127136945724487,
-0.08623314648866653442,
-0.07216814905405044556,
-0.00282487436197698116,
-0.00136045180261135101,
-0.19450081884860992432,
-0.18499344587326049805,
-0.03909622132778167725,
-0.13555496931076049805,
-0.08252576738595962524,
0.00779311079531908035,
0.15316046774387359619,
0.14580304920673370361,
0.09217663109302520752,
-0.18247197568416595459,
-0.05786545947194099426,
0.00596532644703984261,
0.03652087226510047913,
-0.18936350941658020020,
-0.12358187139034271240,
-0.01880756951868534088,
-0.02710714563727378845,
-0.00300981872715055943,
-0.16470034420490264893,
-0.10952254384756088257,
0.14137449860572814941,
0.08099081367254257202,
-0.11653341352939605713,
-0.16556981205940246582,
-0.10572699457406997681,
-0.03417741134762763977,
-0.03546780347824096680,
-0.12146652489900588989,
-0.06285283714532852173,
-0.08540244400501251221,
-0.01789330691099166870,
-0.09580945968627929688,
-0.00282737682573497295,
-0.17437377572059631348,
-0.06966941058635711670,
0.10816795378923416138,
0.20729807019233703613,
0.09308492392301559448,
-0.04459371417760848999,
-0.10555510967969894409,
-0.01542080845683813095,
0.05507281795144081116,
0.01075956504791975021,
0.01910050585865974426,
-0.03408285602927207947,
-0.03292275965213775635,
-0.03256676346063613892,
-0.03396780788898468018,
0.05977192893624305725,
-0.08791466802358627319,
-0.05366278812289237976,
-0.06369930505752563477,
0.04263847321271896362,
0.10031491518020629883,
-0.11544694751501083374,
-0.15648207068443298340,
-0.14977613091468811035,
-0.02233003079891204834,
-0.07764966040849685669,
-0.15842506289482116699,
-0.00134190102107822895,
-0.02431829459965229034,
0.09126089513301849365,
0.03568208962678909302,
0.07276766002178192139,
0.00763152912259101868,
-0.09099247306585311890,
-0.09169285744428634644,
0.13799744844436645508,
-0.01700785942375659943,
-0.09804831445217132568,
-0.01267736405134201050,
-0.14388439059257507324,
-0.15436249971389770508,
-0.07246755808591842651,
0.02036012150347232819,
-0.05519038438796997070,
0.01513202581554651260,
-0.04311453923583030701,
-0.02648748457431793213,
-0.03150034695863723755,
0.01045025326311588287,
-0.10509882867336273193,
0.02550066076219081879,
0.05349230021238327026,
-0.15531854331493377686,
-0.08189827203750610352,
-0.14714391529560089111,
-0.00106681080069392920,
0.20023089647293090820,
-0.13499066233634948730,
-0.17131651937961578369,
-0.05339225009083747864,
-0.02705208770930767059,
-0.06982912123203277588,
-0.06092531979084014893,
-0.14703151583671569824,
0.06512326002120971680,
0.11156494915485382080,
-0.12148608267307281494,
-0.01085071638226509094,
0.04956783354282379150,
-0.11715957522392272949,
-0.02529279328882694244,
0.05890151113271713257,
-0.00763387046754360199,
