WTYPE conv5_weight[32 * 32 * 3 * 3] = 
{-0.02633018791675567627,
-0.08516680449247360229,
-0.11303976178169250488,
0.07085490971803665161,
-0.14389194548130035400,
-0.04182817041873931885,
0.14099612832069396973,
0.04840375483036041260,
0.02543293870985507965,
-0.05070935562252998352,
0.11393708735704421997,
0.03378802910447120667,
0.12928298115730285645,
0.02363240532577037811,
-0.02077664434909820557,
0.09603479504585266113,
-0.02219787240028381348,
-0.05202654376626014709,
-0.07583189755678176880,
0.01873011328279972076,
0.10011957585811614990,
-0.11982834339141845703,
0.02122637815773487091,
-0.02480188757181167603,
-0.07610230147838592529,
-0.07839043438434600830,
0.01867874711751937866,
-0.05944772437214851379,
0.06854632496833801270,
0.08320599049329757690,
-0.15753386914730072021,
-0.01278419606387615204,
0.12193880230188369751,
-0.20969109237194061279,
0.03946668654680252075,
0.20540137588977813721,
-0.03364741802215576172,
-0.06504256278276443481,
-0.08130097389221191406,
-0.13260932266712188721,
-0.04795636981725692749,
-0.05777644738554954529,
-0.06104378774762153625,
-0.05235707759857177734,
-0.05816476047039031982,
0.09658538550138473511,
0.18515129387378692627,
0.03151091188192367554,
0.16473452746868133545,
0.08555369079113006592,
-0.07588301599025726318,
0.02595892734825611115,
-0.04881003499031066895,
-0.03110327571630477905,
0.02656629309058189392,
-0.04721399024128913879,
-0.06705762445926666260,
0.06142511963844299316,
-0.02105507440865039825,
0.04122472181916236877,
0.08356769382953643799,
0.07597042620182037354,
0.04238772764801979065,
0.08772500604391098022,
0.07554543763399124146,
0.10345347970724105835,
0.17783991992473602295,
-0.02891881577670574188,
0.01082369405776262283,
0.05348291993141174316,
-0.03085293248295783997,
0.09112441539764404297,
0.28639891743659973145,
-0.01412727031856775284,
-0.13332150876522064209,
-0.01673884689807891846,
-0.12885576486587524414,
-0.19882826507091522217,
-0.02655031904578208923,
-0.23102188110351562500,
-0.08870824426412582397,
0.01012939773499965668,
0.02920359373092651367,
-0.11200425773859024048,
-0.08891408145427703857,
-0.08758310228586196899,
-0.05935513228178024292,
0.03160316124558448792,
-0.03942554816603660583,
0.06590448319911956787,
0.04211831837892532349,
0.02197271957993507385,
-0.02009296230971813202,
0.06134343519806861877,
-0.06891334801912307739,
-0.27673721313476562500,
-0.00174856849480420351,
-0.08237624913454055786,
-0.12236435711383819580,
-0.04987167939543724060,
-0.10395303368568420410,
0.05008271709084510803,
0.05871726199984550476,
-0.07693926244974136353,
0.03074051812291145325,
0.01770274341106414795,
-0.09042600542306900024,
0.02547200582921504974,
0.01612471044063568115,
-0.06332238763570785522,
0.00159813009668141603,
0.02453936263918876648,
0.04680678993463516235,
0.21444965898990631104,
0.01936445198953151703,
0.03787230700254440308,
0.06800021976232528687,
-0.05093223229050636292,
-0.02093372866511344910,
-0.01553635206073522568,
-0.04771313816308975220,
0.07268170267343521118,
0.00231003016233444214,
-0.11256188154220581055,
0.21236884593963623047,
0.12605175375938415527,
0.10681188106536865234,
-0.02566217258572578430,
-0.10444373637437820435,
0.01087199989706277847,
-0.02534174546599388123,
-0.08733243495225906372,
0.07566138356924057007,
-0.04426539689302444458,
-0.15030579268932342529,
-0.01752130500972270966,
-0.16791579127311706543,
0.24859258532524108887,
0.08914165943861007690,
-0.09393265098333358765,
0.20835685729980468750,
-0.05481358990073204041,
-0.07319535315036773682,
0.05091737583279609680,
-0.03234248235821723938,
-0.09945786744356155396,
-0.13840290904045104980,
-0.06985788792371749878,
-0.06284305453300476074,
-0.02714235708117485046,
0.07536128908395767212,
0.04513874277472496033,
0.18451359868049621582,
-0.02792804501950740814,
-0.10753937065601348877,
-0.07844565063714981079,
-0.12849743664264678955,
-0.10731660574674606323,
0.01827368699014186859,
0.08660702407360076904,
0.10652547329664230347,
-0.10059410333633422852,
0.09639780223369598389,
-0.00016938817861955613,
-0.09346601366996765137,
-0.03689037635922431946,
-0.04995332285761833191,
-0.08709821850061416626,
0.03245030716061592102,
0.01891406066715717316,
0.21028624475002288818,
0.22426591813564300537,
0.12970851361751556396,
0.15098255872726440430,
-0.01255440153181552887,
0.03014525771141052246,
0.08634043484926223755,
-0.19880336523056030273,
-0.18095739185810089111,
0.08970650285482406616,
0.00347613333724439144,
-0.04492408037185668945,
-0.08485021442174911499,
-0.04648003727197647095,
-0.10873371362686157227,
-0.07552424818277359009,
-0.05071321129798889160,
-0.16642820835113525391,
-0.07053150981664657593,
0.01071580685675144196,
0.19998583197593688965,
0.22681294381618499756,
0.06196991726756095886,
0.16302672028541564941,
0.07628392428159713745,
0.13267651200294494629,
0.04788392037153244019,
-0.00673221005126833916,
-0.05979415029287338257,
-0.24528056383132934570,
-0.07444738596677780151,
0.11801847815513610840,
-0.09204567223787307739,
-0.10504432022571563721,
0.07276874035596847534,
-0.07257144153118133545,
0.06171603128314018250,
0.02413034252822399139,
-0.04540230706334114075,
-0.01922511495649814606,
-0.11147675663232803345,
-0.07385769486427307129,
0.01391741074621677399,
0.07138752192258834839,
-0.18154624104499816895,
0.01310313679277896881,
0.07835450023412704468,
0.01807883940637111664,
-0.02747558429837226868,
-0.05163098499178886414,
0.03447292745113372803,
0.06675264239311218262,
0.02309458702802658081,
0.01270464248955249786,
-0.02048569917678833008,
-0.01481145992875099182,
-0.06837848573923110962,
-0.15358734130859375000,
0.16993974149227142334,
-0.02824262343347072601,
-0.23081311583518981934,
0.15840259194374084473,
-0.02434681169688701630,
-0.14177560806274414062,
-0.09642550349235534668,
-0.15637521445751190186,
0.04842486977577209473,
-0.01734788902103900909,
0.01492837257683277130,
-0.03974959254264831543,
0.00988835003226995468,
0.02645546942949295044,
0.06293030083179473877,
0.05010223388671875000,
-0.01025709509849548340,
-0.02615363709628582001,
0.00025890819961205125,
0.03083810769021511078,
0.00524686509743332863,
0.04495185613632202148,
0.04618446156382560730,
0.04236878827214241028,
0.00710929883643984795,
-0.04352801293134689331,
-0.00591250183060765266,
-0.12252276390790939331,
-0.08907230198383331299,
-0.16015055775642395020,
-0.10511274635791778564,
-0.15073582530021667480,
-0.07195197790861129761,
0.21326008439064025879,
0.06063727661967277527,
-0.04115281626582145691,
-0.03921641036868095398,
-0.00707024009898304939,
0.00085816247155889869,
-0.19065003097057342529,
-0.17809309065341949463,
-0.06310005486011505127,
-0.15195643901824951172,
-0.04958879947662353516,
-0.09447255730628967285,
-0.08403603732585906982,
-0.06428048014640808105,
-0.03257881477475166321,
-0.02636954188346862793,
-0.09364121407270431519,
0.00495898071676492691,
-0.08920168876647949219,
0.06234352663159370422,
0.03368981555104255676,
-0.09779153019189834595,
-0.07164544612169265747,
-0.09684234112501144409,
0.01430321112275123596,
-0.00195814133621752262,
0.02563053742051124573,
0.01118608191609382629,
0.05083008483052253723,
-0.03742023929953575134,
-0.00811253581196069717,
0.01006426569074392319,
0.02317868918180465698,
-0.10021774470806121826,
-0.08925869315862655640,
-0.01283906772732734680,
-0.10740940272808074951,
0.01636213995516300201,
-0.11584419757127761841,
-0.04552749544382095337,
0.00183576764538884163,
-0.01376771181821823120,
0.08257716894149780273,
-0.11328927427530288696,
-0.10491245239973068237,
-0.02129518985748291016,
-0.06353700906038284302,
-0.11964317411184310913,
-0.06563988327980041504,
-0.02569969184696674347,
-0.05424293875694274902,
-0.12220497429370880127,
-0.09282890707254409790,
-0.08794397115707397461,
-0.09805462509393692017,
-0.11170046776533126831,
-0.04477551579475402832,
0.06073056906461715698,
-0.13920001685619354248,
0.07622583955526351929,
-0.03619305044412612915,
-0.12590330839157104492,
-0.02271570079028606415,
-0.06430424749851226807,
-0.16045449674129486084,
-0.02515330910682678223,
-0.03405692428350448608,
-0.05828915536403656006,
-0.06056488305330276489,
-0.13957317173480987549,
-0.12225081771612167358,
0.03815788403153419495,
0.03547062724828720093,
-0.05453309044241905212,
0.04926010966300964355,
0.01272995397448539734,
0.09884283691644668579,
-0.00623072683811187744,
-0.01010143663734197617,
-0.00609391462057828903,
-0.05911278724670410156,
-0.04894866049289703369,
-0.07383312284946441650,
-0.06821031123399734497,
-0.08691789954900741577,
0.02137046493589878082,
-0.07923591881990432739,
-0.01090290769934654236,
-0.03445870801806449890,
-0.07206125557422637939,
-0.15333318710327148438,
-0.07331112027168273926,
-0.14889389276504516602,
0.09584438800811767578,
-0.01074909325689077377,
-0.09868202358484268188,
0.10843738913536071777,
-0.16033223271369934082,
-0.13654601573944091797,
-0.18204557895660400391,
-0.20934943854808807373,
-0.06939516961574554443,
-0.05844490230083465576,
0.02243197895586490631,
-0.01877694949507713318,
-0.07248370349407196045,
0.00307738082483410835,
-0.01964347064495086670,
-0.01757868938148021698,
0.00127879111096262932,
-0.01580443046987056732,
-0.01122985873371362686,
0.03944087773561477661,
-0.08720429986715316772,
0.00827986188232898712,
-0.00806083250790834427,
0.02398886159062385559,
0.01079145073890686035,
0.13448579609394073486,
0.00236020330339670181,
0.22149845957756042480,
0.17629940807819366455,
0.23343364894390106201,
-0.02736343629658222198,
0.15099512040615081787,
0.21707476675510406494,
-0.02014361880719661713,
-0.01847698166966438293,
-0.14967525005340576172,
0.06625700742006301880,
0.04563311487436294556,
-0.05136460065841674805,
-0.05060036852955818176,
-0.04325408115983009338,
-0.05128571018576622009,
-0.04204085469245910645,
0.00362470373511314392,
-0.06545848399400711060,
-0.02770726010203361511,
-0.07271270453929901123,
-0.05188431963324546814,
-0.00366069492883980274,
-0.01481884997338056564,
-0.00642827060073614120,
0.00440942728891968727,
-0.00001481118033552775,
0.00700810784474015236,
-0.05860372260212898254,
-0.01435161102563142776,
-0.00809953920543193817,
-0.09385112673044204712,
-0.06197712942957878113,
-0.13565249741077423096,
-0.05175369605422019958,
0.01306531950831413269,
-0.05920346453785896301,
-0.04797376692295074463,
0.09369233995676040649,
0.17385467886924743652,
-0.21090155839920043945,
-0.01238087285310029984,
-0.02014305442571640015,
0.09283887594938278198,
-0.05990224331617355347,
0.02472917549312114716,
-0.06700657308101654053,
-0.03608672693371772766,
-0.06072518602013587952,
-0.01386336237192153931,
0.06271453201770782471,
0.01703408733010292053,
-0.02815868146717548370,
0.01088672410696744919,
-0.00311845308169722557,
-0.11004659533500671387,
-0.02020960301160812378,
-0.10327706485986709595,
-0.09751554578542709351,
-0.01130115240812301636,
-0.07983309775590896606,
0.04971043765544891357,
-0.01586067862808704376,
-0.03011969663202762604,
-0.09765353053808212280,
-0.12475113570690155029,
-0.14745031297206878662,
-0.05944452807307243347,
-0.05315962806344032288,
0.00982680916786193848,
-0.02651683241128921509,
-0.01375904213637113571,
-0.00812608934938907623,
0.03417928144335746765,
-0.13019655644893646240,
0.10951194167137145996,
0.01188246719539165497,
-0.01693836413323879242,
-0.00867635663598775864,
-0.02108786813914775848,
-0.05539138242602348328,
0.06401334702968597412,
0.12918889522552490234,
0.11582156270742416382,
0.04030402004718780518,
0.12683388590812683105,
-0.06098792701959609985,
0.08482048660516738892,
0.02671917341649532318,
0.25808414816856384277,
0.21314486861228942871,
-0.04922699183225631714,
0.00834644213318824768,
0.15735131502151489258,
-0.04323317855596542358,
-0.01193394418805837631,
0.23781515657901763916,
-0.01280930731445550919,
-0.02824332751333713531,
-0.04592177644371986389,
0.11147152632474899292,
0.14842891693115234375,
0.14519391953945159912,
0.10482603311538696289,
-0.05220481380820274353,
0.05217530950903892517,
-0.12886403501033782959,
-0.12751455605030059814,
-0.04969196021556854248,
-0.08078315854072570801,
-0.14420956373214721680,
-0.06554427742958068848,
-0.03079337626695632935,
-0.05988237261772155762,
-0.02465873770415782928,
-0.16855923831462860107,
0.02084471471607685089,
-0.01099765766412019730,
-0.05397104471921920776,
-0.01657588966190814972,
0.01549756247550249100,
0.03396141901612281799,
-0.02047635428607463837,
0.18896692991256713867,
-0.08117955923080444336,
-0.09545135498046875000,
-0.17062921822071075439,
0.05837095156311988831,
-0.01198330428451299667,
-0.12121852487325668335,
-0.04936706274747848511,
-0.08564606308937072754,
-0.09487445652484893799,
0.02512363158166408539,
-0.05351398885250091553,
-0.11562389880418777466,
-0.07806150615215301514,
0.03732991963624954224,
0.00498518301174044609,
0.03576209768652915955,
0.01279528345912694931,
-0.06540402024984359741,
-0.05998332053422927856,
-0.01200880110263824463,
0.09954762458801269531,
-0.04549438878893852234,
-0.09736452996730804443,
-0.10166609287261962891,
-0.10723098367452621460,
-0.09971875697374343872,
-0.14390479028224945068,
-0.08539970964193344116,
-0.19183318316936492920,
-0.01028294116258621216,
-0.05567957460880279541,
-0.05140538141131401062,
-0.07606250792741775513,
-0.09951584041118621826,
-0.04330967739224433899,
-0.02405549027025699615,
0.00608676299452781677,
-0.00848363526165485382,
0.01368877012282609940,
0.06958908587694168091,
-0.02220088616013526917,
0.00565306935459375381,
-0.02730840444564819336,
-0.01538882497698068619,
-0.03810761123895645142,
0.23779653012752532959,
-0.07974828779697418213,
-0.04390496760606765747,
0.14846263825893402100,
0.07510630786418914795,
-0.11334359645843505859,
0.11726624518632888794,
-0.06057412177324295044,
-0.08709704875946044922,
-0.03076212853193283081,
-0.08709170669317245483,
-0.11241464316844940186,
0.03584111854434013367,
0.10791830718517303467,
-0.00281069218181073666,
0.13268885016441345215,
0.05902445316314697266,
0.05191795527935028076,
-0.12301857024431228638,
-0.06084110215306282043,
-0.03954946249723434448,
-0.09029642492532730103,
-0.10259606689214706421,
-0.03745851665735244751,
0.01467642467468976974,
-0.03282832726836204529,
0.04668354243040084839,
-0.09663607180118560791,
-0.11597441881895065308,
-0.01288592349737882614,
-0.03719003871083259583,
-0.05831784754991531372,
0.02004220336675643921,
-0.07155983895063400269,
0.11248956620693206787,
0.00656537339091300964,
-0.11059737950563430786,
-0.06389645487070083618,
0.00633232481777667999,
0.01766524463891983032,
0.01259780023247003555,
0.03848431631922721863,
-0.00973156746476888657,
-0.00135703035630285740,
-0.04002263024449348450,
-0.09583999961614608765,
-0.07882966846227645874,
-0.06821562349796295166,
-0.13854289054870605469,
-0.08141848444938659668,
-0.14942303299903869629,
-0.03393800929188728333,
-0.02060595713555812836,
-0.10412950813770294189,
0.09504504501819610596,
0.04166828468441963196,
0.15710461139678955078,
0.14929567277431488037,
0.02051420323550701141,
0.10317294299602508545,
0.12441916763782501221,
-0.07611060142517089844,
0.08881400525569915771,
0.02745951339602470398,
-0.14300298690795898438,
0.06441453844308853149,
-0.08036229014396667480,
-0.05909983068704605103,
-0.07340154796838760376,
-0.08263228833675384521,
0.00816788431257009506,
0.01651806384325027466,
0.08526916801929473877,
0.19775733351707458496,
0.07545378804206848145,
0.00576775660738348961,
-0.02310854941606521606,
-0.03298288583755493164,
-0.12605944275856018066,
-0.06010037288069725037,
-0.11088170856237411499,
-0.02323593944311141968,
0.05463315173983573914,
0.31782364845275878906,
-0.03781609982252120972,
-0.01301178243011236191,
-0.04939524829387664795,
-0.09468214213848114014,
-0.02743978053331375122,
-0.05134313926100730896,
0.01154562272131443024,
-0.00838734582066535950,
-0.14865499734878540039,
-0.02658897079527378082,
-0.03629121184349060059,
-0.09697785973548889160,
-0.02104835771024227142,
-0.08184569329023361206,
-0.07999592274427413940,
0.02101403474807739258,
-0.13741524517536163330,
-0.08661619573831558228,
0.01975291408598423004,
0.02814489975571632385,
-0.06787798553705215454,
-0.04767659679055213928,
0.01855280064046382904,
-0.02237904071807861328,
0.26008749008178710938,
0.09549888223409652710,
-0.09199137985706329346,
-0.05028776079416275024,
-0.02364330179989337921,
-0.05343750491738319397,
-0.06319009512662887573,
-0.01565110124647617340,
-0.03786876425147056580,
-0.09385806322097778320,
0.01467941235750913620,
0.07069041579961776733,
-0.06484845280647277832,
-0.05069839581847190857,
-0.05815997347235679626,
-0.00522353546693921089,
0.01536697242408990860,
-0.06341825425624847412,
-0.07702325284481048584,
-0.11082172393798828125,
-0.03130920231342315674,
-0.15345832705497741699,
-0.17395500838756561279,
-0.05160751566290855408,
0.06632536649703979492,
-0.02453532442450523376,
0.01575357094407081604,
-0.06209205463528633118,
-0.07905200868844985962,
-0.04725419357419013977,
0.00498904287815093994,
-0.05307329446077346802,
0.06137819960713386536,
0.00426943041384220123,
0.02099539339542388916,
0.08747257292270660400,
0.07006497681140899658,
0.11198159307241439819,
-0.03124197572469711304,
0.33649253845214843750,
0.27715596556663513184,
-0.04512851312756538391,
0.17336380481719970703,
-0.00596528546884655952,
0.05675219371914863586,
0.11891322582960128784,
-0.04077165201306343079,
0.03350044414401054382,
0.08606877177953720093,
-0.12162793427705764771,
-0.13185128569602966309,
-0.11795616149902343750,
-0.20416769385337829590,
-0.05615050718188285828,
-0.10849794745445251465,
-0.13418367505073547363,
-0.08305363357067108154,
-0.13887926936149597168,
-0.09373103827238082886,
-0.01286169048398733139,
-0.14896471798419952393,
-0.03178035840392112732,
-0.04186306893825531006,
-0.08401820063591003418,
-0.06177909299731254578,
0.04585217311978340149,
-0.07705420255661010742,
-0.09214670211076736450,
0.07021613419055938721,
0.05878954753279685974,
0.06106086447834968567,
0.03103936649858951569,
-0.19889856874942779541,
0.01146385259926319122,
0.19894213974475860596,
-0.13988576829433441162,
-0.06296291947364807129,
0.03408882766962051392,
-0.18005353212356567383,
-0.15355211496353149414,
-0.06449710577726364136,
0.07462452352046966553,
-0.10458914935588836670,
-0.08327081799507141113,
-0.13144412636756896973,
-0.06803614646196365356,
0.05200901627540588379,
-0.12634862959384918213,
-0.14375233650207519531,
0.11784496158361434937,
0.05274207517504692078,
-0.03410364314913749695,
-0.02838245220482349396,
0.01507168728858232498,
-0.11586052179336547852,
-0.06815880537033081055,
-0.13113766908645629883,
-0.01487537194043397903,
0.01433804258704185486,
-0.06665997207164764404,
-0.05525930598378181458,
0.01403586100786924362,
0.11441532522439956665,
0.15363925695419311523,
0.01911441609263420105,
-0.01312389783561229706,
0.28733727335929870605,
0.14798735082149505615,
0.09361696243286132812,
0.02336686290800571442,
0.06908258795738220215,
-0.01196005195379257202,
-0.05783347785472869873,
-0.00709579465910792351,
-0.08239603042602539062,
-0.01924815773963928223,
-0.04596690088510513306,
-0.00126583431847393513,
-0.01131250709295272827,
0.03468511253595352173,
-0.01081403717398643494,
-0.07364740967750549316,
-0.03900559991598129272,
-0.02478959783911705017,
-0.06445917487144470215,
-0.05708254873752593994,
-0.03501604124903678894,
-0.09587421268224716187,
-0.04121415689587593079,
0.06065206974744796753,
0.02044495381414890289,
0.11681825667619705200,
0.00505754398182034492,
-0.10438903421163558960,
0.06984712183475494385,
-0.10760453343391418457,
-0.06059963256120681763,
-0.01256543397903442383,
-0.13133735954761505127,
-0.03672339767217636108,
-0.02043262310326099396,
-0.07106282562017440796,
-0.14463081955909729004,
-0.11340877413749694824,
-0.02664973586797714233,
0.03158222138881683350,
-0.01173693407326936722,
0.05860600620508193970,
-0.11200860887765884399,
-0.01392354350537061691,
-0.01621525548398494720,
0.05584535002708435059,
0.01303760614246129990,
-0.05059910565614700317,
0.04200284928083419800,
-0.00802770536392927170,
0.00038427789695560932,
0.03723366186022758484,
0.06768242269754409790,
-0.17483493685722351074,
-0.11698620766401290894,
-0.03713155537843704224,
0.06049586832523345947,
0.19700771570205688477,
0.12166310101747512817,
0.00103202799800783396,
0.03103325702250003815,
0.02993716485798358917,
-0.12205015122890472412,
-0.10458560287952423096,
-0.02789462357759475708,
-0.02259790152311325073,
-0.03731061518192291260,
-0.10914462804794311523,
-0.12020234018564224243,
-0.19862371683120727539,
-0.15893867611885070801,
-0.05473980680108070374,
0.01199318654835224152,
-0.07534836232662200928,
0.03809202089905738831,
0.01575241237878799438,
-0.01846605166792869568,
0.06557667255401611328,
-0.10184535384178161621,
-0.03547058627009391785,
0.23448449373245239258,
-0.11651249229907989502,
-0.14876939356327056885,
-0.06134565174579620361,
-0.06887155026197433472,
-0.12320657819509506226,
-0.01315473951399326324,
-0.04783079400658607483,
-0.03174300491809844971,
0.07273659110069274902,
0.07594795525074005127,
0.07262438535690307617,
0.10002547502517700195,
0.13477705419063568115,
0.09478078782558441162,
0.01170548610389232635,
-0.06197969242930412292,
-0.03764407336711883545,
-0.00309644709341228008,
-0.10540363937616348267,
-0.02070316113531589508,
-0.04179362952709197998,
-0.08115534484386444092,
-0.13043741881847381592,
-0.19091363251209259033,
-0.12383654713630676270,
-0.05841487646102905273,
-0.06692104041576385498,
-0.07634022086858749390,
0.04338981211185455322,
-0.04111146926879882812,
-0.05390951782464981079,
-0.06087794154882431030,
-0.07510125637054443359,
-0.09892622381448745728,
-0.05393496900796890259,
-0.09157866984605789185,
-0.06380698084831237793,
0.08384879678487777710,
-0.09995351731777191162,
-0.11289056390523910522,
0.17701838910579681396,
-0.24792803823947906494,
-0.19828000664710998535,
-0.06284951418638229370,
-0.03410356119275093079,
-0.02274416200816631317,
-0.05040884390473365784,
-0.04967151209712028503,
-0.07311452925205230713,
-0.00935671199113130569,
0.00088524253806099296,
-0.05978417396545410156,
-0.04238714277744293213,
0.02261426858603954315,
0.07881173491477966309,
-0.03039865382015705109,
-0.19909253716468811035,
-0.12800180912017822266,
0.00530380662530660629,
-0.15158852934837341309,
-0.08109630644321441650,
-0.06708076596260070801,
-0.09595351666212081909,
-0.12469382584095001221,
0.03240662813186645508,
0.00726576242595911026,
0.06365869194269180298,
-0.23825064301490783691,
0.08071102201938629150,
-0.04602430015802383423,
-0.16924878954887390137,
0.06690799444913864136,
0.01392859686166048050,
-0.08263877779245376587,
-0.12696266174316406250,
0.03296726197004318237,
0.17468418180942535400,
-0.12288609892129898071,
-0.03816570341587066650,
-0.01795987412333488464,
-0.11439803242683410645,
0.01253424212336540222,
-0.14131237566471099854,
-0.03723948821425437927,
0.06485949456691741943,
-0.03191561251878738403,
-0.06020807102322578430,
0.05060346797108650208,
-0.03592867776751518250,
-0.00700697535648941994,
-0.07766217738389968872,
-0.05865599587559700012,
-0.11928351968526840210,
-0.06016545742750167847,
-0.04844237491488456726,
-0.05409444496035575867,
-0.03831590712070465088,
-0.04397417977452278137,
-0.03706493228673934937,
0.00189696240704506636,
-0.02028693631291389465,
-0.12309463322162628174,
-0.12497068941593170166,
-0.02551047317683696747,
-0.12751817703247070312,
-0.06577669829130172729,
-0.03425880521535873413,
0.00202159467153251171,
0.08879771828651428223,
-0.03895640000700950623,
-0.03536179661750793457,
-0.03500492125749588013,
0.00323409447446465492,
-0.08160921931266784668,
-0.06135853379964828491,
0.03708470985293388367,
-0.08957395702600479126,
-0.01921905577182769775,
0.10806482285261154175,
-0.08994681388139724731,
-0.04825044050812721252,
0.19751043617725372314,
-0.05034443736076354980,
-0.08993249386548995972,
-0.10216508060693740845,
0.06111280992627143860,
-0.04260767251253128052,
-0.00254652835428714752,
-0.15463598072528839111,
-0.10098299384117126465,
-0.10855539143085479736,
-0.10460164397954940796,
-0.10224104672670364380,
-0.16349908709526062012,
-0.06397408246994018555,
-0.12470042705535888672,
-0.05754486471414566040,
-0.01116815675050020218,
-0.04140030220150947571,
0.03422834351658821106,
0.10267992317676544189,
-0.01098107360303401947,
0.01100724376738071442,
0.13324230909347534180,
0.04199943691492080688,
0.02132794819772243500,
0.03367731720209121704,
-0.06579764187335968018,
0.06430827081203460693,
-0.04368385300040245056,
-0.09347564727067947388,
0.05783054232597351074,
0.00436383159831166267,
0.09756221622228622437,
0.01777503639459609985,
0.25339326262474060059,
-0.03146748617291450500,
0.03808236494660377502,
0.10993150621652603149,
0.05053473263978958130,
0.07835046947002410889,
0.00637094536796212196,
-0.02926758676767349243,
-0.09894768148660659790,
0.07586342841386795044,
0.06420345604419708252,
-0.18570956587791442871,
-0.10815153270959854126,
-0.01723514124751091003,
0.02670226059854030609,
-0.09209403395652770996,
0.07359851151704788208,
0.08476661890745162964,
0.05759834870696067810,
0.09037920087575912476,
-0.07398944348096847534,
-0.03090086579322814941,
-0.02918491698801517487,
0.16966173052787780762,
0.14247864484786987305,
-0.05281426757574081421,
0.10636735707521438599,
-0.06126768887042999268,
-0.20307698845863342285,
-0.01563805527985095978,
-0.08292344957590103149,
0.18321180343627929688,
0.12333294749259948730,
0.13926476240158081055,
0.33901172876358032227,
0.04531735181808471680,
-0.13358646631240844727,
-0.13394086062908172607,
-0.02144006267189979553,
-0.10760604590177536011,
-0.07441724836826324463,
-0.02034491486847400665,
-0.01397296134382486343,
0.07948581874370574951,
0.09579288214445114136,
-0.00243545393459498882,
0.10594657808542251587,
0.19236059486865997314,
-0.03009746223688125610,
0.03654220327734947205,
0.04841755330562591553,
-0.05299121886491775513,
-0.13454535603523254395,
-0.09055246412754058838,
0.30886092782020568848,
0.14924681186676025391,
-0.03917431831359863281,
0.00685797072947025299,
0.00935974624007940292,
-0.07980204373598098755,
0.02828210964798927307,
0.09073258936405181885,
0.07971847057342529297,
-0.04493161290884017944,
-0.18451513350009918213,
-0.13367830216884613037,
-0.06974656134843826294,
-0.12533681094646453857,
-0.07989559322595596313,
0.01761669479310512543,
-0.04241943731904029846,
0.05225119367241859436,
0.22715470194816589355,
0.03813416510820388794,
0.05395757779479026794,
-0.00510543957352638245,
0.07821513712406158447,
0.10288404673337936401,
-0.01889409497380256653,
-0.09421902894973754883,
0.08909767121076583862,
0.02574882842600345612,
-0.06192198023200035095,
-0.17164416611194610596,
-0.11167371273040771484,
-0.11158157885074615479,
0.00379291595891118050,
-0.06049342080950737000,
-0.00815846025943756104,
0.17683817446231842041,
0.21125471591949462891,
0.09972270578145980835,
-0.21717599034309387207,
0.13750077784061431885,
0.06527936458587646484,
-0.09653054177761077881,
-0.16871389746665954590,
-0.12939521670341491699,
-0.06003032252192497253,
0.00800550263375043869,
0.01559347286820411682,
-0.12061104178428649902,
0.00158926472067832947,
-0.07057628780603408813,
-0.15235301852226257324,
0.04336458817124366760,
0.09804127365350723267,
0.04692437499761581421,
0.00679151806980371475,
-0.04835399240255355835,
-0.01311202812939882278,
-0.08039825409650802612,
0.03340576216578483582,
0.09383004903793334961,
-0.11310712993144989014,
-0.02342859283089637756,
0.09216482937335968018,
-0.02801485732197761536,
-0.01430434547364711761,
0.04631450772285461426,
-0.01799815893173217773,
0.01843593455851078033,
-0.03421298041939735413,
0.10486927628517150879,
0.08909048140048980713,
-0.08857604861259460449,
-0.06831947714090347290,
-0.01169459708034992218,
0.01743298396468162537,
-0.07240892201662063599,
-0.05953510105609893799,
-0.05720317363739013672,
0.06443873792886734009,
-0.05419992655515670776,
0.05586588382720947266,
-0.00711608538404107094,
-0.12199345231056213379,
-0.11335923522710800171,
-0.09789831936359405518,
-0.14276435971260070801,
0.23912322521209716797,
-0.11228960007429122925,
-0.00355990929529070854,
0.11669861525297164917,
0.00763408187776803970,
-0.02644412405788898468,
-0.06136770173907279968,
-0.17926898598670959473,
-0.10176798701286315918,
-0.06367433816194534302,
-0.05439363420009613037,
-0.05955469608306884766,
-0.08407473564147949219,
0.13840056955814361572,
0.10175459831953048706,
-0.03338383883237838745,
0.16893525421619415283,
0.01655424386262893677,
-0.04143082350492477417,
0.17562137544155120850,
0.09125680476427078247,
-0.08270528912544250488,
-0.02324811369180679321,
0.04976456984877586365,
-0.00684810336679220200,
0.11243037879467010498,
0.03689844533801078796,
-0.05536944419145584106,
0.09230844676494598389,
-0.13778072595596313477,
-0.13239377737045288086,
-0.03256649523973464966,
-0.04119946807622909546,
-0.12677507102489471436,
0.14990489184856414795,
-0.01845902763307094574,
-0.03243034705519676208,
0.08317425847053527832,
-0.03366376087069511414,
-0.02034887298941612244,
-0.05558805912733078003,
-0.09305065870285034180,
-0.00123636133503168821,
-0.05076242983341217041,
-0.06930512934923171997,
0.02074767649173736572,
-0.08423285931348800659,
-0.06832900643348693848,
-0.05261018499732017517,
-0.06115063652396202087,
-0.04293632879853248596,
-0.07589052617549896240,
-0.06966564059257507324,
-0.07538545876741409302,
-0.10813640803098678589,
-0.08063129335641860962,
0.04737567529082298279,
-0.05157326534390449524,
-0.06911943852901458740,
-0.03258139640092849731,
0.08948707580566406250,
-0.02036338672041893005,
-0.09404029697179794312,
-0.06745351850986480713,
-0.13037495315074920654,
-0.08992910385131835938,
-0.04843834787607192993,
-0.08716485649347305298,
-0.00104788737371563911,
-0.05527847632765769958,
-0.11861336231231689453,
0.07092268019914627075,
0.06026872992515563965,
-0.05583542585372924805,
0.04894785583019256592,
-0.04480154812335968018,
0.07517020404338836670,
0.07621363550424575806,
0.01823843456804752350,
0.03910777345299720764,
-0.03055883757770061493,
-0.11448563635349273682,
-0.03167022764682769775,
-0.11080908030271530151,
-0.11614146083593368530,
-0.10903965681791305542,
-0.03376566618680953979,
0.01184830628335475922,
0.08475185185670852661,
-0.08019030839204788208,
-0.01767731457948684692,
-0.07614102959632873535,
-0.06688446551561355591,
-0.11621081829071044922,
-0.06690464913845062256,
-0.01362769678235054016,
-0.07076294720172882080,
-0.07499863952398300171,
0.00975042209029197693,
-0.10035275667905807495,
0.02576825767755508423,
-0.07700242847204208374,
-0.04636336117982864380,
-0.08341453224420547485,
-0.14578877389430999756,
-0.10474435240030288696,
-0.10651249438524246216,
-0.09548350423574447632,
-0.06373362988233566284,
0.12136222422122955322,
-0.12039418518543243408,
0.03096000105142593384,
-0.12918394804000854492,
-0.08321180939674377441,
-0.03272018581628799438,
0.12607927620410919189,
0.27766871452331542969,
0.15351800620555877686,
0.05050055682659149170,
0.16912516951560974121,
-0.16397987306118011475,
0.10699798166751861572,
0.00116908363997936249,
-0.07137788832187652588,
0.10153939574956893921,
-0.09950940310955047607,
-0.13974948227405548096,
0.08615995198488235474,
-0.05189242586493492126,
-0.07632203400135040283,
0.01101339515298604965,
0.05965004488825798035,
0.02528760209679603577,
0.04155032709240913391,
0.01915304362773895264,
0.06296747922897338867,
0.03015244379639625549,
-0.10770929604768753052,
-0.03425570204854011536,
-0.06445980072021484375,
-0.13699734210968017578,
-0.05443108454346656799,
-0.15214827656745910645,
-0.12611545622348785400,
-0.01738689094781875610,
-0.01695542223751544952,
-0.02924330160021781921,
-0.04699572920799255371,
-0.03471210226416587830,
-0.15706330537796020508,
0.04121578112244606018,
-0.00731811160221695900,
0.07608025521039962769,
0.07441299408674240112,
-0.10510244220495223999,
-0.16439373791217803955,
-0.03142830729484558105,
-0.04042230173945426941,
0.12011777609586715698,
-0.02414545044302940369,
-0.09678059071302413940,
0.17022593319416046143,
0.12032617628574371338,
-0.00708645908161997795,
0.02572243474423885345,
-0.00562656857073307037,
-0.07256855815649032593,
0.02357362769544124603,
-0.02700543031096458435,
0.01063291355967521667,
-0.04758496955037117004,
0.06085351854562759399,
-0.00937528535723686218,
-0.04837987199425697327,
-0.02997325547039508820,
0.13756607472896575928,
0.06293582171201705933,
-0.05741349980235099792,
0.12268404662609100342,
0.09706259518861770630,
-0.09982612729072570801,
-0.06306549906730651855,
-0.10669152438640594482,
0.03252601251006126404,
-0.03135506808757781982,
-0.12827020883560180664,
-0.09679729491472244263,
0.01535028684884309769,
-0.18064126372337341309,
-0.10104171186685562134,
-0.06450026482343673706,
-0.14013573527336120605,
-0.09723128378391265869,
-0.00052474316908046603,
0.01761378534138202667,
-0.04034288227558135986,
-0.12270033359527587891,
0.06306476145982742310,
0.05652089416980743408,
-0.01747163943946361542,
0.08976065367460250854,
0.09658955037593841553,
-0.09983946382999420166,
-0.11937813460826873779,
-0.02569617889821529388,
-0.14321151375770568848,
0.07215762138366699219,
-0.02504108101129531860,
-0.07825493812561035156,
-0.05097508057951927185,
-0.11607503890991210938,
-0.16409380733966827393,
0.06375584006309509277,
0.05439350381493568420,
0.07097541540861129761,
-0.05303123220801353455,
-0.03664005920290946960,
0.13894560933113098145,
0.00946585182100534439,
-0.05031629651784896851,
-0.08891998976469039917,
-0.04701742902398109436,
0.06196921318769454956,
-0.15175458788871765137,
-0.05122907459735870361,
0.09757520258426666260,
-0.03783662244677543640,
-0.10343538224697113037,
-0.11829147487878799438,
-0.01676870882511138916,
-0.00837723258882761002,
-0.03538317605853080750,
-0.04417292773723602295,
-0.00617981329560279846,
-0.01746438257396221161,
-0.04293435811996459961,
-0.09034023433923721313,
-0.06296671181917190552,
0.14839118719100952148,
0.05625035613775253296,
0.08649148046970367432,
0.09816589206457138062,
0.11880580335855484009,
0.27165120840072631836,
-0.07386509329080581665,
0.05602891370654106140,
0.13370446860790252686,
-0.05330903455615043640,
0.03202024847269058228,
-0.03103920444846153259,
0.02877034991979598999,
0.04521282762289047241,
0.01589872129261493683,
0.00343284709379076958,
-0.02075219340622425079,
-0.04089697822928428650,
-0.07548082619905471802,
-0.06217222660779953003,
-0.04128024354577064514,
0.09749150276184082031,
0.03653757646679878235,
0.01364995166659355164,
0.12777468562126159668,
-0.05673748254776000977,
-0.04166464135050773621,
-0.10593987256288528442,
-0.00576938642188906670,
-0.02620529010891914368,
-0.11615545302629470825,
-0.12384089827537536621,
-0.03166154026985168457,
-0.06286065280437469482,
0.00661575375124812126,
-0.00331721594557166100,
-0.06094187870621681213,
-0.05654524266719818115,
-0.10861551761627197266,
0.09150303155183792114,
0.26160278916358947754,
-0.04851112142205238342,
-0.01936768740415573120,
-0.03126018121838569641,
-0.06013953685760498047,
-0.08174016326665878296,
-0.09970034658908843994,
-0.01609071902930736542,
-0.06955860555171966553,
-0.08451534807682037354,
-0.05202501639723777771,
-0.06232221797108650208,
-0.02773205377161502838,
-0.12842573225498199463,
-0.11381880939006805420,
-0.12304493039846420288,
0.08524561673402786255,
0.04219507426023483276,
-0.02606833912432193756,
-0.05908644199371337891,
-0.10118979215621948242,
-0.07056741416454315186,
-0.10053190588951110840,
0.29282590746879577637,
0.18492278456687927246,
-0.09684564918279647827,
0.23494955897331237793,
0.02305112592875957489,
-0.06140082329511642456,
0.02891266345977783203,
-0.00758164888247847557,
0.00742650777101516724,
-0.01591216772794723511,
-0.09511639922857284546,
-0.09573529660701751709,
-0.12118129432201385498,
-0.10394940525293350220,
0.05223566293716430664,
-0.09008646011352539062,
-0.15840609371662139893,
-0.07145161926746368408,
0.12168411165475845337,
-0.13733194768428802490,
0.05162438377737998962,
-0.06966856122016906738,
-0.03882129117846488953,
0.03029332496225833893,
-0.15378674864768981934,
0.04780270531773567200,
0.14000204205513000488,
-0.07137446850538253784,
0.05332163721323013306,
0.24529425799846649170,
-0.03959270939230918884,
-0.06888156384229660034,
0.00091442157281562686,
-0.03950159251689910889,
-0.09644237160682678223,
-0.12525829672813415527,
0.11197455227375030518,
0.02257268130779266357,
0.06417575478553771973,
0.07169089466333389282,
-0.02043187804520130157,
0.09414909780025482178,
0.01258650794625282288,
-0.15612012147903442383,
-0.05354369059205055237,
-0.02772188372910022736,
-0.03355368226766586304,
-0.05375465750694274902,
-0.00187631300650537014,
0.10352005064487457275,
-0.01832294464111328125,
-0.04767532274127006531,
-0.02608012408018112183,
0.00044375436846166849,
0.02437853068113327026,
-0.04838811233639717102,
0.03630101680755615234,
0.11376608908176422119,
-0.04272608458995819092,
-0.20060135424137115479,
0.05550825968384742737,
-0.03667438402771949768,
-0.10173019021749496460,
0.00361947529017925262,
0.00192617555148899555,
-0.01191186066716909409,
0.01672344096004962921,
-0.01374782342463731766,
-0.01173991523683071136,
-0.05695689097046852112,
0.02540481835603713989,
-0.02399771660566329956,
0.03809617087244987488,
0.04237161204218864441,
0.05709765478968620300,
-0.01518375147134065628,
-0.08243378996849060059,
0.01292594335973262787,
-0.15288248658180236816,
-0.11718178540468215942,
0.09213047474622726440,
-0.11677533388137817383,
-0.06200821325182914734,
-0.08681296557188034058,
-0.05402851849794387817,
-0.15041261911392211914,
0.03674345463514328003,
0.02275301888585090637,
-0.16712808609008789062,
-0.01155516318976879120,
-0.07334271818399429321,
-0.08734612911939620972,
-0.16595096886157989502,
-0.07291673868894577026,
-0.12294591218233108521,
-0.18315801024436950684,
-0.15489397943019866943,
-0.07679982483386993408,
0.11897427588701248169,
-0.05457350611686706543,
-0.01838114671409130096,
-0.06029111891984939575,
-0.05907397344708442688,
0.04094655439257621765,
-0.11558153480291366577,
0.14222832024097442627,
0.13142471015453338623,
0.01708266884088516235,
-0.01917997002601623535,
0.03029604628682136536,
0.09660306572914123535,
-0.07195741683244705200,
-0.07926484197378158569,
0.40822020173072814941,
-0.15013293921947479248,
-0.15689262747764587402,
0.02203523926436901093,
-0.01186659093946218491,
-0.07282567024230957031,
0.04317063465714454651,
0.02803898230195045471,
-0.12835954129695892334,
-0.01917040534317493439,
-0.18690367043018341064,
-0.17905406653881072998,
-0.06706249713897705078,
0.07162889093160629272,
-0.02053366601467132568,
0.02518067136406898499,
0.11087074130773544312,
-0.11488274484872817993,
0.00112638459540903568,
-0.05345520377159118652,
-0.09623204916715621948,
-0.07730850577354431152,
0.02085357904434204102,
-0.02400795184075832367,
-0.09968767315149307251,
0.11015152931213378906,
-0.02715099230408668518,
-0.07497276365756988525,
-0.04547902569174766541,
-0.07641376554965972900,
-0.12690363824367523193,
-0.09804480522871017456,
-0.09746609628200531006,
-0.01738655380904674530,
0.02076023444533348083,
-0.05103888735175132751,
0.04465834796428680420,
-0.07015272974967956543,
0.02971213124692440033,
-0.01918591186404228210,
0.00847280491143465042,
-0.08987199515104293823,
-0.09305997937917709351,
0.03499331697821617126,
-0.11504012346267700195,
-0.06374380737543106079,
0.13141158223152160645,
0.00486234575510025024,
-0.02985765971243381500,
-0.09974338114261627197,
-0.05261360108852386475,
0.01143871713429689407,
-0.00815753173083066940,
-0.07846283167600631714,
0.00314347376115620136,
-0.06557320803403854370,
-0.02893400937318801880,
-0.00134194572456181049,
0.12483415752649307251,
0.17524151504039764404,
0.04572622478008270264,
-0.09949716925621032715,
0.12139140069484710693,
0.01763973012566566467,
-0.09526451677083969116,
-0.06936145573854446411,
-0.02737681940197944641,
0.17789509892463684082,
0.11461459100246429443,
0.06410653144121170044,
0.18243502080440521240,
0.03597347065806388855,
0.09994444996118545532,
0.00571168772876262665,
-0.14345026016235351562,
0.03485304862260818481,
-0.14226065576076507568,
-0.08356733620166778564,
-0.00381853105500340462,
-0.14512278139591217041,
-0.11232283711433410645,
-0.00537330610677599907,
-0.04765150323510169983,
-0.04349603131413459778,
-0.03745411336421966553,
-0.06666254997253417969,
-0.21510954201221466064,
-0.07656064629554748535,
-0.05095889046788215637,
-0.02198917046189308167,
0.07773160934448242188,
-0.04502794519066810608,
-0.01083136349916458130,
0.08532641083002090454,
0.03535146638751029968,
-0.09596475958824157715,
0.03988905251026153564,
-0.08132263273000717163,
-0.06901930272579193115,
-0.03640384972095489502,
-0.04580536484718322754,
-0.04578570276498794556,
-0.10351346433162689209,
-0.02713068574666976929,
-0.11453584581613540649,
-0.12876890599727630615,
-0.07838726043701171875,
-0.14101360738277435303,
-0.14980451762676239014,
0.10457915812730789185,
-0.14738328754901885986,
-0.01224650256335735321,
-0.08445115387439727783,
0.04354942589998245239,
0.12485097348690032959,
-0.06144214048981666565,
-0.00463676871731877327,
0.13575686514377593994,
-0.14972613751888275146,
-0.02292341366410255432,
0.05052730813622474670,
0.10048684477806091309,
0.17508231103420257568,
-0.01143555343151092529,
-0.03410020843148231506,
0.02525144070386886597,
-0.09754733741283416748,
0.20577190816402435303,
-0.04524179920554161072,
-0.15284274518489837646,
-0.10222485661506652832,
-0.00360489985905587673,
0.12915237247943878174,
-0.03099580854177474976,
0.23564037680625915527,
0.11792519688606262207,
0.22037288546562194824,
0.27562886476516723633,
0.17360702157020568848,
0.00291052437387406826,
0.03365198895335197449,
-0.00193813547957688570,
0.02358888275921344757,
-0.07106973975896835327,
-0.03700742498040199280,
-0.08778344839811325073,
-0.07925192266702651978,
-0.03456561639904975891,
-0.04759343340992927551,
0.19641351699829101562,
0.10887746512889862061,
-0.12459463626146316528,
0.21077698469161987305,
0.07951929420232772827,
-0.06313864886760711670,
-0.04459739476442337036,
-0.03989657759666442871,
0.07764701545238494873,
-0.13351717591285705566,
-0.13281658291816711426,
0.05283955112099647522,
-0.09272482246160507202,
-0.12758955359458923340,
0.01636158861219882965,
0.02132176421582698822,
-0.02570841275155544281,
0.07772094011306762695,
-0.13575392961502075195,
0.01033941097557544708,
-0.11117298156023025513,
-0.12403484433889389038,
-0.02808645553886890411,
0.04108568653464317322,
0.07293466478586196899,
-0.00635896809399127960,
0.04544361680746078491,
-0.02602044120430946350,
-0.02360707707703113556,
-0.04285787045955657959,
0.03106723725795745850,
0.03381192684173583984,
-0.12670348584651947021,
-0.03963630273938179016,
-0.02211407199501991272,
-0.14138786494731903076,
-0.10299815237522125244,
-0.18303668498992919922,
-0.06118569895625114441,
-0.08777518570423126221,
0.06819143146276473999,
-0.10725961625576019287,
0.01459689065814018250,
0.10812806338071823120,
0.04021035507321357727,
0.00006666171248070896,
-0.00190727936569601297,
0.00522813061252236366,
0.00665946817025542259,
0.03903792053461074829,
-0.12402389198541641235,
-0.08897416293621063232,
-0.11170930415391921997,
0.02305760048329830170,
0.15316310524940490723,
0.03147883340716362000,
0.06685109436511993408,
0.11613570153713226318,
0.02167303301393985748,
0.02732836455106735229,
0.05477594584226608276,
-0.02248159423470497131,
0.01959720626473426819,
0.06691075116395950317,
-0.12630592286586761475,
0.14743596315383911133,
-0.01498871855437755585,
-0.05142664536833763123,
0.06941279023885726929,
-0.03267840296030044556,
-0.04636445268988609314,
0.05499229207634925842,
-0.00829361192882061005,
0.05940432101488113403,
0.05648938193917274475,
-0.06144517660140991211,
0.01385618932545185089,
-0.08311229199171066284,
-0.11530988663434982300,
-0.11010958999395370483,
0.03573508560657501221,
0.10027004033327102661,
-0.12222447991371154785,
0.02445400506258010864,
0.06540950387716293335,
-0.10477539896965026855,
-0.08558379858732223511,
-0.08285285532474517822,
-0.05073778703808784485,
-0.05422383919358253479,
-0.07954902946949005127,
-0.13298442959785461426,
-0.14261277019977569580,
-0.08127561956644058228,
-0.03116317652165889740,
-0.11355824023485183716,
-0.00187215686310082674,
0.03535338118672370911,
-0.09218720346689224243,
0.03778352215886116028,
-0.00438315654173493385,
-0.03689461573958396912,
0.12876804172992706299,
0.03157119080424308777,
0.09975523501634597778,
0.11944406479597091675,
-0.06727785617113113403,
-0.08326816558837890625,
-0.10677990317344665527,
-0.06045116484165191650,
-0.04958142712712287903,
-0.15467664599418640137,
-0.04643908888101577759,
-0.03904482349753379822,
0.01409723889082670212,
-0.01486130617558956146,
0.08520314097404479980,
-0.06998705863952636719,
-0.00040889560477808118,
-0.10383915156126022339,
-0.07209966331720352173,
-0.02500049024820327759,
-0.14683766663074493408,
-0.04695874452590942383,
0.10124954581260681152,
0.02556500397622585297,
0.04601459577679634094,
0.01832169853150844574,
0.10827268660068511963,
0.11396197974681854248,
-0.06596703827381134033,
-0.12211290001869201660,
-0.13840684294700622559,
-0.12009932100772857666,
-0.06956531107425689697,
0.02961574308574199677,
-0.08038666844367980957,
-0.05585427954792976379,
-0.04527629539370536804,
-0.08398769795894622803,
-0.00367341795936226845,
-0.03365173935890197754,
-0.13108195364475250244,
-0.07438208162784576416,
-0.01370523124933242798,
0.09541538357734680176,
0.08310358971357345581,
-0.05394171923398971558,
-0.05413038283586502075,
-0.12436202168464660645,
-0.08276472985744476318,
-0.03901256993412971497,
-0.02635415643453598022,
0.01618638262152671814,
-0.08901789039373397827,
-0.05902301520109176636,
-0.08525665849447250366,
-0.11906725168228149414,
-0.18214127421379089355,
-0.11911109089851379395,
-0.02447633445262908936,
-0.18735867738723754883,
-0.13988402485847473145,
-0.01999520882964134216,
-0.10438140481710433960,
-0.11715192347764968872,
-0.01463827770203351974,
0.00180242187343537807,
-0.08237657696008682251,
0.04229210689663887024,
-0.11915223300457000732,
-0.19303432106971740723,
0.12398629635572433472,
-0.07425632327795028687,
0.21538046002388000488,
0.19587242603302001953,
0.21417364478111267090,
0.10603927820920944214,
0.05845989659428596497,
-0.03066090121865272522,
0.13688299059867858887,
-0.09289421886205673218,
0.04123246297240257263,
-0.02256090007722377777,
-0.05105322971940040588,
-0.06889516860246658325,
-0.11094937473535537720,
-0.03752806037664413452,
-0.05863093212246894836,
0.02286363206803798676,
-0.11866741627454757690,
-0.09965725988149642944,
-0.06561645120382308960,
0.00147319061215966940,
-0.02758756093680858612,
-0.05980418249964714050,
0.07650600373744964600,
0.11430013924837112427,
0.00910954829305410385,
-0.04581093415617942810,
0.04823246225714683533,
0.01165221165865659714,
-0.04294460639357566833,
0.18098625540733337402,
0.12398917973041534424,
0.03456740453839302063,
0.05924789234995841980,
-0.13362739980220794678,
-0.05766322836279869080,
-0.00319815985858440399,
0.08278132975101470947,
0.17892044782638549805,
-0.00801774859428405762,
-0.06477476656436920166,
-0.05145026370882987976,
-0.07205666601657867432,
0.04586092010140419006,
-0.00427373498678207397,
-0.04458817839622497559,
-0.03335800021886825562,
-0.09125293046236038208,
-0.09186727553606033325,
-0.09975962340831756592,
0.04937594756484031677,
0.08606171607971191406,
-0.12342618405818939209,
0.05706460401415824890,
0.00792416371405124664,
-0.18592830002307891846,
-0.00030438130488619208,
0.03160595148801803589,
0.03510395437479019165,
0.07965892553329467773,
-0.00836117565631866455,
0.10381905734539031982,
0.14724424481391906738,
0.00409956416115164757,
0.16930955648422241211,
0.16604098677635192871,
0.02099489048123359680,
-0.00323063181713223457,
0.08940054476261138916,
0.02826575562357902527,
-0.03102211281657218933,
-0.03126899898052215576,
0.05427855625748634338,
-0.12806650996208190918,
-0.09740550071001052856,
-0.05859051272273063660,
-0.06518391519784927368,
-0.16849942505359649658,
0.04976745322346687317,
0.04152631014585494995,
-0.09714426100254058838,
0.01041183713823556900,
0.03576043620705604553,
0.01113976445049047470,
-0.06046275049448013306,
-0.07743088155984878540,
0.06657133251428604126,
-0.09097240865230560303,
0.03948964178562164307,
-0.08647284656763076782,
-0.00544304214417934418,
0.01426454633474349976,
-0.04183484241366386414,
-0.04531600698828697205,
0.02778981439769268036,
-0.02228782139718532562,
0.07534226775169372559,
-0.01947238296270370483,
0.02207857556641101837,
0.03745566308498382568,
-0.21654413640499114990,
-0.14439798891544342041,
0.01681412756443023682,
-0.12516795098781585693,
-0.10532952845096588135,
-0.01854089647531509399,
-0.02813462354242801666,
-0.15379650890827178955,
0.00602858327329158783,
-0.03925250098109245300,
-0.12215411663055419922,
-0.01245561335235834122,
0.00320711219683289528,
0.01634082943201065063,
-0.03215231373906135559,
0.08927331864833831787,
0.03258462622761726379,
0.09436807036399841309,
0.17580270767211914062,
0.03697588667273521423,
0.11224738508462905884,
0.14043782651424407959,
-0.01806418225169181824,
-0.09035352617502212524,
-0.13653185963630676270,
-0.05157639831304550171,
-0.09403147548437118530,
-0.17127631604671478271,
-0.06997289508581161499,
-0.10989820957183837891,
-0.19900096952915191650,
-0.14745679497718811035,
0.04849320650100708008,
-0.05189882591366767883,
-0.07149394601583480835,
0.03889974951744079590,
0.11967969685792922974,
0.17947866022586822510,
0.01310111116617918015,
0.06266877800226211548,
-0.00249897874891757965,
-0.00268979743123054504,
-0.08183986693620681763,
0.06619080156087875366,
-0.06103232130408287048,
0.01727170683443546295,
0.07712270319461822510,
-0.08413483202457427979,
-0.01564729213714599609,
0.02574352174997329712,
-0.21081607043743133545,
0.05489253252744674683,
0.21210151910781860352,
-0.17754723131656646729,
-0.04413222521543502808,
0.34303352236747741699,
-0.09040461480617523193,
-0.01346800848841667175,
-0.00518114631995558739,
0.05316328629851341248,
0.05157356709241867065,
0.02845835499465465546,
-0.01641041412949562073,
0.09058220684528350830,
-0.00545999547466635704,
-0.00432335026562213898,
-0.13110241293907165527,
-0.08936287462711334229,
0.08466923236846923828,
0.00167781265918165445,
-0.00781317800283432007,
-0.01190153695642948151,
-0.07185175269842147827,
-0.08151916414499282837,
-0.11534890532493591309,
-0.13779202103614807129,
-0.01195112895220518112,
-0.13750509917736053467,
-0.10369122028350830078,
-0.13239005208015441895,
-0.04733003675937652588,
-0.04147459566593170166,
-0.01378934737294912338,
-0.14367458224296569824,
-0.09972333908081054688,
0.10257703810930252075,
-0.06269718706607818604,
-0.02047496102750301361,
0.02687309496104717255,
-0.04868783801794052124,
-0.10149630159139633179,
-0.04441283643245697021,
-0.05472566187381744385,
-0.04666350036859512329,
-0.03451300412416458130,
0.00755863217636942863,
-0.09740166366100311279,
-0.25768223404884338379,
-0.06852175295352935791,
-0.13232032954692840576,
-0.18517015874385833740,
0.01186884660273790359,
-0.10734719038009643555,
-0.16564525663852691650,
0.36494365334510803223,
0.15122668445110321045,
-0.00168120954185724258,
0.20516638457775115967,
0.14589069783687591553,
0.07416350394487380981,
-0.10867831110954284668,
-0.15116760134696960449,
-0.09638145565986633301,
-0.06298918277025222778,
-0.01436221227049827576,
-0.06016673892736434937,
-0.05872408300638198853,
0.06989590078592300415,
0.03486595302820205688,
-0.19546996057033538818,
-0.16850776970386505127,
-0.09667890518903732300,
-0.14124035835266113281,
-0.08855090290307998657,
-0.00962772127240896225,
0.03127527981996536255,
0.02446395903825759888,
-0.05428177490830421448,
-0.05162683874368667603,
0.00976040679961442947,
0.01220931764692068100,
-0.13512465357780456543,
-0.02683462202548980713,
0.06646534800529479980,
-0.15085470676422119141,
-0.12703458964824676514,
0.02825145795941352844,
0.00848111696541309357,
-0.14088357985019683838,
-0.02317443303763866425,
-0.06117100268602371216,
-0.05896054208278656006,
-0.13234211504459381104,
-0.01310885790735483170,
0.09679003804922103882,
0.07469489425420761108,
-0.08213832229375839233,
-0.13847781717777252197,
-0.10838976502418518066,
-0.12526342272758483887,
-0.00094674131833016872,
-0.06009056419134140015,
-0.04523617774248123169,
-0.07853123545646667480,
-0.04201587289571762085,
-0.02623970434069633484,
-0.01034375652670860291,
-0.12279561907052993774,
-0.07425222545862197876,
0.10536448657512664795,
-0.02821363136172294617,
-0.10280624032020568848,
-0.02755962684750556946,
0.00269687967374920845,
-0.13277660310268402100,
-0.01013596728444099426,
-0.08069323748350143433,
-0.06883487850427627563,
-0.06182214617729187012,
-0.09149839729070663452,
0.09082819521427154541,
-0.05037714168429374695,
0.08753547817468643188,
0.09812238812446594238,
-0.06953502446413040161,
0.06380583345890045166,
-0.04465261846780776978,
-0.05421692505478858948,
-0.00596252875402569771,
-0.05913232266902923584,
-0.10831132531166076660,
-0.02299048751592636108,
0.00009421112190466374,
0.00581516884267330170,
0.09528550505638122559,
-0.21098221838474273682,
-0.13655215501785278320,
-0.03507966920733451843,
0.02657091431319713593,
-0.00011971440835623071,
0.21937730908393859863,
0.22005282342433929443,
0.24064829945564270020,
0.12288594245910644531,
0.14398887753486633301,
0.19321770966053009033,
0.15229545533657073975,
-0.04132602363824844360,
0.16740293800830841064,
0.05330741032958030701,
-0.20532539486885070801,
-0.04953100904822349548,
0.09858822822570800781,
0.16489923000335693359,
0.00590237928554415703,
-0.05224221199750900269,
0.08341886103153228760,
-0.06561685353517532349,
-0.07451947778463363647,
0.10847971588373184204,
-0.00912531372159719467,
-0.04587512835860252380,
-0.14130787551403045654,
-0.12140474468469619751,
-0.04608186334371566772,
-0.08124089241027832031,
-0.06887285411357879639,
-0.01765849627554416656,
-0.07409483194351196289,
-0.09931206703186035156,
-0.06829298287630081177,
-0.04800201952457427979,
-0.03704660758376121521,
-0.07386433333158493042,
-0.05227841809391975403,
-0.00097301916684955359,
-0.17507044970989227295,
-0.02154574915766716003,
-0.07206495106220245361,
-0.15234304964542388916,
0.13961149752140045166,
-0.18917442858219146729,
0.08235125988721847534,
-0.00853383447974920273,
-0.13860756158828735352,
0.01768936030566692352,
0.00917889922857284546,
-0.05083392187952995300,
-0.11318884044885635376,
-0.24870000779628753662,
-0.11621666699647903442,
-0.19397819042205810547,
-0.19656617939472198486,
-0.03590608388185501099,
0.00692940317094326019,
-0.21397991478443145752,
-0.07449597120285034180,
-0.00687092682346701622,
0.11641495674848556519,
0.15145257115364074707,
0.22694730758666992188,
0.01744232885539531708,
0.17000789940357208252,
-0.00419879844412207603,
0.07410497218370437622,
-0.08886334300041198730,
-0.15071687102317810059,
-0.07196367532014846802,
0.07721000164747238159,
0.05060407891869544983,
-0.00417321501299738884,
0.13353183865547180176,
0.13281308114528656006,
-0.07378569990396499634,
0.03185366094112396240,
0.09560263901948928833,
0.14486598968505859375,
-0.02912265993654727936,
-0.03605027869343757629,
0.16627015173435211182,
0.15788532793521881104,
-0.07934585958719253540,
-0.01953146420419216156,
0.23161101341247558594,
0.23625710606575012207,
-0.00798236485570669174,
-0.05901585891842842102,
-0.02739066816866397858,
0.13368494808673858643,
0.04891940578818321228,
-0.02259087003767490387,
0.04951670393347740173,
0.11899720132350921631,
-0.09418199956417083740,
-0.02698155306279659271,
-0.06640699505805969238,
-0.05032766610383987427,
0.02447781339287757874,
-0.07978165894746780396,
-0.01759147271513938904,
-0.01515539549291133881,
-0.02477730438113212585,
0.03578430041670799255,
0.05343274772167205811,
-0.12044526636600494385,
-0.02644485235214233398,
0.00164621637668460608,
-0.07061902433633804321,
-0.06717395037412643433,
0.00510403607040643692,
-0.10242470353841781616,
-0.02489419654011726379,
-0.15169760584831237793,
0.06540017575025558472,
0.09739681333303451538,
-0.17044550180435180664,
0.07288363575935363770,
0.03792493417859077454,
-0.08321024477481842041,
0.00681110890582203865,
0.03755505383014678955,
-0.05589063465595245361,
-0.05626774951815605164,
-0.19325204193592071533,
0.01387967169284820557,
0.12657950818538665771,
-0.00821343436837196350,
-0.02946854941546916962,
0.03878383710980415344,
-0.09956239908933639526,
-0.02691433951258659363,
-0.12616008520126342773,
-0.06291326880455017090,
-0.24751998484134674072,
-0.13502980768680572510,
-0.14244493842124938965,
-0.06848617643117904663,
-0.03835039213299751282,
-0.10865436494350433350,
0.15771098434925079346,
0.03360556066036224365,
-0.01292809098958969116,
-0.03530964255332946777,
-0.03906212374567985535,
-0.02327155321836471558,
-0.14848875999450683594,
-0.12617343664169311523,
-0.09302920103073120117,
0.25334742665290832520,
0.25353902578353881836,
0.03524738177657127380,
-0.07528629899024963379,
-0.01484050042927265167,
-0.05376701802015304565,
-0.11734086275100708008,
-0.04091507196426391602,
-0.04220515489578247070,
-0.08328261226415634155,
-0.12811340391635894775,
-0.11953364312648773193,
0.05572441592812538147,
0.03400192782282829285,
0.04636819288134574890,
-0.09144379943609237671,
-0.02161073312163352966,
0.03436541184782981873,
-0.05258699506521224976,
-0.09436602890491485596,
-0.03499435633420944214,
0.07572429627180099487,
0.09193901717662811279,
-0.14579264819622039795,
-0.14667622745037078857,
-0.05332317948341369629,
-0.11007459461688995361,
-0.12055037170648574829,
-0.07517209649085998535,
-0.18172146379947662354,
-0.13571551442146301270,
-0.02818458527326583862,
-0.05322699993848800659,
-0.17370623350143432617,
-0.15121054649353027344,
0.09977351874113082886,
-0.13229066133499145508,
-0.10112974047660827637,
-0.04816283658146858215,
0.03946463391184806824,
-0.06038727238774299622,
-0.15595827996730804443,
0.37834388017654418945,
0.03986944630742073059,
-0.09511292725801467896,
-0.06882152706384658813,
0.04463305696845054626,
-0.07921881973743438721,
-0.11032310873270034790,
0.07918246090412139893,
0.11342363804578781128,
-0.06664475053548812866,
0.06412297487258911133,
0.14212843775749206543,
-0.02010510675609111786,
-0.07429351657629013062,
-0.03524008765816688538,
0.07501635700464248657,
-0.01467607449740171432,
0.02843547053635120392,
-0.04940284043550491333,
-0.03275702893733978271,
0.02945226244628429413,
-0.03451897948980331421,
-0.01711700111627578735,
-0.01885833404958248138,
0.00597406318411231041,
-0.10944905877113342285,
-0.00736866379156708717,
-0.09549103677272796631,
-0.05254186689853668213,
-0.04544485732913017273,
-0.06054399162530899048,
-0.00868702400475740433,
-0.01882063038647174835,
-0.01343271229416131973,
-0.10118655115365982056,
-0.01494975388050079346,
-0.00201855972409248352,
-0.07810933887958526611,
-0.08533177524805068970,
0.09938415139913558960,
0.20073518157005310059,
0.03686007112264633179,
0.03518959134817123413,
0.12629069387912750244,
-0.01349912770092487335,
-0.16020701825618743896,
0.01296236831694841385,
-0.11047028005123138428,
-0.05970506742596626282,
0.00195358437485992908,
-0.10631286352872848511,
-0.01183315180242061615,
-0.01743231341242790222,
-0.05438245087862014771,
-0.03705478459596633911,
-0.04517049342393875122,
0.07828654348850250244,
-0.15355500578880310059,
-0.12319763004779815674,
-0.13269884884357452393,
-0.05436227098107337952,
-0.11405003815889358521,
-0.05829807370901107788,
0.05281023681163787842,
-0.12486942857503890991,
-0.11660834401845932007,
-0.04945822432637214661,
-0.05229747295379638672,
0.11322855204343795776,
0.04474400728940963745,
-0.03949051350355148315,
-0.09791382402181625366,
0.38251671195030212402,
0.11144145578145980835,
-0.12418255954980850220,
-0.08033484220504760742,
-0.06995864212512969971,
-0.00371728977188467979,
-0.13945026695728302002,
0.04895886033773422241,
0.03627014160156250000,
0.08456458896398544312,
0.08087672293186187744,
0.08313485980033874512,
-0.02410266734659671783,
0.11674564331769943237,
0.06079613789916038513,
-0.21629354357719421387,
-0.12004370242357254028,
-0.01941129006445407867,
-0.22442701458930969238,
-0.09688666462898254395,
0.03168287500739097595,
-0.11476912349462509155,
-0.14699010550975799561,
-0.06763672083616256714,
-0.00000143433430821460,
-0.02923251874744892120,
-0.05578711628913879395,
-0.11301814019680023193,
-0.06506193429231643677,
0.03269817680120468140,
0.09972302615642547607,
-0.03205263242125511169,
-0.19814521074295043945,
0.05740020796656608582,
0.14751948416233062744,
-0.06924369186162948608,
-0.14698664844036102295,
0.05450776964426040649,
0.27904334664344787598,
0.20622752606868743896,
-0.04396297037601470947,
0.02231407910585403442,
-0.03992268443107604980,
-0.03215488418936729431,
-0.00800174940377473831,
-0.07664082944393157959,
-0.08098244667053222656,
0.07722092419862747192,
-0.08058299124240875244,
-0.06580471992492675781,
-0.08789943158626556396,
0.00018450099742040038,
-0.09125163406133651733,
0.00486575951799750328,
-0.19062562286853790283,
-0.18391253054141998291,
0.05031007528305053711,
-0.12234874069690704346,
-0.17108428478240966797,
-0.10171393305063247681,
-0.08750885725021362305,
0.00818277150392532349,
-0.03822781518101692200,
-0.06036085635423660278,
0.09647035598754882812,
0.03443865105509757996,
-0.00314756785519421101,
0.02324800938367843628,
0.04058964177966117859,
-0.04159681871533393860,
-0.01634992659091949463,
0.04989378526806831360,
-0.18510790169239044189,
0.09427510946989059448,
0.03259372338652610779,
0.27528041601181030273,
0.15811659395694732666,
0.06427672505378723145,
0.08930602669715881348,
-0.07914746552705764771,
0.04575196653604507446,
-0.09715500473976135254,
-0.05581679195165634155,
-0.08754812926054000854,
0.16416345536708831787,
-0.05488353967666625977,
-0.05196276679635047913,
0.10570822656154632568,
0.00757436221465468407,
-0.14103166759014129639,
-0.08009617030620574951,
-0.10158494114875793457,
-0.07712253928184509277,
0.01593899726867675781,
-0.03485747426748275757,
-0.17206628620624542236,
-0.07412761449813842773,
-0.05255016684532165527,
-0.04481317475438117981,
-0.13675674796104431152,
-0.10736437886953353882,
-0.05189555510878562927,
-0.10881911963224411011,
-0.03701163828372955322,
0.02463818155229091644,
-0.01342213526368141174,
-0.04661451280117034912,
-0.10741490870714187622,
-0.01459082402288913727,
-0.01392235513776540756,
-0.12183522433042526245,
-0.01524849422276020050,
-0.00667329924181103706,
0.09924281388521194458,
0.07359642535448074341,
0.01043145824223756790,
0.01577435806393623352,
-0.11781197041273117065,
-0.06310737133026123047,
-0.16555093228816986084,
0.02756811492145061493,
0.03187129646539688110,
-0.00726476311683654785,
0.03804377093911170959,
-0.02235482260584831238,
-0.06456551700830459595,
0.14623636007308959961,
0.03921825066208839417,
-0.02494281902909278870,
-0.09402130544185638428,
-0.11916811019182205200,
-0.12687966227531433105,
-0.07394307851791381836,
-0.09612648189067840576,
0.06675115227699279785,
-0.04078334569931030273,
-0.05109121650457382202,
-0.06376225501298904419,
0.03027813322842121124,
0.03432638943195343018,
0.05466378480195999146,
-0.03824545070528984070,
-0.08153852075338363647,
0.01936785876750946045,
0.03350834175944328308,
0.12373841553926467896,
0.20904523134231567383,
0.13055871427059173584,
-0.07193242013454437256,
-0.10470545291900634766,
-0.02639243938028812408,
-0.13589702546596527100,
-0.16098585724830627441,
-0.11900590360164642334,
-0.10816722363233566284,
-0.06653850525617599487,
0.17512343823909759521,
-0.01567109301686286926,
-0.23878857493400573730,
0.34958925843238830566,
-0.09247376024723052979,
-0.22916577756404876709,
0.11857904493808746338,
0.05513891577720642090,
-0.03182924911379814148,
-0.05437589064240455627,
-0.07579310983419418335,
-0.04608941450715065002,
0.01490768883377313614,
-0.10705584287643432617,
-0.10587896406650543213,
0.14878863096237182617,
-0.03287510946393013000,
0.10498075932264328003,
0.06176522374153137207,
0.00348519254475831985,
-0.04670356586575508118,
0.09066575020551681519,
-0.12366552650928497314,
-0.06263697147369384766,
0.09675959497690200806,
-0.20412248373031616211,
-0.18183046579360961914,
-0.03502985835075378418,
0.09842324256896972656,
-0.07463844120502471924,
-0.07334678620100021362,
-0.03191438317298889160,
-0.07740474492311477661,
-0.05310161784291267395,
0.03796725347638130188,
-0.02297036722302436829,
-0.01648222468793392181,
-0.08335793018341064453,
0.05435295775532722473,
-0.06515841186046600342,
-0.10402163118124008179,
0.00570195633918046951,
-0.05068436264991760254,
-0.08058848232030868530,
-0.05703466013073921204,
-0.04262762144207954407,
-0.04592267423868179321,
-0.03648887947201728821,
-0.03323486074805259705,
0.03163242712616920471,
0.02271646074950695038,
-0.07262413203716278076,
-0.04985874146223068237,
-0.04074691981077194214,
-0.03306479007005691528,
0.00673879543319344521,
0.00661279633641242981,
0.04434956237673759460,
-0.01946420222520828247,
-0.03772374242544174194,
0.02370808832347393036,
-0.03366680443286895752,
0.03894541785120964050,
-0.16532926261425018311,
-0.08906815201044082642,
-0.03305449709296226501,
-0.11315082758665084839,
-0.07850240170955657959,
-0.02401294931769371033,
0.07476004958152770996,
0.22354090213775634766,
0.09312775731086730957,
-0.17293138802051544189,
-0.05061429366469383240,
-0.15213476121425628662,
0.00952736567705869675,
-0.05017761886119842529,
-0.15237806737422943115,
-0.14115446805953979492,
-0.05184269323945045471,
-0.11842680722475051880,
-0.07321476936340332031,
0.00576596660539507866,
-0.03948726505041122437,
0.01991636864840984344,
-0.01670452021062374115,
-0.07707723975181579590,
-0.05824524909257888794,
0.02863344550132751465,
0.07011062651872634888,
0.00528440950438380241,
0.10885369032621383667,
-0.06094317883253097534,
0.00561185600236058235,
-0.15226717293262481689,
-0.07372894883155822754,
-0.01325853168964385986,
0.09660563617944717407,
0.04637884721159934998,
0.01916442438960075378,
0.24738618731498718262,
0.01073706150054931641,
0.01855623535811901093,
-0.13838045299053192139,
0.04678184539079666138,
0.03048762120306491852,
-0.08898735791444778442,
-0.07513309270143508911,
-0.00364141701720654964,
-0.11494653671979904175,
-0.06150559335947036743,
-0.08937408775091171265,
-0.13401985168457031250,
-0.12443948537111282349,
0.01329814642667770386,
-0.00263349618762731552,
-0.10050977766513824463,
-0.21455280482769012451,
-0.21050381660461425781,
-0.11126767843961715698,
0.03383535146713256836,
-0.14874784648418426514,
-0.10626951605081558228,
-0.03277552872896194458,
-0.09522399306297302246,
-0.07686206698417663574,
0.06538591533899307251,
-0.02208175323903560638,
-0.04638960212469100952,
-0.04994427412748336792,
0.02313288487493991852,
-0.03598962351679801941,
-0.01613960228860378265,
0.08684614300727844238,
0.08394477516412734985,
-0.01893773674964904785,
-0.01303008291870355606,
0.00718186469748616219,
-0.02577099949121475220,
-0.04087712988257408142,
-0.03251621499657630920,
0.02813062816858291626,
0.07001236826181411743,
0.07316949218511581421,
-0.10176902264356613159,
0.05683258920907974243,
0.02314838580787181854,
-0.14756174385547637939,
-0.16490668058395385742,
-0.14175057411193847656,
-0.05437948554754257202,
0.01352883502840995789,
-0.06010174006223678589,
-0.05208464711904525757,
-0.08712980151176452637,
0.00844555813819169998,
-0.12171728163957595825,
-0.06214324757456779480,
0.00810627639293670654,
-0.11628019809722900391,
-0.00478764763101935387,
0.08850876986980438232,
-0.17419260740280151367,
-0.06056368723511695862,
0.10951227694749832153,
0.00501791434362530708,
-0.19399327039718627930,
-0.04733706638216972351,
0.02216735482215881348,
-0.07356806099414825439,
0.09192873537540435791,
-0.06211924925446510315,
0.00484547624364495277,
0.22746118903160095215,
-0.02246081270277500153,
0.14755024015903472900,
0.19721336662769317627,
-0.01115085091441869736,
0.03702975809574127197,
0.07845637947320938110,
-0.08050853013992309570,
0.08341860771179199219,
0.01592509821057319641,
0.10076300799846649170,
0.01459866762161254883,
0.03428585082292556763,
0.01794034056365489960,
0.10703403502702713013,
0.08465261757373809814,
0.04276717826724052429,
0.12417056411504745483,
0.01433903258293867111,
-0.04422859102487564087,
0.12296652048826217651,
0.03466170653700828552,
0.00618908740580081940,
0.17000335454940795898,
0.08966360241174697876,
0.02021094970405101776,
-0.01764306798577308655,
-0.01125877257436513901,
0.03438748791813850403,
0.00317553291097283363,
0.04768466204404830933,
0.05124688521027565002,
0.10814891010522842407,
0.12477328628301620483,
0.04508967325091362000,
-0.07496681064367294312,
-0.03543521463871002197,
0.02781102247536182404,
-0.14626635611057281494,
-0.10488019138574600220,
0.11267908662557601929,
-0.10048536211252212524,
-0.01692255027592182159,
-0.14469867944717407227,
-0.09496321529150009155,
-0.00161594653036445379,
0.03756576403975486755,
-0.05015674605965614319,
-0.02631776966154575348,
-0.07139054685831069946,
-0.08127298206090927124,
-0.10331024974584579468,
-0.06841976940631866455,
-0.00429477356374263763,
0.03926214575767517090,
-0.01871742866933345795,
-0.04562512040138244629,
-0.06043128296732902527,
0.00162032234948128462,
-0.10127305984497070312,
-0.06363842636346817017,
0.00243670307099819183,
0.04301144555211067200,
-0.17479781806468963623,
0.02339139394462108612,
-0.05247199907898902893,
-0.24748243391513824463,
0.00242000259459018707,
0.05838417261838912964,
-0.03423175960779190063,
0.08491758257150650024,
0.08259776234626770020,
-0.09246078878641128540,
0.05319952964782714844,
0.02795984409749507904,
-0.14149910211563110352,
-0.06923777610063552856,
0.06288448721170425415,
0.05549878999590873718,
-0.03024747967720031738,
0.04924988374114036560,
0.22753168642520904541,
-0.13663578033447265625,
-0.06188620254397392273,
-0.08541267365217208862,
-0.12646652758121490479,
-0.04880425333976745605,
0.03982114046812057495,
0.25116500258445739746,
0.08955588191747665405,
0.07267258316278457642,
0.06590601801872253418,
0.02982962317764759064,
-0.05277634412050247192,
0.02581140771508216858,
-0.03390813991427421570,
0.03576264902949333191,
0.23538389801979064941,
0.10739600658416748047,
-0.08015344291925430298,
-0.07695473730564117432,
-0.00165625731460750103,
0.10023599863052368164,
0.09925939887762069702,
0.07271640002727508545,
0.08332982659339904785,
-0.19618733227252960205,
-0.20697249472141265869,
-0.01166802644729614258,
-0.15201839804649353027,
-0.19864119589328765869,
-0.21716204285621643066,
-0.07797139883041381836,
-0.13717155158519744873,
-0.15745362639427185059,
-0.06865955889225006104,
-0.15767578780651092529,
0.04387881979346275330,
-0.02505836822092533112,
-0.12172608077526092529,
0.01469956897199153900,
0.04154466837644577026,
0.06462337821722030640,
0.10516732931137084961,
0.03339822590351104736,
-0.02561906538903713226,
-0.01175323780626058578,
-0.09881079196929931641,
-0.12130914628505706787,
-0.02811838500201702118,
-0.06103385612368583679,
-0.12643650174140930176,
-0.04062169417738914490,
-0.14740696549415588379,
-0.01231504604220390320,
0.05247878655791282654,
-0.14460159838199615479,
-0.02793353796005249023,
0.03389779478311538696,
-0.07713771611452102661,
-0.09013561159372329712,
0.02971736341714859009,
0.15314976871013641357,
-0.00638376735150814056,
0.06526578962802886963,
-0.07420307397842407227,
-0.13998624682426452637,
-0.10858147591352462769,
-0.08623604476451873779,
-0.05502065643668174744,
-0.12325382232666015625,
-0.05993986502289772034,
-0.12089562416076660156,
-0.03597991913557052612,
0.09429495781660079956,
0.16593332588672637939,
-0.08192681521177291870,
0.21047183871269226074,
0.02727018296718597412,
-0.01341436523944139481,
-0.02770613878965377808,
-0.00800347793847322464,
-0.09102278202772140503,
-0.18623763322830200195,
-0.07128210365772247314,
-0.20278336107730865479,
0.11535413563251495361,
0.00342597137205302715,
-0.04047547653317451477,
-0.04651504009962081909,
-0.08793926984071731567,
-0.15638700127601623535,
-0.11812002956867218018,
0.15187618136405944824,
0.28448700904846191406,
-0.18640968203544616699,
-0.00446702679619193077,
0.37973603606224060059,
-0.08220413327217102051,
-0.15407653152942657471,
-0.15699353814125061035,
-0.09784287959337234497,
-0.11877015978097915649,
-0.11916557699441909790,
-0.16215990483760833740,
-0.11852063983678817749,
-0.09037590771913528442,
0.01936077512800693512,
-0.04730382189154624939,
0.02306910976767539978,
-0.01545200496912002563,
-0.05484182387590408325,
-0.07146063446998596191,
-0.10179795324802398682,
0.06613203883171081543,
0.01845542900264263153,
-0.15009120106697082520,
-0.02387195825576782227,
0.03908919170498847961,
-0.16143152117729187012,
-0.01224793959408998489,
-0.01907241158187389374,
-0.04915547370910644531,
-0.06690800189971923828,
-0.08486658334732055664,
-0.08463633805513381958,
-0.08207055926322937012,
-0.09908287972211837769,
-0.02815913595259189606,
-0.01955280639231204987,
-0.13203465938568115234,
-0.09627111256122589111,
0.08583265542984008789,
0.03939742222428321838,
-0.13522088527679443359,
0.02724331989884376526,
0.15391382575035095215,
-0.08074390143156051636,
-0.07474314421415328979,
-0.16455276310443878174,
-0.15952175855636596680,
-0.20708431303501129150,
-0.03053025901317596436,
-0.17189280688762664795,
-0.06727861613035202026,
-0.07772421836853027344,
-0.09472819417715072632,
-0.05562959611415863037,
-0.04991254210472106934,
-0.12459175288677215576,
-0.10455481708049774170,
-0.05606377869844436646,
-0.03788858279585838318,
-0.08876411616802215576,
-0.03645680472254753113,
-0.12813243269920349121,
-0.20679192245006561279,
-0.16594457626342773438,
-0.11029971390962600708,
0.01591954007744789124,
-0.09600497782230377197,
-0.02178112789988517761,
0.07159437239170074463,
-0.00271927681751549244,
0.01095783337950706482,
-0.07265540957450866699,
0.03802495822310447693,
0.18420405685901641846,
0.11923471838235855103,
0.05862102285027503967,
0.09422305971384048462,
0.31612175703048706055,
0.11540026217699050903,
-0.11102818697690963745,
-0.01238581724464893341,
0.02676469460129737854,
0.04258457571268081665,
-0.06160305440425872803,
-0.09456951916217803955,
-0.23222158849239349365,
-0.06546944379806518555,
-0.02286830358207225800,
-0.10008569806814193726,
-0.05515413358807563782,
-0.11438075453042984009,
0.10304953157901763916,
-0.05180165544152259827,
-0.08274337649345397949,
-0.28194543719291687012,
-0.23167899250984191895,
-0.01938281953334808350,
-0.07048447430133819580,
-0.11529611051082611084,
0.02252875827252864838,
-0.02641361951828002930,
-0.00307471421547234058,
0.13427589833736419678,
0.22764998674392700195,
0.01295203343033790588,
0.06011185795068740845,
-0.21676217019557952881,
-0.14125733077526092529,
-0.10701310634613037109,
0.11847254633903503418,
0.03215156868100166321,
-0.00887616723775863647,
0.21271720528602600098,
0.02818291448056697845,
0.34761381149291992188,
0.08945326507091522217,
-0.08207457512617111206,
0.04965503141283988953,
0.02964392676949501038,
0.00179316394496709108,
-0.00185914244502782822,
-0.00767134409397840500,
-0.11534814536571502686,
0.00066547584719955921,
-0.01219176501035690308,
-0.16240860521793365479,
-0.15326070785522460938,
-0.15370328724384307861,
-0.09175772964954376221,
-0.00920863728970289230,
-0.11261914670467376709,
-0.13855223357677459717,
-0.09873589873313903809,
0.07291866093873977661,
-0.06323840469121932983,
-0.13285969197750091553,
-0.05218540877103805542,
-0.13572560250759124756,
-0.08554605394601821899,
-0.15778775513172149658,
-0.20785692334175109863,
-0.11673324555158615112,
-0.08639473468065261841,
-0.13163034617900848389,
0.01782916672527790070,
-0.07606628537178039551,
-0.07244368642568588257,
-0.00569983478635549545,
-0.08490915596485137939,
0.03938462585210800171,
0.02477365732192993164,
-0.16295476257801055908,
0.10094779729843139648,
0.04468332976102828979,
-0.13378502428531646729,
0.03640394657850265503,
0.06624288111925125122,
0.18098963797092437744,
0.16210459172725677490,
-0.04688517004251480103,
0.03720369189977645874,
-0.02392653189599514008,
-0.06309384852647781372,
-0.21503037214279174805,
-0.06364861130714416504,
-0.16212989389896392822,
-0.11023277789354324341,
-0.07208388298749923706,
0.15201947093009948730,
0.03713382035493850708,
-0.12947086989879608154,
0.09387058764696121216,
-0.00984405633062124252,
-0.12131337821483612061,
0.06822895258665084839,
0.09360349178314208984,
0.07050336897373199463,
-0.09379585832357406616,
0.11125195026397705078,
-0.00213832152076065540,
-0.01487089134752750397,
0.07903849333524703979,
0.06761734187602996826,
0.07925649732351303101,
0.27621990442276000977,
0.21952167153358459473,
0.06192054599523544312,
0.13724403083324432373,
0.00198011938482522964,
-0.00123659858945757151,
0.00328543409705162048,
-0.14000479876995086670,
0.05247787758708000183,
0.07412016391754150391,
0.05309451743960380554,
0.10864105075597763062,
-0.14119851589202880859,
-0.12081529200077056885,
-0.07371729612350463867,
-0.04846313223242759705,
0.04544477537274360657,
0.08748102188110351562,
0.08349135518074035645,
0.13231644034385681152,
0.17830398678779602051,
-0.03272918239235877991,
0.03664641082286834717,
0.07591950893402099609,
0.07329225540161132812,
-0.04177044332027435303,
-0.16319105029106140137,
-0.12381575256586074829,
-0.06662789732217788696,
-0.06228391453623771667,
0.16853685677051544189,
-0.06491281837224960327,
-0.04971642419695854187,
0.26021078228950500488,
-0.00741137284785509109,
-0.11051285266876220703,
-0.09335673600435256958,
-0.03944311290979385376,
-0.06522124260663986206,
-0.14025907218456268311,
0.03271512687206268311,
-0.05882975086569786072,
-0.14583005011081695557,
-0.11277062445878982544,
-0.07059589028358459473,
0.12597867846488952637,
-0.24191530048847198486,
-0.09008066356182098389,
0.03141583502292633057,
-0.07020876556634902954,
-0.07567171752452850342,
0.04081111773848533630,
0.22108371555805206299,
0.13247618079185485840,
0.03892030566930770874,
-0.05911061912775039673,
-0.06623901426792144775,
0.00767144979909062386,
-0.12604059278964996338,
-0.03939239680767059326,
-0.08222024142742156982,
-0.06457486748695373535,
-0.13111999630928039551,
0.06169771775603294373,
-0.01976785250008106232,
-0.19931982457637786865,
0.20967538654804229736,
-0.10847237706184387207,
-0.16155222058296203613,
-0.03543511778116226196,
-0.13307847082614898682,
-0.08675560355186462402,
-0.07707078754901885986,
-0.03141755610704421997,
0.02062454819679260254,
-0.07060430198907852173,
0.04806583002209663391,
0.07300735265016555786,
-0.09880537539720535278,
0.00975143164396286011,
-0.04094530642032623291,
0.00629563583061099052,
-0.07755530625581741333,
-0.03322125971317291260,
-0.00506635010242462158,
-0.05974182859063148499,
-0.03603038936853408813,
-0.02804598584771156311,
-0.11020263284444808960,
-0.04016840457916259766,
-0.09061622619628906250,
0.08787466585636138916,
0.01616960018873214722,
0.06722445040941238403,
0.08640717715024948120,
-0.07500407099723815918,
-0.16998288035392761230,
-0.14470987021923065186,
-0.10975506156682968140,
-0.01473760139197111130,
0.06434263288974761963,
-0.10616793483495712280,
0.00161988416220992804,
0.06552529335021972656,
0.05021871626377105713,
-0.04598030820488929749,
-0.02941819094121456146,
0.08583740890026092529,
0.01061359979212284088,
0.06174423545598983765,
0.01948236301541328430,
0.00737390434369444847,
0.06933035701513290405,
-0.07627305388450622559,
-0.03956441581249237061,
-0.07816761732101440430,
-0.09858652204275131226,
0.03323414921760559082,
0.05481896921992301941,
-0.02829060517251491547,
0.10608403384685516357,
-0.05082762613892555237,
-0.06202990189194679260,
-0.02743304707109928131,
0.05354345589876174927,
0.00221166503615677357,
-0.01625322550535202026,
-0.07496225833892822266,
-0.07948728650808334351,
-0.05838452652096748352,
-0.17835149168968200684,
-0.04628024250268936157,
-0.01140599884092807770,
-0.14645057916641235352,
-0.15935508906841278076,
0.00150399294216185808,
0.05103384703397750854,
0.09633657336235046387,
0.09802900999784469604,
0.11934520304203033447,
0.03070379234850406647,
0.02146211639046669006,
0.00091297156177461147,
0.09438364207744598389,
-0.00080899160820990801,
0.03052986599504947662,
-0.02843593992292881012,
-0.00696469936519861221,
-0.01385108008980751038,
-0.00789619982242584229,
-0.12994179129600524902,
-0.00010838617890840396,
0.02143085934221744537,
-0.04908138141036033630,
-0.06894577294588088989,
-0.09506279230117797852,
-0.08971909433603286743,
-0.06190688163042068481,
-0.16408456861972808838,
-0.16280946135520935059,
0.02167766354978084564,
-0.04029054567217826843,
-0.10150383412837982178,
-0.00015982415061444044,
-0.04093645140528678894,
0.06878945976495742798,
0.12336257845163345337,
0.04580305889248847961,
-0.01509951893240213394,
0.07116530835628509521,
0.08476865291595458984,
0.06392744183540344238,
0.00315978727303445339,
-0.00626517413184046745,
0.05402335897088050842,
-0.01579389162361621857,
0.00449020275846123695,
-0.05895777046680450439,
-0.08483725041151046753,
-0.14338625967502593994,
-0.02456931769847869873,
-0.02002490498125553131,
0.05320175364613533020,
-0.00147427665069699287,
0.00866547599434852600,
0.08505529910326004028,
0.01131560094654560089,
-0.04615126922726631165,
0.01856400258839130402,
-0.10618167370557785034,
0.08068593591451644897,
0.19436870515346527100,
0.05967554077506065369,
0.20142510533332824707,
0.20544449985027313232,
-0.01380882970988750458,
-0.02100429683923721313,
-0.02250057645142078400,
-0.10940457135438919067,
-0.01202141027897596359,
-0.04685500636696815491,
-0.07757349312305450439,
0.04665170609951019287,
0.01710597611963748932,
-0.02588475495576858521,
0.07054402679204940796,
0.02274571545422077179,
-0.03159210458397865295,
0.03819099813699722290,
0.17539905011653900146,
-0.09685382992029190063,
0.20375105738639831543,
0.10827352106571197510,
-0.08876709640026092529,
0.06224984675645828247,
0.00171367020811885595,
-0.07327557355165481567,
0.01228993386030197144,
0.02569651417434215546,
0.01647862978279590607,
-0.10761019587516784668,
-0.05685832351446151733,
-0.03815187513828277588,
-0.09830491244792938232,
-0.03981275111436843872,
0.01490900013595819473,
-0.02021198906004428864,
-0.01511678285896778107,
0.01633375138044357300,
-0.07675635069608688354,
0.02456827275454998016,
-0.14730730652809143066,
-0.07063540071249008179,
-0.17887134850025177002,
0.14235121011734008789,
0.12794847786426544189,
-0.01446098089218139648,
-0.03360856696963310242,
0.01910937204957008362,
0.07151759415864944458,
-0.11856399476528167725,
-0.06796836107969284058,
-0.22899346053600311279,
0.05306241661310195923,
-0.00322169740684330463,
-0.04304264113306999207,
0.01085891202092170715,
-0.00666330475360155106,
-0.08961594104766845703,
0.12440434098243713379,
0.00241459347307682037,
0.14423552155494689941,
0.19915279746055603027,
0.23163641989231109619,
-0.04633499681949615479,
0.10136473178863525391,
-0.06449568271636962891,
-0.10160459578037261963,
-0.02419813908636569977,
-0.19255727529525756836,
-0.16774027049541473389,
0.04614440724253654480,
0.03091933950781822205,
-0.04375215619802474976,
-0.01559142675250768661,
-0.05951572582125663757,
-0.08658029139041900635,
-0.05884208530187606812,
-0.05065159127116203308,
0.10782276839017868042,
0.06570662558078765869,
0.07673830538988113403,
0.16719253361225128174,
-0.02316720783710479736,
-0.05272660031914710999,
-0.07196079194545745850,
-0.15654167532920837402,
-0.13123847544193267822,
-0.04870636761188507080,
-0.01332601904869079590,
0.07794596999883651733,
-0.02212631888687610626,
0.00824576895684003830,
0.03716931492090225220,
-0.03583152592182159424,
0.07516822963953018188,
-0.07145334035158157349,
-0.02466996759176254272,
0.10234338045120239258,
0.18218219280242919922,
0.02678209170699119568,
-0.05093579366803169250,
-0.05109743028879165649,
0.00878299120813608170,
-0.07779879868030548096,
-0.12604144215583801270,
-0.07748103886842727661,
-0.04882461950182914734,
0.02774905785918235779,
0.04526152461767196655,
-0.05149025470018386841,
0.09642279148101806641,
-0.03980231285095214844,
-0.02982528507709503174,
0.05898920074105262756,
0.13474796712398529053,
-0.03102332726120948792,
-0.05794651061296463013,
0.04200150072574615479,
-0.00927223265171051025,
-0.03933325782418251038,
0.01060296781361103058,
0.00222227885387837887,
0.00117977871559560299,
-0.05485970154404640198,
-0.04275054112076759338,
0.03232296183705329895,
0.06026101484894752502,
-0.06048059836030006409,
-0.09766540676355361938,
-0.07531805336475372314,
-0.11242783069610595703,
-0.13124710321426391602,
-0.17015074193477630615,
-0.02045925892889499664,
-0.06816429644823074341,
-0.11926744878292083740,
0.11183252930641174316,
0.11211813241243362427,
-0.18211138248443603516,
0.06312558054924011230,
0.02097070589661598206,
-0.02801666222512722015,
0.08702468872070312500,
0.03155430033802986145,
-0.01390772778540849686,
0.06233894824981689453,
-0.08143208175897598267,
-0.08476237207651138306,
-0.06400508433580398560,
-0.13944199681282043457,
-0.07934353500604629517,
0.04675508663058280945,
0.17738202214241027832,
0.12219092249870300293,
-0.05548864603042602539,
0.00950331240892410278,
0.13480326533317565918,
-0.09135395288467407227,
-0.11866716295480728149,
-0.08195790648460388184,
-0.04847791418433189392,
-0.09786140173673629761,
-0.00877111777663230896,
0.02349696494638919830,
-0.00541499303653836250,
0.03118376247584819794,
-0.08336646109819412231,
-0.06182460859417915344,
-0.06747799366712570190,
0.08809736371040344238,
-0.04513615369796752930,
-0.05909440293908119202,
-0.00349756679497659206,
0.15282870829105377197,
0.04354698583483695984,
-0.08200102299451828003,
-0.01746731624007225037,
0.09482479840517044067,
-0.10984151065349578857,
-0.05955859273672103882,
0.09992486983537673950,
-0.02214753814041614532,
0.02772847749292850494,
0.02664072439074516296,
-0.01262386981397867203,
-0.04989292472600936890,
-0.01067474484443664551,
0.02288114465773105621,
0.11249370872974395752,
-0.05883651971817016602,
-0.11201167106628417969,
0.26464989781379699707,
0.09033636003732681274,
-0.20183959603309631348,
0.12756361067295074463,
0.01038582157343626022,
-0.00075332494452595711,
-0.00132237956859171391,
0.02951333299279212952,
0.03976573422551155090,
-0.05382575467228889465,
-0.15246857702732086182,
-0.02530609257519245148,
0.01917850971221923828,
0.05091098695993423462,
-0.01557298377156257629,
-0.02733586728572845459,
-0.07329685986042022705,
-0.03126100450754165649,
0.00016585136472713202,
0.03359332680702209473,
-0.02379936724901199341,
-0.02108661457896232605,
-0.15214566886425018311,
-0.07764659076929092407,
0.04833026602864265442,
0.02033281885087490082,
-0.05519562959671020508,
0.05455366894602775574,
0.03807654604315757751,
0.04819652438163757324,
0.05754473432898521423,
0.02749400958418846130,
-0.03590830042958259583,
-0.03095987066626548767,
-0.12040681391954421997,
-0.03331727534532546997,
-0.00614049285650253296,
-0.01669693551957607269,
-0.03778713941574096680,
-0.10284580290317535400,
0.16304317116737365723,
0.11536483466625213623,
-0.01302733644843101501,
-0.09117139875888824463,
-0.16466599702835083008,
0.42683756351470947266,
0.08861888200044631958,
0.09107203781604766846,
0.04163243994116783142,
0.07525335997343063354,
0.09868305921554565430,
0.05713734403252601624,
0.03851402178406715393,
-0.15854257345199584961,
0.03376315161585807800,
0.11119758337736129761,
-0.12621685862541198730,
-0.02243817038834095001,
0.03676017373800277710,
-0.03292757272720336914,
-0.05784477293491363525,
-0.07702612131834030151,
-0.00762971444055438042,
0.01629160903394222260,
-0.00106076919473707676,
0.11135756224393844604,
0.11781301349401473999,
-0.02609360963106155396,
-0.07337530702352523804,
-0.07970362156629562378,
-0.08248241245746612549,
-0.04284868761897087097,
-0.00588749721646308899,
-0.09639292955398559570,
0.03342288359999656677,
0.03684157878160476685,
0.03061197325587272644,
-0.04518664628267288208,
0.07717203348875045776,
0.13747934997081756592,
0.07050595432519912720,
0.01463552564382553101,
0.04889617115259170532,
-0.00011411809828132391,
-0.10821645706892013550,
-0.02999834530055522919,
0.03786422684788703918,
0.19066603481769561768,
0.27620163559913635254,
0.04638990387320518494,
0.16908247768878936768,
0.05189800634980201721,
0.05553159117698669434,
-0.02288787625730037689,
-0.16271713376045227051,
-0.06024772673845291138,
0.01374739874154329300,
-0.01234081294387578964,
-0.01208281423896551132,
0.05454783886671066284,
0.03739406540989875793,
-0.09427990764379501343,
0.02248585782945156097,
0.03268720954656600952,
-0.07522414624691009521,
-0.07838365435600280762,
-0.12623785436153411865,
-0.11808399856090545654,
-0.02619661949574947357,
-0.12647850811481475830,
-0.07424225658178329468,
-0.13984358310699462891,
-0.14281077682971954346,
0.07052848488092422485,
-0.03071997687220573425,
-0.15829177200794219971,
0.04289611056447029114,
0.07178822904825210571,
-0.10616874694824218750,
-0.11025325953960418701,
-0.09242472797632217407,
-0.00703596835955977440,
-0.01549455989152193069,
-0.08491198718547821045,
0.00649806624278426170,
0.06173591315746307373,
-0.00198742398060858250,
0.00619136076420545578,
0.03271374106407165527,
0.11413040012121200562,
0.06022537499666213989,
0.04564747214317321777,
-0.01453381869941949844,
-0.09264577925205230713,
-0.07945574074983596802,
-0.05889912322163581848,
0.04430096596479415894,
-0.06983688473701477051,
0.04209257289767265320,
0.07299384474754333496,
0.02151389606297016144,
-0.11457499116659164429,
-0.06082370877265930176,
-0.06026864424347877502,
-0.11471530050039291382,
-0.10527332127094268799,
-0.03525712341070175171,
-0.13734288513660430908,
-0.07880170643329620361,
0.07340344786643981934,
0.04697855934500694275,
-0.01512013655155897141,
-0.05392594262957572937,
0.03125999122858047485,
0.01170083321630954742,
-0.17113772034645080566,
-0.05991574749350547791,
0.06164403259754180908,
0.00166122766677290201,
0.07635117322206497192,
-0.10317263007164001465,
0.03302915766835212708,
0.07461403310298919678,
0.01377405412495136261,
-0.05931620299816131592,
0.02387945167720317841,
0.00864122994244098663,
-0.10178644210100173950,
-0.05794631689786911011,
-0.09042853862047195435,
-0.18456274271011352539,
-0.08627809584140777588,
-0.08199542015790939331,
-0.08405276387929916382,
-0.07395176589488983154,
-0.12113031744956970215,
-0.02222275361418724060,
-0.04946596175432205200,
-0.10968059301376342773,
0.05901059508323669434,
-0.08205469697713851929,
0.08897591382265090942,
0.01688139326870441437,
0.00190070038661360741,
0.06399375200271606445,
-0.06178859248757362366,
-0.05349091812968254089,
-0.06181243434548377991,
-0.10685341060161590576,
-0.13316260278224945068,
-0.06902379542589187622,
-0.04625146090984344482,
-0.11467380076646804810,
-0.06915014982223510742,
0.04116864502429962158,
0.00832429621368646622,
-0.04444264993071556091,
-0.02410257235169410706,
-0.02680958621203899384,
-0.07351317256689071655,
0.13129900395870208740,
0.13147205114364624023,
-0.06778550893068313599,
-0.02812188491225242615,
-0.10481205582618713379,
-0.12593288719654083252,
0.00726777687668800354,
-0.14473961293697357178,
-0.27191871404647827148,
-0.02607246302068233490,
-0.01940175704658031464,
-0.06976590305566787720,
0.04993849620223045349,
-0.06479530036449432373,
-0.05895068496465682983,
0.14010168612003326416,
0.01626409217715263367,
0.03367122635245323181,
0.18012054264545440674,
-0.04364404082298278809,
-0.01535602658987045288,
-0.09651719033718109131,
0.04424666613340377808,
-0.03080309368669986725,
-0.07753479480743408203,
-0.04396094381809234619,
-0.08295653760433197021,
-0.07839205861091613770,
-0.06334222853183746338,
-0.11901335418224334717,
-0.09186708927154541016,
-0.14518460631370544434,
-0.20351520180702209473,
-0.03134509176015853882,
-0.04841964691877365112,
0.06067084521055221558,
-0.10335485637187957764,
0.20854768157005310059,
0.03632903844118118286,
0.07729846984148025513,
-0.01259512826800346375,
0.12809258699417114258,
0.04711022228002548218,
0.01972195506095886230,
0.14476387202739715576,
0.01386639010161161423,
-0.10807789117097854614,
-0.01702727563679218292,
0.08277980238199234009,
0.00376848457381129265,
0.04544353112578392029,
-0.08449152112007141113,
-0.07681299746036529541,
-0.06745466589927673340,
-0.08304526656866073608,
-0.13362148404121398926,
0.11136576533317565918,
-0.02421721443533897400,
0.01961964927613735199,
-0.05204645544290542603,
-0.04819303005933761597,
0.13356105983257293701,
0.18651378154754638672,
-0.10586885362863540649,
0.04409957677125930786,
0.03206647560000419617,
-0.12839511036872863770,
-0.02865201793611049652,
0.01764141954481601715,
-0.08784043043851852417,
0.01470773946493864059,
0.03222018107771873474,
-0.02774003520607948303,
0.07454650104045867920,
0.11570090055465698242,
-0.12124804407358169556,
-0.05542153492569923401,
-0.01569524407386779785,
-0.03657216206192970276,
-0.02741549164056777954,
0.03961872309446334839,
-0.14007949829101562500,
0.01326036732643842697,
0.07160566747188568115,
-0.26541003584861755371,
-0.16032728552818298340,
0.00785378087311983109,
-0.21027569472789764404,
-0.08004511892795562744,
0.06387888640165328979,
-0.06574570387601852417,
-0.16323399543762207031,
-0.09447839111089706421,
-0.12434262037277221680,
-0.05881077051162719727,
-0.13664707541465759277,
-0.16132138669490814209,
-0.05075253546237945557,
-0.06041095778346061707,
-0.20980800688266754150,
-0.16368386149406433105,
-0.04649064317345619202,
-0.17665477097034454346,
0.03362598642706871033,
0.06526597589254379272,
-0.13222239911556243896,
-0.12409355491399765015,
-0.04098675027489662170,
0.29242399334907531738,
0.05597873777151107788,
0.07159823179244995117,
-0.10068212449550628662,
0.11030314862728118896,
-0.09751731902360916138,
-0.09413980692625045776,
-0.06844224780797958374,
0.04459517449140548706,
0.00559133291244506836,
-0.00718464702367782593,
0.21328306198120117188,
-0.11974591016769409180,
-0.04717576131224632263,
0.00889898650348186493,
0.08783588558435440063,
0.06251236051321029663,
-0.02973374351859092712,
0.14059203863143920898,
-0.12488391995429992676,
-0.04129080474376678467,
-0.24366028606891632080,
0.03504285216331481934,
-0.10654810070991516113,
-0.16901306807994842529,
-0.10277850925922393799,
-0.04588975384831428528,
-0.18606542050838470459,
-0.09108810126781463623,
-0.08980229496955871582,
-0.16450782120227813721,
-0.14222131669521331787,
-0.09216907620429992676,
-0.18392924964427947998,
-0.14908893406391143799,
-0.06104013323783874512,
-0.11212589591741561890,
0.00410087686032056808,
0.01254474185407161713,
-0.07619053870439529419,
-0.01024719420820474625,
0.01109664328396320343,
-0.16893526911735534668,
-0.03889809921383857727,
-0.05961339920759201050,
-0.18117100000381469727,
-0.08572181314229965210,
-0.09320563822984695435,
-0.00830615684390068054,
-0.10148224979639053345,
-0.05852201208472251892,
-0.03940836340188980103,
-0.11673980206251144409,
-0.04543993622064590454,
-0.00717497663572430611,
0.01562411896884441376,
0.05696611106395721436,
0.04345495998859405518,
0.17765252292156219482,
0.08679532259702682495,
-0.00434414111077785492,
0.04843551665544509888,
0.06542313098907470703,
-0.00234269141219556332,
-0.11662258207798004150,
-0.04392481967806816101,
-0.03394404798746109009,
-0.01567533984780311584,
-0.11130733042955398560,
0.14176256954669952393,
-0.03683478385210037231,
-0.01524054538458585739,
0.00811158027499914169,
0.06846316903829574585,
0.02050672098994255066,
-0.24235077202320098877,
-0.00956225581467151642,
0.03862364217638969421,
-0.20353503525257110596,
-0.03128971159458160400,
0.18938928842544555664,
-0.02981481514871120453,
0.09423398226499557495,
0.14107479155063629150,
-0.10943619161844253540,
0.02104600891470909119,
0.11994370073080062866,
-0.14500109851360321045,
-0.04922966286540031433,
0.08728044480085372925,
-0.09269619733095169067,
0.04997686296701431274,
0.05474453419446945190,
0.04057481884956359863,
-0.03431627526879310608,
0.02063227258622646332,
-0.14648221433162689209,
0.04112682119011878967,
-0.01994051225483417511,
0.05137727037072181702,
0.02713310718536376953,
-0.06958445161581039429,
-0.03936620056629180908,
0.07795435190200805664,
-0.02083977684378623962,
-0.07491870224475860596,
0.11541146785020828247,
-0.10379932820796966553,
-0.10353310406208038330,
-0.04134692624211311340,
0.04587374255061149597,
-0.11653555184602737427,
0.03012526780366897583,
0.00060132710495963693,
0.07460071146488189697,
0.32551440596580505371,
0.02130579948425292969,
0.14544650912284851074,
0.22269952297210693359,
0.03156920149922370911,
-0.10946287959814071655,
0.06272840499877929688,
0.18861658871173858643,
-0.13149069249629974365,
-0.08737015724182128906,
-0.09225101768970489502,
0.16814737021923065186,
-0.06457763165235519409,
-0.12630812823772430420,
0.43880525231361389160,
0.06002118811011314392,
0.02190862409770488739,
-0.05099315568804740906,
-0.00434698909521102905,
0.00569914514198899269,
-0.06300455331802368164,
0.14138613641262054443,
0.16610972583293914795,
-0.24869430065155029297,
0.19277462363243103027,
0.11729533225297927856,
-0.11055865883827209473,
0.00921186059713363647,
0.09252638369798660278,
0.04772600904107093811,
-0.10339605808258056641,
0.03899461030960083008,
0.00641124788671731949,
-0.03234213963150978088,
0.00340686412528157234,
-0.14757058024406433105,
0.03008237853646278381,
0.13107813894748687744,
-0.10264476388692855835,
0.03750319406390190125,
0.15188044309616088867,
0.00900529325008392334,
-0.06787636876106262207,
-0.01870089955627918243,
-0.01094753481447696686,
-0.03081340156495571136,
-0.02927220612764358521,
-0.07054664939641952515,
-0.08437824994325637817,
-0.04909386858344078064,
-0.07622466236352920532,
0.06028754264116287231,
0.05859585478901863098,
-0.19785597920417785645,
-0.05760581791400909424,
-0.04070711880922317505,
-0.07702787965536117554,
0.11373974382877349854,
-0.00501272687688469887,
-0.02881996519863605499,
0.18264293670654296875,
-0.11228121817111968994,
-0.01423839665949344635,
-0.00211359863169491291,
0.01052585802972316742,
-0.02239047549664974213,
-0.02775794453918933868,
0.10080555081367492676,
-0.19935373961925506592,
-0.08556617796421051025,
-0.05550764128565788269,
-0.06272870302200317383,
-0.02774530835449695587,
-0.04788200184702873230,
0.02044905535876750946,
0.06177233159542083740,
-0.00859619304537773132,
0.06293543428182601929,
0.10211355239152908325,
-0.05355112254619598389,
0.01460563391447067261,
-0.02210515365004539490,
-0.15100692212581634521,
-0.00878226011991500854,
-0.02842112444341182709,
-0.15066601336002349854,
-0.18034696578979492188,
-0.08499599248170852661,
0.06240686401724815369,
-0.01747571490705013275,
-0.15125067532062530518,
-0.02362826466560363770,
0.26973858475685119629,
0.00860440358519554138,
-0.06001513078808784485,
-0.23111203312873840332,
-0.00132597913034260273,
-0.04923117905855178833,
-0.15796208381652832031,
-0.03966711834073066711,
0.13443724811077117920,
-0.15881413221359252930,
-0.08126692473888397217,
0.02318405173718929291,
0.39069765806198120117,
0.01029565557837486267,
-0.13969697058200836182,
-0.14283955097198486328,
-0.10109391808509826660,
0.00919767655432224274,
-0.00908112153410911560,
0.00129123730584979057,
0.15173004567623138428,
-0.01489209011197090149,
-0.03711469471454620361,
0.05052226409316062927,
-0.07326078414916992188,
0.22677403688430786133,
0.15719188749790191650,
-0.20251320302486419678,
0.06070766970515251160,
0.05193122476339340210,
-0.14260667562484741211,
0.10758826136589050293,
0.09051333367824554443,
-0.10984553396701812744,
0.06715877354145050049,
0.05760887265205383301,
-0.14093001186847686768,
-0.03408294171094894409,
-0.06934874504804611206,
0.02481125108897686005,
-0.06381985545158386230,
-0.09620120376348495483,
0.02580939978361129761,
-0.02753739245235919952,
-0.11167876422405242920,
0.07627396285533905029,
0.05458316206932067871,
-0.15756486356258392334,
0.13101026415824890137,
