WTYPE conv4_weight[32 * 32 * 3 * 3] = 
{0.00925522949546575546,
0.16314874589443206787,
0.20747797191143035889,
0.03632679581642150879,
0.11209085583686828613,
0.18430900573730468750,
0.02081089839339256287,
-0.01893636398017406464,
-0.00569483404979109764,
-0.21625368297100067139,
-0.16284355521202087402,
-0.03498519584536552429,
0.00418126070871949196,
-0.07462517917156219482,
-0.03188388794660568237,
0.12757223844528198242,
0.08115432411432266235,
0.04245012998580932617,
0.01235202513635158539,
0.06017048284411430359,
-0.03082623891532421112,
-0.06433898210525512695,
0.01573689654469490051,
0.09057528525590896606,
-0.06808272004127502441,
-0.04536560550332069397,
0.17425771057605743408,
0.05858591943979263306,
0.10306556522846221924,
0.06110666692256927490,
-0.04175017774105072021,
0.13535375893115997314,
0.04563942924141883850,
-0.00408559525385499001,
0.10683986544609069824,
0.11704828590154647827,
-0.01312455721199512482,
-0.00007194715726654977,
-0.00105230312328785658,
-0.08613599091768264771,
0.01061519794166088104,
-0.05987378582358360291,
-0.11691769212484359741,
0.03900460153818130493,
-0.05550783127546310425,
0.20677788555622100830,
0.07958307117223739624,
-0.01988573186099529266,
0.12088252604007720947,
0.06063206493854522705,
-0.05555028468370437622,
0.07179087400436401367,
0.03582631051540374756,
0.02360939420759677887,
-0.15509310364723205566,
-0.22013455629348754883,
-0.16859945654869079590,
-0.12806849181652069092,
-0.11335411667823791504,
-0.05106105655431747437,
-0.14746020734310150146,
0.04331197217106819153,
-0.01287698931992053986,
0.13579656183719635010,
-0.02541704475879669189,
-0.03789240121841430664,
0.00731420423835515976,
0.04457817226648330688,
0.06293787807226181030,
-0.07715679705142974854,
-0.04013056680560112000,
-0.02266791276633739471,
-0.03592792153358459473,
-0.18337659537792205811,
-0.17579238116741180420,
-0.00667894585058093071,
-0.16277724504470825195,
-0.07708255201578140259,
-0.03093308024108409882,
-0.08769654482603073120,
-0.01360780000686645508,
0.04603005573153495789,
-0.04079354926943778992,
-0.24849173426628112793,
0.15619719028472900391,
0.09488526731729507446,
-0.03525947034358978271,
0.02583407983183860779,
-0.00900962110608816147,
-0.04936748743057250977,
-0.10663003474473953247,
-0.10416506230831146240,
-0.20035408437252044678,
-0.18190257251262664795,
-0.09495660662651062012,
-0.10818082094192504883,
-0.12979772686958312988,
-0.09175284951925277710,
-0.10615012049674987793,
-0.04412589967250823975,
0.04614040628075599670,
0.08905163407325744629,
-0.09160418808460235596,
0.00594244478270411491,
0.11078993976116180420,
0.14728371798992156982,
0.03993785381317138672,
0.08104523271322250366,
0.00588237727060914040,
-0.02169825136661529541,
0.09832328557968139648,
-0.09346690028905868530,
-0.06227229163050651550,
0.01795040071010589600,
-0.01021833624690771103,
0.04048396646976470947,
0.05270387604832649231,
-0.13093750178813934326,
-0.05791974067687988281,
-0.03100884705781936646,
-0.01042795926332473755,
-0.04107421264052391052,
-0.10601216554641723633,
-0.08550598472356796265,
-0.05226074159145355225,
-0.08320720493793487549,
-0.24341481924057006836,
-0.09297615289688110352,
0.04114785790443420410,
-0.16930057108402252197,
-0.13533361256122589111,
0.03135725855827331543,
-0.03192578628659248352,
-0.15017503499984741211,
-0.01750328391790390015,
0.03800915181636810303,
-0.07109848409891128540,
-0.03748540207743644714,
-0.10310075432062149048,
-0.14695349335670471191,
-0.23079264163970947266,
-0.08802411705255508423,
-0.10925255715847015381,
-0.11606232076883316040,
0.07371126860380172729,
-0.01288266014307737350,
-0.18521676957607269287,
0.06478749215602874756,
0.04010013118386268616,
-0.10451337695121765137,
0.02565285190939903259,
0.01212940737605094910,
0.05045195296406745911,
-0.05615856125950813293,
0.03748147189617156982,
0.05420637503266334534,
-0.10629976540803909302,
-0.12637764215469360352,
0.16170577704906463623,
-0.01748392544686794281,
-0.12975230813026428223,
0.14118742942810058594,
0.19843925535678863525,
0.03400412574410438538,
-0.05987598374485969543,
0.12333016842603683472,
-0.13718590140342712402,
-0.02010745741426944733,
0.14616754651069641113,
0.10529080778360366821,
0.04039718583226203918,
0.11424086987972259521,
0.33173769712448120117,
0.30550396442413330078,
0.00480990484356880188,
0.06538511812686920166,
0.10829503089189529419,
0.08556665480136871338,
0.01441077049821615219,
0.01517401356250047684,
0.02819352596998214722,
0.05887245759367942810,
0.02826916240155696869,
0.05640377476811408997,
0.06893390417098999023,
0.08493639528751373291,
0.01475306600332260132,
-0.02774416096508502960,
0.13098342716693878174,
-0.03086748160421848297,
-0.09538751095533370972,
-0.11721593886613845825,
-0.05914718657732009888,
-0.00888926535844802856,
-0.00257958075962960720,
-0.05496829748153686523,
-0.10119748860597610474,
-0.00580889731645584106,
-0.16342921555042266846,
0.13168127834796905518,
-0.04380448162555694580,
-0.27244612574577331543,
-0.03105054236948490143,
0.11407417058944702148,
-0.20730051398277282715,
-0.03933709114789962769,
-0.02507440187036991119,
0.04646246507763862610,
0.21266883611679077148,
0.03738131001591682434,
0.08723155409097671509,
0.06683657318353652954,
0.01108835171908140182,
-0.01091607566922903061,
0.02116932906210422516,
0.18357701599597930908,
0.10184679180383682251,
0.15250492095947265625,
-0.06860841810703277588,
0.08689914643764495850,
0.07953308522701263428,
-0.17443226277828216553,
0.07745756208896636963,
0.04839372262358665466,
-0.01485851965844631195,
-0.04207246750593185425,
0.09197660535573959351,
0.05448018386960029602,
0.01670379377901554108,
-0.10812138766050338745,
0.06316423416137695312,
0.00686322757974267006,
0.04502461478114128113,
0.11502679437398910522,
-0.00422831252217292786,
-0.04728503525257110596,
0.02399650588631629944,
-0.11047112196683883667,
-0.07747956365346908569,
-0.11169102787971496582,
0.08979174494743347168,
0.18386316299438476562,
-0.00141545722726732492,
-0.15629659593105316162,
0.07291693985462188721,
0.21459572017192840576,
-0.16168953478336334229,
-0.15189445018768310547,
0.13268503546714782715,
-0.05801321938633918762,
-0.08034931868314743042,
-0.03922437503933906555,
-0.09190416336059570312,
0.04457396268844604492,
-0.18082097172737121582,
-0.00348654505796730518,
0.23075535893440246582,
0.06261657178401947021,
0.06581767648458480835,
0.16550540924072265625,
-0.01671932078897953033,
-0.03163177520036697388,
-0.11421532928943634033,
-0.08491192013025283813,
-0.06347146630287170410,
-0.21865712106227874756,
0.01583405956625938416,
0.04611326009035110474,
-0.02079443074762821198,
0.08833351731300354004,
0.03861257061362266541,
0.03483980149030685425,
-0.06209224089980125427,
-0.12493409961462020874,
-0.08248477429151535034,
-0.11915753036737442017,
-0.16750431060791015625,
-0.15794299542903900146,
-0.14076480269432067871,
0.17159771919250488281,
0.12065891921520233154,
0.10363081842660903931,
0.16774584352970123291,
0.03092370182275772095,
0.02741784043610095978,
0.06327002495527267456,
0.05599384009838104248,
0.11081741750240325928,
0.20915518701076507568,
0.00541654974222183228,
0.16588635742664337158,
0.14642529189586639404,
0.05317049100995063782,
0.16073928773403167725,
0.07402414828538894653,
-0.04656684771180152893,
-0.05294514074921607971,
-0.03723010420799255371,
0.01161958277225494385,
-0.01184576936066150665,
-0.06955605745315551758,
-0.08030457049608230591,
-0.07650100439786911011,
-0.10194471478462219238,
-0.08433622121810913086,
-0.00375891989096999168,
0.01562180276960134506,
0.08547727763652801514,
0.04769819229841232300,
-0.10584047436714172363,
0.06827560067176818848,
0.10501270741224288940,
-0.16025611758232116699,
-0.08840554952621459961,
-0.03435844928026199341,
0.00519558228552341461,
-0.03158187121152877808,
-0.06870727241039276123,
0.09528688341379165649,
0.08617921918630599976,
-0.00630741287022829056,
-0.03122287616133689880,
-0.01074703596532344818,
-0.00976986624300479889,
0.16651457548141479492,
0.04519013315439224243,
0.12110785394906997681,
0.18568153679370880127,
0.14017249643802642822,
0.18649736046791076660,
-0.00833193771541118622,
0.04792283102869987488,
0.01858177222311496735,
-0.06331037729978561401,
-0.09142011404037475586,
-0.10661230236291885376,
-0.00031013760599307716,
-0.11996749043464660645,
-0.06083559989929199219,
0.10629723966121673584,
-0.01852139458060264587,
-0.16674639284610748291,
-0.23047325015068054199,
-0.02152471803128719330,
-0.04745769873261451721,
-0.21085841953754425049,
-0.04805720224976539612,
-0.09630138427019119263,
-0.13208429515361785889,
0.05612037703394889832,
0.06062853336334228516,
-0.07434586435556411743,
0.00020345859229564667,
0.02832035906612873077,
-0.11243962496519088745,
-0.01377650070935487747,
-0.06625133752822875977,
-0.13630430400371551514,
-0.08986943960189819336,
-0.21251721680164337158,
-0.04650535061955451965,
0.01524154469370841980,
-0.05399739742279052734,
-0.10069551318883895874,
-0.22924333810806274414,
-0.14411102235317230225,
-0.08115823566913604736,
-0.11402013152837753296,
0.15477465093135833740,
0.05424235016107559204,
0.00852300599217414856,
-0.11020319163799285889,
0.08622851967811584473,
0.04693906009197235107,
-0.13403853774070739746,
0.03530438616871833801,
0.06538493931293487549,
-0.03642356768250465393,
-0.03028520755469799042,
0.01884834840893745422,
-0.08366221934556961060,
-0.05069628357887268066,
-0.05390340834856033325,
-0.21662853658199310303,
-0.07694403082132339478,
0.01628951542079448700,
-0.10740105062723159790,
0.01704650372266769409,
-0.03832979872822761536,
0.06062121689319610596,
0.04096152260899543762,
0.02737728878855705261,
0.16225670278072357178,
0.08180712908506393433,
-0.04155566170811653137,
0.09431388229131698608,
-0.03328215330839157104,
0.05028043687343597412,
0.02693456038832664490,
-0.07216338068246841431,
0.02183795347809791565,
0.05373750254511833191,
-0.07846210896968841553,
0.16971626877784729004,
0.07997766137123107910,
0.02817909419536590576,
-0.08944566547870635986,
-0.03993842750787734985,
0.16231486201286315918,
0.02654331922531127930,
0.07862070947885513306,
0.01215133722871541977,
-0.00521540828049182892,
0.02412516251206398010,
0.05311395600438117981,
0.12029764801263809204,
0.13174228370189666748,
-0.02554931119084358215,
0.06416969001293182373,
-0.06030255928635597229,
0.05178693681955337524,
-0.10499107837677001953,
-0.16571195423603057861,
-0.03138998150825500488,
0.02021925896406173706,
0.04645458236336708069,
0.01708587072789669037,
0.01343127060681581497,
-0.01997995376586914062,
-0.02014659158885478973,
0.05881644785404205322,
0.10980794578790664673,
-0.15432876348495483398,
-0.09559419751167297363,
-0.00302978372201323509,
0.01176536548882722855,
0.07722865790128707886,
0.09054961055517196655,
0.00613731471821665764,
0.01036798767745494843,
0.03536065295338630676,
0.07238712906837463379,
0.11825527995824813843,
0.14447548985481262207,
0.05637395754456520081,
0.18954831361770629883,
0.05068986862897872925,
-0.04272254928946495056,
-0.05521105974912643433,
-0.03626878187060356140,
-0.13774994015693664551,
-0.09217207878828048706,
0.01453798078000545502,
0.11393750458955764771,
0.06466478854417800903,
0.14420694112777709961,
-0.13705348968505859375,
-0.11448124051094055176,
0.15648895502090454102,
-0.02772425115108489990,
-0.08152481168508529663,
-0.08705380558967590332,
-0.09781198948621749878,
-0.11230084300041198730,
-0.00297201657667756081,
-0.13548980653285980225,
-0.11737433075904846191,
0.08626988530158996582,
0.01991031132638454437,
-0.06741464138031005859,
-0.08552374690771102905,
-0.07055801898241043091,
-0.09816586971282958984,
0.12634657323360443115,
-0.17068719863891601562,
-0.15552678704261779785,
0.11138781160116195679,
0.13828536868095397949,
0.03197284042835235596,
0.11431650072336196899,
-0.02903409488499164581,
-0.05559206008911132812,
-0.02437070384621620178,
0.16809338331222534180,
0.14349110424518585205,
-0.02185919508337974548,
0.12854436039924621582,
-0.00895727053284645081,
0.09472384303808212280,
-0.03521621227264404297,
-0.02273942716419696808,
0.15674112737178802490,
-0.13071784377098083496,
-0.08358176052570343018,
0.13131368160247802734,
-0.00352853490039706230,
0.02327139303088188171,
-0.10196107625961303711,
0.00550758466124534607,
0.03566109016537666321,
-0.05138418450951576233,
-0.00259461789391934872,
0.08326494693756103516,
0.13569001853466033936,
-0.01120040193200111389,
0.05397542193531990051,
-0.08946462720632553101,
0.10570660233497619629,
0.03907626867294311523,
-0.14933085441589355469,
0.04743141680955886841,
-0.02848898619413375854,
-0.16746436059474945068,
-0.16256715357303619385,
-0.06209522485733032227,
0.09289912134408950806,
-0.13212943077087402344,
-0.11862868815660476685,
-0.02155910991132259369,
0.03191921859979629517,
-0.10544375330209732056,
-0.05581841617822647095,
0.05336929112672805786,
0.02184139937162399292,
0.07761365920305252075,
-0.01336809061467647552,
-0.01082848571240901947,
0.00196507270447909832,
-0.16212898492813110352,
-0.11359194666147232056,
0.05735382437705993652,
0.03142605349421501160,
-0.06554114073514938354,
-0.05540077388286590576,
-0.00881028082221746445,
-0.03445477038621902466,
-0.01745616830885410309,
0.01865825988352298737,
-0.12066046893596649170,
-0.14284737408161163330,
-0.08434779196977615356,
-0.02998174354434013367,
-0.00974963698536157608,
-0.08416704088449478149,
0.08520600944757461548,
-0.00415771920233964920,
0.05659190192818641663,
0.12663236260414123535,
0.11095044761896133423,
-0.06785049289464950562,
-0.06924707442522048950,
0.03694489970803260803,
-0.11641348153352737427,
-0.07881292700767517090,
0.11446648836135864258,
-0.14071892201900482178,
-0.00482802232727408409,
0.02011350169777870178,
-0.11385726183652877808,
0.01271424256265163422,
0.04231842979788780212,
-0.10775615274906158447,
-0.07690279930830001831,
0.00904833432286977768,
-0.05283748358488082886,
-0.03660976886749267578,
-0.11980859935283660889,
-0.06505773216485977173,
-0.09927530586719512939,
-0.11196600645780563354,
-0.06723880767822265625,
-0.11898419260978698730,
-0.03842866793274879456,
-0.10113888233900070190,
-0.15102103352546691895,
0.02013458497822284698,
-0.01581167615950107574,
-0.01401214674115180969,
0.06072179228067398071,
-0.17520035803318023682,
-0.19817939400672912598,
-0.12840358912944793701,
-0.24991549551486968994,
-0.21073766052722930908,
-0.13627181947231292725,
0.11799103021621704102,
0.10009005665779113770,
0.09032321721315383911,
0.02548396214842796326,
-0.10612934827804565430,
0.15010541677474975586,
-0.09233171492815017700,
-0.16477145254611968994,
0.07996243238449096680,
-0.08313223719596862793,
0.05062561854720115662,
0.04475125670433044434,
-0.22648029029369354248,
-0.04929510876536369324,
-0.05773743614554405212,
-0.22905629873275756836,
-0.11501298099756240845,
-0.18573646247386932373,
-0.08634258806705474854,
-0.07548300921916961670,
-0.05019998177886009216,
-0.12435051053762435913,
0.03866058215498924255,
0.15335851907730102539,
-0.08844776451587677002,
-0.00566281098872423172,
0.09076724946498870850,
-0.14408661425113677979,
0.02476331777870655060,
-0.00004189143510302529,
-0.10213378816843032837,
0.02252388000488281250,
0.01211035344749689102,
-0.01960837468504905701,
-0.02338526770472526550,
-0.05985714867711067200,
0.14008757472038269043,
0.06162041425704956055,
0.10321313142776489258,
0.15337511897087097168,
0.09848953783512115479,
0.05666016042232513428,
-0.05018377304077148438,
-0.15187820792198181152,
-0.05930411070585250854,
-0.16959215700626373291,
-0.12846620380878448486,
0.02446999028325080872,
-0.10386645793914794922,
0.13421936333179473877,
0.17503644526004791260,
0.09461621195077896118,
0.17605340480804443359,
0.04439590126276016235,
0.07511888444423675537,
0.01202611345797777176,
-0.11889023333787918091,
-0.12826272845268249512,
-0.02368917502462863922,
0.05834119021892547607,
-0.13513123989105224609,
-0.04583272337913513184,
-0.06594173610210418701,
0.04254331067204475403,
-0.06270691752433776855,
-0.07990957051515579224,
-0.12044137716293334961,
-0.05318121239542961121,
0.03556942567229270935,
-0.09580834209918975830,
-0.03663404658436775208,
-0.05484157055616378784,
-0.01816870085895061493,
-0.14621134102344512939,
0.03267721459269523621,
-0.13177180290222167969,
-0.03485326468944549561,
-0.03334777429699897766,
-0.10825172811746597290,
-0.04013727232813835144,
-0.08088254928588867188,
-0.03203413635492324829,
0.01931913010776042938,
0.02515100501477718353,
0.04821742326021194458,
0.04299150779843330383,
-0.00501434924080967903,
0.19934956729412078857,
0.12961827218532562256,
-0.00328611931763589382,
0.16924083232879638672,
0.20232991874217987061,
0.13061472773551940918,
0.08224824815988540649,
0.00472129415720701218,
0.09135171025991439819,
0.15223281085491180420,
0.00273401779122650623,
-0.08016018569469451904,
-0.10252572596073150635,
-0.12048921734094619751,
-0.22534169256687164307,
-0.10646159946918487549,
-0.12132026255130767822,
-0.05318776890635490417,
0.01317885518074035645,
-0.00944344419986009598,
0.01787471026182174683,
-0.08351895213127136230,
-0.07783014327287673950,
-0.01549753639847040176,
-0.08115518838167190552,
-0.11906771361827850342,
-0.04048939421772956848,
-0.17919079959392547607,
-0.12522511184215545654,
-0.03877886757254600525,
0.01160673238337039948,
0.05573413148522377014,
-0.02441638335585594177,
-0.08756857365369796753,
-0.09007339179515838623,
-0.00501661188900470734,
-0.13157676160335540771,
-0.12522526085376739502,
-0.01828675903379917145,
0.06354299932718276978,
0.18105106055736541748,
0.04644374176859855652,
0.20283414423465728760,
0.00945287849754095078,
0.09950465708971023560,
0.05095221847295761108,
0.04695776477456092834,
0.02772361971437931061,
0.18058036267757415771,
0.06294304132461547852,
0.09540643543004989624,
-0.05979860946536064148,
0.00716178538277745247,
-0.01371040008962154388,
0.02968880347907543182,
-0.00598160503432154655,
-0.07384062558412551880,
-0.01936214417219161987,
-0.13079155981540679932,
-0.06717570126056671143,
-0.07722319662570953369,
-0.16521446406841278076,
-0.19118808209896087646,
-0.02341043576598167419,
-0.10372623056173324585,
0.03572624176740646362,
-0.07867076992988586426,
-0.05623221024870872498,
-0.04994000867009162903,
-0.10607702285051345825,
-0.12166981399059295654,
-0.04971129447221755981,
-0.00578223867341876030,
-0.05714240670204162598,
-0.01393054146319627762,
0.10056601464748382568,
-0.01437730435281991959,
0.10969693213701248169,
0.02900567837059497833,
-0.04652492329478263855,
0.11828821897506713867,
0.00378854945302009583,
-0.08148921281099319458,
-0.08651158958673477173,
0.11420538276433944702,
0.10070811957120895386,
-0.00720581412315368652,
0.03290672600269317627,
0.03824670612812042236,
-0.05995462462306022644,
-0.12472864985466003418,
-0.10694386065006256104,
-0.12701302766799926758,
0.06484641879796981812,
-0.00897894706577062607,
-0.01800394430756568909,
-0.03421745076775550842,
-0.17463892698287963867,
-0.16253094375133514404,
-0.04785093292593955994,
-0.05705754086375236511,
0.01976546458899974823,
0.01008982025086879730,
-0.04253734275698661804,
-0.16600899398326873779,
0.01339519117027521133,
-0.09552455693483352661,
-0.14397662878036499023,
-0.11965385079383850098,
-0.21884232759475708008,
-0.06789101660251617432,
-0.01394548825919628143,
0.09070309996604919434,
0.07288359105587005615,
0.00760181713849306107,
0.03088947199285030365,
0.23460467159748077393,
0.01142465136945247650,
-0.08561430126428604126,
-0.11500470340251922607,
-0.04287867993116378784,
0.06818625330924987793,
0.12246982008218765259,
-0.05903148651123046875,
0.05013578757643699646,
0.06296235322952270508,
0.12266277521848678589,
0.12264212220907211304,
0.08432983607053756714,
0.06357024610042572021,
0.02652082592248916626,
-0.04978921636939048767,
0.12663002312183380127,
0.01523594371974468231,
-0.01181394048035144806,
0.04412594065070152283,
-0.06616389006376266479,
-0.07752078026533126831,
0.02783649228513240814,
0.08426779508590698242,
-0.09180497378110885620,
0.33266776800155639648,
-0.13599050045013427734,
-0.18309487402439117432,
0.09756335616111755371,
-0.19338005781173706055,
-0.16504189372062683105,
0.00325629347935318947,
0.11163341253995895386,
0.22818613052368164062,
-0.12857437133789062500,
-0.08469377458095550537,
-0.06841829419136047363,
-0.14639624953269958496,
-0.06262552738189697266,
-0.06223381310701370239,
0.06111072003841400146,
0.14468234777450561523,
0.09085332602262496948,
0.12392836809158325195,
0.01264175958931446075,
0.13776615262031555176,
0.04322518035769462585,
-0.12992565333843231201,
-0.07294262200593948364,
-0.01665965653955936432,
-0.15599921345710754395,
-0.06957865506410598755,
-0.13958118855953216553,
-0.15990138053894042969,
0.08142781257629394531,
-0.21460378170013427734,
-0.18505831062793731689,
-0.16995489597320556641,
-0.02922925911843776703,
0.00310653517954051495,
-0.06549083441495895386,
-0.10799568146467208862,
-0.06792627274990081787,
-0.10859699547290802002,
-0.04248145595192909241,
-0.00358522031456232071,
-0.14463391900062561035,
0.09091378003358840942,
0.05387214943766593933,
-0.03037622757256031036,
0.14646193385124206543,
-0.02360969595611095428,
0.06136924028396606445,
0.11281770467758178711,
-0.05436038225889205933,
0.08957649022340774536,
-0.02677296660840511322,
0.15589313209056854248,
0.09948153793811798096,
-0.02031913585960865021,
0.10617990046739578247,
0.03026469238102436066,
-0.17518967390060424805,
0.05847839638590812683,
0.06158009544014930725,
-0.05765495449304580688,
-0.01616020873188972473,
0.06133037805557250977,
-0.09169533848762512207,
0.03059624321758747101,
0.03144548833370208740,
-0.07427331060171127319,
-0.01392504200339317322,
0.00511024286970496178,
0.07423188537359237671,
0.21361771225929260254,
0.02145194821059703827,
-0.04428221657872200012,
0.15075838565826416016,
0.08706314861774444580,
-0.02246044762432575226,
0.17523980140686035156,
0.00703991996124386787,
-0.05961164459586143494,
0.06535424292087554932,
0.14555835723876953125,
-0.03291908651590347290,
-0.06729541718959808350,
0.02977772988379001617,
-0.01113920845091342926,
-0.08635812997817993164,
-0.03335356339812278748,
-0.14357912540435791016,
-0.14377264678478240967,
-0.12019032984972000122,
0.07049541920423507690,
0.13262842595577239990,
0.10152308642864227295,
0.01424802560359239578,
0.06725586950778961182,
0.04630560800433158875,
0.04566324502229690552,
0.08931188285350799561,
0.09537810832262039185,
-0.20099762082099914551,
0.07617460936307907104,
-0.01414180919528007507,
-0.09668375551700592041,
0.09391682595014572144,
0.00314440485090017319,
-0.02534933388233184814,
-0.00064081029267981648,
-0.14933714270591735840,
0.18280482292175292969,
0.13941419124603271484,
-0.15055155754089355469,
0.21820090711116790771,
0.04779942706227302551,
-0.21857245266437530518,
-0.04720341414213180542,
-0.23300312459468841553,
0.07750979065895080566,
-0.10746382176876068115,
0.05567505210638046265,
-0.06568712741136550903,
-0.03868444636464118958,
0.07557367533445358276,
-0.06750403344631195068,
0.17897854745388031006,
0.04009808972477912903,
0.05911617726087570190,
0.07291587442159652710,
0.01015351898968219757,
-0.14397518336772918701,
-0.08732169121503829956,
-0.04840674996376037598,
-0.17820385098457336426,
0.05674722045660018921,
0.36764952540397644043,
-0.12296254187822341919,
-0.11853770911693572998,
-0.05110750719904899597,
-0.03150086104869842529,
-0.01858736760914325714,
-0.03578266128897666931,
-0.01836290583014488220,
0.19349232316017150879,
-0.05010212212800979614,
0.14827769994735717773,
0.14638997614383697510,
-0.16000655293464660645,
-0.17273300886154174805,
-0.02843369171023368835,
-0.15941630303859710693,
-0.20838272571563720703,
-0.05181381106376647949,
-0.14608485996723175049,
0.04082223400473594666,
-0.00025062359054572880,
-0.07152689248323440552,
-0.06150857359170913696,
0.01930195279419422150,
-0.08625259995460510254,
0.02751703001558780670,
-0.07624616473913192749,
0.08088935166597366333,
0.00594636285677552223,
0.03913924470543861389,
0.19734860956668853760,
0.07755051553249359131,
0.09944451600313186646,
-0.09093798696994781494,
-0.24159842729568481445,
-0.09911635518074035645,
0.16238294541835784912,
0.12785984575748443604,
-0.08291067183017730713,
-0.02655436657369136810,
0.03266543149948120117,
-0.13534741103649139404,
0.03022910840809345245,
-0.02410326339304447174,
-0.06338041275739669800,
0.09192923456430435181,
0.10668064653873443604,
-0.17955662310123443604,
-0.09808596968650817871,
0.09467088431119918823,
-0.22254039347171783447,
-0.04351310431957244873,
0.09411395341157913208,
0.33837673068046569824,
-0.05235194414854049683,
0.00420274678617715836,
0.03641539812088012695,
-0.09350902587175369263,
-0.13908512890338897705,
-0.15161722898483276367,
-0.13683281838893890381,
-0.19627419114112854004,
0.03677964583039283752,
-0.01642273180186748505,
-0.04853078350424766541,
0.00844982266426086426,
-0.00087734102271497250,
-0.00925046671181917191,
0.08913576602935791016,
0.04298396036028862000,
-0.05509947985410690308,
-0.13455891609191894531,
0.00894580129534006119,
0.03366324305534362793,
-0.15379087626934051514,
0.04467849433422088623,
0.23565530776977539062,
-0.15695479512214660645,
-0.03399425745010375977,
0.04618722200393676758,
-0.00586843863129615784,
0.07616853713989257812,
-0.14161287248134613037,
-0.03727259486913681030,
-0.03067394718527793884,
-0.01801490038633346558,
-0.15560469031333923340,
-0.06796637922525405884,
-0.07594474405050277710,
-0.09835144877433776855,
-0.10321208834648132324,
-0.01715412922203540802,
-0.07194197177886962891,
-0.12449292838573455811,
0.03268339112401008606,
-0.09341068565845489502,
-0.07492445409297943115,
-0.07576797157526016235,
-0.10499813407659530640,
-0.16207827627658843994,
-0.01518695522099733353,
0.00246064667589962482,
0.06621468067169189453,
-0.15334065258502960205,
0.06440010666847229004,
0.07326845824718475342,
-0.17158471047878265381,
-0.21298602223396301270,
0.02843519113957881927,
0.07490678131580352783,
-0.18508918583393096924,
-0.12204762548208236694,
-0.06680196523666381836,
-0.03518517687916755676,
-0.06143911182880401611,
-0.04405688866972923279,
-0.13000452518463134766,
-0.03064880892634391785,
0.04990470036864280701,
-0.09025343507528305054,
0.03443904966115951538,
0.08282995223999023438,
-0.08963593840599060059,
0.09575761109590530396,
0.00450949463993310928,
0.00234231026843190193,
-0.01521573215723037720,
0.02420499362051486969,
0.01292464789003133774,
-0.11839022487401962280,
0.05193381756544113159,
-0.00952006410807371140,
-0.13944809138774871826,
-0.05081032961606979370,
-0.06270758062601089478,
0.02610112167894840240,
-0.02260030619800090790,
-0.01525659300386905670,
-0.10727760195732116699,
-0.03908216208219528198,
-0.06844426691532135010,
-0.17842410504817962646,
-0.14091295003890991211,
0.19548553228378295898,
-0.08851391077041625977,
-0.15009281039237976074,
0.01727820187807083130,
0.06524647027254104614,
-0.09382409602403640747,
0.04280735552310943604,
0.14900673925876617432,
-0.04653219878673553467,
0.02251286059617996216,
0.17266039550304412842,
0.08480020612478256226,
0.05801462009549140930,
0.10982466489076614380,
-0.01679109409451484680,
-0.04965605214238166809,
-0.07568237185478210449,
-0.10591913014650344849,
-0.05319910123944282532,
0.09396181255578994751,
0.02706102095544338226,
-0.03599218279123306274,
0.04596117883920669556,
0.02281522937119007111,
-0.07816692441701889038,
-0.00384283647872507572,
-0.01436625327914953232,
0.13075385987758636475,
0.00906158983707427979,
0.09984213858842849731,
-0.00831482186913490295,
0.05821268260478973389,
0.02005268633365631104,
-0.13196344673633575439,
-0.15098124742507934570,
-0.14095504581928253174,
-0.16229264438152313232,
-0.10126099735498428345,
0.08772578090429306030,
-0.10883570462465286255,
0.01827378757297992706,
0.00442813104018568993,
-0.03121460229158401489,
-0.01511314790695905685,
-0.01466478500515222549,
0.10023170709609985352,
0.16215488314628601074,
-0.26018345355987548828,
0.00122554739937186241,
0.26788255572319030762,
-0.10011369735002517700,
0.12858472764492034912,
-0.07212939113378524780,
-0.15078055858612060547,
-0.06623069941997528076,
-0.00790129974484443665,
0.10003121942281723022,
-0.01864430494606494904,
0.06216116249561309814,
-0.00456224940717220306,
0.11182877421379089355,
0.16857531666755676270,
-0.01960681378841400146,
-0.09876472502946853638,
-0.08822811394929885864,
-0.10956041514873504639,
-0.05278438329696655273,
-0.10876131057739257812,
-0.13716621696949005127,
-0.07687945663928985596,
-0.02116574160754680634,
-0.00932957418262958527,
-0.07990743219852447510,
-0.08343349397182464600,
0.01525244023650884628,
-0.11750897765159606934,
-0.05803517997264862061,
0.12119112908840179443,
-0.06559180468320846558,
-0.08789707720279693604,
0.01058550179004669189,
-0.11660549044609069824,
-0.04267365485429763794,
0.05534786358475685120,
-0.17899946868419647217,
-0.08808445930480957031,
0.05225887522101402283,
-0.05570419132709503174,
-0.16605244576930999756,
-0.00300780450925230980,
-0.03795716166496276855,
-0.04970667138695716858,
0.14590318500995635986,
-0.09959369897842407227,
0.06250640749931335449,
0.09425981342792510986,
-0.03695565089583396912,
0.06989283114671707153,
-0.04468351602554321289,
-0.03239986672997474670,
0.01792099140584468842,
-0.12334450334310531616,
0.03830290213227272034,
0.00905308779329061508,
-0.02910709753632545471,
-0.04528181999921798706,
0.07463003695011138916,
-0.00750617310404777527,
-0.01970008760690689087,
0.12253864109516143799,
0.08346098661422729492,
-0.07388482242822647095,
-0.04099527001380920410,
0.01382516510784626007,
-0.06711801886558532715,
0.04866120219230651855,
0.00379238626919686794,
-0.12723492085933685303,
-0.13076303899288177490,
0.19614601135253906250,
-0.07129447162151336670,
0.11903787404298782349,
0.09995847195386886597,
-0.05264393240213394165,
0.20567479729652404785,
-0.00971801299601793289,
-0.04612930864095687866,
0.02143053151667118073,
0.05612703040242195129,
0.02163708955049514771,
0.10308381915092468262,
-0.08030525594949722290,
-0.06423957645893096924,
0.00754771893844008446,
-0.00514787109568715096,
-0.25240799784660339355,
-0.10824858397245407104,
0.06525526940822601318,
-0.16203644871711730957,
-0.09260675311088562012,
0.05696642026305198669,
-0.14130876958370208740,
0.08674504607915878296,
0.07465782761573791504,
0.04768601432442665100,
-0.02449699863791465759,
0.00353182828985154629,
-0.12777249515056610107,
-0.04534824192523956299,
0.04760546982288360596,
-0.10114912688732147217,
-0.05337278544902801514,
0.03526356816291809082,
-0.28341677784919738770,
-0.26272356510162353516,
-0.00419191783294081688,
-0.19457940757274627686,
-0.04514405131340026855,
0.04088574275374412537,
-0.09299516677856445312,
0.04451885074377059937,
-0.02670841291546821594,
-0.09198436886072158813,
-0.04854117706418037415,
-0.05124988034367561340,
0.01640908792614936829,
0.03077118285000324249,
-0.04880964756011962891,
-0.04002327844500541687,
-0.01695754192769527435,
-0.06039540842175483704,
-0.04284583404660224915,
0.00728442892432212830,
0.05608720704913139343,
-0.02831564657390117645,
-0.03253771737217903137,
0.00050012598512694240,
-0.14405180513858795166,
0.02811000682413578033,
0.16187778115272521973,
0.02235663309693336487,
0.15830433368682861328,
0.04304923862218856812,
-0.14919018745422363281,
0.05692638829350471497,
0.05113634839653968811,
-0.08469931781291961670,
-0.04916321486234664917,
0.09179349988698959351,
-0.10091207921504974365,
-0.02812691591680049896,
0.12078829854726791382,
-0.13812555372714996338,
-0.14959755539894104004,
0.05973237007856369019,
-0.12033740431070327759,
-0.06542663276195526123,
0.07300104200839996338,
-0.09884285926818847656,
-0.20371331274509429932,
-0.07992128282785415649,
-0.02842113189399242401,
-0.09676811844110488892,
0.09920487552881240845,
-0.04128084331750869751,
0.03972051292657852173,
0.00574826216325163841,
-0.13505703210830688477,
-0.08823508769273757935,
-0.05442470312118530273,
-0.11475896090269088745,
-0.14998617768287658691,
0.06056977435946464539,
-0.09472668170928955078,
-0.03448567911982536316,
0.11723895370960235596,
0.00585987744852900505,
0.00342011637985706329,
0.02779828757047653198,
-0.11637818068265914917,
-0.01273503806442022324,
-0.02248607762157917023,
-0.21173328161239624023,
-0.17302446067333221436,
0.12198056280612945557,
-0.06145024299621582031,
-0.09851483255624771118,
-0.06721629202365875244,
-0.08482551574707031250,
-0.03399055451154708862,
0.02837163209915161133,
-0.12560796737670898438,
-0.02727715671062469482,
0.10556864738464355469,
-0.05732487887144088745,
-0.09695290774106979370,
0.01859684661030769348,
-0.03458780050277709961,
-0.10216744989156723022,
0.02254582382738590240,
0.00282098376192152500,
0.02045555040240287781,
-0.04273252189159393311,
-0.08770329505205154419,
-0.03077219799160957336,
0.10451053082942962646,
-0.11964075267314910889,
0.04668012633919715881,
0.06679319590330123901,
-0.13231948018074035645,
-0.09694505482912063599,
-0.04414769262075424194,
0.20574276149272918701,
-0.00032880579237826169,
0.20644031465053558350,
-0.03684166073799133301,
-0.20966857671737670898,
-0.02099402248859405518,
0.16714918613433837891,
0.08573032915592193604,
0.24474000930786132812,
-0.07284444570541381836,
0.18557091057300567627,
0.02870020642876625061,
-0.19783164560794830322,
0.09973328560590744019,
0.13139122724533081055,
-0.16325961053371429443,
-0.09009949117898941040,
0.11785918474197387695,
-0.05874376371502876282,
-0.00640137447044253349,
-0.07520830631256103516,
-0.00194248207844793797,
0.00485912337899208069,
-0.14770916104316711426,
0.01905861683189868927,
-0.08980397135019302368,
-0.07590789347887039185,
-0.08687212318181991577,
0.09944092482328414917,
0.17581346631050109863,
-0.00347777898423373699,
0.33306205272674560547,
0.18120744824409484863,
-0.06429561227560043335,
0.01740665175020694733,
-0.06868942826986312866,
0.00377360428683459759,
0.11716412752866744995,
-0.02398648485541343689,
0.09318459033966064453,
0.04369745403528213501,
-0.02038187161087989807,
0.02457799576222896576,
0.02894256077706813812,
-0.13846935331821441650,
-0.01465773861855268478,
0.04588935896754264832,
-0.16700112819671630859,
-0.02546083740890026093,
0.08099771291017532349,
0.03110690042376518250,
0.00854787416756153107,
0.01762957870960235596,
-0.02415831014513969421,
-0.09115105122327804565,
0.08067504316568374634,
-0.00310912681743502617,
-0.00440936349332332611,
0.11971325427293777466,
0.15708620846271514893,
0.02419747039675712585,
0.02973436936736106873,
0.02802078239619731903,
-0.13190755248069763184,
-0.01080464851111173630,
-0.01563002914190292358,
-0.05637323483824729919,
-0.06985572725534439087,
0.02729482762515544891,
-0.09167168289422988892,
-0.03126960620284080505,
0.00119262386579066515,
-0.08787376433610916138,
-0.02723465673625469208,
0.10323283821344375610,
-0.04803447052836418152,
-0.03085184842348098755,
0.02947694994509220123,
-0.11171003431081771851,
0.09962262213230133057,
0.17744050920009613037,
0.09131854027509689331,
0.07363642752170562744,
0.11930704116821289062,
0.14370699226856231689,
0.10557366907596588135,
0.06378406286239624023,
0.02987564541399478912,
-0.11095984280109405518,
0.07430765032768249512,
-0.09080214053392410278,
0.08547403663396835327,
0.06951976567506790161,
0.05370453372597694397,
0.02675146795809268951,
0.04687989875674247742,
0.01024298463016748428,
-0.06204145774245262146,
0.10665792971849441528,
-0.11907681822776794434,
0.06464347988367080688,
-0.05514423549175262451,
-0.16382905840873718262,
-0.06421580165624618530,
0.03366726636886596680,
0.05559490621089935303,
-0.11144336313009262085,
0.17940330505371093750,
-0.02544250525534152985,
-0.05301067233085632324,
-0.00185470655560493469,
0.07162316888570785522,
0.06438902020454406738,
0.03860499337315559387,
-0.03909708186984062195,
-0.08577213436365127563,
-0.09958592802286148071,
0.03848934918642044067,
0.02648373320698738098,
0.05147606134414672852,
0.00423867721110582352,
0.07257600873708724976,
0.11647010594606399536,
0.01916555687785148621,
0.18893277645111083984,
0.40570744872093200684,
0.11848874390125274658,
-0.00753994612023234367,
0.13433687388896942139,
-0.10137768089771270752,
-0.04130734503269195557,
0.08970649540424346924,
-0.21804176270961761475,
-0.03464160859584808350,
-0.02140871994197368622,
-0.16080866754055023193,
-0.11723207682371139526,
-0.26395311951637268066,
0.07922475039958953857,
-0.05881526693701744080,
-0.06050932407379150391,
0.20882076025009155273,
0.09614539146423339844,
0.02682024799287319183,
0.12606300413608551025,
0.07577721029520034790,
-0.15581181645393371582,
0.17039294540882110596,
0.00927010737359523773,
-0.19437599182128906250,
0.34839785099029541016,
0.06461869925260543823,
0.07182284444570541382,
0.05528036132454872131,
-0.00436773337423801422,
-0.03390657901763916016,
-0.03700485453009605408,
0.03867412358522415161,
0.23029267787933349609,
0.04536599665880203247,
-0.04852845519781112671,
0.00992961227893829346,
0.08158356696367263794,
0.07831987738609313965,
-0.04223146289587020874,
-0.08608320355415344238,
-0.11908248811960220337,
0.00643405271694064140,
-0.03734885528683662415,
-0.01887705549597740173,
-0.05001244321465492249,
0.04117923229932785034,
-0.01660510152578353882,
0.04564373567700386047,
-0.02067217044532299042,
-0.13966462016105651855,
0.05133203789591789246,
-0.02842903137207031250,
-0.23378983139991760254,
-0.00896815769374370575,
0.22285550832748413086,
-0.00387806142680346966,
0.04247862100601196289,
0.05968284234404563904,
0.14642354846000671387,
-0.23476357758045196533,
0.17382194101810455322,
0.10518514364957809448,
-0.18192380666732788086,
0.06083169952034950256,
0.13414931297302246094,
-0.04601445049047470093,
-0.07295717298984527588,
0.10171587020158767700,
-0.05528659746050834656,
-0.00045083963777869940,
-0.07609039545059204102,
-0.00685713812708854675,
-0.11407355219125747681,
0.09882390499114990234,
0.01992608234286308289,
-0.01836528070271015167,
-0.00781742576509714127,
-0.03494323790073394775,
-0.07371248304843902588,
-0.09035444259643554688,
-0.02447878755629062653,
0.24513691663742065430,
0.11847161501646041870,
0.40564340353012084961,
0.13337309658527374268,
0.02658571675419807434,
0.06197883933782577515,
-0.22790315747261047363,
-0.09906347841024398804,
-0.17105033993721008301,
-0.02173423394560813904,
-0.01988543383777141571,
-0.01249970868229866028,
0.02450845576822757721,
-0.01633710786700248718,
-0.07218452543020248413,
-0.03184015676379203796,
-0.05116138979792594910,
-0.12505036592483520508,
0.18909350037574768066,
-0.08260029554367065430,
-0.00735097099095582962,
0.02026800252497196198,
-0.12463187426328659058,
-0.08534523099660873413,
-0.11664496362209320068,
-0.16523315012454986572,
-0.04347693920135498047,
-0.13338723778724670410,
0.08690827339887619019,
-0.10790158808231353760,
-0.07989913970232009888,
-0.09964089095592498779,
-0.14566698670387268066,
0.02670337632298469543,
-0.01214208174496889114,
-0.05833255872130393982,
-0.01647415570914745331,
0.00999137759208679199,
-0.02130954526364803314,
-0.07963121682405471802,
-0.07595547288656234741,
-0.00129343813750892878,
0.03220413625240325928,
0.12002113461494445801,
0.03096415102481842041,
-0.01597823761403560638,
-0.17649421095848083496,
-0.01183219347149133682,
0.08904597163200378418,
0.06267668306827545166,
-0.10372075438499450684,
-0.05853720009326934814,
-0.14023092389106750488,
-0.07695686817169189453,
0.14387780427932739258,
-0.00901958253234624863,
0.13387005031108856201,
0.05418624728918075562,
0.01261377613991498947,
-0.08100975304841995239,
-0.07579011470079421997,
-0.09888798743486404419,
-0.18374839425086975098,
-0.10797349363565444946,
-0.08143060654401779175,
-0.03957032039761543274,
-0.18201416730880737305,
0.05673652887344360352,
-0.02115798927843570709,
-0.06417598575353622437,
0.09062165766954421997,
-0.02884304523468017578,
-0.10722304880619049072,
-0.05433252081274986267,
-0.07585585117340087891,
-0.07585211098194122314,
-0.01596428267657756805,
0.02405533567070960999,
-0.00219060410745441914,
0.29098474979400634766,
0.31527364253997802734,
-0.00616740528494119644,
-0.06898662447929382324,
-0.16886316239833831787,
-0.05334554612636566162,
-0.00929778069257736206,
-0.09995767474174499512,
-0.09131973981857299805,
-0.04474773257970809937,
-0.16476549208164215088,
0.09945346415042877197,
-0.02127233520150184631,
-0.11888979375362396240,
0.02997282706201076508,
-0.11846204847097396851,
-0.01860922761261463165,
0.03202288970351219177,
-0.06966756284236907959,
0.19770047068595886230,
0.00558943441137671471,
0.05379138514399528503,
-0.02484612725675106049,
0.02724999748170375824,
0.08309938013553619385,
0.04616566002368927002,
0.00799732282757759094,
-0.03367134556174278259,
-0.12354627996683120728,
-0.02729804441332817078,
-0.04160698130726814270,
0.01496871840208768845,
-0.05765860155224800110,
-0.01047765742987394333,
-0.08997078984975814819,
0.04654637724161148071,
0.12232267856597900391,
-0.18932132422924041748,
-0.07879171520471572876,
0.02919491566717624664,
-0.13688945770263671875,
0.12477614730596542358,
0.05530273914337158203,
0.03747773915529251099,
-0.03826662898063659668,
-0.06353870034217834473,
0.13390058279037475586,
-0.02077661640942096710,
0.16366961598396301270,
-0.02134558744728565216,
0.13949836790561676025,
-0.01066372264176607132,
0.16991396248340606689,
0.10329940915107727051,
0.03956794738769531250,
0.15217532217502593994,
0.01897495798766613007,
-0.15612813830375671387,
-0.03419888764619827271,
0.01127493102103471756,
0.00550659652799367905,
-0.08490707725286483765,
-0.18135152757167816162,
-0.06298539787530899048,
-0.10861216485500335693,
-0.06995546072721481323,
-0.09591048210859298706,
0.01061444077640771866,
-0.05982954800128936768,
-0.06041670218110084534,
-0.12159796804189682007,
-0.05517055466771125793,
0.00873820111155509949,
-0.26091402769088745117,
0.04155068472027778625,
-0.04086146131157875061,
-0.03917673975229263306,
-0.05527687817811965942,
0.01196307968348264694,
-0.01174031849950551987,
-0.02392846904695034027,
-0.06003519892692565918,
0.00278783566318452358,
0.02264073863625526428,
0.08211425691843032837,
0.07030633091926574707,
0.03150293231010437012,
0.13535457849502563477,
-0.00408545229583978653,
0.28806918859481811523,
0.05567346885800361633,
0.25711697340011596680,
0.15789166092872619629,
0.11902066320180892944,
0.05690201371908187866,
0.16163279116153717041,
0.15609288215637207031,
0.15194427967071533203,
0.00043847132474184036,
0.01072318758815526962,
0.05848457664251327515,
0.10740494728088378906,
-0.01944712735712528229,
-0.09120150655508041382,
-0.06854019314050674438,
-0.08077400922775268555,
-0.07444181293249130249,
0.19177135825157165527,
0.14946876466274261475,
-0.00750094093382358551,
-0.04138971120119094849,
-0.09738154709339141846,
0.01489008218050003052,
0.03367469459772109985,
-0.11484603583812713623,
-0.06686550378799438477,
-0.17161457240581512451,
-0.10355184972286224365,
-0.13310001790523529053,
0.10287095606327056885,
0.05627629160881042480,
-0.18810270726680755615,
0.11401761323213577271,
-0.05969517305493354797,
-0.21451877057552337646,
0.08915414661169052124,
0.02604611404240131378,
-0.16807501018047332764,
0.10128702223300933838,
0.01478946767747402191,
-0.17825622856616973877,
0.14694161713123321533,
0.07759216427803039551,
-0.10718508064746856689,
0.24051024019718170166,
0.04743638634681701660,
-0.13544042408466339111,
0.08130225539207458496,
-0.00138844200409948826,
0.11986049264669418335,
0.04294632375240325928,
0.02302960492670536041,
0.04529210552573204041,
0.04872548580169677734,
0.09655956923961639404,
-0.08351478725671768188,
-0.06691634654998779297,
-0.10187694430351257324,
-0.00171143573243170977,
-0.07332262396812438965,
-0.12268923223018646240,
-0.01802248507738113403,
0.00149117805995047092,
-0.03144264221191406250,
-0.05280156061053276062,
-0.00773303303867578506,
0.09534204751253128052,
-0.05582764372229576111,
0.12314422428607940674,
0.23298990726470947266,
-0.02327615581452846527,
-0.08634902536869049072,
0.11952601373195648193,
-0.12098939716815948486,
-0.00371205620467662811,
0.10768224298954010010,
0.14120830595493316650,
-0.15319894254207611084,
0.03871393203735351562,
-0.00702006788924336433,
-0.10003855079412460327,
-0.04042457044124603271,
0.03259028866887092590,
0.10772368311882019043,
-0.09960657358169555664,
-0.14540919661521911621,
-0.00164449366275221109,
0.08201878517866134644,
-0.03963484615087509155,
0.08299054950475692749,
0.12791068851947784424,
-0.05192703381180763245,
-0.03119062259793281555,
-0.01055531576275825500,
-0.06340843439102172852,
0.04898120835423469543,
0.05249869823455810547,
-0.04996220022439956665,
0.19670404493808746338,
0.09147587418556213379,
0.05194482952356338501,
0.15312360227108001709,
-0.07619096338748931885,
-0.07371877133846282959,
0.12824426591396331787,
0.17390124499797821045,
-0.04169460386037826538,
0.14955472946166992188,
0.23544105887413024902,
-0.08645433932542800903,
0.04432478174567222595,
-0.04630449414253234863,
-0.16948458552360534668,
-0.02395076863467693329,
-0.05261586979031562805,
-0.08174894005060195923,
-0.11122245341539382935,
-0.03466769680380821228,
-0.04406034946441650391,
-0.01656327769160270691,
0.00285008060745894909,
-0.06427853554487228394,
0.03408211097121238708,
0.06274000555276870728,
-0.03035446815192699432,
-0.18043363094329833984,
0.01129845250397920609,
0.00684247305616736412,
-0.02109353803098201752,
-0.13477842509746551514,
-0.15636596083641052246,
0.02584587596356868744,
-0.14500199258327484131,
-0.11970277875661849976,
0.07199499011039733887,
0.03507151827216148376,
-0.06163202598690986633,
-0.09021183848381042480,
-0.14886328577995300293,
-0.14080858230590820312,
-0.12590032815933227539,
-0.05166083946824073792,
-0.09938082098960876465,
0.01117314957082271576,
0.03472609817981719971,
-0.09981042146682739258,
0.03592423722147941589,
-0.04491805657744407654,
-0.17482085525989532471,
-0.00351214664988219738,
-0.02644294127821922302,
-0.10397026687860488892,
0.16278958320617675781,
0.07764992117881774902,
-0.06106395274400711060,
0.09553057700395584106,
-0.14427755773067474365,
-0.22077806293964385986,
-0.06100497022271156311,
-0.16090491414070129395,
-0.14053237438201904297,
-0.07244092226028442383,
0.03502666205167770386,
-0.07482933998107910156,
-0.14277343451976776123,
-0.03676887229084968567,
-0.12093488126993179321,
-0.05841519683599472046,
-0.10980303585529327393,
-0.09017760306596755981,
0.09773667156696319580,
-0.02415888570249080658,
-0.07269142568111419678,
-0.07256124913692474365,
-0.22695791721343994141,
-0.13289333879947662354,
-0.08985923975706100464,
-0.10324679315090179443,
0.04414404928684234619,
0.12515854835510253906,
0.03819270059466362000,
-0.01960277184844017029,
0.00997423660010099411,
0.14512334764003753662,
-0.03431668877601623535,
0.03465352579951286316,
0.02508846297860145569,
-0.10627997666597366333,
0.09682654589414596558,
0.06508368998765945435,
-0.08302596211433410645,
0.12127117812633514404,
0.02334454655647277832,
0.14412888884544372559,
0.04104019701480865479,
0.01265119761228561401,
0.00254885503090918064,
0.04888012632727622986,
-0.02157577127218246460,
0.03072924166917800903,
-0.03992655500769615173,
-0.03973230347037315369,
0.11002831906080245972,
-0.09658896178007125854,
-0.02724729292094707489,
-0.00245280819945037365,
-0.00743874069303274155,
0.08386506885290145874,
0.02803788520395755768,
0.04799560084939002991,
0.04559521377086639404,
-0.13469190895557403564,
-0.02136490680277347565,
-0.11452235281467437744,
-0.15509690344333648682,
0.07033223658800125122,
0.07890895009040832520,
-0.17133016884326934814,
0.01013083755970001221,
0.02597587928175926208,
-0.21378436684608459473,
0.11901135742664337158,
0.09246207028627395630,
-0.08632317185401916504,
-0.01764671504497528076,
-0.03675224632024765015,
-0.02061187475919723511,
-0.11305624991655349731,
0.01720907725393772125,
-0.10929293185472488403,
0.12771861255168914795,
0.13848817348480224609,
-0.00450671371072530746,
-0.05681284517049789429,
0.09170789271593093872,
-0.03124903514981269836,
-0.01799065992236137390,
0.07987293601036071777,
0.08161442726850509644,
0.15538066625595092773,
0.15489964187145233154,
-0.01402143202722072601,
0.14133851230144500732,
-0.03429819270968437195,
-0.14211100339889526367,
-0.00039500265847891569,
-0.07018637657165527344,
-0.10722140222787857056,
-0.16006080806255340576,
-0.13431754708290100098,
-0.08188060671091079712,
0.04850912839174270630,
-0.03989659622311592102,
-0.07650201022624969482,
0.03078831173479557037,
0.01926578953862190247,
-0.10448264330625534058,
0.06964340806007385254,
0.02373303845524787903,
-0.15146309137344360352,
-0.03735438361763954163,
0.06420586258172988892,
0.08398751914501190186,
0.25401914119720458984,
0.08010564744472503662,
-0.14751288294792175293,
0.24341265857219696045,
-0.08520905673503875732,
-0.16478483378887176514,
0.09310507029294967651,
-0.01515919994562864304,
-0.13928550481796264648,
-0.05196394771337509155,
-0.03980340436100959778,
-0.04285916313529014587,
-0.11423861235380172729,
0.05732328072190284729,
-0.00639344053342938423,
-0.09302406758069992065,
-0.01257046032696962357,
-0.03665193542838096619,
-0.00064450228819623590,
-0.08970651775598526001,
0.01374201010912656784,
-0.14111958444118499756,
-0.08581556379795074463,
0.03934195637702941895,
0.01831399090588092804,
-0.11856848746538162231,
-0.04862466454505920410,
-0.04719001799821853638,
-0.10751292854547500610,
-0.00589324021711945534,
-0.05628709495067596436,
-0.07898589223623275757,
0.12609611451625823975,
-0.07390714436769485474,
-0.10427437722682952881,
0.01327290665358304977,
0.11495276540517807007,
0.08309439569711685181,
-0.06630336493253707886,
0.13755106925964355469,
0.12793947756290435791,
0.14549620449542999268,
0.01174383237957954407,
0.08203547447919845581,
0.14568617939949035645,
0.12533448636531829834,
0.13211622834205627441,
0.02957949787378311157,
0.10981160402297973633,
0.06145748123526573181,
0.13482464849948883057,
-0.00751676736399531364,
-0.18991892039775848389,
-0.02561823651194572449,
-0.08049672096967697144,
-0.01651019603013992310,
-0.02541756443679332733,
-0.02667406201362609863,
-0.02317842282354831696,
-0.01047702040523290634,
-0.03568661957979202271,
-0.00159441237337887287,
-0.01282312255352735519,
-0.15418890118598937988,
-0.01505850255489349365,
-0.08539783954620361328,
-0.12297914922237396240,
-0.14252360165119171143,
-0.04351394996047019958,
-0.09388177096843719482,
-0.20027405023574829102,
-0.16009314358234405518,
0.08634956926107406616,
0.05897296220064163208,
-0.17403572797775268555,
0.04672503098845481873,
0.17233923077583312988,
-0.04118906706571578979,
-0.13963750004768371582,
-0.10690498352050781250,
-0.07522716373205184937,
0.01652748882770538330,
0.05106161162257194519,
0.00784041546285152435,
0.21403275430202484131,
0.05001162737607955933,
0.01693801023066043854,
0.07584653049707412720,
0.07728274911642074585,
0.05133872106671333313,
-0.13730801641941070557,
-0.21018743515014648438,
-0.13450811803340911865,
-0.16326080262660980225,
-0.30806574225425720215,
-0.16058793663978576660,
0.10614274442195892334,
-0.17490518093109130859,
-0.14674912393093109131,
-0.07247265428304672241,
-0.03031951002776622772,
-0.03938933089375495911,
-0.00010610197205096483,
-0.09055794775485992432,
0.05361357331275939941,
0.12588791549205780029,
-0.05851155519485473633,
0.11039627343416213989,
0.08257701247930526733,
0.05316418409347534180,
-0.03348836675286293030,
-0.02309506386518478394,
-0.11543537676334381104,
-0.09375987946987152100,
-0.03093913011252880096,
-0.11545943468809127808,
-0.10521420091390609741,
-0.11539444327354431152,
-0.05595432966947555542,
0.01988279074430465698,
0.05213819816708564758,
-0.10093808919191360474,
-0.08657069504261016846,
0.04782168939709663391,
0.03879699483513832092,
-0.07152797281742095947,
-0.12327475845813751221,
-0.05328626185655593872,
-0.05867728218436241150,
-0.08155634999275207520,
-0.13650654256343841553,
-0.14096042513847351074,
0.01691259630024433136,
-0.13389167189598083496,
-0.08811669051647186279,
0.02393585629761219025,
0.07495095580816268921,
0.05739650875329971313,
0.16124704480171203613,
0.08245720714330673218,
0.00971477571874856949,
0.00042327278060838580,
0.06701816618442535400,
0.02244452759623527527,
-0.03567441925406455994,
-0.11721839010715484619,
-0.07298322021961212158,
0.04152707383036613464,
-0.01189332082867622375,
0.01121251098811626434,
0.23150862753391265869,
0.10330250114202499390,
-0.00067518791183829308,
0.05898781865835189819,
-0.02827977575361728668,
-0.01201721653342247009,
0.18458016216754913330,
0.03894259035587310791,
0.05106247961521148682,
0.19394759833812713623,
0.17728675901889801025,
0.28617846965789794922,
0.08594933897256851196,
-0.05687664449214935303,
-0.10550283640623092651,
0.20261318981647491455,
0.04291444644331932068,
0.14892576634883880615,
-0.17532315850257873535,
-0.08434703946113586426,
0.04924661293625831604,
-0.04771503061056137085,
0.12790559232234954834,
0.12763160467147827148,
0.01183525193482637405,
-0.15238521993160247803,
-0.17644071578979492188,
0.00250952132046222687,
-0.11716353148221969604,
-0.23895490169525146484,
-0.01190920732915401459,
0.06613767147064208984,
0.08376825600862503052,
0.05108043923974037170,
-0.11451384425163269043,
-0.13130722939968109131,
0.09288733452558517456,
0.03549244254827499390,
0.03691421449184417725,
-0.05397422611713409424,
0.13967221975326538086,
0.12944097816944122314,
0.01676676981151103973,
-0.05938119813799858093,
0.16396377980709075928,
0.09446109831333160400,
-0.11553202569484710693,
0.01715884171426296234,
0.09577646851539611816,
0.03513841331005096436,
-0.00234345160424709320,
0.05368616431951522827,
-0.07930057495832443237,
-0.02664377726614475250,
0.10440558195114135742,
-0.00684525910764932632,
-0.09855181723833084106,
-0.06164496392011642456,
0.01122148707509040833,
-0.05201224237680435181,
-0.01202546153217554092,
-0.06298264116048812866,
-0.08154060691595077515,
0.10711880773305892944,
-0.01422918122261762619,
-0.04438925161957740784,
-0.06547921895980834961,
0.03181180357933044434,
-0.03819623589515686035,
-0.00596560165286064148,
0.07543564587831497192,
0.12762247025966644287,
-0.00691711343824863434,
-0.03347560018301010132,
-0.02995810844004154205,
0.10260989516973495483,
-0.05328479036688804626,
-0.05172741785645484924,
-0.04953127726912498474,
-0.02463699690997600555,
-0.06976469606161117554,
-0.08791076391935348511,
-0.10336036980152130127,
-0.01779088005423545837,
0.07504095137119293213,
-0.01864898577332496643,
0.01825521700084209442,
0.16149590909481048584,
0.05592219531536102295,
0.02859632298350334167,
0.19569842517375946045,
0.00526998750865459442,
-0.06328701972961425781,
0.03934947773814201355,
0.05647609382867813110,
0.01513256970793008804,
-0.09686532616615295410,
-0.11761279404163360596,
-0.09010194987058639526,
-0.03513767942786216736,
-0.06837974488735198975,
-0.12145756930112838745,
-0.05463310331106185913,
-0.03839606046676635742,
-0.04981657862663269043,
-0.09486450254917144775,
-0.01094322092831134796,
-0.05612110719084739685,
-0.04378611594438552856,
-0.04212319478392601013,
-0.07597060501575469971,
-0.12906761467456817627,
-0.13772104680538177490,
-0.06634116917848587036,
-0.10886020213365554810,
-0.08338487893342971802,
-0.11657852679491043091,
-0.03843073174357414246,
0.00262107257731258869,
-0.12168087810277938843,
0.03721385449171066284,
0.04087972640991210938,
-0.08100852370262145996,
-0.07920153439044952393,
-0.04630738869309425354,
-0.05410894006490707397,
0.04061877354979515076,
-0.04580714553594589233,
-0.05734402686357498169,
0.00624983338639140129,
0.02179804630577564240,
0.18274153769016265869,
-0.02801442518830299377,
0.09319117665290832520,
-0.00726278871297836304,
0.09577355533838272095,
0.09186386317014694214,
-0.09770946949720382690,
-0.04149468988180160522,
0.03748147562146186829,
-0.08924316614866256714,
-0.03248519077897071838,
-0.02408165857195854187,
-0.01669027656316757202,
-0.00638872897252440453,
-0.02154029905796051025,
0.12455796450376510620,
0.01972988434135913849,
0.04850201308727264404,
-0.10142048448324203491,
-0.09454593062400817871,
-0.03428223729133605957,
-0.00450204499065876007,
0.03869070112705230713,
-0.01605500280857086182,
0.07050205767154693604,
-0.04149039462208747864,
-0.05383478105068206787,
0.09117444604635238647,
-0.05295060947537422180,
-0.04920422285795211792,
0.04998304694890975952,
0.05809928104281425476,
-0.04377156868577003479,
0.02063324674963951111,
-0.01315319817513227463,
-0.01824391819536685944,
-0.04478319361805915833,
-0.07732099294662475586,
-0.08821345120668411255,
-0.00198616553097963333,
0.09947324544191360474,
-0.07225155830383300781,
-0.18713679909706115723,
-0.09531814604997634888,
0.01280805002897977829,
-0.01010740082710981369,
-0.10256333649158477783,
-0.00035127691808156669,
-0.11221160739660263062,
-0.07489451020956039429,
-0.02594490535557270050,
-0.06069296225905418396,
-0.00047872215509414673,
-0.05317843705415725708,
-0.00238465378060936928,
0.14143313467502593994,
0.12417960911989212036,
0.08784668892621994019,
-0.19712218642234802246,
-0.01713841967284679413,
0.15974304080009460449,
-0.02955878712236881256,
-0.07839760929346084595,
-0.02466492913663387299,
-0.08012646436691284180,
-0.12042556703090667725,
-0.08823903650045394897,
0.03270864114165306091,
0.02794077433645725250,
0.11282969266176223755,
-0.03854886814951896667,
0.05513006076216697693,
-0.01522830035537481308,
-0.03352184966206550598,
-0.06252903491258621216,
-0.01080028899013996124,
-0.07658752053976058960,
-0.10066804289817810059,
-0.04049785435199737549,
-0.05692492425441741943,
0.01893737353384494781,
0.00025731787900440395,
-0.07048162072896957397,
-0.12390115112066268921,
-0.05203571915626525879,
0.02618314512073993683,
0.01904290355741977692,
-0.08620952814817428589,
0.19785885512828826904,
0.06233212351799011230,
0.15073129534721374512,
-0.03769716247916221619,
0.03379187732934951782,
0.03427466005086898804,
-0.22230634093284606934,
-0.02461300045251846313,
-0.10263656824827194214,
-0.20685350894927978516,
0.09786941111087799072,
-0.08745682984590530396,
-0.16208544373512268066,
-0.11712095886468887329,
-0.09612785279750823975,
-0.20910923182964324951,
-0.22141231596469879150,
-0.21085004508495330811,
-0.12463457137346267700,
0.10709650814533233643,
0.11924850195646286011,
0.05509134754538536072,
0.09882885962724685669,
0.01856747828423976898,
-0.15023596584796905518,
-0.05743527039885520935,
-0.01458252500742673874,
-0.13476939499378204346,
0.09854829311370849609,
0.05769730731844902039,
-0.18754866719245910645,
-0.09595222026109695435,
-0.12818387150764465332,
-0.23300915956497192383,
-0.22136379778385162354,
-0.24205790460109710693,
-0.07471257448196411133,
0.07608123868703842163,
0.07342232763767242432,
-0.06300591677427291870,
-0.01949033141136169434,
-0.03806054592132568359,
-0.06232853233814239502,
-0.05460742861032485962,
0.04582864046096801758,
-0.07602415978908538818,
-0.05586153641343116760,
-0.03376279026269912720,
-0.12109042704105377197,
-0.14836862683296203613,
-0.18001604080200195312,
-0.20314233005046844482,
-0.16867347061634063721,
-0.09150707721710205078,
-0.08717182278633117676,
0.08643840998411178589,
0.01148669421672821045,
-0.11729591339826583862,
0.05511439219117164612,
0.07201591879129409790,
-0.07692259550094604492,
0.02064173109829425812,
-0.01180434785783290863,
-0.06433618813753128052,
-0.01336707081645727158,
0.03929585590958595276,
-0.02476047724485397339,
0.05648880824446678162,
0.09865879267454147339,
-0.07032446563243865967,
-0.01786859519779682159,
0.16041499376296997070,
0.08897683769464492798,
0.16917838156223297119,
0.11605342477560043335,
0.13179899752140045166,
0.08188261836767196655,
0.27139008045196533203,
-0.16636635363101959229,
-0.01489150244742631912,
0.14445380866527557373,
-0.05026660114526748657,
0.00760591542348265648,
0.10125190764665603638,
0.09957407414913177490,
0.03811016306281089783,
-0.02095374837517738342,
-0.07634919136762619019,
0.22390976548194885254,
0.09754963964223861694,
-0.15907394886016845703,
-0.12580733001232147217,
0.07772701233625411987,
-0.19475553929805755615,
-0.06028164923191070557,
0.12655356526374816895,
-0.13702853024005889893,
-0.18661236763000488281,
-0.00679069990292191505,
-0.06284786760807037354,
0.07949501276016235352,
0.06674629449844360352,
-0.16751483082771301270,
-0.15476784110069274902,
-0.06212139874696731567,
-0.14466893672943115234,
-0.17854121327400207520,
-0.13229081034660339355,
-0.01248414535075426102,
-0.04156530648469924927,
0.11877527832984924316,
0.15879155695438385010,
0.02775480225682258606,
0.12658260762691497803,
-0.04012986645102500916,
0.28705933690071105957,
0.15241241455078125000,
-0.12882223725318908691,
-0.00570948468521237373,
0.09622871875762939453,
-0.10675504058599472046,
0.05263872072100639343,
0.10758416354656219482,
-0.06141660362482070923,
0.03732076287269592285,
-0.05693329125642776489,
-0.05029821395874023438,
-0.03017532825469970703,
-0.04690648987889289856,
-0.07541699707508087158,
-0.03013273701071739197,
0.05555404722690582275,
-0.12152162939310073853,
-0.12946882843971252441,
-0.14536218345165252686,
0.02668911591172218323,
0.08305747807025909424,
0.07792105525732040405,
-0.02622303552925586700,
0.03564159199595451355,
-0.04227856919169425964,
-0.23523317277431488037,
-0.22608608007431030273,
-0.08316412568092346191,
-0.02080047130584716797,
0.00195936928503215313,
0.04378590732812881470,
-0.13759912550449371338,
-0.15231639146804809570,
-0.01918077655136585236,
0.04787060990929603577,
-0.09782829135656356812,
0.07078348100185394287,
0.02487519383430480957,
0.00485031632706522942,
0.07901197671890258789,
0.06516527384519577026,
0.12469181418418884277,
-0.08276839554309844971,
-0.16488127410411834717,
0.14003957808017730713,
-0.14339497685432434082,
0.12782713770866394043,
-0.00501289591193199158,
0.03984621912240982056,
-0.11140806227922439575,
0.06362971663475036621,
0.33168363571166992188,
-0.15861368179321289062,
-0.08654294162988662720,
0.03277910873293876648,
0.06015453860163688660,
0.00665478920564055443,
-0.04461675137281417847,
0.09096220880746841431,
0.03353406488895416260,
0.04655162245035171509,
0.05416793748736381531,
-0.04109308496117591858,
-0.13285806775093078613,
0.12875767052173614502,
0.05375187844038009644,
-0.01769270189106464386,
-0.01218060776591300964,
0.05855874717235565186,
0.12022507190704345703,
0.02990367636084556580,
-0.03500179946422576904,
-0.12204094976186752319,
-0.05346712842583656311,
0.10208586603403091431,
0.07061988860368728638,
-0.19484971463680267334,
0.07758540660142898560,
0.16462005674839019775,
-0.19279935956001281738,
-0.03795076534152030945,
-0.08520495146512985229,
0.01896490342915058136,
-0.01466978527605533600,
0.08313659578561782837,
-0.03884019330143928528,
-0.06887607276439666748,
-0.07637448608875274658,
-0.07687304168939590454,
-0.00292349723167717457,
-0.04380529373884201050,
-0.02675687521696090698,
0.12291183322668075562,
0.08403517305850982666,
-0.08959072083234786987,
0.01526176836341619492,
0.16965055465698242188,
-0.16378420591354370117,
-0.13956086337566375732,
0.03341403976082801819,
0.14133583009243011475,
0.05081060156226158142,
0.10227465629577636719,
-0.14076752960681915283,
0.26209661364555358887,
0.14464165270328521729,
-0.13245318830013275146,
-0.12280414253473281860,
-0.09201424568891525269,
-0.12375249713659286499,
-0.10382141917943954468,
-0.11431249976158142090,
-0.19961428642272949219,
-0.11226529628038406372,
-0.09468113631010055542,
-0.17852181196212768555,
-0.13580855727195739746,
-0.05949932709336280823,
0.00909112580120563507,
0.12132094800472259521,
0.13561555743217468262,
-0.03676546737551689148,
-0.06219568103551864624,
0.00458570895716547966,
-0.06168672069907188416,
-0.19434539973735809326,
-0.03655986860394477844,
-0.14791551232337951660,
-0.09333170950412750244,
-0.08304033428430557251,
-0.11680685728788375854,
-0.08815635740756988525,
-0.19009467959403991699,
-0.05505559220910072327,
0.01124672126024961472,
0.00004211507621221244,
0.01982690766453742981,
0.10194924473762512207,
0.08467598259449005127,
0.01429740991443395615,
0.01452067587524652481,
0.15395347774028778076,
0.15627348423004150391,
0.03540303558111190796,
0.13464242219924926758,
-0.10321141779422760010,
-0.03397009894251823425,
0.08219022303819656372,
-0.06582748144865036011,
0.05862036719918251038,
0.03944063931703567505,
-0.06434500962495803833,
0.14105501770973205566,
-0.12614235281944274902,
-0.10551103204488754272,
-0.05713338032364845276,
0.01686333678662776947,
-0.17387752234935760498,
-0.11745253950357437134,
-0.03355783596634864807,
-0.07149017602205276489,
-0.06364223361015319824,
0.07816276699304580688,
-0.08184221386909484863,
-0.11327826231718063354,
-0.11670295149087905884,
-0.06805481016635894775,
-0.21470949053764343262,
-0.10523639619350433350,
-0.06924585998058319092,
-0.11166747659444808960,
-0.12502834200859069824,
0.08026195317506790161,
-0.08487564325332641602,
0.01346322055906057358,
0.12007491290569305420,
0.00791221298277378082,
-0.09124942868947982788,
0.08007973432540893555,
0.09800265729427337646,
0.15054893493652343750,
0.15227682888507843018,
-0.02915204875171184540,
-0.11668261885643005371,
-0.09129798412322998047,
-0.24061353504657745361,
0.00467602349817752838,
-0.07739334553480148315,
-0.10870043933391571045,
-0.08174397796392440796,
-0.03031203709542751312,
-0.02170358411967754364,
-0.02941188216209411621,
0.01354776509106159210,
0.21786384284496307373,
-0.10994711518287658691,
0.19167764484882354736,
-0.07173507660627365112,
-0.03293448686599731445,
-0.06105270609259605408,
-0.10681847482919692993,
0.00386676401831209660,
-0.20970989763736724854,
-0.11715913563966751099,
-0.04467914253473281860,
-0.21025225520133972168,
-0.18332342803478240967,
-0.06492801755666732788,
0.00106930756010115147,
-0.07078806310892105103,
0.03168659284710884094,
0.06216927617788314819,
0.07778356969356536865,
0.06863924115896224976,
0.06113705784082412720,
0.10771988332271575928,
0.06681827455759048462,
0.04903391003608703613,
-0.09557633101940155029,
-0.14668472111225128174,
-0.10605464875698089600,
-0.07701035588979721069,
-0.06528092175722122192,
-0.21058662235736846924,
0.05700522288680076599,
0.18951410055160522461,
-0.11076561361551284790,
-0.09927481412887573242,
-0.19045920670032501221,
-0.10809340327978134155,
-0.10034145414829254150,
-0.05999372899532318115,
-0.04109303280711174011,
0.02536374144256114960,
0.00604677386581897736,
-0.12091910094022750854,
-0.10193221271038055420,
-0.18802948296070098877,
-0.01777931675314903259,
-0.06835639476776123047,
-0.03769674152135848999,
0.15037088096141815186,
0.03470727428793907166,
-0.06253719329833984375,
-0.10665469616651535034,
-0.06399422138929367065,
0.10977290570735931396,
0.12674899399280548096,
-0.01788461394608020782,
-0.03909257426857948303,
0.03706977888941764832,
-0.00327330990694463253,
-0.12171460688114166260,
-0.05541374161839485168,
-0.05511354655027389526,
-0.02955910190939903259,
0.05082283169031143188,
0.01261431537568569183,
-0.09084996581077575684,
0.11403939872980117798,
0.19243608415126800537,
-0.03473917767405509949,
0.22708177566528320312,
0.02151201106607913971,
-0.10659356415271759033,
-0.13477276265621185303,
-0.00386272673495113850,
0.09431948512792587280,
-0.22097599506378173828,
0.06905994564294815063,
0.15465708076953887939,
0.12319229543209075928,
0.06808897852897644043,
-0.01557935681194067001,
-0.09565498679876327515,
-0.07475444674491882324,
-0.02877666428685188293,
-0.13180853426456451416,
0.02130200900137424469,
0.14658175408840179443,
-0.07207541912794113159,
-0.19684278964996337891,
-0.06595747172832489014,
0.20355875790119171143,
0.02336696721613407135,
-0.10160969942808151245,
0.14008720219135284424,
0.16329254209995269775,
-0.08252897113561630249,
-0.01138543896377086639,
0.00415608752518892288,
0.06612682342529296875,
0.04233414307236671448,
0.03449455648660659790,
0.10522770136594772339,
0.00443516205996274948,
-0.00295656058005988598,
-0.10438790172338485718,
-0.12030044943094253540,
-0.00745799345895648003,
-0.09738087654113769531,
-0.01488592196255922318,
-0.15579330921173095703,
-0.12249941378831863403,
-0.00154059519991278648,
0.03840105980634689331,
0.03827541694045066833,
-0.06100673601031303406,
-0.18330119550228118896,
-0.10162878036499023438,
0.02495911344885826111,
-0.08898892998695373535,
-0.03684539720416069031,
0.06079337373375892639,
0.12763862311840057373,
0.17266082763671875000,
0.12943783402442932129,
0.06649206578731536865,
0.01508741080760955811,
-0.09352871030569076538,
-0.00570310978218913078,
-0.04687659814953804016,
-0.12641082704067230225,
-0.06432943046092987061,
0.00835501216351985931,
0.00946692563593387604,
-0.00961979851126670837,
0.24690707027912139893,
0.13460761308670043945,
-0.03100330382585525513,
-0.12751477956771850586,
0.03636794537305831909,
0.10594119131565093994,
-0.09662456065416336060,
0.05972348898649215698,
0.04719575867056846619,
-0.14165049791336059570,
0.01535458210855722427,
-0.03557912632822990417,
0.00193214497994631529,
0.07404151558876037598,
-0.03796141967177391052,
0.21929615736007690430,
-0.09030910581350326538,
-0.08704097568988800049,
0.00971394684165716171,
-0.09833768010139465332,
0.14331592619419097900,
0.18520630896091461182,
-0.09349633753299713135,
0.08499100804328918457,
-0.03120432794094085693,
-0.05348216369748115540,
-0.15559709072113037109,
-0.15666115283966064453,
0.09832372516393661499,
0.15801186859607696533,
-0.07080651819705963135,
0.10215327888727188110,
0.07296128571033477783,
0.12544105947017669678,
-0.03456492722034454346,
0.00057307846145704389,
0.03407699614763259888,
0.30144017934799194336,
-0.00942203216254711151,
-0.00778252677991986275,
-0.01585345715284347534,
0.01786412671208381653,
0.07001475989818572998,
-0.16523845493793487549,
-0.18071690201759338379,
0.14979654550552368164,
0.01791736111044883728,
0.17584961652755737305,
-0.15325489640235900879,
0.22128388285636901855,
0.19907414913177490234,
-0.11991037428379058838,
-0.09207211434841156006,
-0.04356688261032104492,
-0.06496060639619827271,
-0.03529119864106178284,
-0.00745918462052941322,
0.16369237005710601807,
0.12090780586004257202,
-0.03802303224802017212,
0.04662874341011047363,
-0.03067383170127868652,
0.00173936644569039345,
-0.02074969746172428131,
0.10145135223865509033,
-0.02402461506426334381,
0.09881472587585449219,
0.12710641324520111084,
0.04926430433988571167,
0.10216845571994781494,
0.09047146886587142944,
-0.06135284528136253357,
-0.08810367435216903687,
-0.04760297387838363647,
0.00662175146862864494,
-0.11927889287471771240,
-0.12502211332321166992,
0.05891144275665283203,
0.00801275018602609634,
-0.02454140596091747284,
0.01511655747890472412,
-0.09358210116624832153,
0.01978640817105770111,
-0.03914919123053550720,
-0.08190841227769851685,
0.20731252431869506836,
0.09673039615154266357,
0.07156472653150558472,
-0.06880488246679306030,
0.06639544665813446045,
0.17510740458965301514,
-0.12445574998855590820,
-0.10961420089006423950,
-0.07245720177888870239,
-0.10120522975921630859,
-0.03730891272425651550,
-0.07461566478013992310,
0.12586785852909088135,
0.14442521333694458008,
0.00423693377524614334,
0.09298078715801239014,
0.02462898194789886475,
0.04236663132905960083,
-0.12570084631443023682,
-0.11785622686147689819,
-0.04694085940718650818,
0.07338645309209823608,
0.12276566028594970703,
0.10420349985361099243,
0.00083251670002937317,
0.06242593377828598022,
-0.00280336220748722553,
-0.06716076284646987915,
-0.06662611663341522217,
0.04120752587914466858,
0.12100506573915481567,
-0.07756662368774414062,
-0.12036369740962982178,
0.04482317343354225159,
0.00513356644660234451,
0.07691539078950881958,
0.07232373952865600586,
0.11350369453430175781,
0.33397224545478820801,
0.01981356181204319000,
-0.02752381935715675354,
-0.11398439854383468628,
-0.04422732070088386536,
-0.03237124904990196228,
-0.09607529640197753906,
0.04207663238048553467,
-0.10464864969253540039,
-0.07290259003639221191,
0.10413088649511337280,
0.07886412739753723145,
-0.06259398162364959717,
0.04374730214476585388,
0.01261188555508852005,
-0.03422867879271507263,
-0.04871626198291778564,
-0.01581560075283050537,
0.03038360178470611572,
0.17789095640182495117,
0.10603810846805572510,
0.12009239941835403442,
-0.07509850710630416870,
-0.10811620950698852539,
0.03207621350884437561,
-0.26414796710014343262,
-0.17637483775615692139,
0.11947298049926757812,
-0.16915567219257354736,
0.03714477270841598511,
-0.03541589155793190002,
-0.07734852284193038940,
-0.03829035162925720215,
0.03101937472820281982,
-0.18031327426433563232,
-0.21710120141506195068,
-0.15753428637981414795,
-0.00968511868268251419,
-0.02784238196909427643,
0.03938716650009155273,
-0.15571832656860351562,
-0.10168324410915374756,
-0.03150667250156402588,
-0.15871483087539672852,
-0.01233825646340847015,
-0.02259567752480506897,
-0.03276302292943000793,
-0.07579607516527175903,
0.04181109368801116943,
0.10663202404975891113,
0.03668942674994468689,
-0.00241410639137029648,
0.09327085316181182861,
0.13035659492015838623,
0.08438594639301300049,
0.00264191301539540291,
-0.11882499605417251587,
0.07161054015159606934,
0.01910099387168884277,
-0.01705718599259853363,
0.10907093435525894165,
0.08224156498908996582,
0.01725890487432479858,
-0.08920038491487503052,
0.13989332318305969238,
0.12092767655849456787,
0.18692232668399810791,
-0.03617611527442932129,
0.07077442109584808350,
0.13268563151359558105,
-0.07835165411233901978,
-0.02656704373657703400,
-0.04042451828718185425,
0.13742813467979431152,
-0.03090076148509979248,
0.07073959708213806152,
-0.01012027170509099960,
-0.14539861679077148438,
0.13757069408893585205,
0.05398399382829666138,
0.00901933480054140091,
0.21110796928405761719,
-0.00512097822502255440,
-0.06668246537446975708,
-0.01393403578549623489,
0.15029515326023101807,
0.12553492188453674316,
-0.04539608582854270935,
0.05144162848591804504,
0.06215291470289230347,
0.00478178588673472404,
0.02322256006300449371,
0.12779633700847625732,
0.11252883076667785645,
0.25098559260368347168,
0.06809745728969573975,
-0.00522497575730085373,
0.09111830592155456543,
0.07033923268318176270,
0.05297423899173736572,
-0.15602505207061767578,
-0.11136303842067718506,
-0.11280118674039840698,
-0.14026479423046112061,
0.09615554660558700562,
0.19945238530635833740,
-0.05847105756402015686,
0.08499871194362640381,
0.15499618649482727051,
0.09648590534925460815,
0.15234014391899108887,
0.13548573851585388184,
-0.06922651827335357666,
-0.12261699140071868896,
0.04134069755673408508,
0.00099591154139488935,
0.02965259365737438202,
0.07224596291780471802,
-0.11141895502805709839,
-0.12155456095933914185,
0.06596795469522476196,
0.22104190289974212646,
0.01488466560840606689,
-0.05061365664005279541,
-0.08218883723020553589,
0.04864412173628807068,
0.02221933379769325256,
-0.24846798181533813477,
-0.12042301893234252930,
-0.02970446832478046417,
-0.11115971952676773071,
-0.13119377195835113525,
-0.19926595687866210938,
0.06599209457635879517,
0.05187865719199180603,
-0.01033767871558666229,
0.02230800688266754150,
-0.08057559281587600708,
-0.11245542019605636597,
-0.06792738288640975952,
-0.15520900487899780273,
-0.02421557717025279999,
-0.03452735021710395813,
-0.13411089777946472168,
-0.07220938801765441895,
0.03314647451043128967,
-0.03840010613203048706,
-0.01594149507582187653,
-0.13253667950630187988,
-0.15176047384738922119,
0.01171244308352470398,
-0.16558472812175750732,
-0.11485505849123001099,
0.14165481925010681152,
0.05093863978981971741,
-0.02295278199017047882,
0.03710942715406417847,
0.04601866751909255981,
-0.12300764024257659912,
-0.24513524770736694336,
-0.05495115742087364197,
-0.08936793357133865356,
0.01689141057431697845,
0.10508285462856292725,
-0.00571480859071016312,
0.11949927359819412231,
-0.01274993922561407089,
-0.08093348890542984009,
-0.12199039012193679810,
-0.07844039797782897949,
-0.06014624238014221191,
-0.07736095041036605835,
0.09518416225910186768,
0.08573850244283676147,
0.13652034103870391846,
-0.10130827128887176514,
-0.14092898368835449219,
0.01369347888976335526,
-0.02948355861008167267,
-0.08707986027002334595,
-0.00145569583401083946,
-0.10563285648822784424,
-0.06907878816127777100,
0.02213598601520061493,
-0.07201699167490005493,
0.03422465547919273376,
0.12976968288421630859,
0.02057588100433349609,
0.05822080746293067932,
0.09479642659425735474,
0.00715042883530259132,
-0.03841020539402961731,
0.06164540350437164307,
-0.14628878235816955566,
-0.12517690658569335938,
-0.18776839971542358398,
-0.15416862070560455322,
-0.22545516490936279297,
-0.13504479825496673584,
0.04309654235839843750,
0.07741682231426239014,
0.12202522158622741699,
-0.13990834355354309082,
-0.07815276831388473511,
-0.18005895614624023438,
-0.17938606441020965576,
-0.15622648596763610840,
-0.10357490181922912598,
0.09307152032852172852,
-0.04563619568943977356,
-0.01973385363817214966,
-0.00284908222965896130,
0.07518024742603302002,
-0.04157271236181259155,
0.02756255120038986206,
0.00020160457643214613,
0.01131943706423044205,
-0.00103933236096054316,
0.03665412217378616333,
0.07229655236005783081,
-0.04958052560687065125,
0.03872881084680557251,
0.05677598714828491211,
-0.01801792159676551819,
-0.09200502187013626099,
0.08695217221975326538,
0.10900912433862686157,
0.07270060479640960693,
0.01514125987887382507,
-0.04961425438523292542,
-0.16418115794658660889,
0.00094245455693453550,
-0.14653196930885314941,
-0.15984934568405151367,
-0.20564283430576324463,
-0.04624984040856361389,
0.11195994168519973755,
-0.07859048992395401001,
-0.08250676840543746948,
-0.00665980810299515724,
-0.06079556047916412354,
-0.07355743646621704102,
-0.08122060447931289673,
-0.08737268298864364624,
0.22319954633712768555,
0.08156803250312805176,
0.12506097555160522461,
-0.10333207249641418457,
-0.09100959450006484985,
-0.03970550745725631714,
-0.16243319213390350342,
-0.20589648187160491943,
-0.08942594379186630249,
0.06319025158882141113,
0.03195107355713844299,
-0.02874174900352954865,
0.03900971263647079468,
0.03639410436153411865,
-0.11058750003576278687,
-0.13354068994522094727,
-0.14473420381546020508,
-0.11563628166913986206,
0.06908246874809265137,
0.04743455722928047180,
0.14601053297519683838,
0.28013855218887329102,
0.28513070940971374512,
0.16313660144805908203,
0.08351729065179824829,
-0.06220410019159317017,
-0.02124642394483089447,
0.09523656964302062988,
0.05062608793377876282,
0.13442744314670562744,
0.18814611434936523438,
0.06995654851198196411,
-0.12420978397130966187,
-0.08307994157075881958,
-0.01462996751070022583,
-0.06006859987974166870,
0.01614020764827728271,
0.01359178125858306885,
-0.09209963679313659668,
-0.10400565713644027710,
-0.12390667200088500977,
-0.15912018716335296631,
-0.21782353520393371582,
-0.11124518513679504395,
-0.15080305933952331543,
0.08360553532838821411,
0.08577856421470642090,
-0.04697182774543762207,
0.04512051492929458618,
0.01288015767931938171,
-0.12704910337924957275,
0.06266132742166519165,
-0.03313576430082321167,
-0.09070897847414016724,
0.06358021497726440430,
0.12706761062145233154,
0.11491471529006958008,
-0.05910638719797134399,
0.08072494715452194214,
0.04146819189190864563,
-0.04443950206041336060,
-0.02355323173105716705,
-0.22009579837322235107,
0.19293893873691558838,
0.01957116276025772095,
-0.03179578483104705811,
-0.06230185553431510925,
0.06284665316343307495,
-0.03968398272991180420,
-0.25348362326622009277,
-0.08453646302223205566,
-0.23093514144420623779,
0.10081528127193450928,
-0.00194350851234048605,
0.12684476375579833984,
0.04810549691319465637,
-0.14467422664165496826,
-0.08206076174974441528,
-0.02804723568260669708,
-0.13758811354637145996,
-0.16547453403472900391,
-0.20071849226951599121,
-0.00536101870238780975,
0.05600574985146522522,
-0.02375645376741886139,
0.08763732761144638062,
0.00763381551951169968,
-0.02065140753984451294,
-0.05365532264113426208,
-0.13492405414581298828,
0.02318910695612430573,
0.11764041334390640259,
-0.12854735553264617920,
0.08050809800624847412,
0.07912231236696243286,
-0.00370277231559157372,
0.07136956602334976196,
0.00809002760797739029,
0.01379671040922403336,
-0.00785101577639579773,
-0.11584281176328659058,
-0.02879311330616474152,
-0.02717951685190200806,
0.20376536250114440918,
0.20133952796459197998,
0.16557796299457550049,
0.22220171988010406494,
-0.22035481035709381104,
0.08854347467422485352,
0.19700625538825988770,
-0.07621128857135772705,
0.00617609918117523193,
0.12366491556167602539,
-0.07566659152507781982,
-0.05340372025966644287,
0.00785522907972335815,
-0.09813635051250457764,
-0.03478909656405448914,
-0.13080617785453796387,
-0.12715446949005126953,
-0.02360383607447147369,
-0.00785335898399353027,
-0.09639053046703338623,
-0.18594193458557128906,
-0.10466790199279785156,
-0.20841707289218902588,
-0.00582579663023352623,
-0.03958943858742713928,
0.18091806769371032715,
0.04392954334616661072,
0.10406468808650970459,
0.10084825754165649414,
-0.11360237747430801392,
-0.15222300589084625244,
-0.03914066404104232788,
-0.04311313852667808533,
-0.09304907172918319702,
-0.06606203317642211914,
-0.05703752115368843079,
-0.08506526052951812744,
0.02400182187557220459,
0.04148380085825920105,
-0.07217403501272201538,
0.06239113211631774902,
0.23689490556716918945,
-0.01666675880551338196,
-0.06258004903793334961,
0.14781753718852996826,
-0.10018412768840789795,
-0.09864842891693115234,
-0.07273014634847640991,
-0.14691784977912902832,
-0.21201272308826446533,
-0.04651817306876182556,
0.03810391947627067566,
0.17367064952850341797,
-0.06365155428647994995,
0.03327672183513641357,
0.01558688376098871231,
-0.00536298565566539764,
-0.08533251285552978516,
-0.10137635469436645508,
-0.11675941199064254761,
0.08714033663272857666,
0.13211971521377563477,
0.08614009618759155273,
0.03218308463692665100,
0.09404875338077545166,
-0.04726230353116989136,
-0.05971186980605125427,
-0.04342998564243316650,
0.02429392933845520020,
-0.03716767579317092896,
0.11793802678585052490,
-0.00908599700778722763,
-0.00221546040847897530,
0.04174425825476646423,
-0.01436955574899911880,
0.04410296678543090820,
0.04422805458307266235,
0.09403254836797714233,
0.03468954190611839294,
-0.13222542405128479004,
0.05403313413262367249,
0.09929784387350082397,
0.06710391491651535034,
-0.02351488545536994934,
0.07156621664762496948,
0.05114294216036796570,
0.13658106327056884766,
-0.05221871659159660339,
0.21574531495571136475,
-0.06904458254575729370,
-0.13284805417060852051,
-0.03314478322863578796,
-0.25286573171615600586,
-0.09376815706491470337,
-0.12307700514793395996,
-0.11650449782609939575,
-0.02829049527645111084,
-0.12827357649803161621,
-0.08837891370058059692,
-0.02267075516283512115,
-0.08113361895084381104,
0.10350491106510162354,
0.06288826465606689453,
0.00700030382722616196,
-0.10999155789613723755,
-0.05060455948114395142,
0.04874184727668762207,
-0.05748485773801803589,
-0.06859476119279861450,
-0.10771456360816955566,
-0.09375594556331634521,
-0.21555650234222412109,
-0.10737157613039016724,
0.12277548015117645264,
0.14534445106983184814,
0.02186595648527145386,
0.37390816211700439453,
0.11040313541889190674,
0.02430126816034317017,
0.06676994264125823975,
-0.19108070433139801025,
-0.12777419388294219971,
-0.01371133048087358475,
-0.07129053026437759399,
-0.10172376781702041626,
-0.01258205343037843704,
0.03098584339022636414,
0.00705967098474502563,
-0.00729280337691307068,
0.01679685525596141815,
-0.15410469472408294678,
-0.00717123132199048996,
-0.04694216698408126831,
-0.07741249352693557739,
0.06006328016519546509,
0.08300463855266571045,
-0.07610753923654556274,
-0.07983811944723129272,
-0.15700648725032806396,
-0.14299650490283966064,
0.23333121836185455322,
0.02980303764343261719,
-0.06707493215799331665,
0.30724301934242248535,
0.16900987923145294189,
-0.06605038046836853027,
-0.11793544888496398926,
-0.12410709261894226074,
-0.09732622653245925903,
0.04178924113512039185,
-0.10014004260301589966,
-0.04599116370081901550,
-0.03652076423168182373,
-0.01153590530157089233,
-0.06405349820852279663,
-0.04639541357755661011,
0.10765203088521957397,
0.09665988385677337646,
0.05397923663258552551,
-0.03641297668218612671,
-0.08064717054367065430,
-0.07521495968103408813,
-0.05713598430156707764,
-0.10622724890708923340,
-0.05175162851810455322,
-0.09592077881097793579,
-0.07960227876901626587,
-0.03369886055588722229,
0.13959690928459167480,
0.02428828738629817963,
0.18118339776992797852,
0.00618211971595883369,
0.11276527494192123413,
-0.05195986852049827576,
-0.13542562723159790039,
-0.12899439036846160889,
0.01435240451246500015,
0.06169826909899711609,
-0.02874262630939483643,
0.00216479506343603134,
-0.07816898822784423828,
0.00083650019951164722,
0.00478958291932940483,
-0.03078081831336021423,
-0.05194394290447235107,
-0.09903182089328765869,
0.01004784181714057922,
-0.03810849785804748535,
-0.01859751157462596893,
0.04475897178053855896,
-0.06088877841830253601,
-0.00281479908153414726,
-0.08951051533222198486,
0.07525826245546340942,
-0.20819097757339477539,
-0.05777081474661827087,
-0.00983410608023405075,
0.05480444431304931641,
0.01196862012147903442,
0.02656747587025165558,
0.05860480293631553650,
0.02114589139819145203,
0.02812051028013229370,
0.01730349846184253693,
0.07964451611042022705,
-0.02620367147028446198,
-0.02874294295907020569,
0.07728632539510726929,
0.04024679213762283325,
0.09517511725425720215,
0.10113386809825897217,
0.11733228713274002075,
-0.33351480960845947266,
-0.12163555622100830078,
-0.01066926680505275726,
-0.28083142638206481934,
-0.17063865065574645996,
-0.02511903643608093262,
0.06074652448296546936,
0.04815584793686866760,
-0.11533386260271072388,
0.06258734315633773804,
0.00631301756948232651,
0.16177397966384887695,
0.15173533558845520020,
0.00417705858126282692,
-0.02216368727385997772,
0.01128582749515771866,
0.06444745510816574097,
0.07801255583763122559,
0.00321481726132333279,
-0.02574275061488151550,
-0.13798129558563232422,
0.12479837983846664429,
0.05212915316224098206,
-0.10915116965770721436,
0.07555948942899703979,
-0.13542206585407257080,
-0.22064356505870819092,
-0.03172669932246208191,
0.14667095243930816650,
0.21475568413734436035,
-0.01452794764190912247,
0.31214189529418945312,
0.11660807579755783081,
-0.06661325693130493164,
-0.03272604942321777344,
0.01522428262978792191,
-0.15053148567676544189,
-0.18695081770420074463,
-0.12741982936859130859,
-0.05014257133007049561,
-0.13595618307590484619,
-0.23073998093605041504,
-0.16103915870189666748,
-0.18462762236595153809,
-0.19678661227226257324,
-0.04679509997367858887,
0.11237744241952896118,
0.17341195046901702881,
-0.06838647276163101196,
0.09512054175138473511,
0.03999224305152893066,
-0.08763647079467773438,
0.05320176109671592712,
0.12639927864074707031,
0.06761498004198074341,
-0.00659472541883587837,
-0.09881959110498428345,
0.06362402439117431641,
-0.00979069061577320099,
-0.10830783098936080933,
-0.11335236579179763794,
-0.03089839033782482147,
-0.06406411528587341309,
-0.19938766956329345703,
-0.02197334170341491699,
-0.01035712938755750656,
-0.09537994116544723511,
0.07321745902299880981,
0.07200924307107925415,
0.08218184113502502441,
0.01837369054555892944,
0.01207744702696800232,
-0.04564016312360763550,
-0.07415258884429931641,
-0.08732893317937850952,
-0.07809110730886459351,
-0.16125726699829101562,
-0.21440565586090087891,
-0.08262620121240615845,
-0.04958431795239448547,
-0.09685245156288146973,
-0.02953237295150756836,
-0.00626232335343956947,
-0.04512795805931091309,
0.11992798745632171631,
0.13701093196868896484,
0.05516444891691207886,
0.15876390039920806885,
0.06500766426324844360,
0.05781437829136848450,
0.18380284309387207031,
0.09292847663164138794,
-0.14180488884449005127,
0.23383775353431701660,
0.01943125948309898376,
-0.08706541359424591064,
-0.05418729037046432495,
-0.05944467335939407349,
-0.05978941544890403748,
-0.16068503260612487793,
0.03583732992410659790,
0.01684849150478839874,
-0.18984034657478332520,
-0.00798461679369211197,
-0.03157839179039001465,
0.06153363734483718872,
0.03522220626473426819,
-0.07439999282360076904,
-0.06633471697568893433,
0.03874154761433601379,
-0.09636120498180389404,
-0.07020266354084014893,
0.07965768873691558838,
-0.05473674833774566650,
-0.14023566246032714844,
-0.03971557691693305969,
-0.08791005611419677734,
-0.02122546732425689697,
-0.02406481839716434479,
0.02041183225810527802,
-0.19907408952713012695,
-0.07375496625900268555,
-0.10659339278936386108,
-0.20076282322406768799,
0.06536910682916641235,
-0.05093427002429962158,
-0.23777957260608673096,
0.02728954702615737915,
0.07251457870006561279,
-0.14363433420658111572,
-0.06813687086105346680,
-0.04989155754446983337,
0.06098751723766326904,
0.00654046749696135521,
0.03718169033527374268,
-0.11217921972274780273,
-0.04822514578700065613,
-0.05700823664665222168,
-0.12838266789913177490,
0.02392125502228736877,
-0.00468254974111914635,
-0.05601115897297859192,
0.08077844977378845215,
-0.11789949983358383179,
-0.07998251914978027344,
0.14425003528594970703,
0.14820131659507751465,
-0.12409543246030807495,
0.01106695923954248428,
0.05973617732524871826,
-0.05578823387622833252,
0.22104673087596893311,
0.23520275950431823730,
0.20215332508087158203,
-0.00026190877542831004,
0.11115913838148117065,
0.01874667219817638397,
-0.10739541053771972656,
-0.05783179774880409241,
0.06125418469309806824,
0.01003873534500598907,
0.13601440191268920898,
0.19760879874229431152,
0.07525315880775451660,
0.07403385639190673828,
0.08011592924594879150,
0.02056193165481090546,
0.05337983742356300354,
-0.00933160819113254547,
0.06769912689924240112,
-0.00050238019321113825,
-0.08689095824956893921,
-0.03567760437726974487,
0.02172124758362770081,
-0.08643919229507446289,
-0.01989384926855564117,
-0.05137029662728309631,
0.10539618879556655884,
-0.00262390472926199436,
0.00179068744182586670,
-0.13142785429954528809,
-0.26273179054260253906,
-0.18230624496936798096,
-0.07214100658893585205,
-0.10837297886610031128,
-0.13473993539810180664,
-0.15684181451797485352,
-0.09891301393508911133,
-0.10368502885103225708,
-0.11811717599630355835,
-0.05046838149428367615,
0.08458282798528671265,
-0.02786261029541492462,
-0.09338783472776412964,
-0.01392496842890977859,
0.10355601459741592407,
0.16120173037052154541,
0.05550210922956466675,
-0.02908223308622837067,
0.01877382956445217133,
0.15705570578575134277,
-0.05974667891860008240,
-0.03406825661659240723,
0.08700045198202133179,
0.11182470619678497314,
0.11800634860992431641,
0.02109600044786930084,
0.05143555253744125366,
0.11205028742551803589,
0.10335290431976318359,
0.07349552959203720093,
0.20248822867870330811,
0.05216228216886520386,
-0.04890424013137817383,
0.03309033066034317017,
-0.05593272671103477478,
-0.04153714329004287720,
-0.01108822692185640335,
-0.02671268768608570099,
-0.07619646936655044556,
-0.13526633381843566895,
-0.08825851231813430786,
-0.12368321418762207031,
-0.06361333280801773071,
0.10080260038375854492,
-0.03224601596593856812,
-0.00231078709475696087,
0.10835147649049758911,
-0.04664246365427970886,
-0.01974013820290565491,
-0.09440646320581436157,
0.03181679546833038330,
0.08236964792013168335,
0.04127423837780952454,
0.06080470979213714600,
0.09047010540962219238,
0.04006455093622207642,
-0.06097042933106422424,
0.21833464503288269043,
0.11665011942386627197,
-0.09827444702386856079,
-0.00199363194406032562,
0.08711845427751541138,
0.14508372545242309570,
0.21565872430801391602,
-0.00085804075933992863,
0.06114509701728820801,
0.04904998093843460083,
-0.06356350332498550415,
-0.07368386536836624146,
-0.00977035611867904663,
0.16488809883594512939,
-0.05129211395978927612,
-0.08946377038955688477,
-0.03851843625307083130,
-0.07178781181573867798,
0.00522117502987384796,
0.02928115800023078918,
-0.00425023818388581276,
-0.04402107000350952148,
0.02162433974444866180,
-0.15857914090156555176,
0.11519775539636611938,
-0.01407173927873373032,
0.36167961359024047852,
0.17812874913215637207,
0.09512833505868911743,
0.22010266780853271484,
0.08636359125375747681,
0.03592607006430625916,
0.07301118224859237671,
0.07598345726728439331,
0.19032032787799835205,
0.13016168773174285889,
0.26883962750434875488,
0.14100271463394165039,
0.00648268451914191246,
0.10521158576011657715,
-0.02256181463599205017,
-0.07093478739261627197,
-0.07548422366380691528,
0.01009940449148416519,
0.18477682769298553467,
0.05831009522080421448,
0.17302840948104858398,
-0.03641699627041816711,
0.16231609880924224854,
0.02322789095342159271,
0.16097374260425567627,
-0.10345332324504852295,
0.01562410965561866760,
0.06645065546035766602,
-0.00508542545139789581,
0.04209985211491584778,
-0.17868135869503021240,
-0.14244669675827026367,
-0.18412126600742340088,
-0.06677345931529998779,
0.22536732256412506104,
0.06343618780374526978,
-0.10424800217151641846,
0.04082586616277694702,
0.20810189843177795410,
-0.07175160199403762817,
-0.10109984129667282104,
-0.08178149908781051636,
0.02968370355665683746,
-0.10565937310457229614,
0.07967017590999603271,
0.04208493232727050781,
-0.02078570425510406494,
0.15521290898323059082,
0.08016801625490188599,
0.06324917823076248169,
0.18633221089839935303,
-0.08309512585401535034,
0.06830804795026779175,
0.17881566286087036133,
-0.01179171539843082428,
0.04548264667391777039,
0.27183055877685546875,
-0.03368042036890983582,
-0.00572247197851538658,
0.06265622377395629883,
-0.01272512879222631454,
-0.06192740425467491150,
0.21694876253604888916,
0.07262123376131057739,
-0.04848981648683547974,
0.03697170689702033997,
-0.06944864243268966675,
-0.20597310364246368408,
-0.22814089059829711914,
-0.06412661820650100708,
-0.19115050137042999268,
-0.08232516795396804810,
-0.09601225703954696655,
-0.14840702712535858154,
-0.08538347482681274414,
-0.10505927354097366333,
-0.13907355070114135742,
-0.10120653361082077026,
0.14776980876922607422,
0.04662303254008293152,
0.05588693171739578247,
0.03018515557050704956,
-0.14085319638252258301,
0.03386429324746131897,
-0.08867877721786499023,
-0.19617491960525512695,
-0.19660754501819610596,
0.01308550592511892319,
0.06812038272619247437,
0.12648282945156097412,
0.04378262162208557129,
0.04984771087765693665,
0.00377046107314527035,
0.00691161630675196648,
-0.02154516056180000305,
0.04018292948603630066,
-0.06530747562646865845,
-0.09233509004116058350,
0.10221236199140548706,
-0.10555075109004974365,
-0.13510181009769439697,
-0.08664722740650177002,
-0.16378432512283325195,
-0.21569533646106719971,
-0.13362206518650054932,
-0.04659554362297058105,
-0.01047818083316087723,
-0.03861452639102935791,
0.00620273454114794731,
0.05148687213659286499,
-0.00152587564662098885,
-0.02238521166145801544,
0.00183773587923496962,
0.00697662727907299995,
-0.02146603539586067200,
0.10049876570701599121,
0.10306364297866821289,
-0.07867903262376785278,
-0.06773626804351806641,
-0.06938086450099945068,
-0.13910920917987823486,
-0.10651648789644241333,
-0.12439261376857757568,
0.04288284108042716980,
-0.04669009894132614136,
-0.05178298428654670715,
-0.11120049655437469482,
-0.05787615478038787842,
0.02165316976606845856,
-0.12211008369922637939,
-0.15262494981288909912,
-0.13599592447280883789,
0.07649775594472885132,
-0.10033284127712249756,
0.00430499017238616943,
-0.10675585269927978516,
-0.23090881109237670898,
-0.02866621129214763641,
-0.03989005833864212036,
-0.06871082633733749390,
-0.03003620542585849762,
-0.09295722097158432007,
-0.01048180367797613144,
0.12095146626234054565,
-0.08447873592376708984,
-0.04298945143818855286,
-0.07227047532796859741,
-0.11855085194110870361,
-0.14307497441768646240,
-0.12289183586835861206,
0.05885938182473182678,
-0.04072560742497444153,
0.00865342747420072556,
0.09440827369689941406,
0.04485927522182464600,
-0.07123527675867080688,
-0.13800236582756042480,
-0.02327669225633144379,
-0.01433883886784315109,
0.03558057174086570740,
-0.01076004933565855026,
0.01856927014887332916,
0.03733067214488983154,
-0.01474980916827917099,
0.00188357895240187645,
-0.15308609604835510254,
-0.16991303861141204834,
-0.12176945060491561890,
0.03117792122066020966,
0.23661218583583831787,
-0.07727395743131637573,
-0.01750388368964195251,
-0.05642299726605415344,
-0.07672125846147537231,
-0.07103271037340164185,
-0.12373133748769760132,
-0.16382683813571929932,
-0.15111345052719116211,
-0.07525420933961868286,
0.11268077790737152100,
-0.06020956858992576599,
0.04775167629122734070,
0.13676154613494873047,
-0.07554417103528976440,
-0.11200507730245590210,
-0.05693149566650390625,
0.23946115374565124512,
0.25641348958015441895,
0.05860492587089538574,
0.30211424827575683594,
0.23832833766937255859,
0.04608686268329620361,
0.02495481446385383606,
-0.04452378675341606140,
-0.00053789844969287515,
-0.00988595373928546906,
0.06904967129230499268,
-0.18125422298908233643,
-0.09657787531614303589,
-0.13269668817520141602,
-0.10047356039285659790,
0.00835768599063158035,
0.02669262699782848358,
-0.08119901269674301147,
0.30539306998252868652,
0.05218477919697761536,
-0.05724509432911872864,
0.11156361550092697144,
-0.05191606283187866211,
0.05012084171175956726,
-0.20037524402141571045,
-0.11186563968658447266,
-0.07284180074930191040,
-0.05064096301794052124,
-0.03469704464077949524,
0.06579843163490295410,
-0.02138017490506172180,
-0.00920324306935071945,
0.01765132322907447815,
-0.02281044982373714447,
-0.06310455501079559326,
-0.03021429851651191711,
-0.03283363953232765198,
-0.06703938543796539307,
-0.02119604870676994324,
-0.05059576779603958130,
-0.16788746416568756104,
-0.06676390767097473145,
-0.00214582635089755058,
-0.09309977293014526367,
0.02366150729358196259,
0.06516197323799133301,
0.13266247510910034180,
0.03777468949556350708,
-0.05721125379204750061,
-0.02278460375964641571,
0.09373775124549865723,
-0.05473833158612251282,
-0.08082080632448196411,
-0.05701046809554100037,
-0.05380081757903099060,
-0.08805181086063385010,
0.00767998211085796356,
-0.03114332817494869232,
0.07005018740892410278,
0.18308816850185394287,
-0.16636824607849121094,
-0.01722795888781547546,
0.11199589818716049194,
0.00967932492494583130,
-0.05140690505504608154,
-0.04509838297963142395,
-0.03089952841401100159,
-0.12281890958547592163,
-0.13717259466648101807,
0.02832084521651268005,
-0.02741978503763675690,
-0.05757224932312965393,
-0.09437528997659683228,
-0.10142557322978973389,
0.09740418940782546997,
-0.05162714049220085144,
-0.10894071310758590698,
-0.10021166503429412842,
-0.02555464580655097961,
-0.03936943039298057556,
-0.03727844357490539551,
-0.11877777427434921265,
-0.04792722687125205994,
0.02891169115900993347,
0.00836758315563201904,
-0.07977312058210372925,
0.02267007716000080109,
-0.00857407320290803909,
-0.03648981824517250061,
-0.08351020514965057373,
0.04649640992283821106,
0.11658884584903717041,
0.16689878702163696289,
0.08064022660255432129,
0.18060773611068725586,
0.15525513887405395508,
-0.12430493533611297607,
0.02116527408361434937,
-0.02646932192146778107,
-0.05138160288333892822,
0.02636136859655380249,
0.03709856793284416199,
0.00940633751451969147,
-0.06160344555974006653,
-0.04604154825210571289,
0.00327917118556797504,
0.02715602144598960876,
-0.05770184844732284546,
0.00735351443290710449,
-0.05999500676989555359,
-0.02663389034569263458,
-0.04840219765901565552,
0.07905822992324829102,
0.11003584414720535278,
-0.08283941447734832764,
-0.05095639079809188843,
-0.03183978796005249023,
0.04030522704124450684,
0.27592334151268005371,
0.00780911138281226158,
0.06207673251628875732,
0.03977859020233154297,
0.06498847156763076782,
0.07883750647306442261,
0.14921952784061431885,
-0.08138950169086456299,
0.11431835591793060303,
0.01069050002843141556,
-0.19839039444923400879,
0.28955179452896118164,
0.02837552875280380249,
0.10292873531579971313,
-0.04191245138645172119,
-0.05053739622235298157,
-0.05795684456825256348,
0.00894772354513406754,
-0.01646981202065944672,
0.24259880185127258301,
-0.04456880688667297363,
-0.24852216243743896484,
-0.10219847410917282104,
-0.16612797975540161133,
-0.15693388879299163818,
-0.04493296891450881958,
0.05666826665401458740,
