-0.043554753
0.10200913
0.011374146
-0.07969247
0.1297969
0.013114333
-0.15272947
-0.004308045
0.021197453
-0.09257718
0.004361406
-0.14475745
0.06516288
0.1718487
-0.1784053
0.04007776
0.15135588
0.12089978
0.090476856
0.048090473
-0.11180528
0.16768233
-0.09809765
0.15174304
-0.09161085
-0.008338854
-0.17524645
0.15244459
0.07566376
0.038228348
0.12913342
-0.035314962
0.18777405
0.028706565
-0.08530987
-0.032211766
-0.06203711
0.18877639
-0.09073261
0.015266433
0.110090986
0.029842198
-0.17905949
-0.14616321
-0.11073211
0.17253329
-0.1270819
-0.09543564
-0.0075540543
0.11154254
-0.13956098
0.16336252
-0.13168398
-0.04056792
-0.012044266
0.080524996
0.020038322
-0.16245411
0.09701185
-0.15079902
-0.121476024
-0.04734835
-0.02442734
0.040703222
-0.16221069
0.09446831
0.15379228
-0.12720776
-0.09518225
-0.0947344
-0.13183925
-0.076363035
-0.031029552
-0.15263861
-0.016909555
0.06467317
0.17519803
0.1359026
0.1845197
0.027410358
-0.08698302
-0.12926668
0.09711732
0.073940024
-0.06789376
0.19018014
-0.030243948
-0.025429383
-0.15144107
-0.17432399
0.05639404
0.016978905
-0.16846539
-0.15974611
0.1695479
0.19195573
-0.107429676
0.10847379
-0.15033093
0.0056227893
0.12496586
-0.007827207
-0.016381294
-0.17479873
-0.11228736
-0.07971853
-0.070298865
-0.09244164
-0.13693206
-0.18325777
0.013701826
-0.17594942
-0.12537625
0.026397482
-0.05858949
0.0705504
0.021948531
0.13893639
0.1796787
-0.189276
-0.022431567
0.037072152
-0.078701474
0.17181136
-0.10540398
0.17322434
-0.05673209
-0.10607751
-0.057774454
0.14985745
-0.039625004
-0.15972248
-0.083737135
0.0719627
-0.024862394
0.117139444
0.1729552
-0.0608809
0.069634244
0.12907963
0.040628552
-0.1467623
-0.13319913
-0.1703409
0.16117753
0.01069431
-0.11473583
-0.0663145
0.15547486
-0.10161374
0.010208964
-0.17766917
0.17816727
0.021420136
-0.048379704
-0.06383023
0.18105878
0.021266744
0.02493599
-0.06734063
-0.017613709
-0.07503225
0.16451575
0.10687931
-0.14122695
-0.0076470673
0.15220366
-0.15750924
-0.13207185
0.15045656
0.057618484
0.092144504
-0.15249266
-0.04926136
-0.09763177
-0.008565724
-0.15531462
-0.13655958
0.15485145
0.009091467
0.0773841
-0.0010605752
0.0808122
0.06314577
0.106750384
0.08012752
0.013262704
-0.084680095
-0.125761
0.12980367
-0.16980991
-0.014466256
-0.14561965
0.030223355
0.08473112
-0.11572909
-0.09768892
0.11803456
-0.08134306
-0.07992203
0.1445979
0.028964505
0.039263323
0.16694795
0.023152381
0.15366502
-0.09430461
0.1857282
0.1852182
-0.18944295
-0.18356557
0.004357636
0.05122842
-0.002503872
-0.13741013
-0.15860772
0.17398511
-0.08881426
-0.053984344
-0.14033979
0.0741436
-0.030990615
-0.075222455
-0.09740912
0.11205165
-0.089625
0.003777206
0.138415
0.008226141
-0.061060876
0.010989323
0.05995737
-0.049286395
0.048401266
0.022037491
0.09072603
-0.19093825
-0.019968629
-0.088543564
0.08359234
0.0044113696
-0.14831959
0.17472552
-0.007980496
0.13427334
0.0639682
-0.034303352
0.00947243
0.085230574
-0.10439447
0.13572459
-0.13787532
0.06847744
0.012781501
-0.15812506
-0.04474774
-0.09481036
0.10939242
-0.013361901
-0.038049594
-0.17185038
-0.017036915
0.06637479
-0.06488897
-0.0097372085
0.09062119
0.052433595
0.13920341
0.15674044
-0.11623395
-0.18773806
0.068304226
-0.09200673
0.004455447
0.09568654
0.02305694
0.1602437
-0.0023699403
0.10355301
0.10688086
0.09236397
0.0818734
0.04284157
-0.11436715
-0.18738581
0.178057
0.12625788
-0.1062421
0.13821612
-0.03357947
0.02310893
-0.07854434
-0.04444821
-0.16578105
0.11496191
-0.018293664
-0.099996045
-0.11901315
0.17353003
-0.14901388
-0.08643209
0.08901681
0.02610837
-0.018409267
-0.1647211
-0.0665624
0.05609961
-0.07259688
-0.18058893
0.055092648
0.18603308
-0.018150434
0.019081146
-0.15126133
0.13731621
0.1034904
-0.08676876
0.012978777
-0.08236132
0.06997059
0.029921591
-0.1760839
0.089424506
-0.07790484
-0.092256494
0.07847531
-0.04154092
0.023441643
0.13481383
0.123364046
0.14116691
-0.09386114
-0.025980204
-0.10154044
-0.09810593
0.06801425
0.07310341
0.010969594
0.14986683
-0.120220535
-0.04634568
-0.018895194
0.1005425
0.08437012
-0.1809727
-0.028197795
-0.061282232
-0.06505704
0.18011026
0.15593614
-0.18329315
-0.17120872
-0.16300917
-0.031864792
0.17960314
0.02640064
0.15661906
0.017006263
-0.1201761
0.17807357
-0.011928707
0.059680298
0.18885694
-0.07256595
-0.032267496
0.18323429
0.021828935
0.0018289685
0.14895158
0.034334302
0.024314404
-0.044192687
0.13281254
-0.13866723
-0.10303905
-0.037249625
-0.10853254
0.116543934
0.12810649
-0.05942361
-0.09772925
0.047625244
-0.036523774
-0.14427646
-0.03733991
0.0015277714
-0.14935908
0.15806614
0.18303539
0.16318722
0.12982424
0.13088687
-0.0303175
-0.1758617
-0.03021349
-0.18344389
0.10455687
0.19162239
-0.030658022
0.0048992783
0.05414948
-0.062130034
0.09706022
-0.00560908
0.13878582
-0.024716914
-0.08086147
0.15520678
0.019344673
-0.1507419
0.09106107
-0.14642295
-0.035728157
-0.15329026
-0.07009936
0.0018013269
-0.04209797
-0.12603512
-0.05163616
-0.012788147
-0.16283917
-0.17686433
-0.06715709
-0.13209036
0.032629058
0.035481617
0.11157425
0.03747776
-0.1086088
0.13443016
-0.11935097
0.09665139
