-0.01708998
0.013192035
0.026033573
0.017725792
-0.012739142
0.015697252
0.0007811971
-0.02529782
-0.0004182309
0.023526832
0.020012252
-0.015236298
0.0047458895
0.009577237
0.0027894415
-0.0022531375
-0.02877025
0.0103359595
-0.035281267
-0.03194772
-0.034337446
0.009977959
0.021857344
0.01831635
0.0143663585
-0.010784434
0.025746975
-0.031758714
-0.009646133
0.014350973
-0.012758514
0.027107846
-0.015635002
-0.027494721
-0.0312003
0.020423286
-0.012517678
-0.0023802333
0.029669221
-0.017888244
-0.0008267388
-0.025445318
-0.026352575
0.023676932
-0.032297935
-0.015446167
-0.00017805398
-0.030731726
-0.011264265
-0.009495053
-0.011748705
-0.0014324188
0.027193744
-0.021297928
0.013052709
0.025884874
0.016594227
-0.004237389
0.02907591
-0.013989113
0.0024204254
0.020999182
0.0013670214
0.022502173
-0.009906195
-0.029152492
-0.027882565
-0.033349562
0.030601103
-0.030998772
0.013742622
0.033892628
-0.01133824
-0.012531338
0.010341413
0.021293923
-0.00673116
-0.021769237
0.008170396
0.023238268
0.01795448
0.0054699555
0.032709178
-0.018605677
0.0070947483
-0.020981915
0.03201386
-0.03186059
-8.3152205e-05
0.02931514
-0.0055129137
-0.022828037
0.01228226
-0.021609481
0.0034342557
0.034939226
0.035148215
0.0031227954
0.03195441
-0.019248264
0.022990268
0.0033505112
-0.02111698
0.031262454
-0.027571892
0.026452713
-0.025991166
0.003409773
0.023273304
-0.0021407828
-0.00277704
0.01177524
0.020270605
-0.00189998
0.020229287
0.029975403
-0.015940377
-0.032017797
-0.027858954
-0.009311836
-0.010932514
-0.020882592
-0.03177183
0.02621958
0.017620139
0.017057635
0.032960895
0.031699996
-0.0038594678
0.028455313
-0.015568562
-0.029711038
0.015478484
0.027797285
-0.032998167
0.0071441233
-0.0019119419
-0.0050647072
-0.011879621
0.0041866675
-0.010160329
-0.0014327131
-0.016610049
0.016245846
0.0077141523
-0.03227197
0.0077514425
0.004695099
0.023362998
-0.02011725
-0.021219771
-0.03090894
0.03126576
0.01161534
-0.027755918
0.013318319
0.008037072
-0.012021041
-0.015315715
0.010291785
-0.004562663
0.02130837
-0.030610824
0.020843063
-0.019415777
-0.032416426
0.013696112
-0.027793804
0.0335431
0.017127272
-0.011484291
-0.024795912
-0.006495297
0.022554368
-0.029606977
0.0031537935
-0.0009918474
0.03518298
0.026853535
-0.0026719682
-0.0057107136
-0.018435407
-0.035104703
-0.02870466
-0.014025014
0.03333084
0.017246574
0.00025973842
-0.030253153
-0.027817326
-0.034320127
-0.009586778
-0.017530086
0.008603327
0.014549717
-0.012043934
-0.03214702
0.002294816
0.032077204
0.023219556
0.00079459324
0.026338145
-0.011545291
0.02300543
-0.028292364
-0.021397265
0.013093986
-0.004513262
-0.031123806
-0.027090993
0.019107264
0.012782764
-0.016261553
0.019390702
0.032241475
0.010218445
-0.009547576
0.02676173
0.032965343
0.0064097755
0.022292335
-0.03334072
-0.01657511
0.010756865
-0.02554581
-0.009753464
0.02386317
0.013320122
0.0195214
0.025742557
0.00545441
0.026152179
-0.012581989
0.033565093
0.033954997
-0.0017753802
-0.00021132082
0.002191607
0.02124567
-0.029467583
0.012909107
-0.013096863
-0.01738851
-0.026442397
-0.019497521
0.020185262
0.025850028
0.03123637
-0.020754045
-0.011975817
0.004209686
0.032857228
-0.029465517
0.011921804
0.010922745
-0.005032258
-0.018932404
-0.012938974
0.01155005
0.00308384
0.00899715
0.03198823
0.009945296
-0.0077460725
-0.02992146
-0.021412762
0.027023144
-0.0005089864
0.005022865
0.0027843714
0.029061895
0.007934049
-0.0050771143
-0.0017326474
4.221499e-05
0.009904422
-0.018336574
0.0036255345
0.012938958
-0.010970952
0.010182727
0.0057976507
0.033450212
-0.029615529
-0.022411685
-0.024607275
-0.011704588
0.03522822
0.022306614
0.029341679
-0.026551133
0.029980037
0.01749574
0.03217398
0.030718971
-0.006851772
-0.030643977
0.023346983
0.00061705336
0.014444228
0.031146992
0.020774893
-0.024559371
-0.010665927
-0.00030656904
-0.02282477
-0.023059992
0.018725265
-0.013258636
0.029475179
0.031695243
-0.028855879
-0.018178063
0.014231395
-0.010328697
-0.0022928715
-0.030254122
0.02603522
0.024365865
0.025901418
-0.009063229
-0.03375435
-0.005207546
-0.0034081452
0.0034794286
0.0034959726
-0.030418102
0.011204362
-0.0026512109
0.027689371
-0.0041737314
0.0039658435
-0.023887165
-0.025322977
0.032103788
-0.029956438
-0.018537775
-0.012978781
-0.031885628
0.015066911
0.021725513
0.0035570562
-0.031737182
0.034219842
-0.0018745027
0.0030855201
0.029570553
0.0037625208
0.009263709
0.0009454973
0.020066775
-0.03288636
0.034220215
-0.021178523
0.020049416
0.01698732
-0.0072104614
-0.01638431
0.012610808
-0.0028350726
-0.0028346777
-0.024243863
-0.0069769174
0.019337576
0.019312195
-0.021032441
0.0052605346
-0.015210407
-0.013303138
0.008548744
-0.014106061
0.021035586
0.021825086
-0.024720121
-0.010490503
-0.027614992
0.005093187
0.009778816
-0.02529581
0.0076098964
-0.0031396672
-0.027437178
-0.006247908
0.033807967
0.0016028769
0.019928455
-0.028201448
0.025324747
-0.018676985
0.0064704344
0.005174838
-0.023880959
0.0041451454
0.028104182
-0.02185768
-0.023105713
0.010255627
-0.02619171
-0.029787447
0.022985764
0.012604572
-0.022910934
-0.022635033
0.008867335
-0.0010654479
-0.015092716
0.02257416
-0.027495097
0.024096724
0.019226454
-0.018559704
-0.030203158
-0.00046652183
-0.016113812
-0.008926222
0.0036134534
0.021243542
0.022880293
-0.0011080727
-0.031290215
-0.032405123
-0.026989836
0.032204997
0.01839434
0.026245892
0.031616386
-0.0006517917
0.021473408
0.024414357
0.0065120272
0.0250316
0.016683802
-0.003483083
-0.016613573
-0.034168612
-0.0069342144
0.020083275
0.007623568
0.0033393614
-0.027090192
-0.016305812
-0.031635642
0.016400795
0.0006589331
-0.018578542
-0.01852374
-0.017463692
-0.0027858764
0.0025614314
0.022311606
-0.019588836
0.00516
0.015243087
-0.0065884925
-0.025007568
0.023992062
-0.007108951
0.0016000047
0.023956291
-0.02462098
0.028956596
0.00027214736
-0.0023149438
0.007228084
-0.018969236
0.0024510548
0.030648243
-0.013310954
0.027764227
-0.01834445
0.023797467
-0.0008625239
0.029726278
0.006657731
-0.0077879746
-0.01821953
-0.01672229
0.019398317
-0.011496535
0.0070189387
-0.0127696525
0.0040464886
0.030733716
-0.0004521571
-0.0023594312
-0.019325579
0.00536244
0.016115636
-0.03013888
0.027835589
0.020114727
0.03455737
0.0276854
-0.011031862
-0.03400292
-0.016518995
-0.031047503
-0.030840373
0.029045861
-0.031900328
-0.014159054
0.009009238
0.03368387
0.022268582
-0.030318037
0.014305044
-0.028154556
0.030633617
-0.020099122
-0.013080789
-0.0126366075
-0.020130672
-0.02274886
0.019523457
0.019000236
-0.011496574
-0.024517681
0.03407209
-0.011630921
0.006275747
0.019200824
-0.0348714
0.03404923
-0.033608656
-0.031282928
0.0028089732
-0.015282722
0.022935428
-0.008243801
0.02312028
-0.007958189
-0.01331524
-0.0130324755
-0.014047757
0.019854903
-0.02508111
0.033138853
0.029384214
0.010247331
0.015504245
-0.02905732
-0.0172502
-0.02961091
-0.022948349
-0.018425524
-0.01982326
-0.00029021502
0.022917233
0.028599333
-0.0046278555
-0.01788647
-0.014012981
0.027086325
-0.0038484223
-0.032340273
0.019070476
0.020687979
-0.0068981834
-0.016866112
0.01511316
-0.0016639084
0.012616757
0.024194352
0.02698055
-0.020833597
-0.03037773
-0.021082897
-0.018137615
-0.020167673
0.011822943
-0.030831706
-0.03335732
-0.0064962916
-0.020014212
0.0065546334
0.012430582
-0.031325437
-0.008509941
0.025505692
0.030478258
-0.0019796044
-0.011334633
-0.005394051
-0.022355035
0.0013879649
0.0014972761
-0.023994872
-0.009892704
0.013142083
0.009657957
-0.010607207
-0.03429824
-0.028520077
-0.011482282
-0.021286476
-0.034194045
-0.035140652
0.019768868
-0.009191208
0.0015929751
0.014268111
-0.018214306
0.005389318
-0.035282876
0.0233034
-0.021764569
0.024968505
0.0218397
-0.027444996
0.030929413
0.011360537
0.034289498
-0.024459414
-0.019756125
0.025834981
0.0029228888
-0.00871768
0.016700935
0.030730594
-0.010673564
-0.035114806
0.0052372366
-0.01879532
-0.000285808
-0.03344567
0.008330524
-0.016820753
-0.014649179
0.019751512
-0.02030537
-0.02202408
0.009352043
-0.02090196
0.023380168
0.012370206
-0.021074994
0.007057186
0.02448757
-0.023298725
0.028986383
0.0034937263
-0.021168496
0.016014986
-0.03415536
-0.0046028793
-0.01354553
0.023751087
0.007065844
-0.002352696
-0.011815671
0.0030326396
0.008436173
-0.021398008
-0.026553165
-0.025174988
-0.025233824
-0.028681446
0.0008863993
-0.033867747
-0.0068119466
0.033191625
0.0262415
-0.017408399
0.031252254
0.00032928213
0.0338499
0.016488567
0.0018876195
-0.025150485
0.017586507
-0.032288577
-0.02105128
-0.024778895
-0.016102685
0.004447285
0.0059019737
0.02751096
0.010154355
-0.02858393
0.00338348
-0.0065881386
-0.01651414
0.001678057
0.032250974
-0.026001563
0.022912819
-0.012441374
0.0076465234
-0.0064346865
0.011405103
0.027893934
0.020206489
-0.0073696077
0.0017869137
0.019181293
0.028010499
-0.023717828
0.03137142
-0.00040201843
0.009563629
-0.018061636
-0.028095271
-0.033499114
0.0013421923
0.015761614
0.0014685951
0.02921855
0.02893382
-0.03436479
0.01973638
-0.032484554
0.020241827
0.03024074
-0.019887729
0.005321581
-0.0028208904
0.032668974
-0.034715068
-0.03159889
0.03345913
-0.01631507
-0.00027469173
-0.020346792
-0.00020382181
0.005020894
-0.023312245
0.014093824
0.017111402
0.009412453
0.031059656
-0.023317788
0.019350555
-0.024504643
0.0005033463
0.02509002
-0.002537042
0.00026110932
0.0014354996
-0.015991926
0.013524041
-0.029910356
-0.00059111044
0.011891179
-0.022589093
-0.021309339
-0.02891596
0.02370416
0.0125975385
0.024675183
0.002833981
-0.0006519556
0.012863886
-0.0074888207
-0.01789591
0.009549957
0.031146217
-0.023917034
0.016668249
0.011431314
0.03386725
-0.004775524
-0.019970804
-0.0345407
-0.004980307
-0.012704033
-0.01383266
-0.029102173
0.02182712
0.023751266
0.03463242
-0.022186533
-0.011394709
0.007237997
-0.0018707179
-0.03142349
-0.008420978
-0.011597456
0.007680252
-0.021350756
0.026468184
0.031961758
-0.021745823
0.026320495
0.007844459
-0.01533946
0.01535923
-0.0028908476
-0.0135876555
-0.0026190057
-0.02275984
0.0077930354
0.003658373
0.012112904
-0.024664994
0.032716837
0.019524228
0.03397547
-0.019179927
-0.01320648
0.00339045
-0.032371975
-0.021611936
0.024076302
0.019786708
-0.0077474043
0.024050597
0.03169957
0.034303766
-0.034394894
-0.00074100867
-0.021228373
-0.004945161
-0.0077787656
0.010372847
-0.004984375
0.014272198
-0.017661912
-0.028148841
-0.031387035
0.03465045
-0.011041114
0.008927412
0.012542266
0.008973513
0.031874377
0.0048096925
0.014933601
-0.024187045
-0.021782538
0.012794796
0.008602448
-0.017350834
0.010999106
0.014060959
0.007921297
-0.027316272
-0.020388395
0.005455289
-0.0058576576
-0.012852421
-0.019648727
0.020574752
-0.014716551
-0.026585441
0.009885158
-0.016868582
-0.004551526
-0.02016766
-0.02457067
-0.021842761
0.020638522
-0.023596037
-0.027621053
-0.0181108
-0.021532547
0.0156568
-0.0290249
-0.012603477
-0.020448435
0.027096085
0.015063021
0.013840571
0.034747098
-0.029980412
-0.008675082
-0.028532945
-0.032616764
-0.014362095
-0.02083126
-0.031834804
0.031339157
-0.023113739
-0.02471665
-0.028488098
0.014970053
-0.0021010526
0.01235114
-0.0003379807
-0.034195982
0.014548857
0.024212934
0.025660474
-0.021138769
-0.028221944
-0.011405928
-0.006620452
0.0058322586
-0.0030684397
0.010910779
-0.019761566
-0.017288785
-0.01362158
-0.0045897253
-0.029220164
0.0042087026
0.0051636957
-0.032402255
0.030060511
0.012140248
0.03381635
-0.027642611
0.034526
0.000429973
-0.017262578
-0.028030884
-0.010693073
0.010022767
0.0054806806
0.016209412
0.021804295
-0.021917172
-0.008687174
0.025746837
0.009889722
-0.01758531
-0.020964555
0.021794587
-0.003366325
0.01322145
-0.017134195
-0.004309818
-0.0059189387
-0.003596425
0.03337564
0.021051165
-0.014686715
-0.034830816
0.014420059
-0.026681986
0.034091983
0.014872182
0.02159337
0.019147351
0.0045061633
-0.029869549
-0.027030881
0.0030407384
-0.028137065
-0.013659781
-0.0124530755
0.021797944
0.02356252
-0.016862227
0.02815095
-0.033126034
0.02031545
-0.0173282
-0.016507557
0.006324429
0.00041231886
-0.021786977
-0.0058657285
-0.011031922
-0.03056321
0.03254762
-0.014862783
-0.032748427
0.017630238
0.008205101
0.011805046
-0.018434813
0.016022269
-0.034727946
0.02073118
0.024796925
-0.02721925
0.012245525
-0.015190892
0.023193754
-0.034230117
-0.022560578
0.028056812
0.011166237
-0.014198523
0.019073807
0.03302789
-0.02081116
0.015167862
0.0028351918
0.030135792
0.03364553
0.0066187233
-0.023099925
-0.033106856
0.03111789
-0.020909436
-0.009238496
-0.029404143
-0.030948395
0.019468661
0.0074522644
-0.0108454935
-0.021012347
-0.016489854
0.016688906
0.0041990243
0.017876532
0.030715894
0.024449322
0.007386487
0.0025622174
-0.022435788
0.0021595173
0.034597415
0.022590708
-0.029734392
0.015643552
-0.025387865
-0.004164083
0.007213652
-0.032672368
-0.019487448
-0.0027168952
-0.0065843835
0.0018812828
0.026442174
0.027036935
-0.0068545397
0.023539845
-0.012047673
-0.01688388
0.0143103525
0.011409853
-0.008915087
0.00029643625
0.0027044788
0.014246654
-0.024145434
-0.0057010986
0.0007593334
0.027631689
0.0038813204
-0.026600398
-0.026119465
-0.011761352
-0.027643858
-0.0319958
0.011567019
-0.007059889
0.007734131
-0.0045888685
-0.024794098
0.014221657
-0.032787688
0.009583838
0.018790282
0.000998456
-0.010084322
0.009257313
-0.0012826882
-0.01611975
0.027590785
-0.005053686
0.02824035
0.017649516
0.011564322
0.022703148
0.020688929
-0.017291566
0.021213599
-0.010546414
-0.030898863
0.018669441
0.028471585
-0.017665017
0.024216544
0.021271475
-0.029559191
0.014512066
-0.023481034
-0.007414393
0.01392388
-0.016470341
0.022612792
-0.028344152
0.020635463
-0.013110748
0.016101535
0.024219655
-0.007950451
0.0031638443
-0.00020283833
0.026681922
-0.017610986
-0.012251617
-0.007646855
0.031951915
-0.0024737865
0.023601878
-0.034282282
0.029504906
-0.0069917366
0.023121417
-0.03272898
0.007882398
0.00905874
0.026964199
-0.010047648
0.010942709
-0.015883433
0.0011695661
0.033279266
-0.016061878
0.0152070075
-0.015146997
0.032441642
0.008165538
-0.011532517
0.0013257191
0.01227713
-0.012367904
-0.03209913
-0.014074385
-0.0021987408
0.018757235
0.008816641
-0.03438018
-0.025823118
-0.026763288
0.03321461
0.028235737
-0.013355523
-0.00453989
-0.030996088
0.024888225
-0.0054288395
0.026180819
0.030482817
-0.028716315
0.0053881034
-0.034508247
-0.029352963
-0.01835073
-0.0012770668
0.020219058
0.022345454
0.025648233
0.012592789
-0.02788633
0.01778248
-0.024599498
-0.025045618
0.0043525845
-0.021124858
-0.017720029
-0.026127119
0.019316047
-0.023223285
0.022779617
0.020992756
0.012890417
0.033630524
0.0022289306
-0.008811824
-0.025216144
-0.020546455
-0.0036124252
-0.027778003
0.0008209497
-0.005772002
-0.026692156
0.02267826
-0.025585853
0.011881284
-0.025691543
-0.0047519095
0.016754735
0.0074667893
-0.020831533
-0.012733689
-0.02103306
0.02492679
-0.029934362
-0.01224594
-0.026135072
0.0069722496
-0.017541451
-0.008043367
-0.033604212
0.004759837
-0.010643167
0.015658323
-0.0023439005
0.024933938
0.027243014
0.035013083
-0.021693874
0.019674145
-0.03203836
0.013663419
0.030861009
-0.017103301
0.021627821
-0.000106185675
-0.025460921
0.00033700094
-0.0036923215
0.025437895
0.007239476
0.0037908368
-0.034336716
-0.0061014052
0.028256979
0.024702284
0.016300853
0.023211602
-0.010033568
-0.030977707
-0.008804802
-0.0012837239
-0.00842532
-0.0049952157
-0.00828707
-0.011807483
-0.035056654
-0.016619856
0.017761856
-0.004648894
-0.012901176
-0.013353748
0.0056081153
0.007839777
-0.01896435
0.014050707
-0.0053151697
0.013643466
-0.033971533
0.0194582
-0.0039126053
0.01605951
-0.02856591
-0.022591049
0.02237174
0.012017526
-0.031076673
0.017769147
-0.023129007
0.027700175
0.00093887746
0.006637335
-0.024978137
0.02402386
-0.0016621947
-0.022805877
-0.026195202
-0.026712729
-0.026844075
0.013715167
0.022654269
-0.02547053
0.0038946979
-0.022352342
0.0111196
-0.0036050007
0.009134784
0.017083373
0.011343546
-0.008310592
-0.017741581
-0.031671815
0.028043885
0.014268972
0.008387841
0.0150644295
-0.009711398
-0.033450764
-0.0049325433
-0.0144576
0.013930373
-0.005530134
-0.0018115416
-0.005979335
0.0039773174
-0.02388006
0.01433808
0.011780381
-0.014522882
0.027756367
0.032510128
0.024230815
0.00823608
0.02181359
-0.014059944
-0.00850386
-0.021311441
-0.0035146214
0.022748392
0.03026886
-0.0071501043
-0.034611896
-0.013907049
-0.032194346
-0.022501584
0.019301258
-0.0007680692
-0.017262477
-0.01480484
0.004115928
0.019311674
0.021822467
0.0053937994
-0.030622536
-0.011355571
0.00721715
0.027602423
0.014208395
0.002841115
0.022574946
0.0003354214
-0.006444674
-0.0015142746
-0.0025132708
0.009456094
0.010469399
0.0082007535
0.026854325
-0.012824519
0.025621247
-0.019825399
0.027629387
-0.009370282
-0.023665126
0.027693365
0.029363018
-0.029615868
-0.014190331
-0.017815018
-0.0055769943
0.017761976
-0.02973247
-0.015702564
-0.0018218607
-0.022585832
-0.032291982
0.0031355396
-0.028062697
0.011131037
0.01245594
-0.021357175
0.02729508
-0.021176275
-0.034255147
-0.0042092726
-0.013233403
0.02202269
0.015397392
0.0075090006
-0.0128912125
0.00534736
0.0033226572
0.016381238
-0.026540786
0.02809995
-0.010664349
-0.0049191862
-0.007096121
-0.02175551
-0.031818517
0.030534688
0.022188328
0.024878021
-0.011582937
-0.013638001
-0.0135281235
-0.033963308
0.002963502
-0.028484806
0.030168679
-0.019499624
0.008607574
0.02732591
-0.034633834
0.031283926
0.014286637
0.027681272
-0.0175811
-0.0040643066
-0.0046939366
-0.014895169
-0.0061284136
-0.031866167
0.019824758
0.0048862956
-0.02391854
0.02850053
-0.0045933407
0.010022204
0.0047587864
-0.02188222
-0.015531784
0.019182157
-0.014678778
0.013636842
-0.022237122
-0.0020356476
0.009118043
0.023924429
0.023881104
0.008803908
-0.005075088
0.027154837
0.025331333
0.03495394
-0.012931118
-0.032584194
0.0077901073
0.01685945
-0.02058098
0.016474009
0.023614094
0.007781308
0.02402997
0.008945078
0.005332958
0.008980736
-0.02209054
0.003517963
-0.01739118
-0.020898614
-0.009377172
-0.0020066984
0.00052940473
0.0049914345
0.028776284
-0.031261694
0.014317725
0.006133396
-0.014674906
-0.03416931
-0.020739242
0.028794657
0.015608788
-0.023217622
-0.002128724
0.016158745
-0.025705904
0.016591378
0.021620587
-0.01321381
0.0012225546
-0.016015053
-0.026709905
0.032002766
-0.016779454
0.01512697
-0.017103942
0.031433914
0.016643804
0.0073674284
0.0137885325
0.03204963
0.02280479
0.032184478
-0.021657411
-0.0352139
0.023385879
0.0046227165
0.0019519739
-0.023820646
0.0011946931
0.021271352
-0.029231003
-0.028602218
0.021388069
-0.01860934
-0.0013390817
-0.005458435
-0.01665813
-0.012213433
-0.008533362
0.027868528
0.012423497
0.03439459
-0.032757863
0.009321958
-0.021310804
-0.008287415
-0.002765499
0.0025260486
0.014198739
0.034112748
0.01030368
-0.01972165
0.011813443
0.007523369
0.0014107004
0.035098996
-0.013479343
0.027802113
-0.03166937
0.028580602
-0.014263067
0.009383742
-0.010955442
-0.032535277
0.014797054
0.010860469
0.024418175
-0.031918917
-0.029028218
-0.006132683
-0.028523345
-0.009286342
-0.003734585
0.031038087
-0.014604587
-0.017447228
0.00457
0.032203723
0.024125792
0.029112969
0.022242788
-0.0027799755
0.027173858
0.030092482
0.008281555
0.022395741
0.01967647
-0.0068644322
-0.03035908
-0.034434516
0.02835505
-0.02554628
0.019215856
0.022606477
0.026259147
-0.02900405
0.010500085
-0.008712934
-0.013593784
0.02522631
0.020367607
-0.0049823225
0.016404063
0.031470474
-0.021355426
0.033303495
0.010842666
0.0062284693
-0.009721391
0.028159935
0.014598291
-0.003673792
-0.017144673
0.029469859
-0.03068899
0.032075558
0.0052833557
0.0058939196
-0.0016462207
-0.03444809
0.033245016
-0.008212119
-0.022722185
0.026062448
-0.023984086
0.0071350597
0.016178485
-0.026943844
0.03221042
-0.017515885
-0.01873304
-0.034364235
0.023140594
0.031791653
-0.023416786
-0.004126303
-0.028544031
-0.0078245085
0.030740332
-0.0004085377
0.021085132
-0.01588954
-0.014076158
0.007237207
-0.0050203986
-0.018170893
0.033486005
-0.015563238
-0.0057260282
0.006497178
0.030744571
-0.015507985
-0.0021460056
-0.011657612
0.0054834187
0.019616842
-0.033673614
0.02351731
-0.026368199
0.03302912
-0.0048630424
-0.032944873
-0.028447552
0.03185014
0.01766967
0.015265033
0.01858861
0.033587787
-0.023871865
0.028373856
0.014447764
0.0348677
0.024715133
0.015637204
-0.0235822
-0.02093577
0.0051753595
-0.017244
0.0018232502
-0.011539761
0.012865368
-0.031300675
0.024714753
-0.014248952
-0.03510499
-0.0029816777
-0.0034520142
-0.015537912
-0.025341148
-0.0068220235
-0.013205759
0.005680356
0.009002984
-0.017259894
-0.030330699
-0.034337107
0.03297687
-0.022973081
0.0053494796
0.027202439
0.02255642
0.01763906
0.020875588
0.00079326704
0.034069005
-0.02563978
0.026483975
-0.0047695525
-0.0059293117
0.0012189299
-0.014347652
0.0060055144
-0.005993329
0.027146194
-0.0066091623
-0.021084666
-0.012562009
0.0030595958
-0.035034105
-0.017508237
-0.0015742853
-0.006207304
-0.032659058
-0.004984418
-0.027161963
-0.032194737
-0.034146663
0.009646814
-0.0011097565
-0.0069877747
-0.0021047182
-0.03177292
-0.03420622
-0.017040992
-0.0054672807
0.035096932
-0.029334726
0.032947484
-0.0038248934
-0.018105254
-0.0197824
0.023105383
0.022869423
-0.0033077188
-0.030636942
-0.0014851242
0.025696047
-0.0005454682
-0.030927157
0.01716962
-0.033180583
-0.025155492
-0.026930574
-0.025831338
0.028126623
-0.003880322
0.016204149
0.009711798
-0.014339177
-0.03534191
0.011441007
-0.032831956
-0.024623463
-0.007673774
-0.02925753
-0.0060893893
-0.0030066594
-0.007349618
0.00970969
-0.030279852
0.031608876
0.022068813
0.01836092
-0.024483372
0.019581761
-0.0121152345
-0.009199338
-0.020760914
0.020122606
-0.010101482
0.005744923
-0.026103858
-0.014125297
-0.0062752105
0.03390925
-0.017179478
-0.02789134
-0.028038036
-0.018190024
-0.012272151
-0.007655209
-0.0011237487
0.016331509
0.006387282
0.0122786835
-0.013968026
0.02501141
-0.033650197
0.013252098
-0.021427106
0.013013247
0.027587172
0.024238326
-0.030780632
0.00068904087
0.02608778
-0.022251397
0.014716025
0.017829083
-0.009501118
0.032851774
0.025930602
0.024848089
0.006431937
-0.018502181
-0.0064365324
-0.019003758
0.020657755
-0.029702041
0.018366367
-0.031056905
0.0047377944
-0.012360547
-0.0029791556
-0.014972027
-0.032366205
0.0237576
-0.027241668
0.03478561
0.004253216
-0.029857727
-0.013187479
0.029292691
-0.008690504
-0.010404611
-0.004787069
0.030435633
0.004271064
0.027120646
-0.02641738
-0.034271985
0.010972708
-0.010003436
0.011785548
-0.020702904
0.029851895
0.028932791
-0.012771355
-0.0027959868
-0.02790671
0.030951265
-0.027684437
0.02714425
-0.0044690743
-0.02179667
0.025905855
-0.018037226
-0.032474965
0.01838854
-0.0037874803
-0.016515194
-0.029388484
0.031431537
-0.008926235
0.031065788
-0.01992666
0.024072729
0.003971316
-0.0072327405
-0.013813555
0.021271538
-0.011477847
-0.021277029
-0.025697403
0.023011543
0.014484968
-0.010639219
-0.026299339
0.0327384
-0.0058457013
0.0030541308
-0.003098473
-0.012492785
0.02094591
-0.033206563
-0.022285556
-0.033535168
-0.005413927
-0.014177665
0.021665107
-0.019344874
-0.0057649855
0.01655773
-0.006008303
-0.016193178
-0.02074336
0.033592645
-0.015886016
-0.00018170848
-0.0088215
0.018007718
-0.0026362091
0.00022976846
-0.034629386
-0.035171468
0.033345114
-0.0061191916
-0.016087865
0.0122737475
0.015877891
-0.017738758
0.012268934
-0.020202743
-0.017802715
-0.009573374
-0.021238979
0.0027002357
0.027219709
0.027506549
-0.023220267
-0.000105466694
0.019397177
-0.028892247
-0.025439613
0.028922383
0.027288903
0.005296804
-0.021476733
0.03246284
-0.023907788
0.010657631
-0.0034917034
-0.0054511297
0.008658897
0.025213148
0.0074839704
0.025556017
-0.010349765
-0.030741613
0.018303253
0.004944496
-0.033004787
0.030898314
-0.030384436
-0.012908809
0.00968226
-0.011169843
-0.034256976
-0.01849255
0.028165434
-0.023651544
0.005630005
-0.029798497
0.020235706
0.026892055
0.014494441
-0.013870845
0.004249662
-0.0031470247
0.026865449
-0.014087984
0.010039229
-0.0028119795
0.019454222
-0.010372302
0.029096227
0.00067408755
-0.030726073
0.017740361
-0.021773754
-0.022583999
0.02059516
-0.034978587
-0.011534557
0.023562197
0.02102073
0.032987047
-0.023334261
-0.010006417
0.014413055
-0.01272708
-0.03403879
0.020457022
-0.027975237
-0.023712028
0.018723004
-0.008044489
-0.008550307
-0.005583694
0.017052047
-0.032074798
0.025354493
0.018492442
0.027659971
-0.0063987523
0.027200278
-0.03432919
-0.02365354
-0.034039613
-0.008857802
0.01774757
0.012042347
-0.012045549
-0.026047684
0.004250005
0.008040525
0.029938664
-0.016003104
0.021083355
0.011074044
0.02643625
-0.017850168
-0.00012070313
-0.023949977
-0.01019966
0.027799387
-0.0082052965
-0.0056594796
-0.030270096
-0.030772815
0.007943809
0.030121837
-0.01453937
0.020353846
-0.02497348
-0.030559413
-0.0316279
0.009907674
0.02404229
-0.02716756
0.009290267
0.032301184
-9.333715e-05
0.03328127
-0.029668037
-0.015464522
0.019746937
0.011094175
-0.004903365
-0.032940302
0.030899335
0.016741049
-0.0015722662
-0.02720943
0.014825854
-0.008096738
0.022771176
0.020909917
-0.021974117
0.026625957
-0.01153411
-0.029436946
-0.020860296
-0.030743906
0.014269669
0.0027012862
-0.0072616953
-0.019522652
0.028783444
0.030762766
0.0068211555
-0.027852729
-0.03341608
0.024393264
0.004166886
-0.02792931
0.026987463
0.008178361
-0.02720698
-0.008365024
0.031951617
0.005630333
-0.030231565
0.027110152
-0.0007773638
0.0073339343
0.024326008
0.027953263
0.0244869
-0.021610156
0.025876828
-0.024152584
0.025257774
-0.023051057
0.012277279
0.03369985
-0.0023773946
-0.009481519
0.03405838
-0.0007372536
0.029111747
-0.02028858
0.013192356
-0.026212137
0.031605605
-0.03135858
-0.010765629
-0.005327981
0.023154598
-0.017976593
-0.028980693
0.009893186
0.017221868
-0.014283707
-0.00406247
-0.025910746
0.016643427
-0.0055078603
-0.017213343
-0.020689176
-0.0048519913
-0.022450037
-0.029519245
0.009897683
0.008322008
-0.005673075
-0.0014345534
-0.017446272
0.008266881
-0.009875588
0.025113989
0.0132763125
0.033800263
-0.017090725
0.0131347515
-0.0029939897
-0.02489131
-0.0126922
0.027616601
0.032235797
0.000482589
-0.033736695
-0.023147121
-0.025825812
-0.019965742
-0.03450971
0.0011152886
0.030846644
0.022243094
0.029960249
0.025040563
0.017480947
-0.01676052
-0.0067260135
0.0017889477
-0.013277421
-0.0069508087
-0.0091550425
-0.034929488
0.021704786
0.011993006
-0.020912273
0.034346405
-3.0472875e-06
0.031915586
-0.028129006
0.003231652
-0.02754729
-0.022665286
0.0015152879
-0.02556287
-0.03335632
0.019873492
-0.01614425
0.0007141791
-0.010901675
-0.027602457
-0.01240517
-0.023656428
-0.032486647
0.006235305
0.015911307
0.02832343
0.016558923
-0.022257768
-0.030622447
0.019922562
-0.0227211
-0.01065574
0.015627213
-0.0048634093
0.026949223
-0.016984852
-0.034196187
0.023701422
-0.002804041
0.002143763
0.0057999976
0.023829445
0.008590113
-0.03259479
0.033696767
0.014502004
-0.032662086
0.0044424944
-0.023031075
0.02204191
0.02532785
0.027555224
0.027646635
-0.0022332333
0.024674095
-0.016557015
-0.007183492
-0.01639279
0.021021713
-0.0336131
-0.0012095273
0.033040423
-0.006248055
0.021905072
0.006589383
0.026078217
0.03164905
-0.015814463
0.029354144
0.028916117
0.026676785
0.010156799
-0.028524917
-0.0009701513
-0.016180834
-0.008433744
0.03271405
0.010332592
0.012271814
0.026167646
-0.019917414
-0.018526671
-0.018846715
0.012120109
-0.016519269
-0.014255578
0.008438706
-0.032295957
0.0028697401
0.006412305
0.03136451
-0.0007229708
-0.0028755479
0.035020854
-0.024008127
-0.031860046
0.032705653
0.0024450943
0.004464891
0.0056139976
-0.005570112
0.02409207
-0.034264598
0.026125401
0.0057760254
-0.00093307346
-0.0051694624
-0.0012040809
0.012982331
0.007415738
-0.0048888866
-0.034442693
-0.005248513
-0.007607233
0.008481227
-0.033390414
-0.026139835
0.025369525
0.028031241
-0.031443983
0.0019566976
0.006068263
0.017273862
-0.012316853
-0.027007684
-0.02847176
0.0020247363
-0.014274463
-0.025571914
0.032497976
0.023012262
0.012444675
0.013509195
0.013088886
0.0167782
-0.0273059
-0.015028067
-0.014552886
0.017288968
-0.01987397
-0.015757157
0.024105746
0.01725379
0.018424962
0.006728489
0.032239605
0.026551545
0.017328545
0.0047416724
0.013425548
-0.0042109713
0.0028990544
-0.022780735
-0.03382476
-0.0028824918
0.023487285
-0.028760547
0.014385577
0.005860541
-0.0067762733
0.028060395
0.025390431
0.02582318
0.023042232
0.006602008
0.025489036
-0.023019126
-0.031830065
-0.0106906295
0.032743055
0.0060596466
0.011449184
-0.031358
-0.0050445013
-0.020156419
0.02381716
0.014649041
0.002032064
0.024598747
0.0068673976
-0.027890198
-0.021561721
0.018452123
0.00444917
-0.003439881
-0.0275826
0.015344661
-0.009749565
-0.023072585
0.024034675
-0.018711802
-0.02736723
0.030630548
0.002788026
-0.015697928
-0.0058693234
0.017231584
-0.032366373
-0.025544114
-0.030731276
0.021593187
-0.017965246
0.015026361
-0.011826061
-0.009487927
0.031366784
0.008275773
-0.00050140545
0.004161168
-0.030070143
0.0022928268
-0.033004407
0.0031459033
0.0006611198
-0.035113662
0.020012874
-0.009480067
-0.015871927
0.011780206
0.03242852
-0.019667625
0.0048341677
-0.009529242
0.029214043
-0.033390447
0.03482772
-0.025579024
-0.02959122
0.01839557
-0.022438752
-0.017650077
0.011220399
0.027524617
0.011910386
-0.009542836
0.033619065
-0.011126921
-0.015828684
-0.0012537725
0.0065178648
-0.02499739
-0.015737899
0.003613241
0.024802882
0.0321999
0.014432196
-0.013064466
-0.0228051
-0.017486505
-0.030852687
-0.023963954
-0.0056172386
-0.02118932
0.0009717122
0.02354297
0.026006665
0.0057982616
-0.009712055
0.014606953
-0.0123923365
-0.013541749
-0.004475048
0.023611251
0.023157317
-0.030767297
0.0191639
0.02992129
0.028336879
-0.02071727
0.012080472
-0.013078319
-0.015098831
0.017596766
0.0060250424
0.010112803
0.00541158
-0.016364627
0.013393775
0.028025474
-0.009310517
-0.0142838955
0.002346024
0.01638484
0.029681813
0.0022507869
-0.014203362
-0.028433193
-0.0034295358
0.008593284
-0.00412683
-0.028119467
-0.00226501
0.00011805445
-0.013712566
-0.028864393
-0.022577003
-0.011079932
-0.01941246
-0.0038181916
-0.030362241
0.01385273
-0.013134068
0.024932023
-0.022606049
-0.0032817572
0.029993292
0.009255167
-0.028356882
0.002494797
0.019364644
-0.021957718
-0.021320136
0.012343075
-0.029620953
-0.026335953
-0.011740398
-0.0019472614
0.025071193
-0.029400492
0.006948147
-0.00025930256
0.004479725
0.012707204
-0.008652361
-0.034527123
0.020864904
-0.0014292449
-0.016908908
0.02071616
0.007849678
0.00045482814
-0.016908685
-0.0023644269
0.019690435
0.017411593
0.0007218942
-0.02172234
-0.020868395
0.025769394
0.025155183
-0.03272027
-0.030801082
-0.008836003
-0.035242613
0.01005685
-0.00026981533
0.004914049
0.017235748
0.016713638
0.004458446
-0.023709277
0.022486832
0.007685527
0.018224765
0.0077993013
-0.00927119
0.018365044
0.0063742846
-0.016941993
0.0019660331
-0.009411527
0.0014593974
6.795302e-05
0.011318564
-0.0138077345
-0.004553739
0.007882908
-0.01203322
-0.010273732
0.03493176
-0.03306911
0.01065487
-0.015034389
-0.027991578
-0.018547177
-0.025188256
0.027324487
-0.021632781
-0.013955409
0.0078041665
-0.008238027
-0.029674342
0.019685987
-0.004894417
-0.0015463494
0.029702228
-0.009960389
-0.01511829
0.016774788
0.028717104
-0.006747918
0.0063493773
-0.011760578
-0.025650669
0.03328758
0.0148036145
-0.026011486
-0.0142672025
0.027787972
0.02942824
0.020439357
0.020500991
0.020514764
-0.02147224
0.02042605
0.025189776
0.0021740869
-0.0005058944
-0.027036589
0.009404957
-0.0055642407
-0.014733823
0.012841895
0.025224391
0.006881278
0.030935664
0.024928682
-0.023672044
-0.023868188
0.024563923
0.033003937
0.009320229
-0.0040106736
-0.0324334
0.02575345
0.005213678
0.021687858
-0.010972941
-0.018101655
0.020418875
0.012692239
-0.018473867
-0.019383265
-0.017020222
0.017646506
0.023118429
-0.015968809
-0.002587963
-0.016650813
0.015028946
-0.013848124
-0.014573479
0.032856908
-0.03368545
-0.016756358
-0.027175572
0.007820554
-0.025583457
0.028731536
0.0014704019
0.01464862
0.014082387
-0.009849137
-0.0049129706
0.027415093
-0.0005154386
-0.03381125
-0.016936291
0.0057538673
-0.027350638
0.0025454834
0.032524537
-0.029933957
0.01133579
-0.02154654
0.022417113
-0.012024548
0.022374913
-0.021682877
0.01731196
0.016884599
-0.02680485
-0.012004001
-0.011466173
0.011359774
-0.03220113
-0.013737252
-0.011224907
0.032141965
-0.014283378
-0.034502067
-0.006014757
-0.008798687
-0.022857767
0.03416959
0.026786316
-0.031833958
0.004350152
0.0068734847
-0.024003398
-0.014091479
-0.018877609
0.033551868
-0.027560808
-0.035191752
0.007946573
-0.0317582
-0.0073747803
-0.010348426
0.001568336
-0.014138052
-0.017772172
-0.00023952872
0.028644409
-0.03240492
0.019751474
-0.030255867
-0.0051724594
0.0072219223
0.019636061
-0.02534372
-0.009895584
0.018133223
0.020693466
-0.032750905
-0.021472346
0.010948531
0.012055602
-0.0028015636
0.033218976
0.031537633
-0.009407055
-0.02001658
-0.007526083
0.016419575
0.0028889142
-0.030340452
-0.0327129
0.030529816
-0.01941297
-0.019833565
0.007017307
-0.008395787
0.02482649
-0.00036560744
0.005636394
0.002374053
0.024193197
-0.03515364
-0.02904446
-0.004202796
0.0033896714
-0.015800687
0.03372181
0.020380583
-0.00037548319
-0.0002588965
-0.028943885
-0.033576768
-0.007101495
0.028048832
-0.011281541
-0.020905145
-0.00040419772
-0.0045849793
0.022619065
0.02197586
0.020222407
-0.028774228
0.002978485
-0.0023669302
-0.032443322
0.01859305
-0.015770707
-0.031362496
-0.0052279495
0.028650653
-0.032704838
0.015064914
-0.0085194595
-0.0067906547
0.01105785
0.018887289
0.028578263
0.004549686
0.02941205
0.016651843
0.023680698
-0.01809542
-0.027376322
-0.022670176
-0.012778508
-0.018452097
0.028008495
-0.020527054
-0.00038434938
-0.00029027462
-0.030748462
0.014604352
-0.01450596
0.018785208
0.022853818
0.01854539
0.025826395
0.0036180094
0.026174042
-0.035062943
-0.012211548
-0.026274005
0.0098067485
-0.028941391
0.0012210347
0.029214796
-0.016836347
0.0040900856
0.017952494
0.0111829825
-0.017397486
-0.025398683
0.0068722293
0.0011930317
0.01242689
-0.024472509
0.01832436
-0.0021010973
0.03111517
-0.03367103
-0.0015793219
-0.033527076
-0.0021239035
0.019298524
-0.01810989
0.010956846
0.0064056814
0.022810262
-0.0131657105
-0.016353935
-0.001556702
-0.019867938
0.0099784285
-0.0014808103
-0.03258015
0.019023668
0.008392427
-0.016850539
-0.019808644
0.0072798654
0.0061024204
0.006478969
0.007237572
0.033805948
-0.023445442
0.011590533
-0.03526185
0.0026689842
-0.03344177
-0.031107204
-0.02331591
-0.005189035
0.017759766
0.024937611
-0.010128297
0.0049897693
0.02786715
-0.011251438
0.0058008656
-0.01906611
-0.015583675
0.03289062
-0.016062405
0.015845113
0.002251558
0.004386943
0.010536585
0.0072707646
-0.029599076
-0.011324046
-0.01843709
0.027044311
0.017668266
0.014085777
-0.03471458
0.011392124
0.0027420782
0.029141817
0.009040322
-0.007248031
0.03178591
0.00056879595
-0.0028411783
0.009322267
0.00020104647
-0.024377435
0.033707056
0.016722616
-0.034624357
-0.021885924
-0.027661994
-0.0023429468
0.023305364
-0.010447687
0.027872857
0.024583027
0.011991188
-0.028061062
0.020479944
0.032022696
0.01687216
-0.0010137558
0.012504861
0.0035929196
0.011231057
-0.031585023
-0.020214427
0.008799888
0.02725685
0.0020391978
-0.029516248
0.0072213747
-0.024040643
-0.019997276
0.0029190779
0.010082457
0.027261656
0.028171401
-0.0059168115
0.024722226
-0.032605253
-0.0067394916
-0.025606986
-0.029351264
0.025075588
0.0347817
-0.013392478
-0.02344894
-0.011028364
-0.025157418
-0.018455757
0.013725162
-0.02982371
-0.024551362
0.007738363
-0.011863083
0.0026003607
-0.0076469053
0.02127219
0.031744633
-0.022531305
-0.023739185
-0.022851933
-0.0007759519
-0.022737505
-0.02490776
-0.011518288
-0.02515788
-0.027471624
-0.033436082
-0.022260854
-0.030820685
-0.0044881757
-0.023943154
0.030975964
-0.029553847
0.0058478825
-0.015432967
0.008692317
-0.008076314
0.01853384
-0.00036207587
-0.024739856
-0.029435238
-0.019854512
0.013947785
0.006114375
-0.011402506
0.0023111254
0.011078317
0.016277514
0.0016511232
0.029122073
-0.013956547
0.0025436804
-0.03274226
0.023338772
0.031282645
0.004667692
-0.024135878
0.031722922
0.026452228
-0.001532156
-0.015958374
-0.034488153
-0.026813902
-0.021224134
-0.010769097
-0.012174346
-0.026637152
-0.013512673
0.017565861
-0.023374293
-0.009091169
0.03493431
-0.001838915
-0.008906156
0.031874258
-0.013850989
0.0031802393
-0.018987527
-0.020538073
-0.011026291
-0.011195721
0.03495096
0.017016407
-0.02813755
0.020447496
-0.019294187
0.001031246
0.024549212
-0.025942892
-0.0016850494
-0.0016779304
0.028935816
0.032497395
0.0068299472
-0.0028399564
-0.032090843
0.017387833
0.026204944
-0.002775997
0.012108061
0.024598047
-0.00020911172
0.024664897
-0.010512862
0.0034426823
0.013856541
-0.012024248
-0.01683628
0.024713177
0.027971286
-0.012343232
0.022683434
0.023434788
-0.022522949
-0.034288637
-0.0059087183
-0.007484602
0.023914035
0.0019401386
0.013521776
-0.0075919926
0.005983513
0.028105807
0.027140435
-0.002971951
0.017622486
-0.0008187853
0.0044863336
-0.007996175
0.01647487
-0.031678744
-0.01964549
0.025863335
0.009179164
0.016252056
0.010244433
0.03334276
-0.034676306
0.006162539
-0.014696974
-0.028136041
0.022627823
-0.0063926354
-0.006255174
-0.025911534
-0.010468775
-0.021106206
-0.014516251
-0.006635895
-0.009039657
-0.015513193
0.014109362
-0.02833918
0.02320826
-0.024057355
-0.026280306
-0.0072245635
-0.000990402
0.030177604
-0.005836092
0.021762725
0.014334861
0.0024302937
-0.016625162
-0.028863609
-0.008545104
-0.028057057
0.010440573
0.016001936
-0.010800518
0.032278787
-0.0031868704
-0.035046488
0.035018038
-0.022885524
0.024768304
0.02774961
-0.0060238224
0.0071029738
0.0016080551
0.008538038
0.018470477
0.011155989
-0.008798413
-0.03254015
-0.023956016
0.008408919
0.034367185
0.011493418
0.023584556
-0.006882757
-0.0015728474
-0.024797536
-0.014776723
-0.0065924674
-0.00939809
-0.0016584694
0.0005261265
0.0025510378
0.02714822
-0.032268327
0.022006948
-0.027601007
0.0043990985
-0.034812286
0.035260398
0.023667548
0.0015743896
-0.017286636
0.024365366
0.0045157745
-0.016874837
0.014610205
-0.020136736
-0.026923236
-0.017901208
0.008551814
-0.010902004
-0.00044830516
-0.030672118
0.017804176
-0.0043322705
0.023160208
0.016085558
-0.003312122
0.013728362
-0.028735436
0.0017505512
0.02920707
-0.023772169
0.018440165
-0.03337451
0.00083692
0.015887517
-0.003684301
0.035069566
-0.008250659
0.010231741
0.024688717
-0.032399625
0.026193127
0.026020993
-0.0030616373
0.019930355
-0.030083554
0.002628807
-0.005256012
0.0013869293
-0.023779443
-0.03117716
-0.030823234
-0.02140101
0.025575735
0.0055724345
0.032277506
0.01685828
0.019299053
-0.012201238
-0.029317072
0.016518041
0.0030988604
0.0176481
-0.008499073
0.01565604
0.013943583
0.034613993
0.024400976
-0.026561275
-0.02758497
-0.009811142
0.03123996
0.012771249
0.02498614
0.022869453
0.012785155
0.029988986
-0.031710982
0.015538923
-0.022659857
0.0065367557
-0.013428383
0.00475369
-0.033542104
-0.01520231
-0.025405215
-0.022530135
-0.0062804203
0.014807131
0.028609779
0.003687285
0.018515363
0.021491371
-0.010846484
-0.014578743
0.0030793995
-0.008414682
0.0062958114
0.0006954074
-0.018003909
-0.01167064
-0.00948013
0.0017693415
0.002889935
-0.02764862
0.011307284
0.0036919937
0.008978553
0.024439286
0.033485923
-0.00035002828
0.022157758
0.026613295
0.0228066
-0.005133912
0.034357104
-0.024223877
-0.024133645
0.01125329
-0.030004777
-0.0027645975
-0.012418183
-0.013649093
-0.0017786957
-0.017382478
-0.012096761
0.022321388
-0.0039708316
-0.016956888
0.023512784
0.025381882
0.02346896
0.006544914
0.03349028
-0.010266228
0.03020734
0.017487835
0.0103075765
0.0036992505
0.008644335
-0.02579915
0.010701105
-0.01200486
0.0028573237
-0.027284117
-0.0033009723
-0.026523206
-0.032512948
0.024899736
0.0043798797
0.02714808
-0.01626894
-0.034876198
0.032596167
0.018685367
0.0056606047
0.025913917
0.02304839
-0.009520704
0.028975923
0.034490604
-0.018890172
-0.021045094
-0.0005861968
-0.0018884838
0.021302242
0.015389159
0.01708848
-0.0033560991
-0.012614712
0.022949956
0.025986295
0.02947132
-0.017887807
0.02514235
-0.004583845
-0.027185101
-0.030907676
-0.014439911
-0.018981155
0.010698952
0.005137082
-0.011152845
-0.0005368553
-0.009701943
-0.032967634
-0.019419355
0.013592381
0.034593504
0.029693838
0.010939214
-0.020116966
0.018003225
0.027659964
-0.00010016933
-0.0057031047
-0.015502969
-0.002907738
-0.023333782
0.030035134
-0.029668184
-0.024330651
-0.01908414
-0.028937189
0.02962942
-0.013612855
0.034073923
0.010094922
0.014351625
0.025727987
-0.008974085
-0.020170711
0.025276069
-0.035208438
-0.008485291
0.03097279
0.006530352
-0.0022428483
0.026186116
0.01075032
-0.023998126
0.03080279
0.0218823
-0.03517424
-0.012296984
0.03390759
-0.022535702
0.010830287
-0.028210113
0.021831855
0.007388871
0.019697417
-0.029355086
-0.021016628
0.0023965389
-0.016325852
0.033233907
0.021053914
0.009229951
-0.005641643
-0.02394985
0.011910815
-0.028024148
-0.013116071
-0.022809248
-0.0017233416
0.033486012
-0.004169479
0.028162327
0.03112499
0.006697815
0.027248252
-0.027938422
-0.005851105
0.025772706
0.029840428
-0.03526631
-0.028193127
0.02423095
0.008316927
0.008392587
-0.015166536
0.026525356
-0.01697274
-0.0031355359
-0.027113937
0.0023427494
-0.028726548
-0.02954595
-0.0069233365
-0.0092734955
-0.03178506
-0.021924656
-0.028916495
0.008005463
-0.028412318
0.034880508
0.01843262
0.034892086
0.010307435
-0.034061883
0.026561625
-0.011358282
-0.029889606
0.022864219
0.011466932
-0.020614117
-0.009362269
0.024134684
0.01069634
-0.017935937
0.03187107
0.010505512
-0.007453574
0.012336936
-0.021506395
0.019216571
-0.010174217
-0.017516324
0.002315838
0.028957572
0.002140399
0.01644367
0.006593067
0.022636116
-0.021698952
0.018552996
0.009442382
0.023986
-0.022072796
0.029037636
-0.021382421
-0.025729569
-0.022871923
0.017533533
0.035228234
-0.030456124
0.030187648
0.03251158
0.02674184
-0.002959039
-0.022407718
0.0034357496
0.029741053
-0.00860508
0.027408425
-0.03395853
-0.017857376
0.013661332
0.0016557872
-0.018559517
-0.013348237
-0.0151809845
-0.027401324
-0.027708653
-0.0025994629
-0.0028871
-0.024082571
-0.022992454
-0.022400865
-0.019454509
-0.010951847
0.0033622906
0.022616789
-0.0037828162
-0.02305612
0.032132816
0.00085034966
0.011736024
-0.015457919
-0.02759074
0.034920227
-0.034858767
-0.011474902
0.017465722
-0.010703988
0.010489985
0.0124002695
0.032927822
-0.022759927
-0.00071522966
0.020592969
0.03514115
0.024572864
-0.029799283
-0.026202027
-0.015957534
-0.031903435
0.029160809
0.034436475
-0.02960206
-0.017531658
-0.004889317
0.0030484498
0.011287324
-0.034924045
0.010345586
-0.016408587
0.034304168
-0.02788712
0.016165849
0.016966034
0.030408729
-0.034606084
-0.004646968
0.004657738
-0.0069683027
0.008361567
0.021621212
0.017623853
0.01717683
0.02677865
0.0011456087
-0.022469843
0.009464737
0.028532516
0.026240565
-0.008008644
0.023125213
-0.0220172
-0.020720484
0.022908755
0.034558963
0.029771905
-0.01887419
0.027172457
-0.032776903
-0.01068804
-0.005236484
0.024999216
-0.032686003
-0.005861936
-0.023458064
-0.013545761
0.0007958226
-0.00081285834
-0.035021972
0.013159111
0.005445536
-0.021676853
-0.020816885
-0.022548001
-0.031362627
0.0008928403
-0.010271562
0.016002804
-0.03321776
-0.01066524
0.024573825
-0.00693102
0.01691394
-0.016882494
0.0072638392
-0.021050181
-0.03524159
0.0014661849
0.0003736429
-0.0064016227
0.0016529523
0.030148547
0.0060269274
-0.00371309
-0.009706162
0.029310588
-0.034406997
0.020890381
-0.019670567
-0.01033281
0.0077897646
-0.01021608
-0.00082685426
-0.03243836
-0.020099744
0.009223584
-0.005592091
0.026039593
-0.031606734
-0.028771624
0.021000914
0.012784593
-0.03237137
0.023312826
0.002078537
0.014553674
-0.0064213686
-0.032196384
0.023634098
-0.033994276
-0.018039303
0.0210938
0.017869294
0.032511313
0.023927346
0.0026855618
0.028408881
-0.0031108037
-0.015334314
0.02303528
-0.018598836
-0.024228176
-0.030634286
0.016807593
-0.006510673
-0.0011214428
0.021305375
0.016989809
-0.020082338
0.02802429
-0.0133791845
-0.022548433
-0.01685764
-0.00039035454
0.0085158385
-0.021983877
-0.03237537
0.0321112
0.012514424
-0.0074125566
-0.02275143
-0.006984411
0.017815776
-0.013252955
0.012067962
0.00808724
0.022672534
0.011930421
-0.030117355
0.004540298
-0.012918701
0.0063654035
0.011453565
0.025128629
0.024563234
0.022110235
0.008697789
-0.01843499
-0.023531029
-0.030327212
-0.013553049
-0.0059840344
0.021232601
0.0009788387
0.018981554
-0.030436382
-0.0031641163
-0.020934645
-0.033408772
0.024082456
0.026907075
-0.0055024065
0.03189886
-0.010480644
0.0032746717
0.004856821
0.028732378
0.011332691
-0.025540503
0.028933149
0.008776315
-0.006558897
0.007512588
0.011744212
-0.022526506
0.03083143
-0.01034685
-0.007806048
-0.00088519603
0.007937022
0.020266935
0.031892944
0.028627116
0.0023488104
0.0033680014
-0.035219546
-0.032707058
0.029323
-0.028220216
0.031178322
0.0040157773
0.0069644675
-0.010516921
0.009212911
-0.011078788
0.010352287
0.032145914
0.028840113
-0.031587724
0.0121627785
-0.028885694
0.0063130707
0.0010540038
0.009477679
-0.008024305
-0.019587513
-0.034822617
0.013667293
0.019112404
-0.024149867
-0.02540983
-0.016009375
-0.026358606
-0.0034839362
0.03335638
-0.006929161
-0.0039595924
-0.013752306
-0.028149351
-0.009509666
0.022770647
-0.007965684
0.0058809705
-0.013185592
-0.008221494
-0.024513274
0.007056337
-0.011813197
0.021645598
0.025190685
-0.01659402
0.026762757
-0.002278123
0.0144867
0.006422218
0.024395447
0.0045511946
0.029658537
-0.019292438
0.021556336
-0.0017963722
0.016137809
0.017029583
-0.0033900961
0.010925241
0.015882615
0.02802572
0.0048461556
-0.03150871
0.007744912
0.018512681
-0.013597278
0.013746295
0.03232524
-0.027171064
-0.0190623
0.027302649
-0.005162623
0.0315989
-0.016762292
-0.0012329221
-0.0043474566
0.016629055
0.019260753
0.016814608
-0.03158016
0.023379702
-0.016935103
-0.02847268
0.01092045
-0.025589343
0.0033611655
-0.009457614
-0.008934723
0.016267966
-0.024943808
0.0018877052
-0.019261818
-0.02561485
0.019441992
-0.00085344166
-0.010309596
0.01637644
-0.005010573
-0.007991675
0.026234206
-0.011054706
-0.025324335
0.0055472367
0.022463266
-0.033973992
-0.027428761
0.027422335
-0.0041359887
-0.031191168
-0.02161346
-0.016853556
0.006634824
-0.026508857
0.009094417
0.004606411
-0.023049312
-0.03151269
0.00022155046
-0.012441678
0.017508708
0.023660373
-0.01283668
-0.023135839
-0.005603006
-0.009516168
-0.0052907914
0.0011992492
0.025820129
0.015464809
0.001090873
-0.030746056
0.025202177
0.029790264
-0.032599524
-0.026298484
-0.027668396
-0.019236455
0.021008573
0.00885433
-0.02630374
-0.0009311624
0.025300957
0.033630814
0.014675163
-0.023782983
0.018713366
0.026669912
0.026250768
0.033801544
-0.029189762
-0.013565427
0.012735017
-0.016831627
0.0016904883
-0.010547642
0.01058694
0.0024438426
-0.029052608
-0.004230911
0.02433521
-0.023150422
-0.0044926647
-0.02529753
5.5760145e-05
-0.0037399344
0.012526356
0.030789461
0.024582755
-0.00874285
0.020366702
0.030036878
-0.012197593
0.011694323
-0.032181114
-0.020631853
0.023165055
0.011143822
-0.019036409
0.031103898
-0.03527805
-0.033457577
0.0021078065
0.01662885
-0.024788149
-0.002226919
0.029500943
-0.011723977
-0.007586956
0.01163774
0.013605319
-0.02504922
0.026537467
0.0022797063
0.007393267
0.027695198
0.020397589
0.025276951
0.025363736
-0.015562734
0.00433426
0.0320209
-0.0065502394
0.006223649
0.015217125
-0.013941972
0.032706123
0.0079853535
-0.014148213
0.0074383244
0.00877282
-0.021790937
-0.013488965
-0.0025060698
-0.016881593
-0.027699534
0.00079552457
-0.009535497
-0.011558559
-0.033833902
-0.008849304
0.031043742
0.020828415
0.028049637
-0.025064543
-0.032552768
-0.015571749
0.0132707395
-0.013367716
-0.018955285
-0.021551762
0.019752197
-0.017240712
-0.010453628
-0.02976151
0.018327415
0.0249223
-0.023197122
0.02188775
0.011184029
-0.009915696
-0.017388133
0.012969229
0.00078955665
0.007508032
-0.03322284
-0.019228324
0.018566087
0.03038555
-0.008730447
-0.0031380728
0.03209437
-0.024916206
0.027292874
0.011850841
-0.032835815
0.034833867
-0.025322385
-0.02052424
0.024800193
0.03387243
0.012675662
0.021282401
-0.031685658
-0.013161572
0.0016995333
0.015760604
0.024723493
0.004694395
-0.010781329
0.0021480024
-0.0055831503
0.002922725
0.0002261214
0.029594425
0.02788781
-0.014293982
-0.0020733438
0.028754864
0.034046527
0.011485636
0.015686397
0.008544404
-0.017380582
-0.03100238
-0.014532963
-0.008722169
0.01121784
0.00022730231
-0.029032664
0.02167251
-0.028001895
0.013734028
0.018390484
-0.029935015
0.016311236
-0.013189498
-0.032052405
-0.027185448
0.0331435
-0.009553257
-0.01839726
0.015796296
0.018829197
-0.017799541
-0.009023413
0.009267893
0.031020697
-0.0003727451
-0.022266418
0.0028444864
-0.0028599612
0.018639237
0.024420142
0.015934132
0.020149976
-0.017915227
-0.005559519
0.020547092
0.022079807
0.014404841
-0.012447162
0.007798195
-0.0048216507
0.029474344
-0.013558911
-0.009517442
0.032333564
0.00488884
0.009458136
-0.019831251
-0.00796932
-0.012819415
-0.019793084
0.024567988
-0.011916436
0.021995801
0.004225243
0.02566899
0.023904577
0.006325446
-0.007568963
-0.019839626
0.0037057437
-0.030908132
0.031473335
0.01621946
-0.006369127
-0.018974056
0.0057319924
0.011191819
-0.026943475
-0.031104662
-0.021799771
-0.021880908
0.01782376
-0.005979879
0.01410811
0.030631702
-0.014327623
-0.011775671
-0.028643657
-0.007896069
0.017852638
-0.0016321875
0.0008814223
-0.016396975
0.023129653
-0.027226161
-0.014048882
-0.0007596649
-0.025262835
0.028300803
-0.034803834
-0.033247266
-0.01140466
0.016820844
0.03384624
0.023232475
-0.020420874
0.022534236
0.02023007
-0.015161697
0.006038174
0.003910426
-0.013239872
0.017823637
0.01993119
-0.022215828
0.008781049
0.02532785
-0.021734245
0.03252315
-0.012450647
0.0050212145
0.020376962
-0.0031724162
-0.010729017
-0.03526474
-0.021679105
0.025204785
0.014131315
-0.018735468
-0.0088615995
0.033885214
-0.024776444
0.0150257535
0.019988108
-0.017514873
-0.013140727
-0.0021802746
-0.03247486
0.034095284
0.028571133
0.017936714
0.03431872
0.021628503
-0.03529471
-0.0153966695
-0.0025709607
0.022864953
0.032818984
-0.016560344
0.027544562
0.034412023
-0.009531839
-0.026121542
0.023495816
-0.017472293
0.027820218
0.033823926
-0.029095864
-0.0021580644
0.018064149
0.033919085
-0.021719405
0.011661757
0.010615416
0.018868785
-0.005470818
-0.008976689
0.03200138
0.027080432
0.015602149
-0.02497053
-0.01722874
0.027117662
-0.023380868
0.028376896
0.003297571
-0.008710409
0.0025322847
-0.01508504
0.03255553
-0.028853826
-0.025183503
0.009659868
0.016155422
0.00016146898
-0.025832333
-0.012654321
0.010349188
-0.00087406114
0.0348219
-0.0070121773
-0.0030551255
-0.029460788
0.025956687
-0.0038538128
-0.010483347
-0.029139819
0.03356615
0.024523813
0.024856403
0.028122853
0.030177828
0.029786732
-0.01609948
-0.012463106
-0.002004426
0.023976732
-0.012524953
0.008416839
0.0112472065
0.02046987
-0.002752494
-0.015657922
-0.009408766
-0.021568045
-0.017846119
0.0029682778
0.028695803
-0.026548184
-0.0073952377
0.028333876
-0.019822793
0.016989741
-0.0070944447
0.03154218
0.026019774
0.0029595643
0.026119575
0.029967349
0.0047969706
-0.009697733
-0.0036817715
-0.021947572
0.004972771
-0.013433045
-0.0002814196
0.019213457
0.023787446
0.0019256063
0.023778778
0.0001465492
0.021946356
0.0045069978
-0.0126006305
0.015723746
0.016363334
0.0113591775
-0.02521877
-0.030152421
0.00791141
-0.00087509677
0.0042413026
-0.03438887
-0.020500697
-0.0238686
0.0033315197
-0.010320246
-0.014446285
-0.030960485
-0.028864063
-0.017291049
-0.028336355
-0.002034802
0.033871356
0.007587958
-0.018572073
-0.0065055005
-0.024397213
0.00015200302
-0.018772377
0.004990913
-0.0062425677
-0.004236985
-0.008073293
-0.010319546
0.010895468
-0.01420437
-0.0048627947
-0.02022031
0.010352813
0.010009933
-0.005079413
0.029153649
0.035202775
-0.00027371943
-0.0043391287
0.009382226
-0.008891834
-0.011503499
-0.004482975
0.021703415
0.0007667728
0.014339771
-0.01629953
0.022730421
0.022092775
-0.0040573888
0.00079121813
0.024943385
-0.03075167
-0.009358844
-0.005471276
-0.0052489527
-0.014246125
-0.030042827
-0.0029193126
0.01982233
0.0052864887
-0.008690601
0.020973958
-0.0075743664
-0.013016401
-0.012728656
0.010790929
-0.029365076
-0.011620671
-0.018161424
-0.020258293
-0.028731726
-0.0022034608
-0.005926488
0.0004541017
-0.018144991
-0.03343506
-0.0036234707
0.0037265122
-0.03251781
-0.019082472
0.0088234395
-0.008381091
-0.024969518
-0.034058027
0.010314107
-0.02915763
-0.019549007
0.02926514
-0.011164641
-0.0013532378
0.035202015
-0.01775933
-0.029838474
0.005815096
0.021594599
0.008955792
0.009976983
-0.028270215
0.025365546
-0.020081136
-0.020825483
0.010821082
0.018837783
-0.025418486
0.0315391
0.016529914
0.025037915
0.011826124
-0.029395122
0.020953514
-0.021778781
-0.020109363
0.020201873
-0.006229827
-0.014914254
-0.028737586
-0.022477303
-0.013002068
-0.004964089
-0.017720891
0.017777372
-0.026263898
-0.02719743
-0.0021045916
0.0030293092
0.02724519
-0.009629181
0.029926788
0.03033356
-0.02621461
-0.003046576
-0.023533732
0.029713769
0.0214319
-0.0033058524
-0.0048626754
0.023188919
0.031582464
0.011993844
0.0204392
-0.0010210946
0.02325625
0.03251786
0.010878265
0.023334358
0.026499461
-0.01755337
-0.0066520497
0.006872382
-0.01330992
-0.031987727
-0.020242525
0.013820045
-0.010159751
0.009674452
0.015658028
0.01114874
0.017683037
-0.024160232
-0.014497889
-0.015078157
-0.012791645
-0.017086746
-0.026127558
-0.01739878
-0.018458681
-0.023330763
-0.022688907
-0.02629349
0.014820628
0.015273254
0.010807518
-0.034734763
-0.012251968
0.030093756
0.014801506
0.029399972
-0.029722035
0.031835806
0.027967747
0.019405298
-0.021830168
0.011298943
-0.031938285
-0.012246227
0.0068683736
-0.011201292
-0.018803792
0.03125528
-0.025058746
0.0030157343
0.013726946
-0.02506662
-0.012607211
-0.033833075
-0.017476993
0.0050294697
0.00082206354
0.0034962595
-0.008152761
0.02498231
0.013964146
-0.031147398
-0.016752893
0.013117943
0.020075016
-0.022515576
0.0062984005
0.0031470284
-0.009630913
0.019383442
0.0055938736
0.027586725
-0.002137173
0.012253065
-0.025957128
-0.0017333515
0.006059207
-0.025269255
0.014910564
0.034570944
0.033218842
0.021544203
-0.020835865
-0.0004203245
-0.020941088
0.023700844
0.023086786
-0.003992658
0.002099745
-0.009542679
-0.018418996
-0.025108725
0.020033333
0.020291336
-0.031178933
-0.015534967
-0.004818253
0.016640637
-0.010445841
-0.010512473
0.002521474
0.031511296
-0.03047882
0.013712689
-0.03475633
0.016247395
0.005595412
0.0069074035
0.030375753
0.012294974
0.033375744
-0.010220962
-0.02902155
-0.03110696
-0.010137228
0.027326282
-0.015818821
-0.025653882
0.028314058
0.011668555
0.025891062
0.0002860725
0.007179573
-0.004798528
0.016950488
-0.019408628
0.008573327
0.0027351119
0.0072540008
-0.008397246
-0.0070684813
-0.034116484
-0.025685007
-0.005541539
0.027202938
0.034486916
-0.029466208
0.033766586
-0.010129701
0.026617471
-0.022448368
0.006458834
0.01208679
0.004801005
-0.014519792
0.0062716827
-0.014233666
0.00085207075
-0.0127367955
0.031627607
0.026479002
-0.030867506
-0.016984055
-0.0071424674
0.016609538
-0.01638803
-0.0005838461
0.033964988
0.008067738
-0.009370539
0.03379288
0.008352432
0.0073107705
0.013550285
0.018893857
-0.014315646
-0.010049967
-0.035116043
-0.03317657
-0.00694908
-0.02272387
0.02453379
0.018746369
-0.0068232585
0.0035815425
-0.029053185
0.017863348
-0.025913687
-0.0025426075
-0.034856044
-0.017688628
-0.015034772
-0.008241568
0.026821155
-0.0099220015
0.014961053
0.028163802
-0.030302048
0.0062995553
0.01085189
0.012759533
0.009128906
0.013367437
0.028949182
0.011752002
0.033388328
-0.007627072
0.03520823
0.012414936
0.0041296817
-0.01564167
-0.027238261
-0.03486906
0.020052347
0.0023167618
0.0037505142
0.034716595
-0.032720022
0.03100695
0.03182293
0.027013645
-0.028344115
0.021675278
-0.0227696
0.011670016
0.034962367
-0.0036031604
0.0117216
-0.027329717
-0.0292567
-0.014195038
-0.024475094
0.013188619
0.029579964
0.020451944
-0.019615987
0.012705013
0.03455687
0.02182595
0.03196233
-0.017400913
0.030673336
-0.018265333
-0.017237384
-0.028599845
-0.029682523
0.024210587
0.008893903
-0.02073235
-0.019036395
0.018181507
0.033586476
0.031846795
0.026307404
0.02947526
0.018177625
-0.006368583
0.030249808
0.03259219
-0.008030854
0.002364833
-0.0014465228
-0.008020664
0.012067437
-0.024241764
-0.025117967
-0.02385234
0.022479393
-0.022063855
0.029816229
-0.026639074
0.0061890073
-0.025185812
-0.025925532
0.006332949
-0.006282784
0.01580273
0.016631477
0.019106254
0.031601798
0.0014202595
-0.027143983
-0.0057010483
-0.031396694
0.015416425
0.0125547685
-0.016844355
0.020674028
-0.0024556369
-0.0013082288
-0.019942878
0.023173947
0.016596224
-0.00037244707
0.0045092627
0.002909854
-0.0014673173
0.022121988
0.009529438
0.029706653
0.029017132
-0.031764142
0.011690918
0.03172608
0.010887913
-0.025774114
-0.011619465
-0.023084
0.00903539
0.030007709
0.0010466315
-0.027160496
-0.0018847398
-0.0138385855
0.028086428
0.01752602
0.02174164
-0.02922179
0.0012284964
0.025178388
-0.028768107
-0.018056335
-0.02233518
-0.018080704
-0.015428007
0.013006978
-0.02465241
0.013258405
-0.014438061
0.034617443
0.009921022
0.023001324
0.009202648
-0.01348245
-0.020973824
-0.009841509
-0.00044613704
0.034675952
0.031269375
0.014745034
0.004101597
-0.029051576
0.025508441
-0.011147622
-0.015972564
0.009467572
-0.019428734
0.0131528005
-0.03226033
0.002793733
0.03396419
0.031771395
-0.0027182847
0.022828124
-0.010591233
-0.0010731593
-0.0055510867
0.011563331
0.0024786256
0.001274854
-0.004758371
-0.0008780286
0.007206537
-0.026215978
0.010612935
-0.030117406
0.0032663345
0.0031032525
0.017619308
0.0004179366
0.01167592
0.0004367493
-0.027441777
0.015163396
0.0328759
0.023320228
-0.012956157
-0.03417337
-0.01638272
-0.02817043
0.02707472
0.024556387
0.014390435
-0.027279485
-0.020016314
0.026497684
0.023011312
-0.0034484342
-0.029864246
0.0065184943
0.008498564
0.0205294
0.0017621629
0.034305196
-0.024651567
0.00043725595
-0.03149576
0.028466698
0.009359919
-0.035085775
0.005283706
0.0024568066
-0.024294097
-0.010131964
0.032187004
-0.0099077895
0.015069
0.0125318505
0.022797607
0.030452106
0.012484491
-0.00862384
0.026980728
0.010789454
-0.017610328
-0.010271326
-0.031819694
0.011081912
-0.003963489
0.026417851
0.014228951
0.034089547
-0.019909186
-0.025038358
0.025649365
-0.025423795
0.006749157
-0.0092042405
0.0050199553
0.023518894
-0.011567034
-0.032085665
-0.0020653456
0.019262947
0.007832844
-0.023381345
-0.0048480798
0.006714057
0.032061543
0.0025968924
-0.03464835
-0.005720334
-0.010662302
-0.026024146
0.025971193
0.006429553
-0.0108258985
0.016400203
-0.01989621
0.03454766
-0.023946235
0.034894425
0.01690993
0.021790445
-0.029160406
-0.03397199
0.013181679
0.034230832
-0.029242177
0.026888955
-0.020606624
0.012170274
0.028580476
-0.020912597
0.033291075
0.015651558
0.0061848275
-0.0013805404
-0.017777933
-0.002367679
0.0002447106
-0.008660689
0.028632391
0.004209455
-0.0009884126
0.02946632
0.034233507
-0.031879507
0.00497254
0.011021782
-0.018501557
-0.024672808
0.013536908
-0.0149848275
0.026988152
0.03019261
0.0023637488
-0.006112529
0.034124013
-0.010452583
-0.016702287
-0.029564
0.0339006
0.029545184
-0.0061155204
-0.015431825
-0.031675175
0.012575861
0.028003816
0.025933884
0.0325613
0.025010917
-0.03486727
-0.032313906
-0.028117564
-0.019226158
-0.0108381305
0.0059756115
-0.0097527895
0.011831939
0.03227816
0.025886603
-0.009057311
-0.018732922
-0.034360394
0.0053716525
-0.006910026
0.0098665245
0.02453953
0.030333873
0.028175566
0.013045352
-0.008396314
-0.0040376633
0.010158159
-0.01858607
-0.007481154
0.022207096
-0.012842905
-0.014069365
-0.024267398
0.029313441
-0.010006206
-0.024891019
0.024049625
-0.011572126
-0.012371749
0.0027834997
0.018043544
0.026789006
0.020503905
-0.0345326
0.0064489543
-0.006247377
0.031179141
0.011995941
-0.027079806
0.029065434
-0.023977492
0.025251992
0.009352129
-0.016037425
0.024605118
-0.023034755
0.02796748
0.0043123327
0.0042876787
-0.008589406
0.021101538
0.022575576
0.02805416
-0.017123668
0.028852452
-0.013059139
0.009653121
0.025173273
0.02018781
0.002248112
0.02905308
-0.005421607
0.0068140924
-0.019751249
0.035125162
0.031059276
-0.009857107
-0.029605996
0.016543102
0.030783463
-0.020312333
-0.016480422
0.011766475
-0.0075069107
-0.031035794
-0.034051303
-0.011353789
0.00089705363
0.006610878
0.023706302
-0.016227666
0.033151876
-0.018383319
-0.019952044
0.002379477
0.009714831
0.017638288
0.03146233
-0.02366319
0.0098569505
0.012850355
-0.033891205
-0.003639575
0.0203362
-0.022079192
-0.0342948
0.03335307
-0.03181007
-0.012556832
-0.030315854
0.0064230524
0.00020797923
0.017815746
0.028492127
0.003955867
-0.026960995
-0.031430066
-0.014342846
-0.0066280514
0.027413141
0.019474935
0.029655363
-0.0024062209
0.006453626
-0.029089045
-0.022649853
-0.0013383925
-0.014291568
0.02604762
0.01682267
-0.032428257
-0.028808754
0.005643502
0.024315074
0.004176706
0.02083711
0.027539197
0.02930769
-0.014065752
0.004657004
-0.012241211
0.029871326
-0.028960913
0.012906875
0.031874213
-0.020679584
0.0101251155
0.0018608645
0.024601754
-0.023893263
-0.01334049
0.032510113
-0.018661605
-0.035310946
-0.022084609
-0.0064396933
0.0029007643
0.015550293
0.0005859211
0.0002508089
0.004317887
-0.009760173
-0.01875239
-0.026380742
-0.026040638
-0.029000843
-0.00040925294
-0.0061193183
-0.0105845835
0.02675151
0.01589597
-0.030633355
0.0078288205
0.014037915
0.016485468
0.009832773
-0.009696705
-0.023388058
0.0100833215
0.00090812147
-0.023288967
0.003447093
0.012754329
-0.02698511
-0.002155263
-0.0080743
-0.004744973
-0.008559352
0.034416217
0.024833739
0.023853347
-0.016275946
-0.0069546346
0.0019809417
0.0021588244
0.034981664
-0.021176033
0.024850078
0.0347364
-0.034642555
-0.011703586
0.027639624
-0.011429565
0.031580042
-0.034320436
0.017928656
-0.028780062
-0.030178906
-0.005261166
0.0022404306
-0.019941753
0.015232056
-0.022717055
0.003043864
0.014578488
-0.0066218134
-0.020645838
0.020400919
0.018045627
0.014970832
-0.012697468
0.013986934
-0.027580794
-0.020687798
-0.012809245
0.018718306
0.02407829
-0.03260238
-0.008368641
-0.006330356
-0.02749909
-0.031247906
0.012426935
-0.00342701
-0.023444336
-0.034691267
0.032869834
0.00045397505
0.008951932
-0.0013164692
0.01912196
0.027326267
0.020916175
-0.00082779676
0.03478532
0.01896526
0.01912443
-0.03192529
-0.014278585
-0.021174708
0.02567831
0.019702889
-0.02870925
-0.00760773
0.018157195
0.02368157
-0.01122079
-0.021682216
-0.015965898
-0.027109824
-0.017529486
-0.013706228
0.005577069
0.019256365
0.005635582
-0.008982707
0.025372982
-0.025431655
-0.009964755
0.029105756
0.0011247434
0.0013433769
-0.006581733
-0.015982596
-0.0038275383
-0.00041965768
0.03197093
0.011638243
-0.011290049
0.03249452
-0.010788683
-0.030698877
-0.027203288
0.034246583
-0.011675015
0.031624686
-0.012044698
0.010779146
0.010813855
0.017908815
-0.027650626
-0.01875446
-0.003330417
0.0072538666
0.015033931
0.018600717
-0.03246972
-0.027277723
0.01388875
0.008764252
0.030720975
-0.018276962
-0.010424931
0.012128495
-0.0062695835
-0.030963048
-0.029905863
-0.007940471
0.008749355
0.0068535544
-0.0010018013
-0.026815753
0.001510594
-0.019873086
-0.0048701745
-0.0036725886
0.011007212
0.014546506
0.029421058
0.015600104
-0.017173383
-0.020767283
-0.02705009
-0.005286766
0.004626278
0.025317922
-0.0024600923
0.014973883
-0.013793817
0.009984091
0.019558962
0.018559504
-0.019480025
-0.019902252
0.012617715
0.028564584
0.0194453
-0.0026548728
-0.030506037
-0.000100538135
-0.013459213
0.011640217
0.015535463
0.027686547
0.010106269
-0.0012675785
-0.011422563
0.011896543
0.013469867
-0.02731245
-0.031101523
0.034929316
0.005553961
0.014798176
0.0013279133
0.0029042587
0.009849392
-0.0023037456
0.009566303
-0.025721869
-0.030225344
0.018600978
-0.03382937
0.03162952
-0.031013688
0.0314491
-0.015166085
0.015374389
-0.013637748
-0.019150095
-0.018030735
0.0023954846
0.0030018762
0.015733693
-0.002453763
-0.014033688
-0.0001219064
0.02973267
-0.03406662
0.033470277
0.0017066188
-0.020422138
0.020369548
-0.023765681
-0.001311075
-0.001472991
-0.031000715
-0.02750267
0.018775675
-0.0208324
0.004754085
-0.03224323
0.024182547
-0.012380317
-0.020680461
-0.012830205
-0.0132293105
-0.025952265
0.024761777
0.017315991
0.016968701
-0.033299718
0.021053974
0.029332828
-0.01158997
0.0015919469
0.021852884
0.032499734
0.00078591704
0.021639258
-0.017585807
-0.015272435
0.023425996
-0.034215186
-0.003909465
0.031604026
-0.0083455015
0.0086747
0.03051098
0.008512713
0.009413876
-0.016481336
0.002564989
-0.0100522265
0.02702849
0.02356999
0.033311944
0.032589655
0.031736862
-0.031164195
-0.010329742
-0.024634872
-0.023517095
0.031848896
-0.0087801125
0.033852633
-0.027079798
-0.006721981
-0.019313987
0.018566884
-0.01003214
0.014950894
-0.009904645
-0.016755644
-0.022724938
-0.010258792
0.021771334
0.0024461597
-0.033642616
-0.014345573
0.013844106
-0.01939585
0.016680479
-0.018967938
0.024783224
-0.0023782663
0.0017858446
-0.0023516715
0.0005569123
-0.031362206
-0.02222947
-0.029111605
-0.025566557
-0.020932069
-0.029713534
-0.024667762
-0.02576665
0.030053306
0.026660364
-0.023606438
0.030323666
-0.034650467
-0.013394602
0.01424427
-0.023932308
-0.012271734
-0.011822946
0.031906527
-0.017273074
-0.014912959
0.016922574
0.02393886
0.030479062
0.03434338
0.0052392744
-0.01640514
-0.032367647
0.019052472
-0.0003541559
0.023765061
-0.022791179
0.0024473257
-0.029703544
0.02287583
0.0052239746
-0.024727313
-0.0033461638
-0.0013836212
0.02235758
-0.008425623
0.012924846
0.031113025
0.024951994
0.015092526
-0.016750053
-0.017879559
-0.025094146
-0.029666025
-0.020745434
0.014689583
-0.034748413
-0.015216712
0.027090956
0.02391728
0.01619504
-0.025562579
-0.029704312
-0.008257829
-0.024252027
-0.031010043
0.00014290214
-0.03334599
-0.00646032
-0.03342226
-0.0016119033
0.008138381
-0.017825682
0.011064183
-0.0095357
0.02542125
0.0012363568
0.007109154
0.026898403
-0.002835855
-0.03236813
0.012082517
0.021248728
0.015244093
0.011037599
0.018975962
-0.028023146
0.013353847
0.024872899
0.0039573424
0.013383444
-0.021435909
-0.016110271
-0.019555064
0.02656648
0.010154773
0.00216645
0.034577977
-0.016338522
0.03471243
0.0004627481
0.032411125
-0.03391304
-0.032803006
0.016420681
0.01434923
-0.030458286
-0.0033634268
-0.021823276
-0.0027094893
0.019574594
-0.019728338
0.016631395
-0.008982185
0.0021422952
0.011563521
-0.029134596
0.00775009
0.03347196
0.024267942
0.0017025732
0.020044118
0.012003239
0.032213908
-0.015986444
0.003129702
0.013849743
-0.024020579
-0.018343633
-0.032896847
0.025747575
0.013902977
-0.022218775
0.0009987876
-0.024676424
0.000611078
0.028597351
0.011760443
-0.03489087
-0.0049246103
0.029842619
-0.028750326
-0.02607784
0.0069762394
-0.008402266
-0.004249662
-0.018283991
-0.033060774
0.005139705
-0.026843715
-0.00770632
-0.015137762
-0.034108527
0.01532986
0.016028345
-0.0019658208
-0.00933752
-0.0017335974
-0.0022854544
-0.024125498
-0.008799348
-0.016584255
0.03411005
-0.031110138
-0.030941267
0.011533674
-0.008403327
-0.017611938
-0.01591634
-0.0039357916
0.0019443259
-0.029528875
-0.02511648
0.030471403
0.034693267
0.0035991557
-0.034520302
0.007145684
0.014018256
-0.0152114425
-0.010139521
0.0043516904
0.0033653677
-0.00860009
-0.02088708
0.01401208
0.0266492
0.018083084
-0.0015975833
0.03523853
0.029413272
-0.003760919
0.022654973
-0.0013343059
0.028819058
0.013316184
0.010622706
0.0077002607
0.0042154044
-0.00669308
-0.0059907567
0.013194341
0.014231287
-0.010213299
-0.032152124
0.016233943
0.02373413
0.028314147
-0.0018218346
-0.012495428
-0.0045631845
-0.023466662
-0.01542021
-0.004711205
-0.008030737
0.0021416284
0.03298657
-0.011955027
0.033988107
0.0068346225
-0.015143136
0.012436125
-0.020467265
0.0040243194
-0.0024065785
0.00069727376
0.009172056
0.017438728
-4.5627356e-05
-0.007343609
-0.024621453
0.01859248
0.020859797
0.009414699
0.02088707
0.0017018318
-0.02952727
0.028496642
0.010711294
0.030438844
-0.013905982
-0.023383435
0.005019784
0.016944189
0.02192717
-0.0012235753
-0.016716158
-0.004567096
0.008319467
0.02773599
0.008154035
0.021886121
-0.01419615
-0.002610404
0.012515958
0.020948082
0.011127718
0.009652909
-0.0014860779
-0.030183248
-0.03157483
-0.01716828
0.031076517
-0.031637512
-0.0060352776
-0.028000053
0.025727976
0.013286218
0.021954171
-0.006211303
-0.00205978
-0.026562698
-0.035354346
-0.015242282
-0.024412207
-0.01796337
-0.017996637
-0.020562096
-0.031285524
0.00652498
0.00087440386
0.028368596
-0.029532678
-0.010933589
0.027380314
-0.025396433
-0.00010723248
0.015511677
0.01977541
0.020381961
-0.007062884
-0.008343795
0.023923155
0.01420683
0.024441585
0.0129503645
0.01331041
0.0047067963
-0.016603103
0.022653393
0.0036846325
0.016605623
0.032700162
0.013477936
-0.0048862062
-0.027938856
0.02204115
0.019415114
0.003464859
-0.0013980903
-0.008297998
-0.0097837895
0.00084286183
0.029155392
-0.023534283
0.018091906
0.00833185
0.027377252
0.024266828
0.015952721
0.0026276112
-0.009250758
-0.0237289
0.013068378
0.027480844
-0.0092416275
-0.023100326
-0.02793203
0.0023057796
-0.009334365
-0.03456484
-0.025792394
-0.031848446
0.023400832
0.017852787
0.0034610294
-0.018641636
0.024489138
-0.0288475
-0.023725608
-0.002266243
0.027702097
0.00062856823
-0.0042881463
0.014239062
-0.020452796
-0.03305413
-0.021077204
0.032754537
0.021958902
-0.0037316903
0.025382075
-0.0053296555
-0.018112749
0.021171141
-0.00059439987
-0.023214363
3.028661e-05
-0.0297782
0.029654544
-0.02484398
-0.033206187
-0.013252668
0.029690575
0.009356897
-0.00062232465
-0.02999382
-0.024751615
-0.01798586
-0.025127443
0.029945176
0.019632183
-0.023854699
-0.015895879
-0.03342686
0.004912857
0.030412782
0.019919243
0.021708984
0.022107255
0.033826765
-0.024361752
0.030942898
0.033010717
-0.016192967
-0.011807306
0.0007620491
-0.008168081
-0.026940208
-0.022720385
-0.026162501
-0.00031654537
-0.033177927
-0.024470348
0.02543461
-0.0016104467
-0.012702817
0.008407846
0.01780371
0.008337345
-0.029522853
-0.013480442
0.0016631037
-0.015677419
-0.014192054
0.016500823
3.842637e-05
-0.016858125
0.0094864145
0.021234807
-0.027154824
-0.01602787
-0.00034880638
-0.014853394
9.262562e-05
0.022417124
0.0040021837
-0.0024296269
-0.006381644
0.03328244
0.034417924
-0.029614316
-0.014983732
0.012829732
0.010275643
-0.02682086
0.0048407875
0.01967673
-0.031441677
-0.01619274
-0.010689449
-0.021122897
-0.02703882
0.01795667
-0.034153175
-0.009304196
0.012125783
-0.0016936213
-0.018397657
0.03343982
0.015245922
0.012247499
0.024812404
0.020709362
0.01774146
-0.03450488
0.028072204
-0.024992568
-0.031686664
-0.013093496
-0.015974596
-0.0030427165
-0.026513303
0.009756781
0.025470197
-0.020522948
-0.03291847
-2.2482127e-05
0.018511537
0.006903112
-0.03114691
0.009820897
-0.024700508
-0.033450343
-0.0133001
-0.024904583
-0.029056717
0.026997164
0.002887193
0.0034438744
0.020717945
0.03126594
-0.032029834
-0.010942161
-0.02417615
-2.2079796e-05
-0.02248843
0.015327297
-0.0087251365
0.03314573
0.018201083
-0.001862634
-0.0048591774
-0.033950694
0.013831001
-0.027220696
0.0037369244
0.023240127
-0.00081751496
0.012756132
0.009727567
-0.015799345
-0.011815811
0.01758118
0.0019511804
0.027154434
0.003073357
0.0071605965
-0.023843586
-0.02878074
-0.020923
-0.022765879
-0.01284655
0.018447407
0.0017476454
0.016854703
0.03428698
0.012186561
0.026605561
0.016680826
0.019192297
0.028703216
0.004475251
-0.0106447525
-0.024801962
-0.03313941
0.031008352
-0.024517287
-0.0029461607
0.006063167
-0.01044986
-0.035352193
0.0012583919
-0.01182971
0.015336145
0.02478636
-0.010866368
0.017592907
0.009515565
-0.0062643792
0.022167105
-0.0001254417
0.014475901
0.0053361617
0.026134398
0.023103617
-0.015867135
0.02922285
-0.022020701
0.012750473
-0.028316522
-0.0009730235
-0.010617297
-0.0038860925
-0.02939626
-0.024798516
-0.02691497
0.009810355
-0.033893347
-0.033859648
0.014010005
0.005390685
0.005724229
-0.031906925
0.0004710965
-0.034857605
-0.03278697
-0.03140467
-0.0056091305
-0.007684501
-0.025361728
0.014896851
-0.01879476
-0.025931243
0.02338484
-0.007001199
-0.014641732
-0.02721778
0.013213731
-0.008865105
0.03377733
0.010393649
-0.033917956
0.025881536
0.013412811
-0.025101459
-0.008859504
0.03534731
-0.012726352
0.021623
0.020567171
0.012216173
0.026999079
-0.011579944
-0.025678428
-0.012882333
-0.015427476
0.02165993
-0.017279586
-0.02920668
-0.014765272
0.0090556815
-0.025823168
-0.0151202325
0.033548716
0.013567887
-0.025868304
-0.021405024
-0.003443364
0.011121206
-0.029227251
0.020905212
0.003597755
-0.009162543
-0.022220738
-0.008151863
0.020330824
-0.0045840982
0.030613314
0.031929772
0.03495303
-0.024439849
-0.0115969125
-0.014850447
0.01304641
-0.010965545
0.029486347
-0.008286037
-0.034067973
-0.024818514
0.009814661
-0.0062857773
0.017372098
0.017800622
0.023307659
0.010674704
0.0142931305
0.031915333
0.031050872
0.0014865957
0.025674082
-0.018154275
-0.00859746
0.02885374
-0.024225622
-0.008105075
-0.03333603
0.020299468
0.034021337
0.033351492
-0.030657506
0.028219443
0.0062532052
-0.009425696
0.0059808977
-0.016530754
-0.0024081655
0.033850398
0.012611087
-0.024829207
0.033873316
0.024882428
0.007804185
-0.016758498
0.019000005
0.024983238
-0.021301124
0.02342578
-0.004379425
0.02877343
0.012411181
-0.026232056
0.0043202415
-0.01837346
-0.031147791
0.022460371
0.020230062
-0.01858703
0.0025292449
0.007652793
-0.027775764
0.006082684
-0.031807046
0.030145507
-0.030608522
-0.019524911
0.015186433
-0.006522976
-0.0042951684
-0.017291129
-0.012071401
-0.026884489
-0.012411788
-0.016546201
-0.029641232
0.0142261535
0.0063905045
0.0057826787
0.0064243637
-0.028951624
-0.01594756
-0.033930864
-0.027729698
0.0067291185
0.008613158
0.0019691512
-0.01563587
-0.013494836
-0.025161024
0.029890265
0.009206548
0.01746039
-0.0106492285
-0.026572157
-0.014490239
-0.001038082
0.0011007972
0.028197039
0.005883068
0.026729237
0.019786738
-0.026848175
-0.024067998
-0.012963865
-0.029886505
-0.01927321
-0.02690053
-0.011447549
-0.01462266
-0.027852409
0.03236809
0.030829158
0.01274984
0.014931403
0.008452017
0.006989751
-0.011710178
-0.034636144
0.008676231
0.012062326
-0.032841302
0.01812502
-0.0097573325
0.024039675
0.010488171
0.006835811
-0.0043548495
0.017677557
-0.021805996
0.013131723
-0.03164069
0.02610166
0.032695394
0.020644851
0.0098619275
-0.0027918816
-6.0103834e-05
-0.030292198
0.028850008
0.024844885
0.033947486
-0.018591166
0.016854435
0.0076218396
0.0065274686
0.03142425
0.02958836
-0.01701956
0.012738589
-0.00887402
-0.018393088
-0.028083732
-0.010500353
0.025518343
0.0050753094
0.015127555
0.024712339
-0.0058599245
0.025279928
0.006883256
-0.011399917
-0.028296497
-0.010224694
0.019132983
-0.003115911
0.031289373
-8.568913e-05
-0.022403525
0.0152679235
0.0111030005
0.024661902
-0.03145239
0.024933867
-0.020772345
0.022339053
-0.005920116
0.016442455
-0.015296975
0.013601813
-0.016260276
0.004630033
0.004181117
-0.0017103292
-0.013564842
-0.034821514
-0.002509866
-0.027922971
-0.0017872043
0.010418508
-5.0731003e-05
-0.015453167
0.0029795058
0.0170573
-0.019744674
-0.020425305
-0.032879442
-0.03499912
-0.012706803
0.0321477
0.0063554235
0.021422181
-0.017205039
0.029579062
0.022488587
-0.029638058
0.029253196
-0.03262294
0.020347416
0.017705206
0.010452978
0.009565506
0.005728774
-0.014014076
0.007226549
0.009350065
-0.023880325
-0.02435778
0.034633067
0.021742485
0.0071913376
0.01800204
0.025192663
-0.015952347
-0.020522594
-0.01599769
-0.016423507
-0.030566063
0.0091283135
-0.022342088
0.0006404072
0.008497648
0.022548497
0.01923155
0.018064503
0.02516773
-0.03482854
0.004602328
-0.009579955
-0.0051907767
0.011904091
0.015803184
-0.007673921
0.029636037
0.0337645
0.007593654
-0.008389095
-0.0072065424
-0.0020520166
-0.024486624
-0.0046290103
0.029953506
0.006646335
0.03396273
-0.0035526007
-0.00032327324
-0.011726433
-0.018643351
0.0005213581
0.0029537529
0.019791424
0.011512358
-0.024472475
0.00080762804
0.034467522
0.018469978
0.034641173
0.013919018
0.01690827
-0.014158156
0.00062412396
0.011737753
-0.017806109
-0.012732036
-0.016154256
0.017870665
-0.007061869
-0.031884085
0.030014101
-0.014391497
-0.035087008
-0.034207277
-0.01072336
-0.009772802
0.011827145
0.018169124
0.013256572
-0.03266188
0.025421217
-0.01563801
0.020672753
-0.0040109567
-0.013651736
0.004505586
0.0014944673
-0.027674848
0.011299919
0.02873918
0.00010487437
-0.017530747
0.009234887
0.01931455
0.020117905
-0.0119677745
-0.022877669
-0.032166254
0.008866049
-6.535277e-05
-0.012112765
0.0035063103
0.0022574812
0.028849375
0.034181233
0.02412033
-0.0013606697
0.024196707
0.028469276
0.021761697
0.011752728
0.02327339
-0.0030301623
-0.009328367
-0.007915549
0.014835872
-0.005930623
-0.010678658
-0.01919894
0.034461405
0.03222088
-0.010116167
0.029864881
-0.024024975
0.028094668
0.003820084
-0.0105680525
0.01128063
-0.0016153827
-0.035228815
0.011587303
0.03188553
-0.022483153
-0.017143948
-0.014671437
-0.0150456
0.0028212257
-0.011396041
-0.031819858
-0.032075975
0.020362694
0.0045624077
-0.020757092
-0.03218739
-0.0021359473
0.024413373
-0.0307769
-0.002573315
-0.021676723
-0.01749292
-0.008763514
0.015224442
-0.0053600054
0.012467552
-0.019560274
-0.008129364
-0.03164924
0.026408866
0.01762155
-0.004328165
0.029642727
0.03125399
-0.008748852
0.0028313436
-0.023903351
0.029117677
0.01825323
-0.014256792
0.017082822
0.030424435
0.01630941
0.028723765
-0.010172004
-0.017581243
-0.016804287
-0.021676458
-0.011411032
0.029978637
0.021890376
0.024679486
0.009302549
-0.0020103194
0.030235965
0.03066999
0.018034428
-0.028992042
-0.022216199
0.00251057
0.010329936
-0.014428768
0.03348166
-0.030112159
0.0013508722
0.031970795
0.03371602
-0.03381594
0.013449285
0.0331023
0.004026726
-0.033516347
-0.0112913605
0.034600493
0.0028200448
-0.0026976205
-0.01369735
-0.02143016
0.0035363398
0.027042333
-0.006705463
0.010322582
0.010926388
-0.009103758
0.029502574
-0.0077717956
-0.015133746
-0.008492805
-0.006723741
-0.0012625754
0.0059446283
0.028108526
-0.026941627
-0.0025145411
-0.00077039003
-0.0040906034
0.010529447
-0.0039650872
-0.016561745
0.021635324
0.023486
0.019892406
-0.017092174
0.0068320893
0.0035640523
0.026162874
-0.0334792
0.02851336
-0.017017325
-0.020251181
-0.02723056
-0.010519505
0.024120674
0.021952763
-0.007816959
0.00013021007
-0.034513284
0.024133813
-0.029611606
0.02932163
0.029552873
-0.027581308
0.0081624575
-0.013676776
0.03452841
0.0039128996
-0.0011404678
-0.010786066
-0.034380157
0.034561638
0.023905456
0.025992747
0.03308623
0.027025323
0.017497942
0.028990198
0.02631675
0.005067084
0.0051153116
-0.016208377
-0.017023126
0.015074592
0.01842216
0.033187967
-0.021084577
-0.024069872
0.029788326
-0.0103909895
-0.028576778
0.03449994
-0.013934381
0.017461207
-0.03333612
0.0337813
0.025568176
0.009817924
0.02459218
0.009714253
0.029249411
-0.0060032755
0.0035311617
-0.0019136332
0.026279703
0.0188392
-0.012697607
-0.02253627
-0.029420605
-0.0057988204
-0.020177687
0.007891506
0.0017064773
-0.015567547
0.018035844
-0.006342612
0.014075667
-0.020453665
-0.025173066
-1.7993152e-06
0.024114963
0.027616266
0.00029468164
0.013846409
-0.026598573
0.010173596
0.029461373
-0.023231668
0.004341401
-0.0026584268
0.010681067
-0.031881247
0.033520322
0.012646779
0.014023669
-0.023725532
-0.02481478
-0.0019209273
-0.020016428
-0.016785506
0.018458452
-0.02985789
-0.0095095895
0.0015327223
0.0038059056
-0.013799641
0.0016512983
0.030478489
-0.03265033
-0.012891205
0.01748478
-0.01625285
-0.008028744
0.00060073286
-0.030284442
0.03390729
0.029540088
-0.024299737
-0.00036488473
0.013398655
-0.011512054
0.025574569
0.01633089
-0.0058034603
-0.026482366
-0.0021832623
-0.0264484
-0.026201146
0.016148642
-0.0147864055
0.028558116
0.035100345
-0.0071231555
0.00838656
0.03260423
0.021010395
-0.0046494678
0.009255048
0.030597974
0.002247788
0.0068651624
0.024606533
-0.015003962
-0.00027683005
-0.033672947
0.029509839
-0.022048442
0.025426172
-0.007056471
0.014832228
-0.013601113
0.014054842
0.022525758
0.024451379
-0.025179911
0.034483273
0.0082986355
-0.005671099
0.017157689
0.020672675
0.015069652
0.016518388
-0.011688102
0.018065263
0.032834355
-0.023388352
-0.014802972
0.029780354
-0.013207722
0.02984095
0.012224246
0.01030184
-0.017431827
0.011472929
0.00039537996
-0.0041033253
0.013721526
-0.01856618
-0.011617303
-0.01353088
0.02179331
-0.031363625
-0.00880765
0.027800437
0.023820952
0.002859246
-0.00018427894
-0.021702332
0.017064556
-0.019603461
0.0005350001
-0.023148812
0.0223817
-0.023099545
0.02762514
0.0021956079
0.025236849
0.008424442
-0.00056321546
0.034868997
-0.020155067
-0.0188702
-0.02963225
-0.005260205
0.034653675
0.0076557696
0.022533946
0.029538516
-0.029634302
0.02546449
-0.0023393817
0.008120965
-0.021108955
-0.03183624
0.0014491715
0.02652856
0.020058509
-0.020907043
-0.034492895
-0.011928763
-0.018159067
0.034583014
-0.0026686303
0.023227964
0.019304756
0.0058181435
0.018923156
0.031588327
0.014094163
0.011722721
0.00035114586
0.0050336495
0.01601398
-0.021241575
-0.03004003
-0.022863723
-0.023625607
0.005086422
-0.034738783
-0.0046478063
0.015342701
0.011151165
-0.0022044405
-0.027063202
-0.030375188
-0.033935953
0.009891782
0.022755254
0.014858626
0.020394333
0.025407195
-0.0025439784
-0.017705997
-0.02294416
0.012040101
-0.026506968
0.02114841
0.003993783
0.01977368
-0.009453256
-0.032632202
0.022730753
0.03416721
0.021691151
0.013149552
-0.01652232
-0.035229165
-0.029014211
0.005430393
0.0104881115
0.0012042783
0.014967062
0.023762424
-0.026437463
-0.0003671758
-0.024614915
-0.003781397
0.0042229854
-0.014617244
-0.0074296724
0.009669885
-0.00969244
-0.025874123
0.0008359924
-0.008453246
0.03256635
-0.01612756
-0.018296698
0.034903754
0.012475565
-0.021890067
0.027268875
0.022515755
-0.007645119
0.03194805
0.02632258
-0.0302508
0.02784669
0.025183987
-0.0028119981
-0.028926563
-0.0076275133
0.0071242712
-0.004307421
-0.026904194
-0.03143046
0.033810783
0.02884363
-0.012026491
-0.02513406
0.013385512
-0.006166447
0.020314481
-0.031144664
0.0025962368
-0.014390131
0.027265642
0.0057341717
0.020084288
0.013506126
-0.02714363
-0.005160246
-0.03061702
0.0262428
-0.025262918
0.025207758
0.029854301
0.008813608
-0.026158283
-0.03218509
-0.034981146
0.015178289
0.0049143657
-0.031749405
0.008556962
0.026492365
-0.02036916
-0.0016731173
0.0036002398
0.009192489
0.034369495
-0.023378251
-0.01088262
-0.02257964
-0.0025307462
0.0003658384
-0.027617183
-0.024154099
0.012024213
-0.023785941
0.004871372
0.02997439
-0.0075055063
0.030109528
-0.025188442
-0.016981117
0.013369907
0.00368163
0.027546462
-0.0054001454
0.028908398
0.0055935048
0.009614922
-0.009093583
0.0047936775
0.0072177015
-0.008809332
-0.0107601285
-0.012520328
-0.019663887
-0.028951898
-0.012050783
0.020894371
0.02406812
-0.0180504
-0.031863473
0.004796993
0.024364498
-0.025352769
0.033873912
0.021497015
0.023393314
-0.018257964
0.012390323
0.019663218
0.016928367
-0.03499515
0.012476373
-0.03299073
0.002211798
0.030049648
0.004437577
0.029890452
0.012049537
-0.019138148
0.00909172
-0.031228287
0.02382873
-0.0022160895
0.0151329115
0.002326768
-0.008260259
0.011950545
-0.034617897
-0.014867377
0.025631566
0.009263352
-0.00011462346
0.013631586
-0.015352959
0.02645861
0.007504102
0.0062475093
0.02928942
0.029210988
-0.0077658817
0.030706372
0.015852772
0.0020633042
0.028827306
0.0022131875
-0.02042973
-0.028429888
-0.005322056
0.028847154
0.02225732
0.018731505
-0.034236435
0.005483117
-0.03392162
-0.0036327243
0.0018711835
-0.032908205
-0.013651192
-0.0087195225
0.014733661
0.008199882
0.029344875
-0.031452168
-0.031115912
-0.00293798
0.023822214
-0.011367304
0.004932441
0.0004793927
0.0036252066
0.005752854
0.020854406
-0.012092952
-0.030808158
-0.023741616
0.01173396
-0.021957848
-0.008931246
-0.0035293102
-0.030595988
0.018351544
0.004781395
-0.0023689829
0.009746954
0.01907453
0.005809527
-0.02204986
-0.013352456
-0.019487575
0.005625084
0.033343766
0.009199522
0.019201118
0.015025485
0.009076409
0.0011994205
0.010048848
0.024754565
0.01661525
0.00608455
-0.020164672
0.013328217
0.020530589
-0.0044091046
-0.015715895
-0.008510545
0.01817356
0.02364653
0.021590147
-0.033251204
-0.003174711
0.00218793
0.03164394
0.008571621
0.030114423
0.014845446
-0.026197828
0.006305389
-0.005429387
-0.0044235606
-0.023256805
-0.02083836
-0.015224125
0.007961094
0.03007568
-0.0037678368
0.01643014
-0.022370938
-0.024024311
-0.0009888634
0.0168676
0.024537884
-0.03156732
0.028874066
-0.030592434
-0.0090063065
-0.00611048
0.022420894
0.033093426
0.034465197
-0.000612814
0.026140943
-0.026848825
-0.029027648
-0.01190114
0.028477255
-0.030230802
-0.00972514
0.011881724
0.0011786819
-0.0019100234
0.010167722
0.019777142
-0.001982808
0.012936752
0.033902254
0.023202933
0.018840678
0.013460495
0.0045180693
-0.0052322242
-0.021387473
-0.012226174
0.012069713
0.008813895
-0.00070104375
-0.020404765
0.009849492
0.016160853
0.016875286
0.034542967
-0.015639445
-0.030555299
0.0011189058
0.01444659
-0.02019877
0.020647507
-0.011864377
0.0043189004
-0.022910755
-0.015402857
-0.031255797
0.007590171
0.027403612
-0.032211594
-0.015780266
0.024592265
-0.01532387
0.016480625
-0.00048829615
0.0056470633
-0.028681556
0.0046144016
-0.018541778
0.03243265
-0.006905183
-0.024680715
-0.0072341226
0.017247256
-0.0015851371
0.0347845
7.9378486e-05
0.0012835786
-0.0147034
0.013193496
-0.03006693
-0.008824345
0.009958491
-0.03152176
-0.016922003
-0.01950241
-0.010887947
0.033816677
0.020909168
-0.032947253
0.0005685687
-0.00056291744
-0.02274695
0.026276916
0.025574677
0.032022316
0.012357909
-0.0034771226
0.02199288
-0.023447819
0.026628848
0.02167442
0.0039634295
-0.035134036
0.0071449354
-0.0023369305
0.01717418
0.027820881
0.0067342855
-0.032687478
0.018298604
-0.018078377
-0.003853321
0.010007862
0.026667003
-0.0021729097
-0.03154168
0.026493292
0.0014774129
-0.034839667
0.020076185
-0.030310493
0.019104432
0.010565493
0.011436939
-0.030071048
-0.004919667
-0.004318379
0.018940862
-0.008726696
0.030789617
0.013442215
0.017551288
-0.020965867
0.011772927
-0.0138220545
-0.012059731
0.0138508305
-0.020072527
-0.011955831
-0.0327375
-0.03214011
-0.024488483
0.033921983
0.012209959
-0.008231668
-0.005860651
-0.025219738
0.01260196
-0.0023492202
0.0237482
-0.028551992
-0.018834546
-0.004464254
0.027182024
-0.017343804
0.013844706
0.026265107
-0.024124263
-0.019609896
0.030903835
-0.0056312326
0.01864883
-0.00723573
0.015381727
-0.030238368
0.028716307
0.025918
0.012839735
-0.034628995
0.018278461
-0.029195886
-0.009337977
0.016330525
0.031098489
0.009247795
-0.008799251
-0.015879735
0.023661334
-0.023733823
0.019081157
-0.02513883
-0.010220308
-0.013614951
0.009839907
0.030165177
-0.02179559
0.013346404
0.03443267
-0.023733743
-0.03419884
0.0072615854
-0.012853246
0.0207972
0.011756144
-0.025227021
0.014603712
0.033052515
-0.0037317462
-0.010489028
-0.03421671
0.029243428
0.025688108
-0.019556222
-0.008764826
-0.03384381
0.015355416
0.003989186
0.030975487
-0.0011513047
0.020564329
0.03404029
-0.017663665
-0.03479986
-0.030933697
-0.016170237
0.023784399
-0.026824312
-0.020348761
0.013731409
0.031013113
-0.001540266
0.03375167
0.01528446
-0.01818639
-0.02183
-0.030937107
-0.009089049
-0.016790122
0.026988495
0.007980637
-0.015474582
0.020494461
-0.0029308237
-0.0026917905
0.013039097
0.03379519
-0.030112706
0.03223406
0.030212019
0.0011943243
-0.022767741
-0.017144289
-0.024132457
-0.016398383
-0.020059258
-0.0022943318
-0.008294614
0.023675196
-0.0026414096
0.019199133
0.007094685
-0.025529321
-0.012216531
-0.015709914
-0.02350701
0.029600564
-0.0021952987
-0.019846851
-0.019001132
-0.028301232
0.032167297
-0.022095975
0.0028763525
0.031313326
-0.026724156
-0.006551627
-0.0027436875
-0.016115598
0.0050772727
0.021190125
-0.03281358
-0.00278987
0.026720032
-0.0138549935
0.01470305
-0.01820851
-0.025920426
0.020356022
0.023978822
0.019845277
-0.029692873
-0.010823147
0.027474497
-0.016018383
0.022647597
-0.002999179
0.030680742
-0.01591619
-0.0075016543
0.013724279
0.026939556
-0.004528692
0.018537834
0.01841921
0.011773817
-0.008399032
0.010939028
-0.029279796
-0.011213472
-0.035002694
-0.0021404363
-0.004921939
-0.013626426
0.03428601
0.014759127
0.012903117
-0.021109613
-0.033743907
0.026723936
0.015397124
-0.021552222
0.033194225
-0.0027563348
0.011172
0.029595938
0.025671769
-0.025718376
-0.0059404504
-0.017451977
0.015071876
-0.01067017
0.004328545
0.016202323
0.029558022
0.0222921
0.021011546
-0.034455102
-0.010045204
-0.019287225
0.025219385
-0.02615067
-0.009554341
0.03048883
0.015434619
-0.00158564
0.0055108517
0.009101044
-0.0058205854
0.027009565
0.0058237724
0.017238338
-0.022415474
0.010419473
-0.03366087
0.009625658
0.0269714
0.034163248
-0.03128259
-0.023026329
-0.013706198
0.018016182
0.0022626594
-0.018915009
-0.02611591
0.034115028
-0.01312715
7.469207e-06
0.006790448
-0.007640334
0.01360612
-0.021947702
-0.021904219
0.02850074
0.00036767125
0.028496634
0.012555379
0.0152927935
0.029616278
0.019054249
0.023935214
-0.0029114075
0.013826683
0.021289129
-0.030148543
-0.023112502
0.007259555
0.009112056
0.03080066
-0.023753464
0.02361577
0.02549982
0.034935515
0.0032942705
0.00780404
0.014744889
0.0018884093
0.033354577
0.033274617
0.02843054
0.025900286
0.035246033
-0.018753245
-0.015425447
-0.015865507
0.02543069
-0.023341786
-0.027097534
-0.020602465
-0.010989463
0.006028313
0.013741471
-0.012592707
0.011506755
-0.031737674
0.017671656
0.029257838
0.002880741
0.016324934
0.030413207
-0.029262107
-0.011073384
-0.03223408
0.014728017
-0.025262825
-0.00068597123
0.013835799
0.011010572
0.005115997
-0.010948829
-0.034055557
-0.029462654
-0.028097607
0.003343165
-0.013206344
0.023141857
0.026715308
-0.026526406
0.0022021718
-0.033550035
0.028326016
0.0106061995
-0.019320345
0.01683823
0.011221163
0.0016471148
0.017590296
0.0128575675
-0.019299127
-0.00843785
0.0110212155
-0.012199655
0.0034227446
0.022446405
-0.02958415
-0.008563004
0.017057687
-0.030406242
-0.0082837995
0.014321156
0.024411835
0.022518791
0.03182416
-0.026880292
-0.013972545
0.017401192
-0.01486508
-0.029194541
-0.018690336
-0.004333198
-0.0045788847
-0.011029232
-0.024571575
-0.027577544
-0.0004381761
-0.012055727
-0.014364021
0.01837942
0.011027519
0.032226164
-0.026084749
-0.025726978
-0.014223589
0.00069158524
-0.004396878
0.024934798
0.021566905
-0.01334808
0.020016212
0.0067569315
-0.0047032684
0.020083897
0.021695357
-0.008887127
-0.0018724911
-0.002724696
-0.020479348
-0.020474494
0.026950575
0.010792054
0.009625815
0.019394372
0.0045888424
0.009706594
-0.009780986
0.025671352
-0.008015446
-0.020507663
0.010643803
0.004161939
0.003458824
0.025096502
0.028866965
-0.034354534
0.020792723
-0.026687542
-0.0075986553
-0.013290878
-0.031230142
-0.032295626
0.0012678914
-0.013691762
0.0019083843
0.017265022
0.033384126
-0.004053261
-0.009332323
-0.0039070807
-0.028375532
-0.0032694116
-0.025716955
0.015165925
0.025414515
0.025357578
0.028495695
-0.009076443
0.034347143
-0.008356186
0.033539113
0.00651861
-0.009621527
0.01862486
0.028945837
0.032003205
0.0117864385
-0.03366849
-0.0057257973
0.027371135
-0.0023509972
-0.018580642
-0.011366032
0.032171864
0.030050572
-0.023151312
-0.009874944
0.019955046
0.017049327
-0.021612108
0.03267351
0.020767525
0.016565707
-0.0036845803
0.005524706
-0.01963058
0.018692303
0.015762895
-0.032245822
0.01135074
-0.011706738
0.0076424666
0.016784258
-0.02078343
-0.033982147
-0.0022633746
0.012463383
-0.005801728
0.032525096
-0.018717168
0.005752526
-0.0019922405
0.025376454
-0.005114449
-0.021034084
0.010123733
-0.010534231
0.004522953
-0.02532849
-0.019054528
0.020589415
0.021740954
-0.0081190765
0.023509294
-0.004149316
-0.018727962
0.03306443
0.020032804
0.011283323
-0.028410593
-0.009265261
0.017567456
0.02908044
-0.0025585406
0.0009051673
0.021129034
-0.030917846
-0.002902288
-0.002534315
0.030885767
-0.00017019361
-0.013972051
0.019105144
0.01903405
0.03349917
-0.02879079
-0.027184345
0.0012527257
-0.030557528
0.011665497
-0.019418534
0.01430342
-0.002480112
0.020569868
-0.010352004
0.016256418
-0.028189499
-0.029524542
0.0063598827
-0.02257181
-0.0047046244
-0.019768246
-0.009091767
-0.029604537
0.008435953
0.018920235
0.0015966073
0.025558762
-0.035195686
-0.010205485
-0.0018792562
0.024994466
-0.023800086
0.0029769726
-0.017600672
0.0012953132
0.0313085
-0.012788046
-0.008727897
-0.0104895085
0.0011500567
-0.017746517
0.02736782
-0.025621286
0.018101532
-0.033266373
0.00038201362
-0.028573997
-0.0064507946
0.03318661
0.025173072
0.0006836206
0.020812485
-0.028151773
0.014791988
0.028965589
0.0058728717
0.013500892
-0.01374579
0.023944527
0.028041128
0.021213755
-0.020790227
0.015101511
0.028370325
0.0149205625
0.024563204
0.0049985237
0.007675931
0.020087399
0.0055271313
-0.020527834
-0.012258457
0.017545227
0.008307941
0.02747951
-0.028899953
0.0008052662
-0.002492953
-0.02623992
-0.014574764
0.012037031
0.023516644
0.015119191
-0.03249855
-0.009359535
0.012478992
-0.016257895
-0.02590755
0.002621308
0.022102013
-0.012981545
0.017588604
-0.030554611
0.033780474
0.029545654
-0.022160329
-0.00010700524
-0.008242967
0.023393143
-0.013210289
0.027277026
0.021577574
0.012772266
-0.021596886
0.002179619
0.013400521
0.01503988
0.034054924
-0.026831329
0.0071394704
-0.018849889
-0.03496877
0.0042635314
0.0007505864
0.013710942
-0.018486671
-0.0012830682
-0.01281902
0.0050968044
0.0004292205
0.0306031
-0.0036721714
0.002464056
-0.014282066
-0.00324215
0.015543949
-0.0164894
-0.022143811
-0.027925344
0.00090157613
-0.021378804
-0.026585024
0.010705758
-0.0011780076
-0.0010339916
0.023382317
-0.00022996217
0.0112538375
-0.014882343
-0.00787857
0.0076059736
-0.019481922
0.03522381
-0.016152928
0.023943104
-0.004957009
-0.030442089
-0.030388912
-0.034739073
-0.030070934
-0.029326318
-0.011609076
-0.02905709
0.01763425
-0.027393969
0.011833016
0.015273016
-0.030198265
0.0046928935
-0.019565698
-0.0076589715
0.033976328
-0.015794877
0.010617923
0.026396018
-0.03459701
0.029819872
0.0063263997
-0.01599078
-0.0136749875
-0.022805177
0.020253547
0.026644472
-0.018479658
-0.017670097
-0.011309441
-0.027238742
-0.0013432503
-0.000169646
-0.030182682
0.02089423
0.0065148696
0.012398228
0.024321068
-0.007427724
-0.02861622
0.03518999
-0.0107949935
-0.0057453867
0.018050794
-0.021848097
0.0055732504
0.009021297
-0.0066505615
0.021131951
0.033061553
0.01673748
-0.0015863366
0.029973116
0.008820057
0.007783342
0.015176222
0.026737906
0.010266401
-0.018821709
-0.0046172924
-0.017914072
0.011014998
0.0064080358
-0.008148635
-0.021428172
0.003483925
0.019188393
0.021355078
0.03476179
-0.029192459
-0.025155453
0.01143235
0.018286038
-0.02085952
-0.025123244
-0.0009380169
0.011097152
0.026815899
-0.022116952
-0.0044729896
-0.035151847
0.012075543
0.017909013
0.0011237152
-0.018300142
0.010880843
0.021088243
0.003862068
-0.024928156
0.0057761
-0.009882407
0.010363273
-0.009488327
-0.033621226
0.010521974
0.034566376
0.018219784
0.031234767
-0.020013835
-0.0069701653
-0.010795798
-0.012136573
-0.0008496009
0.028656263
0.008968338
-0.033395696
-0.031482004
-0.012058454
0.031938527
0.027712788
0.028777923
-0.0050629545
0.031955536
0.03235532
-0.016837027
0.0153209455
0.029927667
0.001999095
0.0018199533
-0.024889115
-0.0305233
-0.009764422
-0.02726341
-0.01708939
0.0030522943
0.0071914047
0.010514975
-0.02222816
0.02681388
0.033372577
0.019597922
-0.03430978
-0.015161769
-0.023527764
-0.03189507
0.024441779
0.034829084
0.031178746
0.022576217
-0.015942518
0.0321854
0.025656391
0.025637355
0.018942539
0.0077425763
-0.027697794
-0.02094844
-0.02062366
0.014464781
0.0032295696
-0.03238061
0.017133925
-0.005976014
0.022782788
-0.018259019
0.024073854
-0.027057182
0.015539207
-0.0014972463
-0.027941579
0.027796213
-0.030417163
-0.0046900846
-0.008042585
-0.01145017
-0.0339348
0.031948913
0.0152919255
-0.0007358752
0.0058050826
-0.028692923
0.026940107
0.013716456
-0.0028401427
-0.018761653
-0.021685626
0.025082171
0.022229124
-0.022776583
-0.032940127
0.007526733
-0.020026928
-0.012834197
-0.025958763
-0.016285589
-0.0044276994
0.024331883
-0.01701857
-0.030909315
-0.004450729
-0.03454301
-0.033107962
0.0012358539
-0.023189466
-0.025149532
0.0092326775
-0.02569776
0.027550038
-0.00013817474
0.01618604
-0.017413173
-0.033739153
0.029475253
-0.021826036
0.001432471
0.025048144
-0.019086577
0.0024404153
-0.0011452399
0.010059409
-0.018076144
0.00781082
-0.0040729456
-0.025832206
0.011282358
-0.02632389
0.028578978
-0.0027637668
-0.003344901
-0.009413717
0.02986471
0.013742235
0.0032613575
0.019338302
0.029534731
0.018404808
0.0032787323
-0.022131238
0.009471223
0.03198083
0.028409388
-0.025346778
-0.0014741309
-0.029630942
-0.006867349
0.030811008
0.00913249
-0.0009384267
-0.004709687
0.013558384
0.0021936744
-0.00025346875
0.00359286
0.0030095875
-0.02565974
-0.017191468
-0.011164937
-0.011793882
0.029326316
-0.028523661
0.007945869
0.03526054
-0.032249235
0.0024391152
0.030525777
0.033613
0.014216833
-0.025012039
0.032280106
0.035274062
-0.032613885
0.021973994
0.030443411
0.033553768
0.0304497
0.020319171
-0.01014306
0.02061852
-0.00084433705
-0.011026075
0.02609868
0.0004204698
0.015553199
-0.035103012
0.015154827
0.02765673
0.012340013
0.0066207536
-0.026038993
0.031243537
-0.00033501536
-0.010023722
-0.00789907
-0.0029086433
0.0011064373
-0.024286276
-0.0348271
0.014386158
-0.008336365
0.01770112
-0.02971262
0.025203984
-0.005986627
0.029437188
-0.021279043
0.024102308
0.016022902
-0.03154146
-0.010735169
-0.012393955
-0.02035977
-0.005336104
0.027838107
0.02573606
0.0086307265
0.0024678372
0.0074115023
2.701953e-05
0.0056394897
-0.004240239
-0.03087916
-0.016110875
0.0071371756
0.0039410293
0.0109497085
-0.00077466667
-0.0023378208
0.020327963
-0.011866534
0.019027848
0.000865072
-0.0144291
-0.017059814
-0.017315654
0.008485775
0.018198062
0.013791155
0.03461888
0.0013744049
-0.020160394
-0.029733596
-0.025613623
0.0055786446
0.007253237
-0.014650006
-0.02372133
-0.035153095
-0.015210127
0.0053051375
0.020994518
0.03515845
-0.031280823
-0.0004570037
0.0005964823
0.014856711
0.02504437
0.011474542
-0.028038546
-0.012738885
-0.029848672
0.03003576
0.025333006
0.008301631
0.02694241
-0.012710495
-0.014798164
0.028029833
0.03134643
0.029819798
-0.028325293
0.029732589
0.013547078
-0.00048316643
-0.020894423
-0.031748943
-0.026940633
-0.005629353
-0.031079948
-0.003822539
-0.0067169983
-0.012891192
-0.01111793
0.023273956
0.034017723
0.031512316
0.005874213
-0.014751339
-0.029390618
-0.020620782
-0.026650924
-0.013976144
0.0028552935
-0.034881424
0.015135843
0.004267011
-0.00038820878
-0.0049159657
-0.019307308
-0.01779328
-0.0101588275
0.028744001
-0.006150093
-0.009972345
-0.010677176
0.02232105
0.018953092
-0.009951981
-0.024014175
-0.02130898
-0.016997762
-0.0030960962
-0.009772632
0.014651336
-0.024204629
-0.020996258
-0.030444479
-0.02457251
-0.03532055
0.016470488
-0.018857794
0.00800325
-0.011315649
-0.014976103
-0.0012967922
-0.030853037
0.010249279
0.024267904
0.022284284
0.024676118
-0.019344743
0.0043617785
0.02830917
0.011791669
0.030956063
0.026720196
-0.003340412
-0.019950714
-0.014949892
-0.024607524
0.020641927
-0.021327967
-0.02051881
0.030683022
0.018971339
-0.019893926
0.024270311
-0.02879934
0.025570143
-0.022790253
-0.021190176
0.0019498579
-0.009324746
0.01742351
-0.022205321
-0.028812926
0.032351535
-0.029346928
-0.015035547
-0.021733094
-0.014986822
-0.025484486
-0.00060730055
0.008746102
-0.013936708
-0.010070968
-0.028831122
0.035171065
0.0075404607
0.034852076
-0.02143639
0.033485692
-0.012125127
-0.03193287
-0.025668077
0.019478012
-0.016064247
0.034463976
0.03395057
0.012949917
-0.0064417534
-0.0037380531
0.023429707
0.019664392
0.0048492253
-0.03254641
0.0049705505
0.01264197
-0.01171625
-0.009704046
-0.029330209
-0.012856601
0.004277222
0.0061303377
-0.006055465
0.0010361336
-0.031206792
0.017593045
-0.024198107
-0.024619669
-0.027900541
0.0029116534
0.010413244
-0.028789923
0.032311585
0.024049386
0.008139275
-0.016803524
-0.01580852
-0.016523711
-0.021101398
-0.0019925795
0.009617589
0.0045384318
-0.021065582
-0.03367171
0.018135846
0.017257735
0.025787357
0.012551378
-0.01738847
-0.014974106
-0.003668066
-0.018958323
0.014739897
0.031428736
0.010060418
0.012426291
0.032736633
-0.00030563027
-0.0018602274
-0.02417669
0.0020387582
0.025633574
-0.0066156015
-0.008928144
-0.027541509
0.018919464
-0.0024889782
-0.0042807497
0.025545526
-0.01647606
0.0038238354
-0.03205286
0.0055310912
-0.015361272
0.0051687732
-0.02847431
-0.009687066
-0.011824772
-0.030094415
0.002103813
-0.0006820969
0.025071707
0.030513253
-0.03180608
-0.028911091
